50 300
Web_programming 0.038177 -0.035156 -0.041107 0.018784 -0.081482 0.045837 0.052368 0.042267 -0.023178 0.043365 -0.044769 -0.011208 0.0028038 -0.046509 -0.051453 0.0024109 0.10333 0.098022 -0.079346 -0.10736 0.021545 0.093384 0.030762 0.063232 -0.045441 -0.023071 0.0070267 0.086487 -0.019989 -0.16345 -0.091309 0.024536 -0.03093 -0.046692 -0.001441 -0.040527 0.0057487 0.021103 0.0014019 0.019928 0.095703 -0.004734 0.082336 0.11481 -0.016312 -0.071716 -0.04306 -0.073181 0.014481 0.040985 -0.08197 -0.0625 -0.034729 -0.037476 -0.057007 0.067749 0.051971 0.0049973 -0.068115 -0.058899 0.029877 -0.062683 -0.05069 -0.0089111 -0.066895 -0.043518 -0.061096 -0.052399 -0.018204 0.034943 0.075623 0.014923 -0.044952 -0.09314 -0.040985 -0.061462 0.10498 -0.075378 -0.0065575 -0.01342 -0.011955 0.01281 -0.057953 0.012596 0.099304 -0.0026093 0.019852 0.082703 0.029846 -0.024414 -0.08136 -0.10834 -0.11414 -0.014923 0.071777 -0.047668 0.066101 -0.045441 0.031586 -0.031891 -0.020691 -0.045502 -0.025513 0.0078125 -0.0059319 0.1084 -0.047363 0.078003 0.014153 -0.035828 -0.045288 -0.051361 -0.007988 0.029846 0.066101 0.022461 -0.021957 -0.11261 0.11627 0.0067673 -0.07489 -0.025497 -0.046661 -0.026627 0.11041 0.0074921 -0.12213 0.090881 -0.035278 -0.024368 -0.11011 -0.03775 -0.065857 0.048431 0.022202 0.0086441 0.01088 -0.0186 0.0099411 0.053925 -0.01918 -0.12128 -0.06958 -0.035217 -0.021957 0.033722 0.046875 0.10657 0.0080338 -0.088867 0.061615 -0.069824 -0.036438 -0.022079 0.018082 -0.11151 -0.089111 0.036987 -0.12866 -0.0095901 -0.022842 0.054047 -0.07489 0.04187 -0.010086 -0.064209 0.031738 0.0011139 -0.10321 0.016632 -0.053375 0.016846 -0.033264 -0.005455 0.028427 -0.046143 0.14795 -0.12524 0.024902 -0.036804 0.010956 -0.049072 0.0080338 -0.01178 0.036285 0.035828 -0.036316 0.041626 0.094849 -0.10034 -0.095459 -0.037659 -0.075745 -0.0014153 -0.037964 0.077515 -0.012207 -0.065002 -0.07074 -0.095886 -0.049988 0.013496 -0.025986 0.018951 -0.030716 0.0076637 -0.048309 -0.088867 0.00010055 0.019592 -0.039642 -0.011948 -0.026291 0.067444 -0.07666 0.036316 0.017792 0.04364 -0.042328 -0.093323 -0.01001 0.02565 -0.0215 -0.063232 0.005661 -0.081238 -0.059021 0.011421 0.063232 0.0034542 -0.038055 -0.064392 -0.052155 -0.053314 -0.043915 0.0083542 0.072998 -0.04007 0.096741 0.00050211 0.038116 -0.032745 -0.057922 -0.079773 0.013351 -0.11938 -0.011307 0.11523 -0.013565 -0.12189 -0.03363 0.080811 0.0012712 0.023727 0.067322 -0.075562 -0.057678 0.012115 -0.03952 -0.058777 0.067871 -0.016861 0.096313 -0.084473 -0.039093 0.037201 -0.0052986 -0.029648 -0.081787 -0.095337 0.021179 0.012466 -0.11078 0.065125 0.046875 0.021545 0.025909 -0.070068 0.023483 0.062103 -0.045837 0.022263 -0.033508 0.064331 0.034027 -0.074463 0.0061646 -0.014854 0.029099 0.11517 0.0080032 0.043365 -0.010201 0.044678 0.037689 -0.039551 -0.0077553 -0.019226 -0.076111 0.077515
Web_designing 0.03479 -0.017731 -0.0011168 0.051758 -0.077209 0.030579 0.042175 0.015594 -0.028839 0.037537 -0.026917 -0.0048523 0.0014048 -0.049255 -0.016052 -0.047241 0.094604 0.091064 -0.071289 -0.071716 -0.03302 0.027664 0.072815 0.058289 -0.054016 -0.0085907 -0.012871 0.025909 0.0035954 -0.14624 -0.088867 0.015839 -0.072327 -0.05014 -0.02916 -0.050812 -0.026382 -0.027847 0.015961 0.0079651 0.056152 0.047913 0.092529 0.11084 -0.0082932 -0.11151 -0.054321 -0.082153 -0.029037 0.058014 -0.033752 -0.021072 -0.029343 -0.016525 -0.090759 0.08551 0.029358 -0.042938 -0.023834 -0.058319 0.015373 -0.035889 -0.028595 -0.016846 -0.053864 -0.043579 -0.086365 -0.017761 -0.0060425 0.017731 0.0041389 0.023819 -0.072205 -0.021561 -0.022766 -0.078125 0.092041 -0.031281 0.008049 -0.019394 -0.042816 0.038818 -0.025558 0.0090027 0.11609 -0.0051651 0.046265 0.045593 -0.0030384 -0.011803 -0.040833 -0.087036 -0.11157 -0.055481 0.01825 -0.02977 0.093262 -0.045898 0.076416 0.00041461 0.0055466 -0.020996 -0.041443 0.0069351 -0.020386 0.073975 -0.042999 0.072449 0.048096 -0.031891 -0.050476 -0.024994 -0.052917 0.019745 0.096863 0.060059 -0.013458 -0.12372 0.13721 -0.0019255 -0.072876 -0.019409 -0.082886 -0.019012 0.10107 0.019028 -0.11774 0.098083 -0.032562 -0.023575 -0.095825 -0.033569 -0.035919 0.029816 -0.0045929 0.016708 -0.0042572 -0.035004 -0.022095 -0.0040207 0.016418 -0.10248 -0.061157 -0.040222 -0.043488 -0.00038624 0.053284 0.11615 0.01593 -0.10712 0.043457 -0.084534 0.011818 -0.027786 -0.018661 -0.10309 -0.048309 0.059906 -0.095337 0.01545 -0.024994 0.079956 -0.10223 0.021484 0.015823 -0.069519 0.016022 0.035889 -0.10229 0.017105 -0.07312 -0.014839 -0.012024 -0.017838 0.026398 -0.063232 0.14526 -0.19177 0.064941 -0.082458 0.021088 -0.0045433 -0.028397 -0.014137 0.054932 0.034637 -0.026871 0.040497 0.096985 -0.13025 -0.10077 -0.021194 -0.08667 -0.021332 -0.018387 0.099304 0.019226 -0.081787 -0.0095673 -0.085144 -0.075562 0.020309 -0.042297 -0.0064087 -0.014275 0.011986 -0.043213 -0.13464 0.041016 0.024551 -0.045105 -0.0084457 -0.060181 0.038666 -0.08728 0.023682 -0.0081482 0.054565 -0.044525 -0.078003 -0.020996 0.033234 0.0072899 -0.037872 -0.031555 -0.042175 -0.024551 0.00061464 0.05777 -0.0087357 -0.098999 -0.052185 -0.019135 -0.04715 -0.0466 -0.010178 0.076355 -0.017044 0.097229 0.029282 0.0047112 -0.0010681 -0.020813 -0.065735 -0.034637 -0.11176 -0.034821 0.12671 -0.068542 -0.095032 0.019852 0.045105 -0.0077591 0.044342 0.063843 -0.099854 -0.11407 0.058594 -0.035187 -0.063965 0.081116 0.011742 0.11426 -0.076172 0.0019388 0.041809 -0.0099258 -0.032898 -0.077026 -0.090027 0.023773 0.00089407 -0.10767 0.011169 0.030609 0.0095139 0.043182 -0.031494 0.013794 0.059387 -0.039703 0.043915 -0.046539 0.085815 0.02446 -0.043945 0.013603 -0.013367 -0.0021381 0.12079 -0.00095367 0.046326 -0.019928 0.037994 0.029266 -0.025391 -0.024155 -0.046936 -0.091309 0.067505
Coding_theory 0.014038 0.0080261 0.054749 0.078369 0.019882 0.0095901 0.059814 -0.043762 0.027557 0.044373 -0.018723 -0.083679 -0.043579 -0.020386 -0.048676 0.023285 0.025681 0.13232 -0.0074615 -0.10712 -0.068787 -0.0081406 -0.0010805 0.058502 -0.02002 -0.14771 -0.076965 0.025177 -0.011971 -0.071838 -0.018021 -0.040497 -0.0047226 -0.01268 -0.045288 -0.030655 0.0078735 0.040924 0.034332 -0.05307 0.014336 0.02739 0.10803 0.070496 0.013565 -0.085693 -0.12329 -0.090515 -0.047791 0.010742 -0.075134 -0.0026112 0.016418 -0.10748 -0.10925 0.12048 -0.013954 -0.14746 -0.017502 -0.088074 0.0027332 0.047882 -0.039917 -0.011505 -0.020554 -0.028595 -0.10541 0.032379 -0.00054455 0.047607 -0.014 0.028198 0.066772 -0.02739 -0.0036926 -0.018707 0.074585 0.0076103 0.012352 -0.045074 -0.039246 0.024399 0.032166 0.0011549 0.048218 -0.0066032 0.020889 0.09198 -0.085022 0.045502 0.01474 -0.10175 -0.055511 0.00077963 0.054718 -0.053589 0.091431 -0.071777 0.052277 0.010605 0.020615 0.021255 0.00175 -0.056396 0.0089264 0.014664 -0.027206 -0.015404 -0.018433 0.061615 -0.033905 0.0023746 0.078247 0.022369 0.093689 0.085083 -0.080627 -0.06131 0.097046 -0.032715 -0.056 0.032166 -0.042389 -0.049835 0.13159 -0.017334 -0.18518 0.079224 0.023529 0.098511 -0.011787 0.036499 -0.091736 -0.05307 -0.027222 0.029663 0.032043 0.0067291 -0.0011425 0.060028 0.11194 -0.072571 -0.043549 0.022568 -0.053741 0.06192 0.008461 0.06897 -0.024841 -0.026733 0.02626 -0.093262 -0.039459 0.018265 0.027222 -0.11902 -0.031433 0.16406 -0.062866 -0.026871 -0.048553 0.046783 -0.051727 0.0015211 -0.037292 0.00014281 0.040039 0.0076942 -0.13977 0.033386 0.013741 -0.060852 -0.077942 -0.064209 -0.036407 0.030869 0.055939 -0.18042 0.039459 -0.0051155 -0.00076199 -0.0001213 -0.0037098 -0.021957 0.089294 -0.013199 -0.0064964 -0.011909 0.030731 0.013206 -0.063171 0.067932 -0.029922 -0.018417 -0.0072556 0.072021 0.0099716 -0.066833 -0.030563 0.013588 0.038513 0.096985 -0.063171 -0.020996 0.0098724 -0.0070801 -0.024231 -0.024902 -0.043793 0.029404 -0.06665 -0.074585 -0.070862 0.082092 -0.1311 0.026138 0.02562 0.0015173 -0.037598 -0.057007 -0.020889 0.020508 0.013245 0.020218 -0.0071869 -0.049896 0.0044098 0.033081 0.070129 0.017426 -0.085022 -0.041412 0.012016 -0.02063 -0.035522 -0.021957 0.057739 -0.020523 0.05777 -0.063538 0.086792 -0.018463 -0.032715 -0.061768 0.030945 -0.034485 -0.014534 0.16296 -0.090271 -0.015884 0.036102 0.023499 0.040527 0.056702 0.027756 -0.077698 -0.065247 -0.072266 -0.024643 0.03476 0.054443 0.033447 0.034729 -0.031433 -0.077148 0.035461 0.034576 -0.072205 -0.10297 -0.064697 -0.085999 0.065552 -0.032043 -0.011444 0.094849 -0.052368 -0.0092926 0.0037308 -0.055817 0.11908 -0.022034 0.01355 0.065857 -0.015793 0.11346 -0.012497 0.02034 -0.020935 0.0011759 0.066406 -0.057556 0.026489 -0.062561 0.076538 0.023651 -0.029022 0.01429 -0.09375 0.015053 0.11975
Game_theory 0.011566 0.0091858 0.012222 0.14758 -0.077942 0.0062637 0.02803 -0.042358 0.078796 0.02533 -0.0401 -0.12988 -0.017166 0.05011 -0.083435 0.11584 0.058105 0.062622 0.052795 -0.02533 -0.013168 0.0012054 0.10034 0.046387 -0.03476 0.0010138 -0.17798 0.07489 -0.03421 -0.019318 -0.019348 -0.033051 -0.049408 -0.014145 -0.026566 -0.04776 0.011314 0.050323 0.057373 0.021637 0.077454 0.0089798 0.070618 0.10718 0.014366 -0.021515 -0.0027046 -0.035217 0.014458 -0.013832 -0.10144 0.065308 -0.065613 -0.019196 0.010033 0.012459 -0.028122 -0.10559 -0.059631 -0.13513 0.048492 0.057678 -0.042389 0.02803 -0.020233 -0.10718 -0.056702 0.021149 0.0074196 0.083984 0.033142 0.0077705 0.050995 -0.0017204 -0.032318 -0.034698 0.063477 0.035522 0.040588 -0.027634 -0.10046 0.06131 0.018326 -0.057526 0.051697 0.009964 0.010498 0.15002 0.021225 -0.010399 0.011879 -0.076599 -0.10883 -0.014725 -0.053497 0.060883 0.04895 -0.059326 0.072632 -0.018311 -0.071167 -0.058655 -0.0019341 -0.0071106 0.071167 -0.00057077 -0.05426 -0.023529 0.022995 0.012817 -0.076355 -0.066101 0.030533 0.052765 0.083313 -0.030853 -0.025635 -0.10394 0.12189 0.065308 -0.028809 -0.049103 -0.060638 -0.021942 0.015762 -0.0495 -0.077332 0.08136 -0.02829 0.10577 -0.095032 -0.0495 -0.055145 -0.022247 -0.037628 0.051788 -0.022018 0.054138 -0.01532 0.07843 0.083801 -0.10004 -0.029678 0.0036201 -0.065186 0.10413 -0.005085 0.037109 -1.7345e-05 -0.086304 0.13818 -0.10675 -0.1217 0.015793 0.0019474 -0.087097 -0.0025978 0.020126 -0.011948 0.0046158 -0.03949 0.040314 -0.020752 0.062866 0.024933 -0.0094833 0.10211 0.041229 -0.063293 0.1394 -0.052612 -0.0091095 -0.023544 -0.045441 -0.029266 0.033051 0.023178 -0.16675 -0.0069199 -0.066589 0.020676 0.0050774 0.019943 0.028488 0.074219 0.025528 -0.022217 0.023071 0.031769 0.00052547 0.015366 0.0060921 -0.032898 -0.015236 -0.050476 0.066833 -0.022812 -0.075623 -0.008461 -0.083801 -0.085632 0.10413 -0.037048 -0.067139 -0.00041962 -0.028915 -0.049652 -0.028275 -0.1394 0.062164 -0.05014 0.043396 -0.034454 -0.015884 -0.12988 0.0086288 0.00066948 -0.0037403 0.0048599 -0.071838 -0.0040245 0.049316 0.06015 -0.011635 -0.013779 -0.021484 0.027222 0.070923 -0.016403 0.001358 0.0025673 0.0042267 0.0044785 -0.10291 -0.0017958 -0.025391 0.051147 -0.042511 0.034393 0.026489 0.072205 -0.0078278 -0.080017 -0.055267 -0.068665 0.035828 0.0084534 0.17542 -0.021561 -0.039917 0.084229 0.06015 0.05011 0.10126 0.084534 -0.070007 0.0019026 -0.0012808 -0.0012808 -0.062927 0.034027 -0.029037 -0.024109 0.033478 -0.038422 0.065125 -0.081787 -0.050873 -0.016556 -0.071838 -0.017746 0.028732 -0.012405 0.050476 0.048492 -0.010841 -0.061462 -0.012581 -0.064026 0.13513 -0.0084763 0.023743 -0.01458 -0.048004 0.051178 -0.006752 -0.038086 0.026398 0.020981 -0.0032406 -0.048065 0.057281 -0.10535 0.017807 -0.053955 -0.06665 0.010429 -0.052582 -0.006691 0.038361
Graph_theory 0.032776 -0.10706 -0.01712 0.068787 -0.077698 0.020416 -0.024719 -0.055298 0.014839 -0.020279 0.012947 -0.032104 0.01545 -0.00013685 -0.027969 0.060211 0.020813 0.063965 -0.039795 -0.13513 -0.036865 0.042206 -0.019897 0.035004 -0.068848 -0.031189 -0.10535 0.097778 -0.032776 -0.085205 -0.073059 -0.036591 -0.029129 -0.022141 -0.052826 0.029938 -0.01564 -0.0051537 0.088562 0.036407 0.023544 0.035553 0.11566 0.084473 0.046936 -0.06897 -0.0045662 -0.10034 -0.042236 -0.04129 -0.12781 -0.075684 -0.053589 -0.049438 0.030228 0.00051165 -0.040497 -0.053558 -0.037689 -0.049713 0.011848 0.0018339 -0.061981 -0.0056496 -0.045349 -0.053894 -0.022888 0.035248 0.0050392 -0.015144 -0.0063667 -0.001318 0.044159 -0.079895 -0.078796 -0.058014 0.077332 0.0077133 0.051666 -0.040833 -0.011269 0.090393 0.015854 -0.041809 0.11853 0.033508 -0.0029106 0.14429 -0.023544 0.0055275 0.01078 -0.10828 -0.13159 0.013824 -0.037567 0.051636 0.034729 -0.083618 0.10059 0.0069046 0.045593 -0.06958 -0.062378 -0.050659 -0.02475 0.088562 -0.13452 0.080383 0.066589 -0.029175 -0.075562 -0.1004 0.014091 0.020798 0.066162 0.046967 -0.044128 -0.097412 0.096741 -0.023056 -0.022751 -0.053925 -0.066345 -0.032745 0.087891 0.034119 -0.13367 0.087524 0.013771 0.066589 -0.046692 -0.018585 -0.0062599 0.03775 0.0085602 0.0068283 0.034637 -0.0073967 -0.03183 0.1189 0.083679 -0.059174 -0.064514 0.031128 -0.035339 0.04837 0.042267 -0.030106 -0.07251 -0.065613 0.028091 -0.054291 -0.051514 -0.0038166 0.026352 -0.12476 -0.013939 0.073242 -0.10919 0.015244 -0.066895 0.050446 -0.01049 -0.024719 -0.029373 0.0022259 0.061859 -0.01239 -0.13928 0.073975 -0.041809 -0.034698 -0.07019 0.02504 0.0055275 0.065552 0.084473 -0.13806 0.047607 -0.065796 -0.015121 -0.025208 -0.056519 0.038818 0.12207 0.054047 -0.067993 0.052582 0.0043793 -0.063782 0.015457 -0.0090637 -0.099243 -0.034729 0.0078201 0.081665 -0.018127 -0.075745 -0.019424 -0.10626 -0.085938 0.099182 -0.032471 0.01062 -0.0029297 0.0042496 -0.073425 -0.098083 -0.068054 0.051208 -0.014069 0.060364 -0.066162 -0.0080566 -0.076355 0.018097 0.054779 0.043549 -0.037842 -0.041046 -0.037903 0.065063 0.01178 -0.053558 -0.056671 -0.0074348 -0.027237 0.036987 0.035004 0.014732 -0.032135 -0.043579 0.016937 -0.075684 -0.031235 -0.030182 0.0095673 0.030411 0.1167 -0.010033 0.090027 -0.0036774 -0.0068665 -0.073792 -0.048065 -0.047394 -0.033966 0.16602 -0.062286 -0.039062 -0.03476 0.02211 0.015594 0.055054 0.03418 -0.11322 -0.0097809 0.011551 -0.025696 -0.023956 0.070068 -0.048096 0.0090103 -0.076172 -0.012634 0.046387 0.021103 -0.048553 -0.046509 -0.081848 -0.037567 0.091187 -0.025955 0.01075 0.048462 -0.043304 0.010017 -0.07489 0.0013018 0.088196 -0.033691 0.051544 -0.039124 0.054321 0.081299 -0.0037651 -0.022873 0.051331 0.033661 0.039642 0.026566 0.086853 -0.042297 -0.0090179 0.012291 -0.064514 -0.018173 -0.050079 -0.047333 0.025009
Mathematical_logic 0.03186 0.0069733 0.048309 0.11438 -0.03717 0.044891 0.083191 -0.048523 -0.014709 0.021759 0.0024643 -0.069214 -0.10187 0.075806 -0.1001 0.088257 0.044678 0.088928 0.027222 -0.1012 -0.038269 -0.033569 -0.0053711 0.03418 -0.058014 -0.10571 -0.093384 0.0066681 -0.10864 -0.01622 0.0018463 -0.04895 -0.010376 0.051605 0.0018311 0.035706 0.013977 0.088623 0.083862 0.027893 0.016891 -0.010185 0.040161 0.12732 0.010124 -0.046753 -0.051056 -0.036987 -0.046539 0.054382 -0.15991 0.044464 -0.056122 -0.060364 0.043335 0.028992 0.00091553 -0.16992 -0.076477 -0.10211 0.035187 0.016846 0.02536 -0.084167 0.016922 -0.096313 -0.0029678 0.090332 -0.014458 -0.011635 -0.023865 -0.0076141 0.088867 -0.041595 -0.068115 -0.0014906 0.037842 0.0064774 0.043793 -0.028595 0.015274 0.010124 -0.011162 -0.019333 0.078064 0.028671 0.033936 0.13867 0.01503 0.010101 -0.014214 -0.06311 -0.079468 -0.01107 -0.032623 0.058807 0.072327 -0.040771 0.10974 -0.049622 -0.003828 -0.022171 -0.053192 -0.0099792 -0.0017557 0.013397 -0.0089035 0.07373 0.086304 -0.016678 -0.00247 -0.03363 0.020828 0.0060196 0.12524 0.021332 -0.051361 -0.073547 0.11597 -0.02713 -0.057861 0.024353 0.002615 -0.017334 -0.014671 0.022339 -0.12878 0.007309 0.0070076 0.13293 -0.017609 -0.077759 -0.10474 -0.041443 -0.012978 0.085632 0.0041008 -0.0043869 -0.033844 0.14014 0.091125 -0.067017 -0.045227 0.023453 -0.10406 0.09082 -0.0034637 0.028046 -0.064331 0.0067482 0.043915 -0.074524 -0.11737 0.0038681 -0.0056419 -0.12268 -0.061218 0.054901 -0.025024 -0.0093994 -0.040802 -0.015472 0.029694 -0.039276 0.079956 0.024246 0.10571 0.0034027 -0.11566 0.051666 -0.030441 -0.023651 -0.11426 -0.034515 0.066223 0.02858 0.022873 -0.1037 -0.015625 -0.060425 -0.035034 0.0080719 -0.0073509 0.016556 0.05658 0.048065 0.029022 0.013977 0.066467 0.028214 0.034729 -0.00081396 -0.024002 0.036316 -0.034851 0.085754 0.072388 -0.085632 0.020676 -0.05191 -0.085632 0.053589 -0.033203 -0.031464 -0.016205 -0.05304 -0.012512 -0.032379 -0.063721 0.013718 -0.042786 -0.024017 -0.030899 -0.019653 -0.093689 0.045898 0.071045 0.032684 0.033386 0.042908 -0.038361 0.016769 0.033417 0.0072479 -0.026764 0.046448 0.068909 0.012192 -0.028214 0.048004 -0.025635 0.0093536 0.017426 -0.068359 -0.0043869 -0.014603 0.022873 -0.0014486 0.057709 0.016983 0.062073 -0.008873 -0.055756 -0.018936 -0.042816 0.0038128 -0.023911 0.16748 -0.12024 -0.060547 0.0042381 -0.025909 0.0084305 0.12866 -0.0042305 -0.069458 -0.060028 0.034485 -0.0027657 0.015099 0.1261 0.070557 -0.050903 -0.0031109 -0.043549 0.10876 0.055267 -0.051849 -0.068665 -0.062012 -0.053375 0.034485 -0.071777 0.028915 0.048157 -0.0040207 -0.033722 -0.049103 -0.076477 0.11346 -0.0010662 0.063843 0.027054 0.013649 0.045166 -0.028503 0.007618 0.030396 0.022552 0.12213 -0.059265 0.014191 -0.12109 0.0059624 -0.0013342 -0.0038185 -0.037781 -0.0071259 -0.020248 0.024551
Number_theory 0.015511 -0.049683 0.033508 0.11786 -0.031586 0.036346 0.039276 -0.074646 0.0063896 0.00024056 0.0093079 -0.013367 -0.032593 0.10223 -0.11664 0.049683 0.043213 0.087219 -0.0039749 -0.12683 -0.098816 -0.0015192 0.0028095 0.018295 -0.032379 -0.080322 -0.10205 0.03833 -0.10907 -0.01561 -0.013824 -0.057129 0.014465 0.051208 -0.071411 0.0029831 -0.015099 0.099548 0.06311 0.036682 0.03775 0.041077 0.033264 0.060394 0.0065193 -0.038635 -0.013985 -0.064697 -0.027985 0.0030708 -0.085205 0.0066147 -0.073059 -0.0672 -0.013573 0.084412 -0.0017881 -0.1438 -0.06131 -0.098877 0.0023785 0.012436 0.036835 -0.094727 0.0092239 -0.088806 -0.060211 0.11572 -0.01239 -0.03038 -0.0049591 -0.10822 0.11981 -0.067444 -0.095764 -0.0080032 0.060944 -0.0031796 -0.038971 -0.037903 -0.002861 0.052765 -0.036469 0.025848 0.088684 -0.012138 0.02858 0.1698 0.035858 0.028168 0.035187 -0.14233 -0.13721 0.027374 -0.034454 0.025528 0.087158 -0.086426 0.07196 -0.047974 0.05484 -0.036469 -0.068604 -0.020615 -0.013573 -0.024994 -0.058411 0.0075073 0.044098 0.021149 -0.004921 -0.015015 0.014633 0.061432 0.11749 0.024612 -0.0354 -0.040222 0.12384 -0.0019608 -0.0076256 0.027267 0.050323 0.0046234 -0.023407 -0.0091476 -0.081726 0.081055 -0.066589 0.084534 0.01252 -0.12793 -0.026672 -0.042938 0.0051498 0.041504 0.021317 0.057983 -0.048065 0.10815 0.06958 -0.028656 -0.066711 0.016251 -0.09137 0.097229 -0.011459 0.039673 -0.026947 -0.038666 0.020325 -0.066589 -0.076172 0.031921 0.03363 -0.10193 -0.069275 -0.0019512 -0.061951 -0.025253 -0.063416 0.053284 0.017776 -0.048065 0.064697 0.04718 0.095764 -0.0042229 -0.12756 0.056335 -0.012566 -0.04184 -0.057678 0.023163 0.023987 0.055786 0.044403 -0.15564 0.010338 -0.026154 -0.054535 -0.00096226 0.046173 -0.0010633 0.055267 -0.038086 0.029587 0.035828 0.037842 0.041107 0.022232 -0.053253 -0.035828 -0.062744 -0.0029259 0.033936 0.048828 -0.10382 0.010803 -0.062927 -0.036682 0.067932 -0.026047 -0.0036469 -0.033508 -0.015549 -0.039551 -0.079651 -0.073425 -0.0048218 -0.040192 -0.043304 -0.047272 0.029861 -0.13062 0.016205 0.049591 0.027893 0.018799 -0.010231 -0.048065 0.072937 0.021881 -0.068359 -0.044434 0.028152 0.031372 -0.021713 0.0093079 0.057037 0.017487 0.029251 0.033295 -0.038116 -0.074219 -0.03479 0.016861 0.033661 0.042175 0.02977 0.021011 -0.001749 -0.055664 -0.074585 -0.014809 -0.052826 -0.0091095 0.16626 -0.07074 0.0028725 0.029877 -0.011627 0.026367 0.094116 0.015701 -0.070129 -0.041412 -0.01506 -0.026871 -0.029037 0.080811 0.0028133 -0.046173 -0.038483 -0.063599 0.093201 0.09552 -0.075806 -0.057312 -0.018829 -0.013229 0.072205 -0.065552 -0.035919 0.064819 0.036591 -0.022354 -0.06076 0.0015116 0.10431 -0.063782 0.04364 -0.027145 -0.069031 0.050446 -0.05249 -0.014091 0.090881 0.0092392 0.039734 -0.023514 0.062622 -0.10724 0.046417 0.0090103 -0.056549 -0.049316 -0.040405 -0.035431 0.052429
Algorithms 0.015228 -0.022903 0.022842 0.14832 -0.057739 -0.055939 0.0043221 -0.034882 0.038513 0.019806 0.0030231 -0.061981 -0.0015068 0.014069 -0.08429 0.029404 -0.0033684 0.029617 -0.051117 -0.11578 -0.040649 0.042297 -0.05423 0.018539 -0.073181 -0.10187 -0.050903 0.095703 -0.076477 -0.067749 -0.039948 -0.036163 -0.039459 -0.0070992 -0.055603 0.032898 0.020065 0.013718 0.084167 0.025772 0.058472 -0.002018 0.072815 0.062805 0.027786 -0.053864 -0.06958 -0.13916 -0.014465 0.03241 -0.10016 -0.048737 -0.075195 -0.11804 -0.032776 0.10052 0.011787 -0.14001 0.002367 -0.084534 0.031464 0.049866 -0.032013 -0.036133 -0.040283 -0.075745 -0.039948 0.0090561 -0.017899 -0.042542 0.025009 -0.013626 0.028229 -0.066589 -0.046295 -0.042145 0.10168 0.012665 0.017242 -0.033051 0.019318 0.033386 0.026047 -0.028519 0.1062 0.035583 0.031311 0.1095 -0.05484 0.041016 0.053864 -0.08783 -0.10992 0.05954 -0.02446 0.027954 0.036438 -0.086121 0.070679 -0.045868 0.024841 -0.072083 -0.046143 -0.047882 0.00033379 0.06842 -0.11371 0.055573 0.048981 0.0017576 -0.095703 -0.010323 -0.011635 0.013123 0.12976 0.049561 -0.03186 -0.10748 0.068237 -0.0090103 -0.041656 -0.035889 -0.075867 -0.006218 0.086731 0.069214 -0.14429 0.087646 0.014175 0.030212 -0.047089 -0.046661 -0.01619 -0.003273 -0.062134 0.026886 0.037231 0.057373 -0.018723 0.088745 0.080872 -0.095642 -0.063904 0.055939 -0.033661 0.085083 0.070679 -0.025101 -0.0037479 -0.056702 0.023193 -0.051575 -0.1001 0.06192 0.0090408 -0.13354 -0.025696 0.089111 -0.11682 0.0055923 -0.05304 0.014313 -0.005127 -0.039276 0.030029 -0.022568 0.082886 0.0066185 -0.11511 0.052856 -0.021912 -0.0095901 -0.077271 0.045624 0.027603 -0.025772 0.058228 -0.11511 0.052948 -0.07843 0.0032635 -0.027969 0.023239 0.05188 0.13855 0.071899 -0.049011 0.072815 0.035492 -0.0079651 -0.021072 -0.049866 -0.053192 -0.080933 -0.032898 0.083923 0.00055933 -0.11206 -0.067383 -0.09668 -0.10809 0.059052 -0.047424 0.0026035 -0.055359 -0.0071411 -0.039734 -0.065308 -0.0016727 3.5882e-05 -0.032715 0.012688 -0.043396 0.028931 -0.081299 0.019424 0.066956 0.069153 -0.042114 -0.032288 -0.054962 0.035156 0.022919 -0.015091 -0.03479 0.015778 -0.011993 0.033905 0.019257 0.03244 -0.020096 -0.08606 0.014435 -0.050995 -0.039551 -0.057739 0.013443 -0.016739 0.10571 0.014969 0.087524 -0.036072 -0.043213 -0.062103 -0.036499 -0.036407 -0.028381 0.13916 -0.060425 -0.020767 -0.095032 0.035583 -0.040802 0.018814 0.024841 -0.11908 -0.020279 0.016647 -0.05658 -0.020096 0.046967 -0.0018682 -0.00052738 0.0036297 -0.034332 0.015778 -0.010597 -0.058136 -0.066833 -0.044281 -0.065613 0.10016 -0.047241 0.017487 0.019409 -0.017502 -0.044373 -0.035492 0.045074 0.09314 -0.012115 0.041199 -0.0014734 0.075073 0.068665 -0.012558 -0.012421 0.036377 0.018677 0.066589 0.0051842 0.066895 -0.07959 0.032104 0.0023785 -0.030807 0.018265 -0.04129 -0.036682 0.10382
Data_structures 0.031204 -0.022034 0.011513 0.10425 -0.06311 -0.026794 0.003046 -0.0056152 0.0082703 0.046143 0.0088425 -0.052307 -0.018326 0.019028 -0.065613 0.054138 0.021255 0.089417 -0.033539 -0.12683 -0.08606 0.041779 -0.072754 0.03714 -0.015259 -0.061951 -0.054749 0.099915 -0.037048 -0.10767 -0.050323 -0.047394 0.030441 -0.0015411 -0.088257 0.029327 0.023041 0.018524 0.097473 -0.00014102 0.057129 0.022919 0.11548 0.06488 -0.017197 -0.069702 -0.018051 -0.095825 -0.0072556 0.052307 -0.11633 -0.014259 -0.037506 -0.099365 -0.052826 0.015976 0.012901 -0.12866 0.0041122 -0.078003 0.0081635 0.018066 -0.083923 -0.019958 -0.030838 -0.13379 -0.026672 0.024109 -0.045654 -0.040283 0.050293 -0.0044785 0.065002 -0.12939 -0.054565 -0.076782 0.070374 -0.0020294 0.0051308 -0.024841 -0.0026512 -0.0057144 -0.003727 -0.019821 0.14893 0.044067 0.030899 0.047302 -0.022079 0.049194 0.036865 -0.10052 -0.11945 0.023819 0.0038357 0.042816 0.011307 -0.089111 0.094299 -0.0081024 0.024796 -0.043213 -0.008873 -0.030899 0.0020924 0.070923 -0.12329 0.075317 0.028702 -0.039703 -0.079224 -0.031616 0.045105 -0.044037 0.10767 0.082581 0.0061874 -0.12842 0.093872 0.012772 -0.025696 -0.042419 -0.029953 -0.012505 0.091736 -0.036865 -0.12457 0.06311 0.039368 -0.0098419 0.026627 -0.019821 0.0032692 0.040405 0.0020027 0.040741 -0.014236 0.001543 0.025284 0.08313 0.063721 -0.13525 -0.060577 0.073853 0.011215 0.014259 -0.0084763 0.013702 -0.027222 -0.040741 0.03717 -0.096497 -0.097351 0.012558 -0.01651 -0.10999 -0.066223 0.10144 -0.073669 -0.011032 -0.09906 0.028275 -0.020432 -0.083069 0.012085 -0.0032635 0.041168 0.057648 -0.14612 0.069153 -0.097107 -0.013596 -0.036499 0.016296 0.028732 0.032501 0.081421 -0.12598 0.065491 -0.0097351 0.014534 0.008316 0.0091553 0.073547 0.091614 0.059418 -0.093567 0.073975 0.024429 0.00035572 0.037537 0.0013342 -0.046631 -0.053619 -0.027924 0.084412 -0.055664 -0.09021 -0.046661 -0.032043 -0.033417 0.028549 -0.027969 -0.02507 0.045715 0.009407 -0.012604 -0.029984 0.021774 -0.009552 0.0077477 -0.00078344 -0.11456 0.036011 -0.096436 0.039154 0.015854 0.062866 -0.05014 -0.018524 -0.065918 0.0046921 0.019867 0.028946 -0.049591 -0.032074 -0.02475 0.031403 0.054199 0.01741 -0.050079 -0.072815 0.07373 -0.062927 -0.040527 -0.041595 0.013168 0.017273 0.090393 -0.014221 0.016281 -0.0054512 0.016174 -0.063965 -0.0013676 -0.038361 -0.004364 0.17297 -0.019531 0.029007 -0.052948 0.065735 0.018265 0.002121 0.018356 -0.14636 -0.058777 -0.014305 -0.035065 -0.044769 0.064453 0.013962 0.037903 -0.037811 0.0084763 0.013039 0.011414 0.0010796 -0.051697 -0.028244 -0.044403 0.032074 -0.027252 -0.01078 0.014893 0.01075 -0.077698 -0.12646 -0.041718 0.10425 -0.074829 0.094543 -0.011887 0.012207 0.066284 -0.032318 0.050476 0.036591 -0.040527 0.028778 0.033691 0.033203 -0.014656 0.059113 -0.037964 -0.041534 -0.0061646 -0.085693 -0.082886 0.10468
Artificial_intelligence 0.002655 -0.005024 0.016922 0.15698 -0.016998 0.0063286 0.024384 -0.030685 0.021896 0.0073814 -0.01432 -0.10571 -0.05365 0.013977 -0.074097 0.054352 0.035553 0.098328 0.046844 -0.058533 -0.05481 0.026901 0.062805 0.030457 -0.071899 0.012299 -0.050995 0.068298 -0.074097 -0.094116 0.024231 -0.057953 -0.069092 -0.027985 -0.028488 -0.054718 -0.048645 0.07373 0.078247 0.015976 0.045349 0.018066 0.062073 0.15918 0.047577 -0.042542 0.0073738 -0.093872 -0.050568 0.013161 -0.12433 0.023987 -0.0043602 -0.0060692 -0.0062828 -0.01564 -0.015526 -0.10559 -0.0091705 -0.1106 -0.040863 -0.0050163 -0.014885 0.022644 -0.043304 -0.089783 -0.091614 0.048004 -0.017609 0.036285 0.012207 0.069275 0.056793 -0.025238 -0.082397 -0.066772 0.061035 -0.019379 0.016907 -0.028427 -0.027145 0.0513 0.010361 -0.049652 0.063293 -0.0074654 0.015266 0.10126 -0.067993 0.037628 -0.0017252 -0.046265 -0.1178 -0.0099869 0.035126 0.077026 0.070312 -0.057526 0.080078 -0.031097 0.015686 -0.095825 -0.041901 0.030151 0.037842 0.12854 -0.12274 0.017654 0.066895 -0.058075 -0.080078 -0.040192 0.040283 -0.0050049 0.13721 -0.032013 -0.05835 -0.12146 0.10944 0.00098705 -0.05246 -0.077087 -0.041534 -0.02211 -0.0009594 -0.011482 -0.099487 0.11591 -0.01432 0.047638 -0.036377 -0.061249 -0.033356 0.012413 -0.04071 0.0014172 -0.0046196 0.020081 0.0028706 0.026855 0.11096 -0.059967 -0.058868 -0.0070419 -0.017929 0.022537 0.069519 0.0095367 0.013901 -0.082153 0.078796 -0.089783 -0.11871 0.019608 0.023743 -0.15674 0.0036144 0.081543 -0.073486 -0.048828 -0.016556 0.060303 -0.019287 -0.007576 0.019287 -0.060211 0.13269 0.0080872 -0.12744 0.070435 -0.032959 0.020538 -0.006794 -0.0017567 -0.017639 -0.037201 0.061554 -0.14294 0.044769 -0.055267 0.018372 -0.044189 0.0062904 -0.061737 0.037048 0.072937 -0.046753 -0.0078964 0.054352 -0.0080261 0.042511 0.0050583 -0.038635 -0.034149 0.017975 0.1167 0.0037327 -0.081787 -0.023834 -0.063721 -0.11438 0.077637 -0.0049019 0.014519 -0.038116 -0.039642 0.018829 -0.039795 -0.099182 0.052917 -0.039429 0.023453 -0.088745 0.020645 -0.04657 0.056854 0.017838 -0.015656 -0.023727 -0.040649 -0.097168 -0.049438 0.090698 -0.028702 -0.025925 0.010178 0.022003 0.02774 0.006752 -0.047485 0.040649 -0.049927 0.0037918 -0.041107 -0.027771 0.015007 0.045715 0.0047035 0.058014 0.074951 0.10974 -0.031128 -0.08844 -0.0096283 -0.070923 0.037292 0.019867 0.12781 -0.046936 -0.040375 0.016769 -0.05011 -0.0094833 0.052673 0.039551 -0.11273 -0.015121 -0.025543 -0.0041008 -0.023361 0.050629 0.026413 0.044678 -0.069946 -0.031097 0.035095 -0.062561 -0.086792 -0.041534 -0.044464 0.0011101 0.023056 -0.0098648 0.025909 0.051483 -0.044647 -0.027405 -0.042847 0.029037 0.13647 -0.014458 0.019897 -0.022446 0.091064 0.020477 0.0014639 0.026154 -0.027817 0.048767 0.066345 -0.041565 0.033539 -0.14392 0.060303 -0.00069237 -0.066406 -0.039185 -0.061981 0.006176 0.034058
Automated_reasoning -0.049774 0.0044365 -0.050323 0.13135 -0.010277 -0.020386 0.037872 -0.046722 0.022156 0.0046005 0.022415 -0.0513 -0.024734 -0.035217 -0.051544 0.0098114 0.10321 0.12976 -0.014366 -0.12231 -0.063416 -0.057434 0.06958 -0.0050392 -0.068604 -0.058319 -0.1095 0.13013 -0.0013704 -0.041199 0.017807 -0.051453 -0.017532 -0.097961 -0.065613 -0.034241 -0.05484 0.12347 0.013824 0.00036383 -0.010468 -0.020493 0.087891 0.075989 0.0043831 -0.022842 0.046722 -0.10376 -0.010803 0.05365 -0.10791 0.019806 -0.005127 0.021362 0.010719 0.048828 -0.043854 -0.089966 0.0067444 -0.13403 0.0027142 0.022202 -0.068237 -0.055695 0.0013285 -0.13953 -0.078308 0.0070152 -0.053406 0.089722 0.07843 0.022156 0.022644 0.012245 -0.094543 0.031677 0.0513 -0.016769 0.048492 -0.015594 -0.075806 0.0036602 0.038544 -0.034851 0.057343 -0.010086 0.014221 0.14038 0.016663 0.023193 -0.011124 -0.060516 -0.076172 0.00383 -0.041443 0.038361 0.06842 -0.00138 0.042633 -0.11572 -0.00383 -0.0625 -0.0045052 0.026382 0.014671 0.01442 -0.039825 0.067627 0.020355 -0.045044 -0.033356 0.024658 0.011398 0.01683 0.055115 0.026443 0.0093002 -0.048065 0.10175 0.01535 -0.0026321 0.036438 0.018036 0.020554 0.032959 -0.055511 -0.080383 0.077148 0.016449 0.092529 -0.061066 -0.024612 -0.064758 -0.021454 -0.045044 0.057922 -0.022308 0.013107 0.037994 0.07251 0.068604 -0.043457 0.0017653 -0.0052299 -0.053802 0.079468 0.057587 0.063965 -0.035889 -0.086426 0.087463 -0.14893 -0.10742 0.021698 -0.052826 -0.15723 0.042511 0.088318 -0.064514 0.010445 -0.0064507 0.11487 0.057037 0.015747 0.036926 0.019196 0.11011 0.026932 -0.06131 0.057251 0.0095749 -0.053314 -0.026306 -0.064026 -0.047791 0.0080872 0.12494 -0.12219 -0.02858 -0.05014 -0.068665 -0.051422 0.045685 -0.014061 -0.017883 -0.0074654 0.021667 0.06781 0.073669 0.036163 0.04129 0.0014915 -0.09314 0.088013 -0.027954 0.0058632 0.064209 -0.09613 0.019638 -0.049896 -0.058136 0.053802 -0.040192 -0.036926 0.0032673 -0.034393 0.013931 -0.045197 -0.035767 0.048065 -0.0014019 0.0012655 -0.06897 0.010201 -0.12708 0.078674 0.13 -0.031204 0.0029583 -0.067505 -0.062683 0.023895 0.071655 -0.021561 -0.0010786 0.039185 0.034729 0.061737 -0.00811 -0.062988 0.053284 0.031708 -0.046356 -0.067444 -0.076172 0.028168 0.085632 0.025345 0.039032 0.07782 0.051758 -0.011368 0.0016413 -0.082275 0.011436 0.020355 -0.080933 0.11102 -0.056244 -0.033844 -0.014694 0.014656 -0.015617 0.057251 0.046173 -0.077881 -0.012657 -0.010124 0.014824 -0.022934 0.037262 0.045288 0.022217 -0.055145 0.021179 0.079773 0.020782 -0.027618 -0.03241 -0.060944 -0.034515 0.012299 -0.060181 0.10828 0.10614 -0.043671 -0.0513 -0.026871 -0.059753 0.11298 -0.030136 0.0046387 0.010201 0.070618 0.053955 -0.038361 -0.01442 0.053955 0.021011 0.099487 -0.032257 0.0035019 -0.10858 0.059113 -0.010315 -0.069031 -0.051666 -0.044495 0.0016308 0.081421
Computer_vision 0.020584 -0.047729 0.013077 0.041168 -0.060089 0.0059166 0.0097656 -0.060425 -0.011955 -0.040192 -0.034058 -0.033386 -0.034058 0.061951 -0.045502 0.056 0.067993 0.11652 -0.036621 -0.13452 -0.040131 0.035614 0.049072 0.027771 -0.095459 -0.071655 -0.059509 0.086853 -0.041443 -0.079102 -0.051758 -0.0018072 -0.0082321 -0.068176 -0.014069 -0.047058 -0.023849 0.1134 0.091919 -0.014923 0.025742 0.018402 0.073608 0.12067 0.065979 -0.11548 -0.034821 -0.10681 -0.054871 0.018768 -0.10809 -0.0043831 -0.02269 -0.063904 -0.033813 0.060577 -0.014313 -0.061859 0.051178 -0.087952 -0.040527 -0.03476 -0.02269 0.018829 -0.078308 -0.055267 -0.072449 0.077942 0.044312 0.029144 -0.0029831 -0.0028133 0.039764 -0.06076 -0.067078 -0.036224 0.058258 -0.064026 0.064636 -0.048248 0.0013275 0.061859 0.0067978 -0.008316 0.10553 -0.010643 0.0025673 0.19836 0.019562 0.014618 0.026779 -0.12225 -0.059235 0.052734 -0.037964 0.042358 0.027908 -0.065308 0.093506 0.0096283 0.022507 -0.02652 -0.025467 -0.0058441 0.06192 0.09259 -0.074768 0.031189 0.04361 0.037415 -0.044739 -0.081543 0.010742 -0.022903 0.12183 0.058411 -0.019394 -0.13086 0.087402 -0.0094528 -0.03241 0.012596 -0.059418 -0.017075 0.045227 -0.010735 -0.15686 0.060455 0.01223 0.066772 -0.015976 -0.056519 -0.073303 0.0067749 -0.065613 0.038696 -0.010384 0.035553 0.016968 0.060486 0.13416 -0.01548 -0.062927 -0.00051165 -0.015259 0.0038795 0.04895 0.022766 -0.010246 -0.054626 0.063538 -0.093811 -0.1571 -0.015549 0.013046 -0.099243 -0.023834 0.064453 -0.040375 -0.0092163 -0.057037 0.08429 0.036804 -0.0051346 -0.0038986 -0.027328 0.061584 0.064209 -0.16956 0.066162 0.014633 0.012848 -0.057037 -0.025116 -0.049866 0.023148 0.072021 -0.15503 -0.005043 -0.090454 -0.040894 -0.04007 0.033264 0.011513 0.011414 0.019348 0.013451 0.026077 0.0010881 -0.052551 0.0034504 -0.021286 -0.020599 -0.055206 0.042969 0.062195 0.04538 -0.13281 -0.0091171 -0.10809 -0.05014 0.082092 -0.028076 0.007 -0.050262 -0.034546 -0.0098419 -0.11377 -0.06311 0.029968 -0.039856 0.025131 -0.065735 0.02948 -0.05777 -0.027725 0.055023 0.064453 -0.018036 -0.051788 -0.031769 0.018723 0.065613 -0.015701 -0.040009 -0.03302 -0.042023 0.051331 -0.048553 0.0098038 -0.00092411 0.019196 -0.024612 -0.10754 -0.068298 -0.0072899 0.023727 -0.011353 0.079285 0.032471 0.048065 -0.026505 -0.029205 -0.062805 -0.035828 0.02858 -0.015488 0.16077 -0.058167 -0.077698 0.051117 -0.039154 0.0090485 0.062683 -0.021866 -0.059387 -0.0062141 0.0071716 -0.0074577 -0.012154 0.038757 0.0061798 0.024536 -0.086426 0.023056 0.085327 0.076843 -0.075439 -0.019516 -0.060303 -0.023956 0.047729 -0.055725 0.031021 0.079102 -0.032104 -0.044464 -0.069824 0.030838 0.13892 -0.032043 0.06366 -0.02269 0.01474 0.0067902 -0.0013685 0.02655 -0.0036659 0.013077 0.01915 -0.02832 0.050262 -0.088135 0.086731 0.013176 -0.063904 -0.013885 -0.047058 0.023712 0.040222
Machine_learning 0.043518 -0.039154 0.030228 0.061066 -0.047577 0.019257 -0.02832 -0.018951 0.04538 0.060394 -0.049561 -0.067383 -0.020508 -0.0068016 -0.035095 0.098511 0.0053482 0.10199 0.0041199 -0.15479 -0.07666 0.079956 0.012398 0.020706 -0.058868 -0.074036 -0.092163 0.11096 -0.098572 -0.065063 -0.074402 -0.0069923 -0.024948 -0.043365 -0.045105 -0.067322 -0.030563 0.010788 0.059204 0.041412 0.046417 0.054504 0.085205 0.10571 -0.021866 -0.083862 -0.1123 -0.082458 0.0090942 0.0012026 -0.097656 0.019882 -0.075256 -0.088196 -0.01255 0.03183 -0.02092 -0.12439 -0.0072021 -0.05838 -0.0089722 0.016953 0.0068169 -0.019165 -0.057251 -0.042419 -0.058044 0.057709 -0.053619 -0.0054817 -0.011436 -0.013557 0.019745 -0.14368 -0.069641 -0.08075 0.067322 -0.035248 -0.00014496 -0.0021706 -0.0064163 0.055634 0.014328 -0.023514 0.064209 0.0029812 0.046112 0.16772 -0.020493 0.050079 0.032806 -0.11029 -0.11768 0.059845 0.032623 -0.025833 0.0023346 -0.053619 0.045441 0.0052452 0.054413 -0.051819 -0.036346 -0.052124 -0.015854 0.077332 -0.12708 0.047699 0.028931 0.033539 -0.047546 -0.058746 0.041931 -0.047333 0.12317 0.078796 -0.069763 -0.13696 0.10083 -0.0068436 -0.030228 0.0072975 -0.028915 -0.030212 0.072021 -0.0070801 -0.078979 0.13879 0.02301 0.002634 -0.014236 -0.060547 -0.034607 0.00072336 -0.015251 -0.013077 0.035767 0.018387 -0.045135 0.061249 0.079102 -0.083984 -0.055939 0.013123 -0.040863 -0.0099411 0.04718 0.039917 -0.03891 -0.098572 0.069946 -0.14771 -0.10846 0.048035 -0.0048332 -0.079407 -0.035522 0.066833 -0.057831 -0.023666 -0.062988 0.032532 -0.011574 -0.030457 0.01915 -0.040131 0.099426 0.03093 -0.16516 0.045044 -0.012596 -0.039856 -0.059906 0.03421 -0.012733 0.012093 0.12573 -0.16663 0.034058 -0.0074577 -0.044556 -0.0091476 0.022766 -0.022034 0.04837 0.058502 -0.0071831 0.020538 -0.010704 -0.076172 -0.018463 -0.0069122 -0.076355 -0.049713 -0.048126 0.055878 -0.010414 -0.088745 -0.018829 -0.072266 -0.031586 0.060791 -0.03476 0.047729 -0.073242 -0.016922 -0.035522 -0.072083 -0.03772 0.0067177 -0.080139 0.031433 -0.077515 0.069702 -0.098083 -0.0038548 0.013367 -0.006321 -0.050415 -0.023514 -0.074402 0.062622 0.057526 -0.081726 -0.032501 -0.014618 -0.0064926 0.021317 0.016525 0.059448 0.0091934 -0.015503 0.026901 -0.083435 -0.025909 -0.026489 -0.0051918 -0.038055 0.080078 0.019852 0.097046 -0.015106 0.0010328 -0.014595 -0.044312 -0.024414 -0.048981 0.14673 -0.087463 -0.051819 -0.021881 -0.01384 0.048218 0.039307 0.025146 -0.093933 -0.014282 -0.012604 0.012207 -0.071289 0.065735 0.038086 0.033325 0.0050812 -0.0043488 0.0073128 0.0055542 -0.043243 -0.059845 -0.061981 -0.018005 0.076904 -0.049896 0.0089569 0.055634 -0.025223 -0.044006 -0.031158 0.03833 0.088623 -0.042175 0.0625 0.0030441 -0.0025234 0.056671 -0.039337 0.0097351 0.024994 0.046417 0.048706 -0.023315 0.052856 -0.098633 0.03093 0.022766 -0.066711 -0.041321 -0.049133 -0.020615 0.051483
Natural_language_processing 0.092102 -0.050385 0.0004847 0.096191 -0.085876 0.0018444 0.03067 0.024506 0.011482 0.044922 -0.0093994 -0.078125 -0.034271 0.069397 -0.0625 0.098328 0.06543 0.090454 0.009285 -0.18787 -0.094666 0.046631 0.01709 0.031891 -0.05484 -0.064087 -0.040771 0.085693 -0.0096283 -0.013054 -0.042755 -0.025589 -0.042206 0.01976 -0.020233 0.0048409 -0.032196 0.086914 0.10437 0.0087051 0.042297 -0.014648 0.13794 0.10785 -0.0027065 -0.076111 -0.066223 -0.020828 -0.035309 0.042938 -0.084045 0.013008 -0.035248 -0.049896 -0.012665 0.094971 -0.021042 -0.17676 0.011543 -0.092896 0.044769 0.0023746 -0.0383 -0.037231 -0.031647 -0.077026 -0.074707 0.064087 -0.038361 -0.025665 0.086365 0.045349 0.029556 -0.092041 -0.064514 -0.073975 0.0896 -0.032684 0.0038509 0.0076637 -0.046387 0.06076 -0.0069427 0.01284 0.084473 0.030746 0.029465 0.10876 0.031708 0.041382 0.028549 -0.10168 -0.076233 0.033417 0.020584 -0.012421 0.02916 -0.05957 0.043213 -0.032074 -0.059021 -0.042175 0.0080643 -0.050751 0.021469 0.030777 -0.12256 0.079895 -0.015808 -0.039703 -0.081238 -0.033203 0.085022 -0.0081024 0.13184 0.0354 0.0019894 -0.10748 0.066406 0.029572 -0.053558 -0.01152 -0.094055 -0.0088272 0.046539 -0.033142 -0.080811 0.061462 0.025574 -0.042725 -0.05014 -0.052704 -0.036133 -0.0025673 -0.036896 0.033722 0.0032425 0.0063324 0.10114 0.024216 0.087952 -0.12054 -0.071594 0.036896 -0.063782 -0.026337 -0.040558 0.071655 0.017776 -0.023987 0.074707 -0.065735 -0.10284 -0.040558 -0.0096588 -0.12561 -0.082214 0.092712 -0.092163 -0.011772 -0.050537 0.012894 -0.036987 -0.071838 0.054504 0.0233 0.030518 0.0041847 -0.10162 0.065002 -0.04007 -0.0052681 -0.06076 -0.0078583 0.051056 -0.013603 0.086548 -0.1416 0.04007 -0.039886 0.00023055 -0.054443 0.034821 0.0087891 0.072144 0.082153 -0.018738 -0.00015664 0.049347 0.024948 -0.0020809 -0.068237 -0.059296 0.0068932 -0.02356 0.13306 -0.081665 -0.11017 -0.0064697 0.0074387 -0.046936 0.048187 -0.038544 0.006691 -0.022308 -0.0034752 0.03598 0.0013294 -0.00811 -0.043823 -0.034637 -0.072144 -0.093872 0.03421 -0.071289 0.033325 0.04541 0.0026493 -0.0099182 -0.010895 -0.034058 0.046539 0.018524 -0.04306 -0.01857 -0.040375 0.020203 0.06543 0.021713 0.036469 -0.032928 -0.036469 -0.027466 -0.044189 0.022614 -0.042603 0.076294 0.016708 0.10815 0.0074692 0.03363 0.02005 0.00069761 0.0073929 0.0050621 -0.053345 0.014397 0.14893 -0.049896 -0.039703 0.0026913 0.015961 0.026276 0.024506 0.014076 -0.14148 -0.072327 0.044647 -0.014496 -0.062012 0.11383 0.010857 0.064026 -0.036011 -0.047607 0.035309 0.051666 -0.04538 -0.063599 -0.069824 -0.062988 0.049561 -0.024597 0.052368 0.060547 -0.029938 -0.039734 -0.016006 -0.012703 0.12512 -0.081177 0.052704 0.016693 0.022354 0.027954 -0.059418 0.012077 0.05545 -0.012283 0.080872 0.022415 0.013359 -0.060822 0.018097 -0.027115 -0.044464 0.018311 -0.036987 -0.06897 0.086121
Robotics 0.02565 -0.003294 0.014114 0.064453 -0.071716 -0.0029659 0.034271 -0.092651 -0.020889 -0.0039597 -0.029922 -0.041504 -0.030487 0.00064659 -0.03067 0.050354 0.016632 0.10089 0.0014057 -0.099854 -0.038849 0.0057678 -0.0055313 0.078491 -0.086304 -0.0401 -0.089661 0.10455 -0.029449 -0.079712 -0.058716 -0.048462 -0.020187 -0.038971 -0.046082 -0.067139 -0.028687 0.081421 0.061829 0.044556 0.043823 -0.0061493 0.082275 0.15149 0.0024548 -0.088196 -0.0067558 -0.065002 0.0032253 0.04425 -0.13757 0.011978 -0.046844 -0.05957 -0.015991 0.0040817 0.021606 -0.12805 -0.0159 -0.081299 -0.079041 -0.033539 -0.011116 -0.0513 -0.026657 -0.10834 -0.075562 0.11163 0.014297 0.066162 0.0095978 -0.015282 0.027603 -0.01886 -0.14844 -0.079956 0.051025 -0.012039 -0.091431 0.00068331 -0.012016 0.028336 -0.013344 0.0043678 0.075195 0.012352 0.0061531 0.10907 -0.011543 0.048584 0.025574 -0.067505 -0.054535 0.051758 -0.015991 0.026855 0.095764 -0.083618 0.1394 -0.045746 0.0032902 -0.066284 -0.03421 0.0073204 0.016953 0.10858 -0.062286 0.074036 0.064514 0.070129 -0.063293 -0.054291 0.0041542 0.039154 0.047302 0.015099 -0.066956 -0.004425 0.10974 -0.057281 -0.037476 0.018799 -0.031372 0.026718 0.036133 -0.0031109 -0.14062 0.047302 0.031921 0.034637 0.003336 0.047241 -0.048737 0.036835 -0.025116 0.026276 -0.022354 -0.037079 -0.0059471 0.10828 0.10052 -0.042603 -0.042267 0.0083389 -0.052887 0.048706 -0.022385 0.0022507 0.0072784 -0.049286 0.097412 -0.18201 -0.13928 0.03418 -0.024994 -0.080566 0.024185 0.066284 -0.053955 -0.024811 0.014839 0.095581 0.038635 -0.018417 0.016388 -0.072754 0.09314 0.049561 -0.082397 0.041382 -0.042206 0.026276 -0.071838 -0.022751 -0.05603 -0.0019588 0.041687 -0.18091 -0.059937 -0.050323 -0.065918 -0.069153 0.029846 -0.038147 -0.0026131 0.015221 0.023438 0.073914 0.0076218 0.029739 0.021515 -0.0048103 -0.068909 -0.017822 0.0034428 0.051849 0.029388 -0.098633 0.019684 -0.062195 -0.069153 0.03656 -0.058228 -0.0069351 -0.077698 -0.016434 0.03418 -0.081055 -0.10284 0.030807 -0.03714 -0.051483 -0.051544 0.046143 -0.069946 -0.052124 0.070984 0.032837 -0.041687 -0.00091505 -0.050568 -0.037109 0.04306 -0.0014353 -0.026611 -0.0082474 0.048584 -0.002903 0.082092 -0.046448 0.045349 -0.013939 -0.016632 -0.067322 -0.019028 0.053223 -0.065186 -0.020935 0.058197 -0.017181 0.083008 0.021301 -0.052338 -0.056396 -0.029724 0.02124 -0.093079 0.086182 -0.060883 -0.026917 0.0097733 -0.038055 0.042633 0.059143 0.053436 -0.10645 -0.03244 -0.001605 0.022339 -0.038574 0.083862 0.02713 -0.040588 -0.041351 0.02533 0.09082 -0.093323 -0.083313 -0.0011454 0.018295 -0.036774 0.05603 -0.012329 -0.01313 0.037994 -0.098633 -0.060883 0.028595 0.01297 0.10071 -0.030716 0.091492 -0.048523 0.00024199 0.066162 -0.026901 0.028809 -0.0092087 -0.010994 0.087891 -0.093567 0.035553 -0.10828 0.054962 -0.010162 -0.074463 0.00039124 -0.013405 -0.0354 0.054901
Networking -0.011337 -0.028732 -0.029373 0.091125 -0.022171 0.0097656 0.010086 -0.0094757 0.063477 0.043671 -0.02713 -0.028366 0.018509 -0.021744 0.0048866 0.086365 0.028854 0.11932 0.0095444 -0.12372 0.020142 0.045746 0.029907 0.024368 -0.073425 0.035522 -0.05899 0.089539 0.015221 -0.073853 0.022797 -0.0042953 -0.074158 -0.038147 -0.045441 -0.077637 -0.04129 -0.016388 0.065186 0.010033 0.0018139 0.024918 0.12463 0.087463 -0.0026608 -0.049194 -0.0013857 -0.052216 -0.05777 -0.012733 -0.12488 -0.035461 0.024811 0.017441 -0.050598 0.046631 0.0012236 0.001194 -0.0028801 -0.071228 -0.0052452 0.072327 -0.069519 0.0031528 -0.035431 -0.1142 -0.072571 0.052704 -0.019318 0.015839 0.04541 0.072021 -0.012451 -0.065002 -0.088928 -0.10376 0.031647 -0.037598 0.042999 -0.047852 -0.052917 0.06488 -0.011917 -0.0052414 0.092651 -0.00045466 0.016632 0.1214 -0.032288 0.013374 -0.032166 -0.058228 -0.12903 -0.0242 0.034882 -0.017838 0.031921 -0.033875 0.038544 0.026627 -0.021454 -0.0019627 -0.024048 0.0023441 -0.04483 0.10095 -0.091003 0.069519 0.079468 -0.01429 -0.072083 -0.063599 0.0036983 -0.010071 0.042084 0.024246 -0.057404 -0.13232 0.11908 -0.038971 -0.06366 -0.04541 -0.092896 -0.039001 0.15161 -0.029221 -0.16589 0.10638 -0.027817 -0.015884 -0.081726 0.050262 -0.028366 0.052277 -0.0071297 0.0073051 -0.0233 -0.022141 -0.012703 0.062408 0.043732 -0.031555 -0.0056458 0.016953 -0.022568 -0.034302 0.021912 0.027161 -0.043152 -0.093567 0.0383 -0.11078 -0.084656 -0.0033474 -0.035767 -0.12561 -0.035187 0.043304 -0.099426 -0.00074339 -0.015297 0.069702 -0.067261 -0.00072861 -0.019974 -0.049927 0.068481 -0.01767 -0.081238 0.048706 -0.075256 -0.0089111 -0.0012836 -0.071045 -0.013748 0.032349 0.086609 -0.13818 0.049194 -0.059387 -0.014442 -0.020767 -0.055328 -0.011688 0.072693 0.026306 -0.077576 -0.034851 0.049042 0.011734 -0.031036 -0.05658 -0.15039 -0.0058899 0.015358 0.096008 -0.038055 -0.094055 -0.010254 -0.10828 -0.026062 0.067688 -0.0039711 0.016968 -0.062744 -0.00012529 -0.011589 -0.11981 -0.0578 0.068054 -0.039673 0.012489 -0.14575 0.041687 -0.056519 0.058533 0.010628 0.025085 -0.035004 -0.047882 -0.090027 0.013947 0.0466 0.039673 -0.068298 -0.05304 -0.019638 -0.0076561 0.01741 -0.054871 -0.055389 -0.072388 0.0096817 -0.071289 0.0098038 -0.0027599 -0.0014572 0.021393 0.058075 0.022202 0.082581 0.012047 -0.028793 -0.026627 -0.011574 -0.047852 -0.068237 0.16821 -0.069641 -0.088318 -0.027359 0.058441 0.010475 0.060242 0.076599 -0.077942 -0.041748 -0.0072861 -0.045654 -0.018646 0.07312 0.0026894 0.050751 -0.082397 -0.022537 0.026382 -0.043304 -0.11713 -0.059814 -0.1272 -0.039093 -0.014275 -0.019592 0.012833 0.12878 -0.013695 -0.0036297 -0.047913 -0.010078 0.10315 -0.023849 0.039032 0.0401 0.064758 0.040924 -0.0030918 0.032318 0.036194 0.032532 0.075195 0.040314 0.058075 -0.024414 0.0578 -0.0076294 -0.066223 -0.021606 -0.0071526 -0.013542 0.05014
Computer_security 0.017456 0.00014722 -0.00073624 0.069763 -0.0022831 0.061462 0.020081 -0.025146 0.059326 0.032043 -0.024445 -0.11139 -0.030807 0.05069 -0.075806 0.086914 0.054474 0.077576 -0.017883 -0.066711 -0.014725 0.039764 0.051208 -0.010185 -0.085144 -0.030685 -0.021881 0.10284 -0.013542 -0.068787 -0.034973 -0.053375 -0.090759 -0.052338 -0.026779 -0.034058 -0.0091705 0.059692 0.034668 0.068604 -0.024246 -0.014664 0.02269 0.14294 -0.025269 -0.090942 -0.024643 -0.10834 -0.043091 0.016434 -0.094971 0.021408 0.021698 0.0085144 -0.020767 0.039886 -0.049438 -0.090454 -0.075073 -0.15271 0.014938 -0.027527 -0.018417 0.0069122 -0.072327 -0.078552 -0.10242 -0.0091019 0.042114 0.080261 0.012688 0.062927 0.039032 -0.033722 -0.083191 -0.029343 0.065186 -0.013206 0.055817 0.0059357 -0.038055 0.074341 0.048889 0.0063362 0.067078 0.011658 0.025497 0.13416 -0.0080566 0.025787 -0.015167 -0.12732 -0.056274 -0.047699 -0.0020618 -0.0044441 0.032196 -0.055023 0.16296 -0.053375 -0.053436 -0.03125 -0.033356 0.050171 0.017532 0.055847 -0.064575 0.049408 0.069641 -0.018448 -0.056763 -0.029144 -0.0014696 -0.038239 0.063843 -0.0012732 -0.048645 -0.11395 0.14807 0.039856 -0.0069275 -0.036835 -0.022293 -0.018829 0.054718 -0.063171 -0.13098 0.070923 -0.0027714 0.012016 -0.051758 -0.033936 -0.057007 -0.0064621 -0.036896 -0.012383 -0.034882 -0.0354 -0.016205 0.030731 0.064941 -0.035461 0.00032806 -0.056976 -0.043304 0.024139 0.078125 0.10431 -0.075317 -0.11548 0.10107 -0.10712 -0.077698 0.027451 0.00098228 -0.12341 -0.044006 0.062073 -0.099121 -0.0034199 -0.03241 0.060028 -0.031525 0.026962 0.0023899 -0.03096 0.072632 0.048523 -0.14575 0.090881 -0.036224 0.017441 0.0023327 -0.044891 -0.01545 0.0016994 0.069275 -0.13013 0.0091324 -0.07074 -0.036133 -0.035675 -0.005127 -0.019272 0.019669 0.027374 -0.085449 0.020508 0.033569 0.034485 0.040161 -0.026611 -0.10242 0.024216 -0.010521 0.06427 0.030029 -0.096802 -0.0021915 -0.044678 -0.0048409 0.094971 -0.0064354 0.044708 -0.010254 0.0074577 0.00052214 -0.057983 -0.081604 0.056183 0.026566 0.034302 -0.093567 0.011536 -0.08252 0.048401 -0.031464 0.016937 -0.022461 -0.077698 -0.078735 0.060608 0.016998 0.036926 0.039001 -0.059235 -0.018341 -0.01828 0.03421 -0.028137 -0.022964 0.016724 -0.042389 -0.095154 -0.037872 -0.082825 0.08728 -0.026276 0.052765 0.042633 0.085449 -0.011253 0.038177 -0.022461 -0.00055027 -0.056824 -0.0095139 0.13184 -0.053223 -0.028534 -0.028137 0.063721 0.012299 0.10559 0.068848 -0.095642 -0.074463 0.031738 -0.051666 0.0017672 0.049744 0.04718 -0.021225 -0.092957 0.020111 0.074951 -0.03421 -0.054596 -0.027756 -0.1311 0.010201 0.027023 -0.024719 0.024155 0.095886 -0.010658 -0.011742 -0.085754 0.00091696 0.11865 -0.011047 0.032471 -0.052246 0.027847 0.049286 0.01944 0.053558 0.093933 0.0035172 0.068481 -0.0098419 0.010765 -0.11511 0.074829 0.018951 -0.063354 -0.0069618 -0.0095978 -0.011559 0.083191
Cryptography 0.051147 -0.029709 0.0063705 0.075073 -0.079346 0.022278 -0.015564 0.025421 0.037659 0.050507 -0.0012569 -0.085754 -0.039459 0.0017443 -0.057465 0.06897 0.07373 0.080994 -0.012779 -0.10962 -0.058899 0.065063 0.048035 0.047516 0.014473 -0.035889 -0.029785 0.077637 -0.012489 -0.065369 -0.036011 -0.030365 -0.012039 -0.0075684 -0.016403 -0.051025 -0.041504 0.070251 0.06366 0.032227 0.0061035 0.011261 0.13428 0.13538 0.015427 -0.050537 -0.063599 -0.089844 -0.10205 0.064575 -0.098083 0.020309 -0.033691 -0.022476 -0.023102 0.057007 -0.0020657 -0.10724 -0.039215 -0.12732 -0.012711 0.023727 -0.035461 0.021729 -0.02533 -0.071594 -0.074829 0.035004 -0.03952 0.034058 0.031372 0.03479 0.0046234 -0.063049 -0.082642 -0.051422 0.079468 -0.039062 0.044891 -0.053833 -0.042542 0.0035381 0.0095749 0.030029 0.078796 0.053802 0.074402 0.074951 -0.062622 -0.0074654 -0.036469 -0.063904 -0.091614 0.027054 0.060883 -0.048492 0.010696 -0.085449 0.097839 -0.048279 -0.017456 -0.0087585 -0.00093174 0.018707 -0.020004 0.0495 -0.15125 0.081299 0.03595 -0.0035191 -0.062378 -0.07782 0.003046 0.02713 0.092102 0.10492 -0.022675 -0.0802 0.15955 0.0039787 -0.028168 -0.031586 -0.039886 -0.050873 0.070374 -0.036896 -0.11908 0.077332 0.022263 -0.023697 0.018768 -0.047913 -0.0062828 0.03421 -0.035156 0.02626 -0.008667 -0.039673 -0.036285 0.0849 0.057922 -0.1416 -0.055084 -0.040802 -0.091309 0.037445 0.016556 0.033478 -0.024857 -0.091858 0.035461 -0.10455 -0.073059 0.0086594 -0.0077095 -0.11896 -0.062561 0.10626 -0.084045 -0.037292 -0.079712 0.0513 -0.083069 -0.050415 0.035706 -0.021912 0.01886 0.017136 -0.17322 0.071716 -0.068115 0.012589 -0.014038 -0.030762 0.045288 0.01107 0.10083 -0.13599 0.040894 -0.055267 0.0029755 -0.013359 -0.01796 -0.008316 0.065491 0.039032 -0.031891 -0.0068054 0.060333 0.017929 -0.040436 0.019165 -0.0802 -0.03952 -0.01825 0.1131 -0.0082855 -0.067993 -0.024506 -0.028168 -0.026382 0.055939 0.0078735 0.03833 0.045807 0.001482 -0.028015 -0.062561 -0.036591 0.026932 -0.070435 -0.051483 -0.047882 0.0067635 -0.12573 0.0087814 0.023666 -0.01487 -0.0625 -0.032227 -0.072205 -0.01619 0.058746 -0.024048 -0.028915 -0.024429 0.051422 0.0020428 0.10425 0.017807 -0.04361 -0.051361 -0.014168 -0.076416 -0.032898 -0.0055771 0.090942 -0.010422 0.087341 0.0055504 0.062073 -0.0073204 -0.013176 -0.046814 -0.0021896 -0.058624 -0.001647 0.11694 -0.022903 -0.00042057 -0.063171 0.058533 0.036621 0.03894 0.054626 -0.091248 -0.066162 -0.018906 -0.039703 -0.011589 0.08783 0.046448 0.076782 -0.080444 -0.049713 0.020462 -0.039337 -0.001627 -0.13074 -0.081604 -0.055267 0.016312 -0.053925 0.043304 0.058289 -0.058105 0.0034428 -0.086548 -0.040833 0.095703 -0.032166 0.065979 -0.0083389 0.032135 0.080505 -0.054047 0.047668 0.00050974 -0.030045 0.080383 0.026733 0.010765 -0.06073 0.0233 0.032227 -0.057709 -0.0019407 -0.022064 -0.046265 0.11005
Computer_architecture 0.016846 -0.049042 -0.0053368 0.052582 -0.047028 -0.014168 -0.0062447 -0.038177 0.016281 0.054443 -0.041443 -0.061096 -0.027878 0.044617 -0.065002 0.045197 0.047699 0.049744 -0.042145 -0.1134 -0.0095978 0.044739 0.0038242 0.072754 0.0010576 -0.040314 -0.033142 0.079712 -0.0121 -0.057404 -0.0087128 -0.0041885 -0.0023479 -0.026291 -0.035431 -0.04361 -0.0096054 0.049286 0.1239 0.025986 0.020706 0.0087433 0.10663 0.10901 -0.012238 -0.089844 -0.0043068 -0.053253 -0.06311 0.04483 -0.044189 -0.04953 0.02597 0.010284 -0.029327 -0.0041161 0.0044479 -0.10242 -0.035004 -0.093567 -0.0076828 0.0070496 -0.076233 -0.016754 -0.0080109 -0.13586 -0.041962 0.041138 -0.052979 0.035675 0.003994 -0.048218 0.025497 -0.042755 -0.056976 -0.059692 0.082336 -0.012627 0.030136 -0.046051 -0.0041962 0.053314 0.016006 -0.031143 0.12018 0.055298 0.080994 0.11444 -0.032776 0.017838 0.011513 -0.082581 -0.1322 0.030258 -0.026978 0.0032196 0.016754 -0.078369 0.11047 -0.052612 -0.0084839 -0.024582 -0.047607 0.045776 -0.039917 0.038483 -0.081177 0.033325 0.063721 -0.0092545 -0.059418 -0.049591 -0.015076 0.024979 0.017059 0.093323 -0.038879 -0.078796 0.11841 -0.054047 -0.03894 -0.019012 -0.059235 -0.058197 0.08197 -0.0071182 -0.14099 0.080627 -0.039795 0.061188 -0.015129 -0.029495 0.02182 -0.0069008 -0.033142 -0.040375 -0.012779 -0.019363 0.032013 0.11578 0.055908 -0.056824 -0.05777 0.017349 -0.083374 -0.022537 0.037384 0.019104 -0.023941 -0.067993 0.07959 -0.125 -0.069519 -0.012436 0.0012102 -0.1333 -0.013016 0.056793 -0.083801 -0.039459 -0.043823 0.10809 -0.028748 0.0041733 0.033325 -0.033203 0.089966 0.045898 -0.14185 0.036957 -0.020111 -0.020905 -0.046265 -0.064026 1.2696e-05 0.057373 0.062744 -0.19043 0.043365 0.0015526 -0.024796 -0.034821 0.032104 0.045135 0.11768 -0.042969 0.02507 0.0401 0.028214 -0.016556 -0.024277 -0.041962 -0.10602 -0.0097122 -0.0090714 0.10767 0.016693 -0.12457 0.0078659 -0.049286 -0.070435 0.071472 -0.046509 0.006813 -0.0047112 -0.010811 -0.017593 -0.045898 -0.060394 0.082031 -0.016068 -0.0060005 -0.079285 0.045227 -0.12744 0.05661 0.044281 0.035065 -0.017334 -0.040558 -0.058563 0.059113 0.065002 -0.014305 -0.071777 -0.030838 0.0052109 0.043243 0.074219 0.033539 -0.071777 -0.031738 0.020569 -0.09906 -0.064575 0.024536 0.053375 0.050018 0.065674 1.2696e-05 0.0018368 -0.033844 -0.043671 -0.11212 0.032135 -0.086975 -0.06427 0.13074 -0.01326 -0.0082626 -0.017014 0.055878 -0.0096512 0.060394 0.028656 -0.098328 0.022964 0.0019569 -0.010757 -0.017883 0.084045 -0.0042 -0.0084839 -0.10071 -0.084656 0.060242 -0.0036526 -0.05542 -0.10553 -0.10516 -0.013931 0.026917 -0.044189 0.095642 0.066467 0.005703 0.022797 -0.038849 -0.040039 0.10571 -0.019745 0.094849 -0.0060501 0.029251 0.064941 -0.032593 0.018234 0.0048752 0.053375 0.094055 -0.027252 0.010147 -0.037415 0.02887 -0.060791 -0.085632 -0.033997 -0.054474 -0.050598 0.10571
Operating_systems 0.016602 -0.070129 -0.059021 0.045837 -0.068481 0.02858 0.030914 0.039703 0.080444 0.030716 -0.08075 0.010231 0.020111 -0.038513 -0.0042381 0.078735 0.058746 0.059875 -0.008812 -0.10266 -0.059143 0.058533 0.027313 0.028854 -0.021027 0.016281 -0.060577 0.14954 -0.013962 -0.098206 -0.0010195 0.021057 -0.044189 0.0080719 -0.060059 -0.060181 -0.019455 -0.028564 0.094177 0.043457 0.07074 0.04306 0.10156 0.099854 -0.022263 -0.044312 -0.031891 -0.061371 -0.050629 -0.01796 -0.086731 -0.050873 -0.018173 -0.036987 -0.048676 0.079285 0.021408 -0.051025 -0.084167 -0.025055 -0.00073624 0.0067482 -0.046448 0.04364 -0.02356 -0.059143 -0.024933 0.021118 -0.081848 0.0014715 -0.0046082 0.023712 -0.050537 -0.027359 -0.039124 -0.11304 0.041565 -0.049713 0.011925 -0.05246 -0.024506 0.044464 -0.043671 0.0031242 0.045288 -0.018845 0.051666 0.11066 -0.033264 0.052826 -0.05484 -0.062988 -0.049591 -0.0001182 0.035339 -0.017059 0.0048027 -0.019791 0.14893 0.0043297 -0.01918 -0.037842 -0.041931 0.049591 0.013733 0.10828 -0.088623 0.046356 0.05658 -0.03537 -0.085693 -0.050385 0.012985 0.019745 0.02095 0.090088 -0.062866 -0.15967 0.090637 -0.030029 -0.051819 -0.072388 -0.096375 -0.024368 0.10419 0.018219 -0.086609 0.090942 -0.014885 -0.051178 -0.035675 -0.0033951 -0.025116 0.014351 -0.000741 -0.023102 -0.028015 -0.04895 -0.026901 0.018753 0.003046 -0.082153 -0.063416 -0.038818 -0.025711 0.0072556 0.063904 0.032623 -0.071228 -0.12024 0.032898 -0.12622 -0.094482 0.004528 -0.0093613 -0.069946 -0.057098 0.051025 -0.083801 0.025253 -0.052765 0.057007 -0.10529 0.028503 0.016327 -0.09198 0.031708 0.059479 -0.12866 0.011948 -0.076294 -0.018875 -0.02771 -0.024628 -0.054657 0.020721 0.15027 -0.1593 0.053101 -0.055939 -0.078674 -0.039337 -0.04184 -0.033752 0.052307 0.035034 -0.027344 0.020447 0.0037384 -0.085205 -0.035675 -0.028915 -0.1261 -0.022095 -0.023163 0.12634 -0.075562 -0.049866 -0.050659 -0.034485 -0.040802 0.011848 -0.033112 0.035339 0.0012674 0.0064812 -0.039429 -0.1098 -0.030365 -0.00039363 -0.021637 0.047302 -0.037079 0.039642 -0.096619 0.02153 -0.012466 0.002161 -0.056793 -0.044983 -0.074829 0.058167 0.065125 0.029694 -0.050018 -0.0007205 -0.055084 0.0466 0.040222 0.028458 -0.061249 -0.062622 -0.008606 -0.068848 -0.019287 0.0023518 0.022079 -0.0056725 0.067749 0.04715 0.033936 -0.0086823 -0.022766 -0.073059 -0.035889 -0.081848 -0.034729 0.099182 -0.069946 -0.034424 -0.086487 0.073486 0.070923 0.013512 0.067993 -0.1283 -0.029907 -0.018753 -0.039612 -0.049225 0.081116 0.025009 0.071594 -0.063599 -0.013733 0.019913 -0.094055 -0.063965 -0.091919 -0.1073 -0.0008955 0.011978 -0.049164 0.06073 0.068481 -0.0033703 0.054657 -0.081238 -0.043518 0.075256 -0.023697 0.091675 -0.00057268 0.086609 0.030487 -0.06842 0.037201 0.0088882 0.043854 0.076904 0.0081253 0.05545 -0.027863 0.001193 0.091187 -0.03421 -0.050995 -0.0047188 -0.038605 0.097412
Computer_graphics 0.065308 -0.047516 0.025345 0.071106 -0.077393 0.042816 0.037872 -0.044495 0.0085144 0.00095749 -0.038269 -0.027481 0.00077152 -0.00022519 -0.065186 0.014618 0.013924 0.092529 -0.035889 -0.17212 -0.07251 0.012177 0.001873 0.0091934 -0.053986 -0.11121 -0.0057335 0.068726 -0.040527 -0.092773 -0.073669 0.0040779 -0.053467 -0.00045037 -0.064941 -0.0038586 0.020538 0.045074 0.061615 0.037323 0.12012 0.042297 0.068542 0.098877 0.014282 -0.068298 -0.0068321 -0.099182 0.021286 0.062622 -0.10583 -0.04718 -0.039642 -0.096375 -0.062683 0.03717 0.061798 -0.10291 -0.0056496 -0.043396 0.0073242 0.0083618 -0.025269 -0.032837 -0.086487 -0.024612 -0.0037098 0.070129 -0.0084915 -0.021133 -0.060303 -0.035675 0.049591 -0.056213 -0.062805 -0.0289 0.054993 -0.017899 0.025177 -0.00074482 -0.018661 0.11487 0.059662 -0.0025768 0.15393 0.032043 0.024811 0.12732 0.011665 0.022644 0.021072 -0.10699 -0.13464 0.06311 0.020386 0.039307 0.045197 -0.082642 0.09845 0.009201 0.031647 -0.042572 -0.11853 -0.053253 0.054657 0.090088 -0.050781 0.054291 0.0080795 0.0031509 -0.066589 -0.030472 0.050629 0.057739 0.12201 0.050537 -0.073486 -0.12903 0.1015 -0.037659 -0.047638 -0.016342 -0.027649 -0.02037 0.069336 -0.016159 -0.10291 0.082275 -0.026291 0.041168 -0.0023422 -0.046356 -0.064331 0.0056839 0.013008 0.053192 0.02919 0.011368 -0.034332 0.090942 0.064392 -0.034363 -0.085815 0.044037 -0.073547 0.064758 0.045166 0.03949 -0.074768 -0.016739 0.018555 -0.056152 -0.089172 0.029114 0.0060806 -0.11133 -0.0039978 0.028824 -0.041473 -0.015457 -0.062561 0.050323 0.003273 0.061981 0.049103 0.022614 0.052979 0.011292 -0.14331 0.0354 -0.012634 0.0064201 -0.11029 0.036682 0.03476 0.030945 0.062469 -0.17065 -0.0031319 -0.014816 -0.044403 -0.070984 0.043457 -0.0090256 0.017609 0.0080185 0.020874 -0.0082397 0.0012693 -0.035217 0.026733 0.0094528 -0.050446 -0.030716 -0.031052 0.04837 0.014236 -0.085938 -0.015991 -0.023239 -0.0037861 0.086853 -0.071716 -0.020493 -0.063599 0.010483 -0.031433 -0.074768 -0.090942 -0.024994 -0.078979 0.025589 -0.068054 0.064087 -0.049713 0.0064278 0.021912 0.014168 -0.026535 -0.077454 -0.050842 0.052338 0.019638 -0.027405 -0.044342 0.027206 -0.044037 0.061859 0.042908 0.042603 -0.013313 0.011253 -0.01265 -0.058899 -0.056274 0.020828 -0.0098572 -0.025665 0.10266 0.038177 0.077698 -0.025284 -0.066956 -0.051208 -0.011086 -0.034607 -0.05899 0.17126 -0.011879 -0.0802 0.039032 -0.039368 0.011772 0.021301 0.043243 -0.13269 -0.027512 -0.010567 -0.0069046 -0.0088196 0.05719 -0.055756 0.021576 -0.065186 -0.004715 0.026199 0.034302 -0.14001 -0.080933 -0.019394 -0.0093842 -0.0038376 -0.081604 0.027908 0.047119 0.027924 -0.032532 -0.022278 -0.00084448 0.11285 -0.015869 0.10565 -0.010414 0.0096359 0.021042 -0.026825 -0.0018425 -0.029678 0.060089 0.072876 -0.13257 0.062103 -0.069336 0.027771 0.016617 -0.0042381 -0.045441 -0.097961 -0.00036335 0.076111
Image_processing 0.052185 -0.027115 0.029663 0.017578 -0.039062 0.025085 0.018784 -0.034241 -0.014023 0.0017757 0.0048523 -0.024277 -0.0028477 0.0051842 -0.05127 0.033661 0.07666 0.18115 -0.014046 -0.12646 -0.07959 0.024506 0.00025582 0.048157 -0.08844 -0.072754 -0.093384 0.10669 -0.038544 -0.098755 -0.0087967 -0.012512 -0.031281 -0.052643 -0.045013 0.027695 0.010292 0.04425 0.033661 0.0053368 0.057678 0.033905 0.009079 0.095154 0.011749 -0.10754 -0.032227 -0.16663 -0.013863 -0.018555 -0.13391 0.0011721 -0.022614 -0.064636 -0.024231 0.040802 0.0060463 -0.11237 0.025024 -0.054932 0.0024281 -0.013626 -0.10168 -0.045044 -0.052368 -0.09375 -0.020172 0.033966 0.0016422 0.07074 -0.030899 0.016327 0.065796 -0.034546 -0.086487 -0.042084 0.10291 0.002512 0.020767 -0.035309 0.045227 0.033081 0.0112 0.023941 0.08728 0.0040245 0.061401 0.11523 -0.014542 0.036621 0.037354 -0.086426 -0.094238 0.070618 -0.040894 -0.04895 0.015419 -0.074402 0.078125 -0.029495 0.040833 -0.049774 -0.062286 0.0019188 0.027496 0.10297 -0.10333 0.094666 -0.013733 0.036346 -0.018478 -0.045197 0.084534 0.023499 0.11285 0.020493 -0.056946 -0.12305 0.065063 -0.020935 -0.015839 -0.0055161 -0.041016 -0.0081863 0.098694 -0.031219 -0.14893 0.067383 -0.015335 0.070435 0.016815 -0.012253 -0.073975 0.015976 -0.072815 0.073608 0.012619 0.040985 0.057007 0.088928 0.091003 -0.024139 -0.077454 -0.0069084 -0.07312 0.030258 0.088684 0.091858 -0.022324 -0.098083 0.0029259 -0.083801 -0.12598 0.03653 0.059021 -0.12939 -0.045715 0.090332 -0.09491 0.022034 -0.029907 0.080139 0.0061264 -0.035278 -0.027252 -0.027664 0.047638 0.013336 -0.1405 0.10846 -0.054749 -0.024933 -0.085999 -0.0091171 -0.018463 0.017883 0.080688 -0.15906 -0.026093 -0.046692 0.0027962 -0.060181 -0.011223 0.009079 0.063293 0.033966 0.025848 0.02684 -0.017456 -0.0010452 -0.017517 -0.01062 -0.012184 -0.031464 -0.0017529 0.051392 -0.0028782 -0.049713 -0.0044937 -0.074463 -0.031799 0.011139 -0.022522 0.0013027 -0.014671 -0.008522 0.0027962 -0.036804 -0.043457 0.039764 -0.022232 -0.021988 -0.10754 0.075867 -0.053986 0.049683 0.11133 0.0090942 0.0087891 -0.0094833 -0.073853 0.052155 0.015274 -0.02565 -0.098083 -0.016373 0.029556 0.010246 0.024765 0.0077705 -0.01445 -0.02037 -0.019073 -0.050049 -0.038666 -0.046997 0.0054092 0.025513 0.092163 0.0033092 0.04541 -0.036621 -0.047211 -0.070374 -0.01088 -0.0021305 -0.058167 0.18604 -0.059479 -0.085815 -0.0092468 -0.0058517 -0.044922 0.022888 0.033661 -0.072266 -0.0092697 -0.015541 0.0030518 0.021744 0.072632 0.024307 0.039856 -0.036224 -0.023834 0.051453 0.043671 -0.096069 -0.038727 -0.045166 -0.031403 -0.0093765 -0.11713 -0.0033722 0.041138 -0.016724 -0.017075 0.02179 -0.00097561 0.12415 -0.036224 0.076538 -0.005867 -0.0025826 0.071106 0.01535 0.056641 -0.022202 -0.00056982 0.071594 -0.053986 0.046875 -0.089233 0.040161 -0.014618 -0.0027962 -0.045502 -0.032928 0.011719 0.092285
Parallel_computing 0.057434 -0.024017 0.041809 0.083496 -0.0043716 0.017303 0.0076637 -0.018951 0.024612 0.022766 -0.033936 -0.0051613 0.016571 -0.0055466 -0.031464 0.053223 0.05365 0.10107 0.010796 -0.13477 -0.039886 0.039337 0.019272 0.0088425 -0.059631 -0.095459 -0.016205 0.10248 -0.025864 -0.069275 -0.045929 0.016769 -0.042969 -0.011894 -0.073669 -0.0018148 -0.051208 0.066895 0.059082 0.041412 0.083496 0.022949 0.096436 0.097046 -0.017838 -0.07666 -0.11835 -0.1311 0.0038548 0.016815 -0.10901 0.0097427 -0.028244 -0.04892 -0.06134 0.06134 0.011108 -0.094177 0.0051727 -0.046265 0.048401 0.0021706 -0.056458 0.01326 -0.060486 -0.076111 -0.058441 0.079041 -0.037323 -0.0037231 -0.0022297 -0.026138 0.045685 -0.062744 -0.054596 -0.026398 0.063904 -0.047089 -0.0043602 -0.062073 0.011154 0.10535 -0.0021191 0.034119 0.11664 0.012039 0.072388 0.15698 -0.018433 0.064758 0.081177 -0.13843 -0.11261 0.038177 -0.029129 -0.020523 0.047485 -0.071167 0.059937 -0.062561 -0.0066414 -0.067566 -0.043854 0.0046959 -0.034973 0.06427 -0.060577 -0.0065346 0.051056 0.028671 -0.038757 -0.062073 0.052643 0.018082 0.069763 0.05249 -0.060333 -0.11096 0.10303 -0.064087 -0.013306 0.031311 0.00387 -0.001895 0.073975 -0.068848 -0.17505 0.088989 -0.042206 0.022949 0.049683 -0.057312 -0.054321 -0.014839 -0.014519 0.061646 -0.0016403 0.011917 -0.016571 0.035065 0.066101 -0.057434 -0.069397 -0.0078278 -0.091492 0.0099792 0.094482 0.080566 0.0025864 -0.064575 0.033356 -0.12067 -0.081116 0.031464 0.029099 -0.10693 -0.046021 0.084717 -0.11084 0.0022888 -0.053284 0.059998 0.010933 -0.0043755 0.029083 0.019318 0.062073 0.058655 -0.14954 0.054016 -0.033203 -0.058105 -0.084717 -0.012558 -0.023041 0.033112 0.10028 -0.15173 0.020859 -0.013626 -0.0015907 -0.018982 0.073486 0.020721 0.045624 0.012451 0.034882 0.063782 0.036316 0.0046043 -0.029922 -0.016647 -0.033997 -0.01973 -0.00042319 0.058075 0.019623 -0.07959 -0.0067558 -0.07373 -0.11255 0.072327 -0.036835 0.020798 -0.030319 -0.065613 -0.0094452 -0.058472 -0.042694 0.0495 -0.0081635 -0.0011215 -0.049408 0.10498 -0.081726 0.042419 0.073914 0.054718 -0.060181 -0.039917 -0.042603 0.029709 0.069214 -0.03363 -0.057831 -0.013306 -0.035858 0.064575 0.016632 0.020142 -0.045441 0.0066528 0.022079 -0.065796 -0.10864 -0.026031 -0.00064373 -0.0065155 0.08075 -0.026001 0.066528 -0.034729 -0.036041 -0.077454 -0.019318 -0.068787 -0.051453 0.1366 -0.03653 -0.053772 0.005352 -0.0066223 0.012039 0.033112 0.052399 -0.091736 -0.016663 -0.026993 -0.029572 -0.033722 0.046326 -0.028152 0.038177 -0.040192 -0.079468 0.015732 0.011688 -0.055359 -0.051666 -0.075989 0.00029874 0.013306 -0.096497 0.046326 0.062469 -0.011261 -0.012268 -0.069885 -0.014984 0.09729 -0.022583 0.063965 0.019073 -0.01281 0.08783 -0.0242 -0.0030251 -0.0015011 0.0074081 0.049377 -0.014404 0.048889 -0.078552 0.082153 0.0056267 -0.068237 -0.077881 -0.081909 -0.018143 0.076782
Concurrency_(computer_science) 0.023056 -0.10413 0.0017042 0.088074 -0.023361 -0.028702 0.060699 -0.049042 0.010368 0.066895 -0.033356 -0.021439 -0.024521 0.040192 -0.069885 0.091553 0.017746 0.032684 0.030212 -0.10657 -0.028442 0.019577 -0.078003 -0.007206 -0.021912 -0.053436 -0.063232 0.016037 -0.038727 -0.0047455 0.0073624 0.0095596 -0.025681 -0.055481 -0.011932 -0.042389 -0.012268 0.0010433 0.086609 0.04068 0.048523 0.0090179 0.05011 0.13 -0.032623 -0.042969 0.016968 -0.070312 -0.049286 0.0030174 -0.13196 -0.0242 -0.033844 -0.039429 -0.003109 0.051056 -0.010841 -0.11066 -0.095825 -0.086121 -0.012962 -0.031128 -0.081787 -0.033905 -0.04953 -0.079834 -0.082581 0.055328 -0.0036926 0.028076 0.0033455 -0.037659 0.04657 0.0023422 -0.055847 -0.11432 0.057983 0.040802 0.010918 -0.0044556 -0.052185 0.0010309 -0.0059357 0.0038891 0.067322 -0.00015867 0.038422 0.13574 -0.015854 0.029083 0.031052 -0.071167 -0.095398 -0.013351 -0.028397 0.01712 0.11584 -0.10516 0.089966 0.00025773 0.021469 -0.11627 -0.079651 -0.0045662 0.034668 0.039886 -0.11969 0.069641 0.039093 -0.031555 -0.054016 -0.021835 0.00091982 -0.010475 0.098572 0.048462 -0.033051 -0.085632 0.19177 0.061676 -0.055939 -0.00035238 -0.014778 -0.029266 0.062561 0.01709 -0.12213 0.051208 0.010017 0.054626 0.0066605 0.0011187 -0.068787 -0.040558 -0.025314 -0.0043335 -0.015266 -0.049744 -0.017242 0.074951 0.059387 -0.056305 -0.045715 -0.010643 -0.082825 0.042084 0.058838 0.048584 -0.025528 -0.056793 0.080139 -0.12854 -0.086365 0.030533 0.018677 -0.1189 0.00084162 0.051697 -0.065002 -0.0044136 -0.029694 0.084412 -0.017609 -0.035522 0.031204 -0.022888 0.055908 0.065613 -0.14062 0.062805 -0.062744 -0.0093002 -0.07196 -0.051483 -0.0042877 0.026276 0.047668 -0.14551 0.021133 -0.043976 -0.029419 -0.060181 0.019302 0.03038 0.10431 0.069702 0.0019817 0.016861 0.051239 0.011139 -0.039948 -0.074585 -0.086731 -0.003891 0.0024052 0.083984 0.027115 -0.11072 -0.035431 -0.062286 -0.053619 0.10394 0.014961 -0.01474 -0.054291 -0.039154 -0.040314 -0.035034 -0.070068 0.048676 0.014503 -0.036438 -0.046631 0.034668 -0.080078 0.037659 0.03064 -0.010399 -0.064026 -0.0016699 -0.021805 -0.0091324 0.029144 0.017731 -0.043579 -0.036652 -0.0076447 0.0041084 0.05835 -0.0159 -0.086182 0.041901 -0.016968 -0.060638 -0.068359 -0.022766 0.073303 0.036163 0.078308 0.054169 0.019257 0.0074806 -0.0061569 -0.089783 0.03093 -0.052277 -0.079407 0.16016 -0.10284 -0.052063 -0.023956 0.088806 -0.049835 0.081421 0.031708 -0.125 -0.09967 -0.029068 -0.051483 0.01709 0.12964 0.0058289 0.013405 -0.073364 -0.042328 0.041779 -0.0071297 -0.052155 -0.060211 -0.073975 -0.003952 0.026291 -0.067871 0.038147 0.096069 -0.0093842 -0.018219 -0.081421 -0.043549 0.086609 -0.063293 0.090332 -0.0095367 0.066223 -0.0008893 -0.026718 0.033875 0.013779 -0.011772 0.074524 -0.016251 -0.0098495 -0.04895 0.099182 0.012138 -0.066162 -0.010719 -0.061066 -0.0006752 0.046875
Distributed_computing_ 0.016098 -0.037903 -0.016388 0.092102 -0.0081177 -0.0011005 0.067871 0.014992 0.010155 0.024979 -0.010727 -0.012383 -0.015839 -0.019714 -0.050232 0.06131 -0.01342 0.081299 0.012459 -0.11029 -0.060333 0.025116 0.019028 0.045044 -0.01796 -0.095825 -0.038147 0.078857 -0.027069 -0.13477 -0.045441 -0.063965 -0.026947 -0.0053329 -0.046783 -0.037903 0.0018396 -0.019867 0.10175 0.037109 0.04776 0.056946 0.10333 0.12469 -0.030182 -0.072083 -0.094727 -0.1004 -0.0058022 0.033966 -0.10199 -0.05304 -0.062317 -0.093201 -0.053497 0.079041 0.027588 -0.095398 -0.032135 -0.071838 0.041565 0.0021362 -0.027359 0.0071144 -0.043182 -0.045502 -0.030457 0.038116 -0.06543 -0.024704 0.0079193 -0.028442 0.034271 -0.1084 -0.073364 -0.041504 0.0401 -0.064636 0.046051 -0.069763 0.028275 0.078064 -0.017242 -0.027832 0.10199 -0.0050774 0.047241 0.14563 -0.0065918 0.055817 0.041809 -0.088684 -0.10516 0.041687 -0.020279 -0.018494 0.021835 -0.12769 0.060913 -0.057983 0.041931 -0.063293 -0.051331 -0.001461 -0.0073013 0.070007 -0.098389 0.070068 0.026505 -0.01384 -0.02771 -0.041504 0.021149 0.081909 0.1012 0.053986 -0.073792 -0.089172 0.12048 -0.02655 -0.013977 -0.022141 -0.018906 -0.061768 0.046661 0.029831 -0.12213 0.12 -0.044342 -0.0065689 0.024765 -0.028519 -0.018295 0.0050087 0.00027013 0.029663 0.011688 -0.021057 -0.037994 0.05307 0.08429 -0.059235 -0.063049 0.0064926 -0.068481 0.040894 0.050995 0.046661 -0.036011 -0.10608 0.052368 -0.11249 -0.089966 0.035278 0.023956 -0.11072 -0.048676 0.062988 -0.093933 0.0031128 -0.053009 0.020111 -0.031525 0.032471 0.0079346 -0.043427 0.028137 0.025681 -0.14185 0.050018 0.00079918 -0.0061569 -0.066711 -0.012268 0.024307 0.0056763 0.088013 -0.1759 -0.010025 -0.035767 0.0032578 -0.030869 0.016159 -0.0030613 0.083923 0.0063667 -0.0022736 0.06543 0.03064 -0.019226 -0.073425 -0.0080948 -0.084473 -0.023651 0.0021267 0.065308 0.012764 -0.11639 -0.087219 -0.061676 -0.04303 0.068787 0.0067978 0.077576 -0.042114 -0.011711 -0.048431 -0.067871 -0.028717 0.0064697 -0.048035 -0.030319 -0.055573 0.069031 -0.017883 0.034668 0.045013 0.088013 -0.091248 -0.030655 -0.056274 0.014297 0.030548 -0.043762 -0.028458 -0.018463 -0.046753 0.019714 0.061554 0.028931 -0.059113 -0.045135 0.0013475 -0.073975 -0.050873 -0.048523 0.031464 -0.013977 0.046295 -0.024628 0.039673 -0.039764 -0.056091 -0.10254 -0.0401 -0.10321 -0.037048 0.13953 -0.036865 -0.042114 -0.040375 0.011703 0.024933 0.045227 0.014015 -0.14246 -0.043549 -0.006485 -0.063049 -0.005043 0.073608 -0.016083 0.00096798 -0.035217 -0.060974 0.027573 0.012894 -0.062561 -0.12085 -0.077209 -0.01458 0.0755 -0.048218 0.015671 0.082275 0.016373 -0.010574 -0.052063 0.027481 0.052948 -0.023956 0.051666 0.031616 -0.0032253 0.12122 -0.03952 0.016586 0.030487 0.019806 0.082031 -0.050659 0.066101 -0.10547 0.048615 0.032532 -0.011292 -0.02095 -0.035828 -0.023529 0.094849
Relational_databases 0.083069 -0.064087 -0.048523 0.054352 -0.076416 0.017731 0.016037 -0.0056763 -0.014053 0.025482 -0.016861 -0.045715 0.0037403 -0.00042009 -0.010689 0.073364 0.07019 0.072571 -0.06897 -0.073059 -0.057037 0.020737 -0.015617 0.066589 -0.034241 0.014 -0.046906 0.14722 0.0098343 -0.14514 -0.012665 -0.0062103 -0.055389 -0.027298 -0.071594 -0.014107 0.011642 0.026749 0.04361 0.037109 0.064514 0.010689 0.12048 0.13623 -0.0056572 -0.10767 -0.04361 -0.078613 -0.031982 0.046967 -0.096619 -0.056549 -0.10852 -0.040649 -0.024979 0.061188 -0.018402 -0.034302 -0.0066376 -0.047852 0.063843 -0.022476 -0.046631 0.024902 -0.097778 -0.067505 -0.063171 0.011879 -0.10492 -0.042847 0.0072098 0.019989 0.0089035 -0.085144 -0.054413 -0.054138 0.064819 -0.063477 0.050751 -0.0021687 -0.042358 0.062164 -0.050446 -0.034332 0.11169 -0.018143 0.0086136 0.08844 0.0051918 -0.033173 -0.048004 -0.094543 -0.084351 -0.062225 0.030106 0.01857 0.031525 -0.054749 0.085815 -0.033661 -0.012642 -0.030426 0.0093842 -0.0064354 -0.022873 0.092102 -0.13123 0.066284 -0.0054512 -0.0085526 -0.045288 -0.077942 0.02095 0.023071 0.085876 0.10461 -0.029282 -0.12512 0.15564 0.0023575 -0.032623 -0.03183 -0.016418 0.00062704 0.052704 -0.044037 -0.1153 0.12537 -0.0086746 -0.071045 -0.083801 -0.046478 -0.11029 0.057404 0.025467 0.011627 -0.015007 -0.032196 -0.0067635 0.038086 0.048035 -0.099182 -0.054321 -0.014107 -0.038239 0.020172 0.0019798 0.067505 -0.014793 -0.058136 0.09259 -0.07605 -0.066223 -0.0034351 0.006443 -0.10553 -0.037537 0.09906 -0.077209 -0.037354 -0.028214 0.037445 -0.057922 0.021729 0.019928 -0.043152 0.0012779 0.029846 -0.15564 0.083191 -0.063721 -0.004261 -0.034058 -0.032318 0.044006 -0.0071831 0.14685 -0.13062 0.041962 -0.082153 0.021179 -0.025818 0.018188 -0.02713 0.055481 0.031006 -0.036926 0.06366 0.053528 -0.03537 -0.025131 -0.02298 -0.086914 -0.0074005 0.0065269 0.071106 -0.045959 -0.082886 -0.077026 -0.07019 -0.043365 0.022263 0.0023403 -0.031235 0.027359 0.0042572 0.026382 -0.091431 0.0069542 0.020981 -0.054077 0.0041008 -0.054657 0.055176 -0.095947 -0.0083771 0.040894 0.043121 -0.054962 -0.045197 -0.11267 0.036926 0.062225 -0.03479 -0.02095 -0.018585 0.005558 0.043732 0.05307 0.023148 -0.036285 -0.049957 -0.043579 -0.079163 -0.028214 -0.04483 0.031616 -0.034302 0.05011 0.025238 0.058105 -0.00034499 -0.030502 0.00032735 -0.061768 -0.074036 -0.00076723 0.14709 -0.020874 -0.059784 -0.024902 0.054749 0.0032234 0.032349 0.063965 -0.13062 -0.06015 -0.012665 -0.0060501 -0.010895 0.090271 0.00054216 0.061035 -0.037872 -0.035339 -0.047394 0.028305 0.013298 -0.061035 -0.071411 -0.042999 0.035339 -0.06842 0.069214 0.053955 -0.0056343 -0.026749 -0.065979 -0.0047226 0.086792 -0.11267 0.067139 -0.0044327 0.023529 0.052612 -0.070679 0.0085754 0.0089417 0.00083208 0.089905 -0.0103 0.089233 -0.047577 0.08136 0.0093765 0.0087509 -0.0072098 -0.042358 -0.042755 0.052216
Structured_Storage 0.058838 -0.043884 -0.031708 0.072571 -0.081543 0.0088654 0.01712 0.0036983 0.041016 0.048706 -0.047729 -0.0060005 -0.0039635 -0.011421 -0.032196 0.048981 0.065308 0.039001 -0.046783 -0.050079 -0.057831 0.026886 0.0097046 0.0073128 0.050995 -0.054779 -0.015396 0.1203 0.013405 -0.13062 -0.016739 -0.053528 -0.060089 -0.027496 -0.052002 -0.03186 0.010994 0.031586 0.089966 0.043915 0.047058 0.029175 0.075256 0.098755 -0.038849 -0.10468 -0.080688 -0.069031 -0.031677 0.028336 -0.1026 -0.05481 -0.075623 -0.073853 -0.032471 0.083923 -0.017334 -0.10339 -0.023392 -0.055695 0.039337 -0.02652 0.035309 -0.020355 -0.10028 -0.07373 -0.044556 -0.016464 -0.022415 -0.04364 -0.0023079 0.025894 0.015762 -0.085693 -0.077881 -0.095337 0.10889 -0.033813 0.081848 -0.013214 -0.028046 0.043762 -0.020645 -0.025864 0.075745 0.0052872 0.030334 0.11957 -0.0046463 -0.0089722 -0.012581 -0.10669 -0.11377 -0.06192 -0.01886 0.049652 0.041748 -0.054596 0.090698 -0.031891 0.0022469 -0.030029 -0.054962 -0.020386 -0.020432 0.13159 -0.079346 0.056427 0.037567 -0.0038853 -0.083435 -0.063538 0.036682 -0.0070534 0.11737 0.070129 -0.021545 -0.1189 0.1225 0.0062408 -0.072205 -0.048248 -0.046295 -0.012177 0.034027 -0.020111 -0.078369 0.11737 -0.041962 -0.0064812 -0.018524 -0.018646 -0.046326 -0.029984 -0.010971 0.012733 0.010559 -0.026855 -0.033203 0.073059 0.070496 -0.096924 -0.03891 0.013702 -0.031342 0.052155 0.046722 0.089661 -0.043427 -0.072693 0.10095 -0.091064 -0.045654 -0.0090027 -0.011276 -0.11566 -0.066467 0.057739 -0.043579 -0.031281 -0.03186 0.070251 -0.021378 0.017822 0.0022564 -0.060242 0.024963 0.031433 -0.17273 0.0020542 -0.081055 -0.018539 -0.02951 -0.048645 0.061157 0.011879 0.11121 -0.15356 0.084595 -0.074768 -0.017059 -0.024811 -0.0080719 -0.042847 0.016327 0.0080795 -0.034729 0.085876 0.046082 -0.089294 -0.049103 -0.048492 -0.078003 0.0040588 -0.013123 0.10217 -0.013268 -0.070496 -0.046143 -0.074524 -0.022522 0.10083 -0.015144 -0.034607 -0.03421 -0.016083 -0.002327 -0.10852 0.0014076 -0.0074387 -0.080383 -0.0015106 -0.055756 0.077332 -0.072693 -0.019547 0.036163 0.024872 -0.020828 -0.035645 -0.097351 0.023865 0.059387 -0.013016 0.016052 -0.040161 -0.027405 0.046448 0.036285 -0.026337 -0.05249 -0.00069332 -0.031433 -0.069946 -0.007988 -0.0336 0.040863 0.018112 0.052368 0.067383 -0.0094147 -0.02298 -0.011101 -0.055817 -0.032257 -0.089661 -0.053772 0.18201 -0.042145 -0.069458 -0.0060425 0.088562 0.013428 0.075806 0.06073 -0.065247 -0.085083 0.00091791 -0.024765 0.002903 0.10016 0.010109 0.0080643 -0.074768 -0.02565 -0.02298 -0.042908 -0.040924 -0.061249 -0.070435 -0.031952 -0.0017223 -0.054565 0.064087 0.086487 0.01297 -0.04718 -0.07135 0.037018 0.076233 -0.058838 0.04187 -0.038086 0.037476 0.088928 -0.053162 0.0383 -0.0034447 0.045654 0.11475 -0.01017 0.066956 -0.049286 0.035187 0.016403 -0.022629 -0.031921 -0.06015 -0.024399 0.055786
Data_mining 0.039215 -0.052155 0.046021 0.097351 -0.0034103 0.01548 0.030228 -0.042908 -0.014084 -0.031738 -0.01078 -0.044464 0.02597 0.064026 -0.009407 0.049805 -0.01152 0.067566 0.014496 -0.16089 -0.068298 -0.0047569 -0.070618 0.047211 -0.03714 -0.036438 -0.076111 0.086609 -0.076904 -0.10529 -0.0093842 -0.031372 -0.05304 -0.0051613 -0.0052757 -0.017517 -0.047668 0.012985 0.077576 -0.017761 0.082153 0.054443 0.081726 0.13232 -8.0228e-05 -0.11951 -0.11035 -0.074585 -0.0062218 0.065857 -0.11304 -0.0043221 -0.13757 -0.044403 -0.031677 0.08252 -0.023407 -0.15149 0.045258 -0.047546 0.033752 -0.020584 -0.013634 0.029877 -0.059174 -0.0037556 -0.052399 0.09668 0.00032806 -0.050781 0.0006237 -0.030045 0.11383 -0.098206 -0.041656 -0.052856 0.081787 -0.014786 0.033905 -0.011551 -0.028885 0.056396 0.036316 -0.029953 0.10352 -0.023849 -0.011719 0.151 -0.021042 0.033997 0.037201 -0.1095 -0.12244 0.049927 -0.010216 0.011421 0.050293 -0.11066 0.072876 -0.045471 0.056885 -0.038177 -0.040009 -0.042206 0.012421 0.062622 -0.1488 0.012321 0.030045 -0.02507 0.00090313 -0.033936 -0.0017624 0.02211 0.14502 0.064514 -0.08606 -0.036255 0.10846 -0.034058 -0.016632 0.0048218 -0.05899 -0.011658 0.0289 0.047302 -0.081665 0.14124 0.001193 -0.0087585 -0.012657 -0.10022 -0.049011 0.008667 -0.0060158 0.00024867 0.0081558 0.022705 -0.0067825 0.063416 0.028595 -0.061218 -0.052582 0.046722 -0.043762 0.025635 0.071045 0.049683 -0.0023918 -0.067322 0.023834 -0.044586 -0.10736 0.03598 0.030914 -0.093201 -0.038422 0.057159 -0.031586 -0.055878 -0.031281 -0.014549 -0.059357 0.0022869 -0.0027637 -0.012497 0.063904 -0.0028553 -0.12781 0.053619 0.029266 -0.029648 -0.052429 0.0055199 0.070435 -0.0047722 0.044281 -0.1405 -0.013847 -0.059174 0.0039749 -0.066406 0.079407 -0.026138 0.028503 0.031464 -0.04068 0.051453 0.014305 -0.0033627 -0.063599 -0.0030956 -0.034882 -0.048035 -0.00175 0.033752 0.048309 -0.1192 -0.072144 -0.088135 -0.071045 0.060181 -0.024231 0.06604 -0.064697 -0.014801 0.066162 -0.06781 -0.012291 -0.050018 -0.056213 -0.033173 -0.067749 0.035767 -0.045807 -0.020477 0.10132 0.037659 -0.062042 0.013435 -0.098572 0.023468 0.050781 -0.093323 0.0025864 -0.012703 0.060913 0.0026951 0.00083876 0.012657 -0.0021248 -0.011726 0.041718 -0.058777 -0.043304 -0.010933 -0.047668 -0.073669 0.050751 0.022644 0.074524 -0.039703 -0.078674 -0.0033302 -0.087036 -0.011826 0.0076141 0.14734 -0.028717 -0.12292 0.00060606 -0.022812 0.016174 0.048798 0.018494 -0.11469 -0.0090103 -0.021088 -0.051941 0.023148 0.072937 -0.035736 -0.043396 0.0092163 -0.020386 -0.0022926 -0.007679 -0.089966 -0.086304 -0.039734 -0.05722 0.078064 -0.054535 0.015747 0.030701 -0.0060577 -0.04541 -0.018402 0.098572 0.08374 -0.053802 0.046753 0.023132 0.023041 -0.012955 -0.034546 -0.0059776 0.017517 0.06958 0.085083 -0.03363 0.062469 -0.074524 0.059662 -0.0033379 0.0027008 0.0066566 -0.010063 -0.010658 0.056824
Compiler_theory 0.071533 -0.075317 0.0073586 0.073425 -0.019287 0.0035839 0.025314 0.0051079 0.032562 0.081116 -0.028442 0.0078278 0.0042801 0.02417 -0.035339 0.025482 0.055817 0.089905 -0.025925 -0.13586 -0.089355 0.032898 -0.012909 0.026474 -0.0017099 -0.10498 0.012016 0.060516 -0.041504 -0.021545 -0.022507 -0.044098 -0.026306 -0.0039177 0.0059013 0.027115 -0.01709 0.058441 0.077148 0.021469 0.087341 0.0068398 0.11316 0.091553 -0.01429 -0.050659 -0.11707 -0.068848 -0.074768 0.080994 -0.082703 -0.028625 -0.062378 -0.087585 -0.038483 0.11127 0.015366 -0.11145 -0.034973 -0.048492 0.11426 0.0074768 0.0091171 -0.037903 -0.048767 -0.032837 -0.050049 0.043732 -0.055847 -0.090393 0.072693 -0.0091705 0.018356 -0.11707 -0.017792 -0.030045 0.066772 -0.034576 0.058533 -0.039307 -0.016571 0.059448 -0.0215 0.0070419 0.13708 -0.067749 0.06012 0.095642 0.015747 0.027191 0.036865 -0.1604 -0.070984 0.013405 0.024872 0.0071793 0.023758 -0.057709 0.0012789 -0.033539 -0.026566 -0.031189 -0.0018606 -0.059143 -0.013039 0.058258 -0.050415 0.0979 0.024597 0.020584 -0.06958 -0.043671 0.035431 0.052399 0.084106 0.074036 -0.054779 -0.03598 0.12646 -0.0033188 -0.092468 0.039429 -0.019577 0.019455 0.019348 -0.027863 -0.17053 0.04007 -0.019394 -0.022339 -0.028061 -0.079956 -0.055634 -0.01194 0.010345 0.019226 -0.004734 0.038971 0.022949 0.054626 0.034271 -0.066345 -0.093872 0.024048 -0.031006 0.044342 0.021393 0.05423 -0.0021915 -0.035278 0.034241 -0.085266 -0.10297 -0.020813 0.01973 -0.13782 -0.070312 0.11548 -0.064148 -0.080139 -0.066956 0.075867 -0.037994 0.0092697 -0.026627 0.022232 -0.0092545 0.046295 -0.10522 0.032959 -0.014656 0.052216 -0.049377 -0.03363 0.055145 0.025238 0.076111 -0.13416 0.057587 -0.013588 -0.011024 -0.059082 0.077454 0.0024395 0.072021 0.048492 -0.015182 0.034149 0.0056038 0.0016918 -0.048126 -0.090454 -0.028198 -0.0051651 -0.037476 0.11682 -0.048676 -0.12103 -0.045044 -0.039246 -0.11139 0.044647 -0.039856 0.07312 -0.055145 -0.0062675 -0.016006 -0.027557 0.01738 0.0046921 -0.01413 -0.092712 0.0099411 0.093506 -0.058228 0.046387 0.088013 0.058868 0.0048599 -0.050354 -0.054504 -0.030014 -0.0094986 -0.090149 -0.022018 0.0045509 -0.027924 0.0031033 0.049042 0.078186 -0.074524 -0.035583 -0.080078 -0.04361 -0.038452 -0.0089417 0.042511 0.004406 0.098206 -0.020142 0.00012589 -0.035706 0.0009532 -0.077759 0.0023346 -0.098145 0.028473 0.13513 -0.067261 -0.05658 -0.046631 0.039215 0.0049667 0.022034 0.024811 -0.12128 -0.076172 0.014687 0.021759 0.002882 0.10559 -0.011902 0.065796 -0.033173 -0.046082 0.010971 0.038544 -0.059967 -0.086548 -0.073242 -0.02124 0.011047 -0.049072 0.069153 0.059418 -0.012978 -0.052979 -0.068787 -0.0022984 0.087891 -0.034271 0.034821 -0.041382 -0.021362 0.099609 -0.087158 0.013992 0.06131 0.065186 0.069336 0.018082 0.032745 -0.032745 0.051514 0.034149 -0.018539 0.027725 -0.048187 -0.046051 0.071472
Programming_language_pragmatics 0.10339 -0.056091 -0.083618 0.093018 -0.036682 0.03894 0.031586 0.017975 0.023392 0.047455 -0.0020866 -0.021683 0.012619 -0.020004 -0.052185 0.017517 0.13171 0.11731 0.030182 -0.13684 -0.066895 0.022705 -0.011742 -0.0012712 -0.10303 -0.047516 -0.01918 0.074402 -0.020462 -0.085815 -0.069641 0.016663 -0.081604 -0.03775 -0.028381 0.024307 -0.0078659 0.026245 0.089294 0.014412 0.046356 0.017822 0.072449 0.1181 -0.067139 -0.045563 -0.083618 -0.069336 -0.054504 0.034821 -0.064514 -0.014252 0.012779 -0.082947 0.0024357 0.067566 0.013504 -0.085205 -0.05426 -0.086914 0.060333 -0.0079193 -0.01313 -0.0040169 -0.11731 -0.06427 -0.11389 0.010246 -0.018204 -0.040131 0.081909 0.028687 -0.014061 -0.073792 -0.077637 -0.046295 0.051117 -0.028778 0.015991 -0.012894 0.0036049 0.090149 -0.0018177 -0.031494 0.1087 -0.024597 0.072815 0.10364 0.026184 0.0053673 -0.0042496 -0.10223 -0.05011 -0.02742 0.013237 -0.023346 0.074219 -0.043579 0.020493 -0.04248 -0.040924 -0.031433 -0.046631 -0.024094 0.018646 0.047455 -0.060486 0.075623 -0.0018263 -0.030807 -0.085999 0.023102 0.015518 0.025711 0.088989 0.056091 -0.01593 -0.070679 0.1604 0.035492 -0.051971 -0.0017595 -0.029129 0.042694 0.020569 -0.023544 -0.15771 0.061951 -0.032776 0.0016613 -0.077759 -0.017242 -0.028534 0.022324 0.013512 0.066162 -0.030045 -0.016098 0.024155 0.033722 0.025436 -0.072815 -0.05481 -0.015442 -0.036377 0.014748 0.034149 0.10962 -0.010452 -0.088562 0.078918 -0.10443 -0.066406 0.0056915 0.078918 -0.15344 -0.046722 0.052643 -0.11578 -0.010033 -0.024887 0.055634 -0.0066452 -0.029541 -0.01387 -0.028397 0.099854 0.025391 -0.13306 0.026169 -0.011879 0.023178 -0.084106 -0.036621 0.014336 0.012253 0.078125 -0.15857 0.01564 -0.036377 -0.015587 -0.068726 0.0073814 -0.0036068 0.058319 0.068542 -0.028229 0.042236 0.029022 0.010109 0.025513 -0.067749 -0.053864 -0.0069618 -0.0096588 0.13708 -0.082214 -0.071045 -0.067688 -0.025131 -0.088623 -0.00024796 -0.040466 0.043549 0.024689 -0.011673 -0.033356 -0.0755 -0.059143 0.061646 -0.028046 0.0018702 -0.061462 0.063049 -0.035583 0.063477 0.093384 -0.0069199 -0.032166 -0.042572 -0.039734 0.021286 0.019821 -0.068542 0.010178 -0.027023 0.0047112 0.011238 0.031128 0.032471 -0.053314 -0.030716 -0.045013 -0.044403 -0.028275 0.015083 0.077942 0.050079 0.11566 0.012375 0.025711 -0.002264 0.033234 -0.07489 -0.0072289 -0.091187 0.026932 0.13672 -0.040558 -0.032959 -0.032074 0.070251 0.019699 0.055939 0.051239 -0.12842 -0.087708 0.0037022 0.017654 -0.029755 0.099548 0.017853 0.040405 -0.08429 -0.072449 0.039459 0.0045815 -0.06842 -0.081665 -0.091125 0.035583 0.04248 -0.05481 0.030716 0.080566 0.029495 0.012917 -0.042816 -0.041412 0.059204 -0.036346 0.032776 -0.030624 0.021896 0.089661 -0.053375 -0.024826 0.040985 0.034271 0.082642 -0.013596 0.012184 -0.077942 0.004097 0.053253 -0.067261 0.032562 -0.054169 -0.057068 0.092834
Programming_language_theory 0.026901 -0.03949 -0.010849 0.086975 -0.02533 -0.014595 0.049835 -0.027802 0.0087204 0.036377 -0.013359 -0.03299 0.0069427 0.025131 -0.053619 0.056152 0.068115 0.058197 0.021179 -0.11884 -0.069702 0.028763 -0.041016 0.029938 -0.07843 -0.059753 -0.051453 0.036987 -0.049438 -0.03241 -0.054749 -0.024521 -0.04892 -0.032654 -0.040283 0.012032 -0.0015354 0.059906 0.080383 -0.0021801 0.042175 0.042847 0.10034 0.081421 -0.014816 -0.070557 -0.060089 -0.076233 -0.047516 0.061829 -0.11377 -0.073853 -0.025482 -0.053406 -0.0027199 0.062347 -0.0008812 -0.10889 -0.035858 -0.060333 0.013618 -0.015495 -0.061523 0.0044327 -0.028366 -0.10394 -0.087341 0.038391 0.010712 -0.047394 0.10486 -0.012665 0.038422 -0.11804 -0.06073 -0.052673 0.097717 -0.024338 0.012756 -0.017776 0.0020504 0.032562 0.015144 -0.01709 0.12671 0.0019197 0.0095901 0.14514 0.058197 0.025177 0.012703 -0.083435 -0.058075 -0.026886 0.022781 0.052979 0.068115 -0.060699 0.06073 -0.010399 -0.027802 -0.014442 -0.027069 -0.066833 -0.0047493 0.10004 -0.069824 0.093811 0.025253 -0.0073204 -0.063293 -0.073059 0.019989 0.033112 0.094604 0.071838 -0.017944 -0.090637 0.18005 0.010147 -0.055389 0.0014105 -0.035736 0.045868 0.037262 -0.012749 -0.15674 0.087463 0.028702 0.017502 -0.058197 -0.059113 -0.047943 0.018051 0.031128 0.014343 0.0028629 -0.0038071 0.0028667 0.080566 0.056885 -0.03009 -0.054474 -0.046722 -0.037811 -0.00066423 0.0050087 0.065979 0.013947 -0.082397 0.08313 -0.085693 -0.073608 0.011574 0.039154 -0.1283 -0.034729 0.063538 -0.10217 -0.020081 -0.018555 0.065369 0.023117 -0.022446 0.042999 0.0026836 0.053925 0.062042 -0.1344 -0.0023003 -0.03537 0.0013247 -0.091431 -0.01149 0.041077 0.025131 0.047119 -0.1438 -0.0009613 -0.019897 -0.0087204 -0.082214 0.033936 0.03299 0.086914 0.069946 -0.014977 0.063538 0.033752 0.01712 0.0036678 -0.059021 -0.067688 -0.015297 -0.0074997 0.093506 -0.0085602 -0.10559 0.014572 -0.027771 -0.080933 0.061737 -0.059692 0.068237 -0.044342 0.0059738 -0.064392 -0.052612 -0.043793 0.068115 -0.00387 -0.004406 -0.029846 0.067261 -0.11438 0.060669 0.049683 0.046661 -0.035889 -0.037018 -0.057526 0.028473 0.035309 -0.064636 -0.021301 -0.013618 -0.013107 0.063965 0.00092363 0.049438 -0.068665 0.01152 -0.017273 -0.074463 -0.052765 -0.0090332 0.073059 0.01796 0.050629 0.015297 -0.00038123 -0.0080643 0.012611 -0.081604 0.032318 -0.082214 -0.035461 0.17102 0.00050259 -0.06015 -0.017929 0.061737 0.019073 0.016861 0.062317 -0.14795 -0.057129 -0.014679 0.0031872 -0.045624 0.09967 0.020477 0.036194 -0.12476 -0.027466 0.02681 0.051483 -0.050629 -0.075134 -0.094116 -0.010651 0.038696 -0.068542 0.03891 0.020157 -0.037231 -0.042908 -0.088318 -0.022079 0.11835 -0.050171 0.097229 -0.051819 0.02887 0.053772 -0.073364 0.033203 0.069824 0.041107 0.065796 -0.0027599 0.020432 -0.052155 0.054901 0.042938 -0.027985 -0.05777 -0.083435 -0.059753 0.045959
Formal_semantics 0.076599 0.02063 -0.017471 0.12177 -0.059906 0.02092 0.021133 0.0289 0.039886 0.011169 -0.016602 -0.062805 -0.035187 0.077454 -0.043335 0.055206 0.12091 0.10229 0.02684 -0.15295 -0.078064 -0.02739 0.041321 -0.024673 -0.0896 -0.041016 -0.0625 0.083801 -0.030502 -0.039062 -0.0081635 -0.052185 -0.068604 -0.016541 -0.022507 0.028458 -0.0090637 0.12286 0.074158 -0.0065689 0.056732 0.0022793 0.052063 0.11243 -0.018188 -0.05603 -0.031677 -0.093567 -0.11548 0.020309 -0.12262 -0.025345 -0.025253 -0.085022 -0.02301 0.097778 0.0012226 -0.086487 -0.033997 -0.12109 0.055054 -0.017456 -0.029144 -0.0625 -0.05072 -0.08728 -0.08606 0.028305 -0.012009 0.0023174 0.089539 0.040802 0.0015411 -0.055267 -0.071167 -0.045532 0.033905 0.0052795 0.03775 -0.01944 -0.042206 0.061554 -0.025177 0.0095139 0.07373 0.018478 0.03241 0.11407 -0.0025387 0.063293 0.017242 -0.081787 -0.047577 -0.026886 0.00026155 -0.015808 0.055084 -0.029236 0.057617 -0.050171 -0.041901 -0.007679 -0.033386 -0.02739 0.025742 0.055695 -0.064026 0.050568 -0.010063 -0.013489 -0.068176 0.027267 -0.0024738 0.0080719 0.098022 0.046265 -0.0075798 -0.067139 0.10376 0.034027 -0.047455 0.01107 0.022308 0.035553 0.020844 -0.031921 -0.15222 0.020157 -0.017319 0.010536 -0.05603 -0.082153 -0.065979 -0.011108 -0.035522 0.046631 -0.046021 -0.0026646 0.043823 0.0073853 0.11658 -0.049652 0.0012121 -0.045471 -0.097473 -0.011871 0.006321 0.07843 0.0040245 -0.023972 0.087097 -0.12061 -0.097229 0.0091324 0.042755 -0.14038 -0.061249 0.11658 -0.097778 -0.0074348 -0.032227 0.060577 0.050385 -0.022614 0.050903 0.058929 0.043823 0.055084 -0.08313 0.1145 -0.030502 -0.013817 -0.07312 -0.04245 0.030563 0.012634 0.075806 -0.16846 -0.0062752 -0.038544 -0.074341 -0.066101 -0.012833 0.012131 0.022598 0.070557 0.0068016 0.026611 0.026459 0.063782 0.065369 -0.083435 -0.04483 0.021851 -0.011841 0.062744 -0.033539 -0.098999 -0.014977 -0.031952 -0.070068 0.045135 -0.045197 0.0087738 -0.020325 -0.047516 0.013649 -0.066711 -0.058716 0.051361 -0.012177 -0.098999 -0.047699 0.033813 -0.097412 0.0088501 0.059265 -0.041412 0.023575 -0.043854 -0.041473 0.054504 0.028976 -0.026932 0.0075684 -0.065369 0.050323 0.034027 0.0033321 0.024628 -0.026031 0.0036831 -0.037048 -0.045471 -0.036255 -0.019608 0.071899 0.06366 0.12286 0.0034084 0.0028038 0.0088501 0.010307 -0.044189 -0.013947 -0.0093613 -0.06781 0.16565 -0.11017 -3.5286e-05 0.00033212 0.03421 0.0023956 0.11493 0.054779 -0.1001 -0.067993 0.036285 0.032257 0.020599 0.11487 -0.0019951 0.020309 -0.063599 -0.039795 0.022751 0.016022 -0.058319 -0.025497 -0.10284 0.014015 0.02681 -0.051422 0.028122 0.092102 -0.0086288 -0.012833 -0.032288 -0.072632 0.088196 -0.046906 0.0066528 -4.4703e-06 0.0056267 0.074646 -0.026291 -0.0024796 0.052551 0.00457 0.076111 -0.0081329 -0.023743 -0.12524 0.078491 -0.0098724 -0.062927 -0.0021992 -0.059113 -0.00010401 0.067688
Type_theory 0.090881 -0.010727 0.035431 0.13037 -0.062988 0.042053 0.049866 -0.092224 0.044434 0.017059 0.0072517 -0.085815 -0.050262 0.040649 -0.099365 0.092712 0.086731 0.10852 0.025436 -0.093994 -0.079834 -0.043549 0.054688 0.043518 -0.032928 -0.052032 -0.061493 0.01947 -0.061615 -0.021912 -0.025772 -0.034668 0.0097275 0.023529 0.0053635 0.032501 0.022385 0.093689 0.099121 -0.011871 0.043427 0.051788 0.031113 0.12396 -0.0034504 0.027634 -0.082031 -0.054688 -0.085022 0.04834 -0.15747 0.020279 -0.089783 -0.074707 0.059662 0.054077 -0.0044136 -0.1604 -0.0026798 -0.12732 0.022079 0.037445 0.0036125 -0.03772 -0.025574 -0.092407 -0.050873 0.12952 -0.047699 0.0048409 0.031189 0.0018272 0.060211 -0.085632 -0.065918 -0.018906 0.063354 0.080261 0.028015 0.060547 -0.040771 -0.011925 0.006855 -0.060699 0.0008626 -0.031281 0.069214 0.12085 -0.031616 0.011238 0.015503 -0.10944 -0.13098 0.0031605 -0.018753 0.078735 0.020752 -0.068298 0.066772 -0.041656 0.00082207 -0.022964 -0.0054932 -0.069214 0.016602 -0.016373 -0.087036 0.013901 0.067932 -0.035553 -0.085876 -0.026535 0.040253 0.06842 0.14062 0.041473 0.025146 -0.070251 0.099731 0.015839 -0.046417 0.020447 -0.018082 -0.029541 -0.013977 0.029739 -0.10864 0.12262 -0.0038986 0.056396 0.0086288 -0.016327 -0.045685 -0.028198 0.015533 0.033569 -0.0084763 0.034119 -0.010513 0.12189 0.11591 -0.052399 0.0071945 0.026855 -0.053192 0.087097 -0.063843 0.040863 -0.020645 -0.044586 0.046295 -0.026688 -0.090454 0.047058 -0.0059814 -0.11609 -0.013336 0.025665 -0.026138 -0.089417 -0.083435 -0.0067482 0.04184 -0.053223 0.040863 -0.019562 0.078674 0.003603 -0.10913 0.053253 -0.009697 0.010475 -0.1214 0.011894 0.095886 -0.041016 0.10126 -0.12329 0.038422 -0.079895 -0.039001 -0.037598 0.010605 -0.01416 0.046356 0.045715 0.032593 -0.013428 -0.0024757 0.070435 -0.022034 0.016159 -0.028824 -0.0035419 -0.058563 0.058716 -0.027557 -0.059479 -0.039948 -0.022995 -0.022858 0.0672 -0.086243 0.033478 -0.052826 -0.012032 0.029068 -0.024902 -0.079895 0.0032444 0.0024433 -0.059692 -0.011734 -0.015671 -0.13989 -0.023102 0.024017 0.033783 -0.017487 0.018768 -0.072693 0.038086 0.038086 -0.014503 -0.0076752 0.070862 0.069153 0.0063972 0.021713 0.0052719 -0.02298 -0.0027828 0.016418 0.0055046 -0.034515 -0.022278 0.037262 0.042542 0.071045 0.0081177 0.070557 -0.041138 -0.04483 -0.029083 -0.019302 -0.05603 0.00046873 0.14978 -0.025162 0.039032 0.018127 0.030426 -0.029526 0.10358 0.054871 -0.057953 -0.037201 0.016006 0.031708 -0.016403 0.11603 0.033478 -0.028961 0.0018215 0.022583 0.053833 0.05249 -0.086121 -0.07196 -0.057831 -0.011383 0.0097351 -0.017258 0.039978 0.050964 0.039948 -0.098267 -0.064087 -0.081726 0.10889 -0.076172 -0.0024796 0.022217 -0.05014 0.035583 -0.056549 0.038086 0.045715 0.040283 0.084351 -0.013428 0.031128 -0.085083 -0.017792 -0.0092392 -0.016953 -0.00013483 -0.043121 -0.027283 0.06427
Computational_science -0.0091705 -0.036346 0.053223 0.09491 -0.0070038 0.0022354 0.02269 -0.06781 -0.014374 -0.00094795 -0.033051 0.0097275 0.02179 0.073792 -0.11194 0.0448 -0.0097351 0.074646 -0.001894 -0.11145 -0.065186 -0.03595 -0.064697 0.069946 -0.065369 -0.072571 -0.044983 0.019653 -0.10046 -0.066956 -0.011078 -0.05304 -0.0051193 -0.010796 -0.060913 -0.060211 -0.024643 0.037415 0.079346 -0.0034752 0.0495 0.091675 0.04306 0.082275 -0.0042038 -0.078918 -0.077148 -0.071167 -0.052185 0.018066 -0.065186 -0.0043182 -0.065979 -0.056549 0.0014906 0.038727 0.00059652 -0.10144 -0.039246 -0.059814 -0.027481 0.015915 -0.0087509 -0.033752 0.020599 -0.022629 -0.026718 0.11713 0.0040398 -0.027115 -0.023148 -0.08374 0.077881 -0.084534 -0.045288 -0.062805 0.076294 -0.0050011 -0.027695 -0.020981 -0.009613 0.084106 0.028503 0.0051384 0.098022 0.0020809 -0.014969 0.1626 -0.03537 0.024521 0.06543 -0.10956 -0.10437 0.034271 0.0071526 0.06311 0.051575 -0.069092 0.049286 -0.00014567 0.096802 -0.063477 -0.11536 -0.040009 0.014122 0.062408 -0.10187 0.027267 0.069275 -0.021774 -0.026855 -0.025894 -0.0066719 0.037903 0.093994 0.067749 -0.049133 -0.12396 0.15479 -0.041718 -0.11267 -0.013519 -0.06427 0.013618 0.003273 0.069153 -0.076843 0.092163 -0.030869 0.096069 0.057343 -0.046204 -0.048187 -0.049652 -0.041107 -0.0008316 0.028091 0.020172 -0.02507 0.05246 0.03833 -0.060822 -0.072754 0.014488 -0.085754 0.040985 0.021866 0.036896 0.022629 -0.078918 0.049286 -0.070312 -0.11279 0.046509 0.076904 -0.095947 0.035645 0.045654 -0.069763 0.00055504 -0.012024 0.05481 0.0037289 -0.020935 0.060028 0.020447 0.062347 0.03244 -0.15088 0.025085 -0.011543 -0.046783 -0.096069 0.047485 0.040222 0.00010443 0.019867 -0.1181 -0.031647 -0.051483 -0.016891 -0.060059 0.067749 0.02684 0.049286 0.05603 0.035156 0.036072 0.019882 0.0018253 -0.030655 -0.075439 -0.0031281 0.0037575 -0.042664 0.010002 0.088928 -0.17725 0.0086441 -0.10364 -0.066833 0.091553 -0.014687 0.0080032 -0.067627 0.0041695 0.010941 -0.020569 -0.023163 0.015198 -0.049377 -0.076904 -0.019592 0.011711 -0.066162 0.041534 0.059387 0.081787 -0.040222 -0.022919 -0.032257 0.063965 0.061218 -0.036255 -0.084473 0.027313 0.023895 0.025375 -0.004055 0.036926 -0.092163 0.035126 0.026047 -0.071838 -0.085876 -0.042786 -0.010956 -0.028824 0.04068 0.0010891 0.066956 -0.054871 -0.082886 -0.05069 -0.027313 -0.024429 -0.048492 0.17651 -0.03775 -0.037476 0.031036 -0.01976 -0.038391 0.022629 0.036072 -0.084961 -0.032837 -0.052368 -0.015823 0.009346 0.056244 -0.067078 -0.051025 -0.036102 -0.0014153 0.043243 0.060516 -0.075317 -0.079285 -0.041016 -0.037384 0.015915 -0.08197 0.052032 0.063477 0.016251 -0.059998 -0.057831 0.025833 0.078186 -0.063965 0.04776 -0.0066948 -0.0065041 0.060516 0.0015612 0.050049 -0.0061607 0.020279 0.038025 -0.071289 0.034851 -0.11975 0.087769 -0.010696 -0.018204 -0.070801 -0.082275 -0.01973 0.036743
