100 300
Elvis_Presley 0.0076256 0.049377 -0.061859 0.14331 -0.010117 -0.048859 -0.035095 -0.070435 0.030121 0.0057106 -0.017929 -0.11292 -0.011833 0.0029564 -0.038452 0.023285 0.052246 0.13745 9.9897e-05 -0.043976 -0.034393 -0.059906 0.074829 -0.020355 -0.055817 0.017456 -0.11133 0.051331 -0.0081711 -0.023422 0.023422 0.014648 -0.15601 -0.021912 -0.070251 -0.041931 0.052124 0.070862 0.01712 0.01297 -0.015976 -0.04422 0.11517 0.024689 0.032471 -0.048126 0.044495 -0.044006 0.0068512 0.049835 -0.07312 0.028992 0.069885 0.013725 0.016998 0.05307 -0.056702 -0.03952 -0.0025845 -0.06781 0.011711 0.04245 -0.0849 0.013641 0.025238 -0.11224 -0.13867 -0.0041428 -0.0076065 0.084045 0.080444 0.016663 0.0040627 0.061005 -0.10669 -0.008606 0.057587 -0.06366 0.019226 -0.0014286 -0.054993 -0.046448 -0.010536 -0.076904 0.036133 0.074158 -0.014565 0.15088 -0.01738 0.033478 -0.081482 -0.032776 -0.018341 -0.072327 -0.03479 0.055145 0.052765 -0.02858 0.015244 -0.086487 -0.055634 0.027649 0.041443 0.018982 -0.012955 0.074097 -0.019257 -0.0054398 0.017639 -0.037781 -0.029938 0.0015602 -0.0099258 -0.0067749 0.081421 0.028732 -0.082642 -0.10913 0.06488 0.033203 -0.00024796 -0.018707 -0.010674 -0.017395 0.072266 -0.0242 -0.1109 0.085022 0.079468 0.0053635 -0.036407 -0.017395 0.01799 0.062988 0.0097656 0.057465 -0.19092 0.0029087 0.084961 0.031342 0.087158 -0.061646 0.0028896 -0.021698 -0.01368 0.053345 0.088501 0.033234 0.0026512 -0.11334 0.080627 -0.094727 -0.073364 0.083679 -0.052887 -0.13025 -0.015419 0.065735 -0.0071449 -0.030792 -0.039856 0.10962 0.021484 0.0073814 0.048035 -0.10248 0.057312 -0.0049286 -0.064148 0.085876 -0.06958 0.035767 0.066589 -0.075256 -0.11292 0.017426 0.12183 -0.10229 0.069031 0.012833 -0.045197 -0.050629 -0.0019379 -0.011482 -0.002346 0.030243 -0.026199 0.047699 0.023544 0.077759 0.031311 0.01828 -0.025665 0.03067 0.078552 0.097656 -0.039246 -0.058411 -0.039764 -0.042297 -0.064209 0.0021248 -0.026886 -0.096069 0.052551 -0.033234 0.014153 -0.010857 -0.059875 0.092346 -0.05954 0.064026 -0.08313 0.019516 -0.056366 0.015396 0.056641 -0.0032387 -0.018295 -0.016052 -0.046814 0.024155 0.12317 0.00074816 0.015434 -0.023285 0.069702 0.012779 0.018143 -0.039429 -0.0068741 -0.11127 -0.075134 -0.0091019 -0.050659 0.064148 0.078369 -0.063538 0.066833 0.013184 0.15771 -0.029724 -0.051697 -0.071411 -0.062317 0.031403 -0.025528 0.1123 0.029602 -0.041321 0.050446 0.098572 0.05484 0.024887 0.018204 -0.036652 -0.052521 0.00088549 0.044769 -0.071594 -0.036804 -0.018539 -0.021088 -0.059387 -0.01387 0.040527 -0.090149 -0.043488 0.021866 -0.022476 -0.0058784 0.0094147 0.035309 0.076355 0.095154 0.004818 -0.010727 -0.029266 -0.065308 0.049133 -0.0076141 0.0076065 0.092468 0.052124 -0.014473 -0.057922 -5.7817e-05 -0.0044594 -0.00247 0.048981 -0.022644 0.037109 -0.10229 0.027237 -0.019028 -0.070557 -0.065491 -0.019302 0.023422 0.075439
Abraham_Lincoln 0.01944 0.035583 -0.0055885 0.14587 0.0047607 -0.10632 -0.048309 0.035828 0.066467 0.0099869 0.017822 -0.11694 -0.10553 0.049805 0.043793 0.11072 0.024673 0.14038 0.042023 -0.087097 -0.01429 -0.04538 0.097717 -0.056335 -0.070007 0.098083 -0.096313 0.069214 -0.017197 -0.037445 0.067017 0.039154 -0.10413 0.035828 -0.028717 -0.012398 0.015991 0.093384 -0.016098 0.017075 -0.0069656 -0.070557 0.14624 0.0038605 0.040161 -0.012329 0.047974 -0.026108 -0.075073 0.0056229 -0.055847 -0.0047035 0.0020027 -0.012634 0.0059586 0.011078 -0.056824 -0.039459 -0.031647 -0.090149 0.0054054 0.076782 -0.073792 -0.064514 0.032684 -0.073914 -0.12537 -0.014633 -0.02533 0.059784 0.11035 0.092957 -0.022034 -0.028137 -0.065735 -0.065491 0.075378 -0.0055275 -0.022354 -0.034821 -0.076477 0.00092697 -0.012596 -0.060944 0.012672 0.039978 -0.034698 0.04837 0.014519 -0.029434 -0.02594 -0.028717 -0.04184 -0.0090179 0.013985 0.096375 0.0087891 -0.0069656 0.037628 -0.093445 -0.060638 -0.012138 0.078369 -0.035889 0.051056 0.002306 -0.076965 0.035309 -0.058289 -0.049591 -0.049469 -0.044037 -0.0045929 0.044342 0.11572 -0.036804 0.049316 -0.079102 0.096436 0.037048 -0.0099869 -0.0060272 0.0032387 -0.029648 0.11426 -0.03093 -0.10168 0.077881 0.018738 0.05014 -0.018845 -0.024399 -0.026871 0.05481 -0.090454 0.02771 -0.096252 -0.0079956 0.0625 0.057373 0.0354 -0.019714 0.021149 -0.016556 -0.050537 0.001442 -0.011803 -0.039734 0.046631 -0.075867 0.10809 -0.10553 -0.035797 0.0112 -0.054138 -0.10309 -0.007122 0.062683 -0.018524 -0.0088959 -0.028809 0.044464 0.016022 -0.009491 0.030502 -0.11737 0.13269 0.028717 -0.019501 0.11383 -0.095032 0.065308 0.078796 -0.05954 0.0044289 -0.084167 0.016617 -0.11487 0.049622 -0.094177 -0.067993 -0.051514 -0.035522 0.0080109 -0.019684 0.011658 0.052795 -0.0013618 0.068176 0.069519 0.076416 0.0079956 -0.024521 0.029755 0.0025063 0.070007 -0.054199 0.018036 0.065735 -0.0043297 -0.085022 0.01429 0.031677 -0.048615 0.016708 -0.034454 0.052277 -0.034637 -0.063171 -0.0073204 -0.044769 0.029831 -0.067261 -0.023499 -0.064514 0.0088272 0.011055 -0.078857 0.033325 -0.017487 -0.045502 0.0015745 0.1521 0.03183 0.013206 0.0041313 0.11578 0.079224 0.048462 -0.025299 0.019409 -0.059296 -0.077637 0.017227 -0.01133 0.03479 0.070801 0.017349 0.0042801 0.03891 0.12878 -0.043762 0.027069 -0.0095901 -0.093201 0.053558 -0.053741 0.14685 -0.075562 0.024063 -0.017578 0.0033073 0.0077171 0.019531 0.065247 -0.083069 0.027573 0.0083542 0.040161 -0.05423 -0.033234 -0.027206 0.0040169 -0.017181 -0.039795 0.07428 -0.043671 -0.11462 -0.024673 -0.056488 -0.0063553 0.038727 0.073242 0.03476 0.083496 -0.019379 0.014717 -0.050659 -0.086121 0.10248 -0.020355 -0.051788 0.04184 0.013847 -0.04071 -0.025055 -0.090576 -0.010056 0.038666 0.024033 -0.040375 -0.009903 -0.098572 0.070862 -0.04248 -0.072998 -0.0448 -0.014915 0.023712 0.097595
George_Washington -0.051666 0.058899 0.011765 0.12006 0.023575 -0.081909 -0.079895 -0.031769 0.022995 0.016144 -0.024246 -0.10962 -0.11194 0.011497 0.0059166 0.1048 -0.038971 0.11121 0.025391 -0.036499 -0.04657 -0.023849 0.077087 -0.015869 -0.027985 0.093384 -0.12427 0.057404 -0.04538 -0.021652 0.074097 -0.016251 -0.056091 -0.046295 -0.064697 -0.046295 -0.026123 0.033447 0.027512 0.010002 -0.046783 -0.034363 0.12366 0.043701 0.036407 -0.068176 0.037384 -0.032532 -0.029449 0.034332 -0.069153 -0.022919 0.014381 -0.0015097 -0.0095139 -0.050323 -0.071411 -0.079224 -0.022491 -0.13013 -0.035583 0.015335 -0.083313 -0.051086 0.017212 -0.10547 -0.068054 0.0069389 -0.044189 0.040222 0.046875 0.071838 -0.023666 -0.0029278 -0.094543 -0.032867 0.042328 0.00029063 0.015137 -0.023285 -0.087402 0.024063 0.050446 -0.067444 0.071777 0.057831 -0.058594 0.10333 0.021851 -0.05191 -0.042694 -0.0036697 -0.049683 -0.027039 0.024506 0.081543 0.051422 -0.026779 0.047211 -0.073547 -0.070496 -0.05603 0.059204 0.027191 0.03595 0.076294 -0.056671 -0.0010395 0.00043726 0.0048637 -0.093445 -0.048676 -0.00914 0.030701 0.10229 -0.013016 0.0159 -0.09137 0.066589 0.014809 -0.024185 0.0014343 -0.00024414 -0.02005 0.12964 -0.059631 -0.093079 0.058746 0.020386 0.09436 -0.062012 -0.028931 -0.036987 -0.0036907 -0.057861 0.018707 -0.11414 -0.014236 0.059814 0.049316 0.062317 -0.066467 0.010071 -0.03125 -0.071289 0.0040359 -0.0040016 -0.037842 0.045563 -0.075378 0.15283 -0.11646 -0.038422 0.01133 -0.064087 -0.12732 0.066284 0.068665 0.0025158 -0.041718 -0.038605 0.063232 0.019287 -0.0080185 0.021927 -0.091797 0.11639 0.0047264 -0.017487 0.083801 -0.11786 0.038452 0.027939 -0.048798 0.0089951 -0.028763 0.085388 -0.10687 0.041107 -0.083984 -0.015686 -0.012978 -0.0014639 -0.012711 -0.026978 0.043884 0.049683 -0.0072136 0.038605 -0.0034847 0.0896 0.0062523 -0.02182 0.033203 -0.015656 0.078796 -0.038879 -0.016678 -0.014885 -0.038635 -0.12805 0.010605 -0.0072594 -0.060303 -0.031738 -0.049347 0.032593 -0.049255 -0.063049 0.056122 -0.016068 0.040833 -0.11481 -0.023056 -0.019348 0.059265 0.021988 -0.062988 0.033142 -0.035858 -0.08075 0.032898 0.10168 -0.0094757 -0.027313 -0.0044556 0.090088 0.088379 0.027847 -0.033325 0.040619 -0.048096 -0.025711 -0.011559 -0.014992 0.018143 0.12805 -0.018753 0.027283 0.090393 0.095337 -0.0084381 0.009903 -0.019287 -0.13867 0.012939 -0.035248 0.080139 -0.042664 -0.046295 0.087158 -0.0097961 0.045319 0.037323 0.084106 -0.13391 0.004734 -0.012291 0.026733 -0.0089645 0.045746 0.05069 -0.0076523 -0.042816 0.0065269 0.076721 -0.015022 -0.043091 -0.035004 -0.045837 -0.0383 -0.066406 0.045349 0.035278 0.04364 -0.040283 -0.059357 -0.086731 -0.10022 0.10913 -0.033386 -0.039093 0.059875 0.074097 -0.054413 -0.012321 -0.029343 0.022934 0.0037918 0.010147 -0.039124 0.061066 -0.085876 0.086487 -0.048676 -0.10712 -0.068176 -0.047791 0.059479 0.065063
Martin_Luther_King 0.0059242 0.047058 0.084595 0.17297 0.026642 -0.082886 -0.011642 0.019135 0.054535 -0.027039 -0.028397 -0.02298 -0.04245 0.064514 0.04657 0.0063019 -0.0019836 0.078918 -0.018402 -0.0043983 0.00046968 0.0058403 0.11676 -0.052277 -0.068909 0.054382 -0.12537 0.0043602 -0.011848 -0.024292 0.003891 -0.017761 -0.11554 0.0053787 -0.029114 0.05957 0.021332 0.085327 0.011627 -0.025513 -0.001543 0.0074806 0.10632 0.042603 -0.005394 0.034576 -0.015129 -0.06604 -0.027573 0.015671 -0.030441 -0.0076828 -0.064026 0.020294 0.03064 -0.00070715 -0.033112 0.0019436 -0.041443 -0.12866 0.0021477 0.066711 -0.023132 -0.013786 0.053589 -0.12122 -0.089783 0.045135 0.013077 0.051788 0.041656 0.073303 -0.0079193 0.068726 -0.052429 -0.071228 0.10822 0.02092 0.089172 -0.025131 -0.059937 0.063232 0.024933 -0.081055 0.015251 0.054901 -0.085327 0.080566 0.02565 0.014153 -0.048187 -0.076782 -0.085815 -0.11108 0.0085831 0.016632 0.0085907 0.01548 0.023209 -0.041656 -0.078918 0.017044 0.064819 -0.02359 0.027267 0.060364 -0.090088 0.037415 -0.025925 -0.022324 -0.060638 -0.019318 0.013214 0.013573 0.055328 -0.046326 0.010399 -0.090942 0.04071 0.080566 -0.036041 0.047638 -0.022614 -0.056793 0.050842 0.015793 -0.062561 0.1543 0.016281 -0.036499 -0.0075073 -0.083984 -0.044098 0.081665 0.018814 -0.013008 -0.1167 0.034454 0.067993 0.0008955 0.0011282 -0.023041 -0.037781 -0.030182 -0.053284 -0.051544 0.070007 -0.032043 0.025375 -0.040833 0.12421 -0.094421 -0.044434 0.02037 -0.016968 -0.073486 0.024536 -0.0029068 0.054901 0.0028172 -0.074524 0.065369 -0.0030613 0.039856 0.007164 -0.069885 0.077942 -0.013962 -0.05661 0.099548 -0.056396 0.049164 0.028259 -0.049286 0.0058517 -0.067322 0.036346 -0.12683 0.035767 -0.079712 -0.085938 -0.025452 0.0065918 -0.029892 0.028976 0.016861 0.043243 0.0336 0.051147 0.064636 0.045624 0.088379 -0.056335 -0.0030613 -0.028229 0.065186 -0.05304 -0.12573 0.056 -0.0033207 -0.097534 -0.010948 -0.012268 -0.08429 -0.022781 -0.090637 0.0064354 -0.010399 -0.018402 -0.010849 -0.081482 0.081787 -0.057098 -0.030685 -0.052521 0.0065346 0.048615 -0.0092926 -0.0053406 -0.020401 -0.058868 0.027039 0.10931 0.020065 0.033691 -0.014809 0.12524 0.073914 0.041473 -0.035675 0.048767 -0.029114 -0.058838 0.008194 -0.075562 -0.0046043 0.10889 -0.027222 0.077332 0.04715 0.091797 -0.0979 -0.081421 -0.15784 -0.1239 0.030655 -0.049469 0.10022 -0.053345 -0.084534 0.030884 0.035675 0.02179 0.064331 0.12274 -0.094971 0.033661 -0.047455 0.047546 -0.034149 0.012764 0.0019093 -0.027115 -0.051086 0.014793 0.029816 0.0055046 -0.060791 -0.043121 0.0052261 0.015686 0.070129 -0.0052299 0.093079 0.11066 -0.057587 -0.071411 -0.057953 -0.092651 0.020386 -0.0233 -0.024902 -0.017883 0.050049 -0.12445 -0.019211 -0.037781 0.010956 -0.044647 -0.013794 0.012573 -0.028458 -0.096313 0.069397 -0.072021 -0.043884 -0.024841 -0.043213 0.058655 0.079102
Walt_Disney -0.0074043 -0.0069466 -0.034058 0.11731 -0.014275 -0.043915 0.0224 -0.013603 0.018951 -0.010452 0.022003 -0.09082 -0.053986 -0.057861 -0.064453 0.024948 0.033966 0.086121 -0.018661 -0.037842 -0.022461 0.009697 0.11389 0.035431 -0.030853 0.0045242 -0.077942 0.077576 0.039551 -0.072449 -0.030029 -0.031799 -0.076355 0.014587 -0.028549 -0.040649 0.052155 0.1405 0.033905 0.064697 0.025101 -0.0017176 0.12598 0.033112 0.047333 -0.039062 0.0059814 -0.0078011 0.05307 0.056396 -0.14685 0.00031257 0.091064 0.045898 -0.012619 0.010155 0.060944 -0.072937 -0.029587 -0.11993 0.011177 0.048828 -0.022705 -0.054718 -0.0040436 -0.17847 -0.14685 -0.015945 -0.0168 0.052002 0.10413 0.034851 -0.056305 0.018616 -0.039551 0.015991 0.080444 -0.015762 0.024902 0.01712 0.010941 -0.0035114 -0.053467 -0.06958 0.0298 0.039703 -0.053192 0.10242 0.055145 0.034424 -0.062225 0.028229 -0.15369 0.015442 -0.035492 0.031525 0.032196 -0.012314 0.067078 -0.082947 -0.067993 -0.028351 0.048615 0.019806 0.026093 0.0092392 -0.011162 0.02832 -0.0047379 -0.058563 -0.040344 -0.025848 0.071899 0.0058289 0.082458 0.016159 -0.063293 -0.1189 0.011765 -0.0049858 -0.075928 -0.065857 -0.020859 -0.040222 0.045074 -0.03241 -0.15649 0.092041 -0.021667 -0.020813 -0.099854 -0.0063667 -0.031021 0.051727 -0.04422 0.022644 -0.089417 -0.0032845 0.07074 0.044647 0.075806 -0.059082 -0.01828 -0.044525 0.051544 0.010918 0.056641 0.04422 0.01355 -0.041382 0.11176 -0.096436 -0.056213 0.064514 -0.079956 -0.12109 -1.8418e-05 0.04718 -0.022995 -0.018311 -0.0087662 0.067322 0.05307 -0.016022 0.047272 -0.038116 0.097351 -0.0087509 -0.043915 0.051208 -0.057648 0.040466 0.025909 -0.032867 -0.051727 0.045074 0.06781 -0.085388 0.085144 -0.040802 -0.068787 -0.064514 0.018585 -0.070801 0.015427 0.039551 -0.0072479 -0.034973 0.098572 0.057495 0.0085907 0.035889 -0.042236 0.0097275 0.075684 0.084534 -0.044464 -0.044098 -0.020218 -0.043945 0.0066833 -0.0077209 -0.049316 -0.029755 -0.0031071 -0.01432 0.024231 -0.04245 -0.10406 0.057648 -0.038971 0.032196 -0.11597 0.040802 -0.0085754 0.057648 0.078552 -0.036743 0.0044861 -0.073059 0.055664 0.014015 0.13171 -0.014275 -0.01442 -0.0007143 0.022308 0.089233 -0.022568 -0.040192 -0.025497 -0.11725 -0.1062 -0.01564 -0.044037 0.020187 0.1048 -0.10583 0.13062 0.03653 0.10065 -0.035614 -0.036224 -0.052704 -0.079102 0.036102 -0.031189 0.10437 -0.00098705 -0.10272 0.016922 0.043915 0.096497 0.097839 -0.0074615 -0.080933 -0.041351 -0.069397 -0.067322 -0.050812 -0.037048 -0.018387 0.025284 -0.011124 0.04599 0.030655 -0.03775 -0.050385 -0.020157 -0.027863 -0.040192 0.069641 -0.063599 0.056244 0.066467 -0.01506 -0.058563 -0.05542 -0.022659 0.042145 0.02298 0.0041924 -0.015823 0.12311 -0.041626 0.0074043 -0.0046768 0.020355 -0.0021152 0.061859 -0.037384 0.073059 -0.057739 0.025986 -0.016373 -0.071716 -0.081787 -0.0081635 0.021973 0.0078888
Michael_Jackson 0.016937 0.046265 -0.044067 0.11957 -0.021469 0.0018902 -0.037354 -0.069519 0.048584 -0.0039597 -0.097351 -0.096436 -0.014023 -0.005394 -0.041016 0.035034 0.095154 0.067932 -0.013229 -0.016769 -0.036774 0.0087738 0.11438 -0.041473 -0.097534 0.049072 -0.12927 0.073059 0.019806 -0.032745 0.018326 0.030258 -0.042542 0.022263 -0.02182 -0.034668 0.042328 0.080261 0.03096 0.062561 0.0034256 -0.019379 0.051697 0.033356 0.065918 -0.031586 0.008194 -0.082703 0.058746 0.07959 -0.0896 0.032593 -0.011955 0.052399 0.032257 0.0035744 -0.045563 -0.048615 -0.031982 -0.093445 0.028305 0.072021 -0.046875 0.0094833 0.015144 -0.1521 -0.099243 -0.020645 -0.020065 0.074646 0.081665 0.031708 -0.02034 0.075928 -0.1178 0.011223 0.037659 -0.047089 0.049164 -0.068481 -0.044647 -0.024902 -0.037506 -0.08313 0.031555 0.030579 -0.00070906 0.13953 0.030197 0.037811 -0.06665 0.016251 -0.11115 -0.083862 0.023987 0.0012798 0.016785 0.028809 0.036285 -0.071594 -0.020584 -0.015121 0.053467 0.0036697 -0.033539 0.041443 0.0026875 -0.0083923 0.012833 -0.08136 0.009285 0.040955 0.0085602 -0.020706 0.044586 0.0033073 -0.069397 -0.085083 0.021286 -0.04541 -0.067749 -0.060791 -0.021179 -0.066772 0.10449 -0.070129 -0.11194 0.075989 0.033539 -0.048096 -0.05603 0.021652 0.034332 0.036346 -0.0099945 0.057312 -0.078613 0.021545 0.047913 0.075989 0.10236 -0.041809 -0.034943 0.0020313 0.023972 0.010056 0.088318 0.055511 -0.027756 -0.0224 0.048767 -0.052032 -0.053833 0.056274 -0.071716 -0.097656 0.0032349 0.058868 -0.04892 -0.092285 -0.028473 0.11346 0.062408 0.061615 0.016464 -0.12097 0.11676 0.0040512 -0.11597 0.09613 -0.081665 -0.033356 0.038727 -0.064148 -0.10559 -0.0024452 0.11523 -0.1062 0.10376 -0.038239 0.0054932 0.0026188 -0.038544 -0.069824 -0.0149 0.038086 -0.043549 0.025879 0.11194 0.065002 0.03714 0.048157 0.0060883 0.017471 0.059357 0.078003 -0.016281 -0.088867 0.029984 -0.035645 -0.028976 0.016998 -0.05069 -0.053528 0.047821 -0.015373 0.022018 0.031433 -0.10553 0.10583 -0.022171 0.014938 -0.071167 -0.021179 -0.075562 0.0094223 0.00044656 0.01004 0.025497 -0.069214 -0.057343 0.021576 0.095032 0.0053024 0.0021954 0.060425 0.059479 0.06958 -0.048615 -0.047821 0.0036411 -0.029358 -0.068726 0.010277 -0.022644 0.031586 0.096436 -0.057526 0.080811 -0.012405 0.073608 -0.035217 0.011497 -0.12915 -0.095398 0.0065079 -0.0029202 0.13513 0.021469 -0.061157 0.018066 0.074524 0.077454 0.053711 0.029678 -0.0064659 0.010223 -0.045715 -0.01284 -0.069763 -0.021637 0.046173 0.07782 -0.062622 0.036865 0.039368 -0.092285 -0.038391 -0.0050316 -0.019989 -0.036987 0.043457 0.05072 0.08075 0.10834 0.046509 -0.039215 0.022141 -0.082214 0.10419 -0.057098 0.049042 0.0072784 0.00089455 0.007515 0.00058317 0.0065193 0.015244 0.076477 0.068298 -0.0064011 0.051758 -0.085388 0.042236 -0.049988 -0.026688 -0.081604 -0.049683 -0.039795 0.04129
Spider_Man 0.10101 0.018723 -0.073669 0.057068 -0.045502 0.029175 -0.025162 -0.051178 0.069885 0.031235 -0.0090256 -0.087219 0.0037174 -0.0057487 -0.040497 0.058197 0.022049 0.050446 -0.0028343 -0.045135 -0.026459 -0.036652 0.10278 0.033081 -0.001462 -0.026199 -0.068665 0.048584 0.041779 -0.064819 -0.031204 -0.0058899 -0.0084 0.012947 -0.035095 0.036865 0.089172 0.039062 -0.035522 0.12439 0.14697 -0.092834 0.094177 0.081787 -0.028427 -0.065247 0.038025 -0.051788 0.095581 0.043457 -0.17297 0.0053062 -0.020447 0.0035057 0.02887 -0.041199 0.022919 -0.06366 -0.0054741 -0.035583 0.014336 0.072998 -0.052734 0.019424 -0.0354 -0.076477 -0.13647 -0.026031 -0.026291 0.050446 0.036621 0.040039 -0.01767 0.041351 -0.13696 0.014854 -0.01165 0.0002749 -0.042694 -0.027328 -0.088623 0.013206 -0.028931 -0.13403 -0.0083923 0.01973 -0.031921 0.070801 0.063843 -0.03891 0.0070534 0.058502 -0.083862 -0.012489 0.020676 0.053314 -0.0024223 -0.021118 -0.061279 -0.03891 0.019333 -0.050201 0.087769 -0.078796 0.088074 0.015144 -0.025787 -0.042358 0.0097885 -0.034515 0.026291 -0.013977 0.089478 0.074097 0.06427 -0.0072327 -0.11499 -0.057831 0.053833 -0.018738 0.0063057 -0.11133 0.0014725 -0.029404 0.015221 -0.040588 -0.10181 0.076843 -0.044769 -0.013748 -0.055939 -0.019714 -0.09668 0.059814 -0.027481 0.002243 -0.02002 -0.059418 0.041931 -0.0019073 0.13574 -0.0020866 -0.014786 -0.014214 0.019653 0.040283 0.051819 0.11542 -0.03775 -0.0755 0.064087 -0.13489 -0.062408 0.1228 -0.040771 -0.098267 -0.041687 -0.038879 -0.06781 -0.023712 0.022034 0.033661 0.01503 0.0023346 -0.11731 -0.12457 0.10602 0.035217 -0.076416 0.13843 0.025162 -0.040283 -0.00048232 0.0056267 -0.065186 -0.069458 0.06604 -0.13782 0.016235 -0.041077 -0.023804 -0.033569 0.025864 -0.059418 -0.033417 -0.022049 -0.030273 0.027496 0.04071 -0.0011301 0.018845 0.055267 -0.034912 0.02124 0.065063 0.087891 -0.041107 -0.064758 -0.033875 -0.11304 0.041016 0.027588 -0.054474 -0.0093079 0.091919 -0.047607 -0.044891 -0.011185 -0.13708 -0.0057526 -0.080505 0.072937 -0.0095444 -0.045319 -0.075867 0.02829 -0.017975 -0.094543 -0.11133 -0.067993 -0.018188 -0.0089111 0.064514 0.027496 0.0085907 0.051941 -0.00029588 0.018173 -0.011955 -0.071655 -0.0048523 -0.026871 0.014656 -0.0095901 0.058807 0.08783 -0.011314 -0.022507 0.11761 0.0035439 0.084839 -0.047913 0.035034 -0.0077515 -0.013458 -0.038422 -0.03006 0.052551 -0.017303 -0.054474 -0.033569 0.021317 -0.020645 0.079224 0.11658 -0.090454 -0.0029812 -0.065979 -0.097778 -0.061859 0.007225 -0.0022869 -0.04248 -0.02002 0.049072 0.0466 -0.06076 -0.015137 0.050781 -0.0068588 -0.028534 0.08313 0.035889 0.029236 0.11224 0.0012112 0.039093 -0.074585 -0.027527 0.08252 -0.047455 0.0082626 -0.0242 0.040985 0.070374 0.024216 -0.055908 0.014481 0.065613 -0.0026264 -0.014984 0.082153 -0.088684 0.040741 0.0098495 -0.072998 -0.0034733 -0.035889 0.035431 0.010902
Albert_Einstein 0.045135 -0.017593 0.08197 0.096008 -0.030991 0.0037422 0.022919 -0.11639 0.036346 0.0020142 -0.0046501 -0.076843 -0.063965 0.013031 -0.10968 0.15088 0.091675 0.15063 0.056519 -0.07251 -0.082336 -0.032379 0.033997 0.03183 -0.038666 -0.020966 -0.091248 0.041016 -0.068604 -0.02243 -0.001543 -0.088928 -0.062134 -0.011467 -0.036926 0.041565 0.012138 0.12671 0.091553 0.05484 0.021881 0.03714 0.063538 0.086426 0.012802 -0.031921 -0.018417 -0.094971 -0.079651 -0.021225 -0.13672 -0.0017986 -0.0076027 -0.033478 -0.021179 -0.0090103 -0.018326 -0.117 -0.012123 -0.151 0.016663 0.013931 -0.035248 -0.02887 0.038452 -0.10333 -0.037628 0.074036 0.016479 0.036102 -0.0031776 0.0068169 0.032745 -0.032318 -0.1037 -0.02478 0.052612 0.11163 -0.023209 -0.047028 -0.00077152 -0.00012088 0.0088425 -0.052734 0.051849 0.070374 0.03241 0.11444 -0.050293 0.017059 -0.025192 -0.032013 -0.068359 0.0044212 -0.013634 0.1225 0.079651 -0.019836 0.10846 -0.050201 -0.013535 -0.0094604 0.0021534 -0.019989 0.055725 0.049408 -0.10547 0.076355 -0.034302 0.015823 -0.045227 -0.017197 0.03035 0.06427 0.11127 0.013412 -0.07605 -0.098938 0.10242 0.016357 -0.025543 -0.006321 -0.036804 -0.037903 0.011909 -0.016098 -0.10437 0.047699 -0.059845 0.056854 0.040985 -0.041321 -0.033966 0.012619 -0.046082 0.015884 -0.038849 -0.007843 0.012207 0.12122 0.093079 -0.044861 -0.018387 0.03244 -0.087769 0.10437 0.034607 0.033783 -0.04541 -0.012466 0.075256 -0.17651 -0.061157 0.044952 0.02861 -0.12231 -0.0035133 0.11609 -0.016403 -0.024155 -0.0015774 0.045868 0.027908 -0.030624 0.052368 -0.016449 0.092163 0.066406 -0.10699 0.069092 -0.055481 -0.04422 -0.028305 -0.0074654 -0.0098114 0.010536 0.01651 -0.13611 0.044861 -0.028641 -0.0048828 -0.031586 -0.057068 -0.032837 0.094971 0.045746 -0.014763 -0.0034885 0.025803 0.09436 0.050446 0.0672 0.022705 0.042419 0.044037 0.065796 -0.01651 -0.053741 0.036102 0.004467 -0.063416 0.047302 -0.020126 -0.023773 0.0028496 0.00054407 -0.014137 0.0023956 -0.12964 0.06366 -0.03714 -0.045898 0.014061 0.0010357 -0.08667 0.027496 0.073792 0.044739 0.031113 -0.030273 -0.0057945 0.02211 0.10925 0.0080795 -0.097168 -0.027405 0.080383 0.024597 0.011475 -0.032379 0.030838 -0.0017843 -0.0024757 -0.016663 0.021164 -0.036591 0.025253 0.0224 0.038116 -0.0021992 0.084106 -0.026917 -0.027115 -0.036438 -0.03241 0.0019989 -0.085144 0.12976 -0.06665 -0.027206 0.019531 0.022476 0.0047531 0.12598 0.025085 -0.067627 -0.039337 -0.043549 0.020828 0.019104 0.041595 -0.053925 -0.048187 -0.030762 -0.0099411 0.075684 0.034119 -0.13684 -0.013725 -0.062866 -0.02681 -0.03595 -0.027542 0.056458 0.10321 -0.009697 -0.0578 -0.035614 -0.070862 0.07959 -0.00090504 0.064819 0.019333 0.047089 0.024338 -0.012199 0.023834 0.038177 0.012619 0.046478 -0.0030518 0.012848 -0.099365 0.075256 -0.02037 -0.068665 -0.074829 0.00059319 0.010544 0.029251
Leonardo_Da_Vinci 0.066956 0.071716 0.045929 0.10651 -0.018219 0.015572 0.040131 -0.076843 0.094971 0.056519 -0.012177 -0.05545 -0.072998 -0.051361 -0.049866 0.043213 0.032959 0.021881 0.033447 0.072388 -0.023117 -0.071472 0.094116 -0.0028648 -0.045654 0.016953 -0.075684 0.010719 -0.076721 -0.07135 0.00097847 0.012367 0.0034275 -0.0012655 -0.025208 -0.081238 -0.045654 0.07135 0.022018 -0.0025082 -0.023376 0.053009 0.066101 0.12878 0.051971 -0.086731 0.000108 0.029694 -0.014458 0.052673 -0.13049 0.084839 -0.050873 -0.07782 -0.076355 0.11792 -0.032898 -0.082214 -0.068909 -0.040894 0.00457 0.11584 -0.065125 -0.073975 0.027267 -0.10278 -0.060486 -0.055145 0.054382 0.05603 0.046722 0.06427 -0.014221 0.033875 -0.065125 0.049713 0.049774 0.0016489 -0.0039368 -0.014442 -0.037842 -0.039215 -0.0016193 -0.091797 0.018799 0.066284 -0.0215 0.13611 0.047028 0.02887 -0.030228 -0.06604 -0.11267 0.032898 -0.024887 -0.0028 0.019699 -0.05423 0.080139 -0.0383 -0.093689 0.0026169 -0.056824 -0.0044899 0.067993 0.0043755 -0.040497 0.040588 -0.0092545 -0.012901 -0.019531 -0.026001 0.11755 -0.065918 0.066895 0.0041161 -0.025406 -0.13501 0.10211 0.017715 0.040558 -0.045319 0.014648 -0.026947 0.047455 -0.11285 -0.11774 0.02565 -0.069092 0.16699 -0.1106 -0.015472 -0.12152 -0.030365 0.0099106 0.017715 -0.022156 0.032166 0.11572 0.084473 0.10065 -0.065491 -0.052063 -0.011017 0.036926 0.052826 0.044495 0.035614 -0.021805 -0.060303 0.0080643 -0.015503 -0.093628 0.16418 0.046875 0.0052872 -0.0086365 0.11877 -0.0062447 -0.04541 -0.0016508 0.075745 0.0086899 -0.02301 0.0031338 0.00065088 0.11792 0.012772 -0.076355 0.056763 -0.081787 -0.035126 0.011703 0.0034466 0.032196 0.050201 0.038452 -0.081482 0.073792 -0.040283 -0.02182 -0.055298 -0.020599 -0.084839 -0.015549 0.018036 0.019058 -0.038605 -0.034271 0.021317 0.052979 0.064819 0.036926 0.03302 -0.032501 0.02507 0.020004 -0.02977 -0.0015774 -0.02066 0.039124 0.053467 -0.10687 -0.090271 0.028259 -0.01255 0.032013 -0.011566 -0.087463 0.04364 -0.067261 -0.013168 -0.044434 -0.014809 -0.061829 0.016098 0.013695 0.010544 0.056213 -0.035126 0.051483 -0.0050583 0.052979 0.045013 0.005352 0.012039 -0.0070267 0.10004 0.019699 0.016373 0.009201 -0.057922 -0.11816 0.0073586 -0.023743 -0.020248 0.076965 0.078369 0.016251 0.0054245 0.13635 -0.087708 0.038269 0.012695 -0.019669 -0.015945 -0.020828 0.051666 -0.070862 -0.0040398 0.03302 0.023605 0.062439 0.050751 0.040985 -0.004818 -0.057678 -0.033051 0.019897 -0.0045815 0.034363 0.058136 -0.023254 0.00066137 -0.020569 0.072388 -0.039642 -0.031143 0.0027237 -0.049347 -0.036285 -0.0017385 -0.05246 0.070679 0.13745 -0.012344 -0.065491 -0.0097427 -0.05014 0.098633 -0.021072 0.14905 0.057159 0.054535 0.01825 0.0040054 0.0022755 0.021591 -0.10553 0.031616 -0.069763 0.01075 -0.11847 0.033417 0.0091476 0.006855 -0.042908 -0.086914 -0.043823 -0.034058
Benjamin_Franklin 0.042786 0.017838 -0.0051155 0.14441 -0.013458 -0.024124 0.0097275 -0.012199 0.054901 0.051697 -0.0020142 -0.13379 -0.074585 0.035858 0.0075989 0.090637 0.027969 0.11584 0.023788 -0.036072 -0.0060844 -0.023193 0.090027 -0.054657 -0.085144 0.048035 -0.075684 0.079285 0.0061798 -0.078613 -0.012032 -0.014854 -0.054535 -0.0067902 -0.013634 0.023285 0.0080643 0.037964 0.030014 0.047943 0.065247 0.030548 0.13025 0.091919 0.070984 -0.034119 -0.029785 -0.063904 -0.067566 -0.017822 -0.092468 -0.003046 0.010742 -0.038879 0.0014219 0.0448 -0.05899 -0.075195 -0.032654 -0.11353 0.060852 0.024216 -0.093384 -0.066711 -0.01123 -0.12225 -0.13843 0.012375 -0.045837 0.049225 0.098267 0.083374 -0.013412 -0.0059967 -0.073059 -0.01358 -0.013947 0.04422 0.021393 -0.031403 -0.031464 0.052551 0.0070763 -0.068359 0.038239 0.074646 0.03035 0.12341 0.070496 -0.014755 -0.019073 -0.069519 -0.062622 -0.050659 -0.0011597 0.055603 0.018082 -0.040466 0.056122 -0.074402 -0.078918 0.01825 0.053497 0.018478 0.016006 0.007782 -0.090149 0.06842 -0.026337 -0.03093 -0.083618 -0.0168 -0.025848 0.027649 0.10004 -0.042175 -0.03717 -0.073486 0.062347 0.0039043 0.051239 -0.018967 0.0047836 -0.013405 0.042328 -0.028564 -0.11475 0.012428 -0.048798 0.051697 -0.046295 -0.044312 -0.042389 0.035889 -0.038818 0.0672 -0.12115 -0.001317 0.055573 0.040619 0.094849 -0.012108 -0.0060997 -0.044434 -0.052673 0.0029049 0.052338 0.0018129 0.02951 -0.073425 0.10956 -0.15869 -0.065063 0.052155 -0.047211 -0.14941 -0.033112 0.080627 -0.0051041 -0.027786 -0.027481 0.045837 0.05249 -0.071167 0.020432 -0.082886 0.041321 0.031067 -0.088074 0.096375 -0.1134 0.0031815 -0.0093079 -0.06192 -0.027863 0.0058823 0.08313 -0.1543 0.027695 -0.086304 -0.025665 -0.083496 -0.03772 -0.0029144 0.0048256 0.049255 -0.0072174 -0.035583 0.023712 0.068787 0.057343 0.013077 -0.063599 -0.0068703 0.030228 0.10767 -0.055603 -0.058105 -0.0073547 -0.046082 -0.081299 0.0088959 -0.0019102 -0.032623 0.031647 -0.028839 -0.020493 -0.074219 -0.078247 0.075623 -0.042725 0.012749 -0.062866 -0.020462 -0.066345 0.046021 0.064026 -0.055573 -0.0023479 -0.032349 -0.016434 -0.0060158 0.15454 0.012428 -0.029602 -0.010956 0.078979 0.062134 -0.0067825 -0.0037785 0.075012 -0.091003 -0.028793 -0.023819 -0.024857 0.019379 0.063599 0.0020695 0.05777 0.030853 0.12988 -0.046539 0.03949 -0.036072 -0.079651 0.016235 -0.029007 0.087524 -0.065063 -0.0035324 0.012825 0.0023079 0.062317 0.079712 0.086365 -0.11096 -0.038239 -0.040985 0.021637 -0.024567 0.015541 0.010895 -0.0019226 -0.062286 -0.045746 0.036072 -0.028641 -0.087585 0.037933 -0.058228 -0.009819 0.022339 0.0097656 0.038055 0.07959 -0.069702 -0.043365 -0.056824 -0.089844 0.13586 -0.012314 0.031067 0.06842 0.026154 0.018097 0.014259 -0.019241 0.085083 0.0020924 0.059753 0.0096436 0.047943 -0.074463 0.010429 0.010956 -0.082886 -0.062622 -0.034027 0.018814 0.060852
Darth_Vader 0.10516 0.073608 -0.013077 0.046509 -0.028732 0.036804 0.046143 -0.0032558 0.064575 0.024094 -0.018219 -0.025406 -0.008728 0.02504 -0.073547 0.045807 0.035126 0.040558 -0.024246 -0.034912 -0.008667 -0.032318 0.12109 0.023056 0.0047607 0.0090485 -0.02681 0.02066 0.053619 -0.08844 -0.042542 -0.043274 -0.094299 -0.00010681 -0.033752 -0.039764 0.04892 0.0036392 0.017365 0.040161 0.036987 -0.022095 0.082458 0.074158 0.013031 -0.012222 0.041473 0.012489 -0.033905 -0.028961 -0.097168 -0.037048 -0.025238 0.025528 -0.055389 0.0055962 0.0041199 -0.06488 -5.1856e-06 -0.098022 -0.0069962 0.15601 -0.044159 0.019562 -0.098083 -0.080261 -0.12469 -0.094238 -0.049774 0.066711 -0.016144 0.050018 -0.046509 -0.028381 -0.05307 -0.036835 0.082336 -0.010475 -0.019577 -0.038818 0.018173 -0.012665 -0.050476 -0.11133 -0.016464 0.016068 0.03894 0.13391 0.015396 0.0097733 -0.033905 -0.056244 -0.12091 0.039703 0.032013 0.023041 0.022659 0.036102 -0.010498 -0.065491 0.019836 0.022385 0.024368 -0.02243 0.040253 -0.062927 -0.001256 0.04361 0.051392 -0.022995 -0.015808 -0.036407 0.025772 -0.029968 0.13281 0.030655 -0.048889 -0.049042 0.07428 -0.013565 -0.026169 -0.089478 -0.032959 -0.060974 0.046997 -0.034393 -0.081909 0.087646 -0.035095 0.021362 -0.038177 0.0087814 -0.087646 0.080261 0.0271 0.032745 -0.12201 -0.017883 0.027466 -0.0070038 0.11829 -0.049011 -0.056793 0.034302 0.072205 0.071594 0.069214 0.046204 -0.020782 -0.046814 0.08136 -0.046814 -0.032013 0.080505 -0.048187 -0.088928 0.044037 -0.0039177 -0.024155 -0.023972 -0.0043068 0.015488 0.042328 -0.039154 -0.065796 -0.1037 0.1532 0.054626 -0.070251 0.06958 -0.034607 -0.046417 0.024719 0.034637 0.0022278 -0.058228 0.036499 -0.086609 0.059326 -0.085876 -0.03949 -0.055664 0.010101 -0.050568 -0.015671 0.033752 0.01355 0.0383 0.061279 0.010239 -0.0032139 0.065186 -0.045929 -0.045258 0.10046 0.030548 0.024689 -0.017441 -0.031982 -0.081238 0.013214 0.044006 -0.035858 -0.056915 -0.0027618 -0.073486 -0.066833 -0.11713 -0.19775 0.050293 -0.066772 0.063721 0.013542 -0.068481 -0.076843 0.038025 0.020844 -0.063904 -0.0067101 0.0051575 -0.018265 0.020355 0.17383 -0.012779 -0.042847 -0.01767 -0.082214 0.081055 0.085693 -0.060364 0.04541 -0.087219 -0.018524 -0.0032482 0.047485 0.067505 0.014626 -0.017273 0.11334 -0.0074615 0.089111 -0.036499 0.050842 -0.028854 -0.0047913 -0.067017 -0.057709 0.10754 0.05188 -0.077637 -0.0090485 -0.025772 0.11755 0.062927 0.02948 -0.0047417 -0.016708 -0.076294 -0.04776 -0.10773 0.05246 0.010033 -0.018295 -0.058655 -0.022247 0.059998 -0.072754 -0.06311 0.023422 0.001442 -0.042877 -0.0079803 0.017761 0.08429 0.10022 -0.057312 0.0096359 -0.094604 -0.013237 0.12 -0.072571 0.076782 0.069214 0.074951 0.094971 0.065552 -0.040314 -0.031738 0.026764 0.018997 -0.066223 0.11041 -0.053802 0.049438 0.013008 -0.072449 -0.018082 0.017334 0.014061 0.01458
William_Shakespeare 0.054382 -0.020065 -0.021133 0.085144 0.036591 0.056091 0.020874 0.043488 0.054688 0.065491 0.0016022 -0.14722 -0.099487 0.06665 -0.044128 0.053833 0.028046 0.034119 0.062561 -0.11139 -0.046906 -0.023178 0.11597 -0.031143 -0.024368 0.037476 -0.052734 0.070251 -0.034821 0.017975 -0.03418 -0.019669 -0.078491 0.012024 0.027267 -0.031219 0.02388 0.011574 0.014153 0.030914 0.021973 -0.036285 0.085266 0.028534 0.033844 -0.0059967 -0.043762 -0.015854 -0.055145 0.012985 -0.10181 0.064575 -0.026535 -0.0066452 -0.022598 -0.053986 -0.05481 -0.10175 -0.065674 -0.041351 0.062256 0.085693 -0.063416 -0.014732 0.027588 -0.059631 -0.075928 0.038788 -0.040314 0.065796 0.13281 0.00016725 -0.043823 0.034363 -0.053375 -0.053833 0.03299 0.028336 0.063965 -0.040894 -0.037292 0.055054 -0.056366 -0.12634 -0.032501 0.11676 -0.033447 0.12939 0.077576 0.027206 0.033844 -0.014633 -0.023727 -0.019562 -0.015808 0.006031 0.015366 -0.048431 0.023483 -0.11774 -0.14404 -0.014824 0.082092 -0.099854 -0.015747 -0.03595 -0.067627 0.076965 0.038086 -0.023499 -0.068115 0.053986 0.05127 -0.031891 0.09314 0.033112 -0.0043068 -0.066467 0.10394 0.025421 0.037933 0.0029278 -0.0066872 -0.011215 0.0030746 -0.0072708 -0.14417 0.025497 -0.023788 -0.0046234 -0.13782 -0.049835 -0.082092 0.075012 0.017365 0.040283 -0.045471 0.035675 0.048645 0.033844 0.099426 0.023148 -0.052216 -0.04248 0.043671 0.017731 0.016068 0.075378 -0.050842 -0.043274 0.062439 -0.088989 -0.0466 0.026794 -0.05954 -0.12573 0.0056839 0.10413 -0.0043144 -0.10229 -0.0042839 0.080078 0.11401 -0.043427 0.0098801 -0.036163 0.12781 -0.070679 -0.089722 0.062469 -0.093811 0.010376 0.023819 -0.069946 0.016937 -0.044525 0.0121 -0.045776 -0.051971 -0.074036 -0.017059 0.0065346 -0.041962 -0.05484 -0.040527 0.076538 0.0037766 -0.029831 0.045288 0.072937 -0.013268 -0.029984 -0.07605 0.11676 0.010895 0.042786 -0.0057182 -0.015533 -0.0010643 -0.023514 -0.025757 0.0052376 -0.0075836 -0.036774 0.039032 -0.037903 0.070862 0.054718 -0.091248 -0.010292 0.0042191 0.0059738 -0.039398 -0.069336 -0.16016 0.0088272 -0.057159 -0.029022 0.026138 -0.012436 -0.040405 0.021133 0.10785 -0.0076485 0.025955 0.013016 0.0030994 0.035736 -0.06842 -0.023087 0.031128 -0.029999 -0.042389 0.066284 0.036652 0.009285 0.062683 0.049713 0.07489 0.039185 0.05014 -0.070312 0.032135 -0.037384 -0.027573 -0.060516 0.0020561 0.0057144 -0.023727 0.023254 0.020355 0.016846 0.069031 0.12384 0.069824 -0.069763 -0.092163 -0.047272 -0.072449 -0.040253 -0.037506 0.012245 -0.00069571 -0.043823 -0.0448 0.086548 -0.014809 -0.063416 0.036652 -0.051483 -0.05014 0.042023 -0.020615 0.039246 0.10962 0.017487 -0.016037 -0.042236 -0.05838 0.15747 -0.022339 -0.007473 0.065613 -0.0073013 0.10632 0.032928 -0.0242 0.043549 -0.022995 0.094971 -0.01387 0.023087 -0.1626 -0.022598 0.027588 -0.046051 -0.024979 -0.049469 0.0021248 0.085815
Bill_Gates -0.0065613 -0.012085 -0.024551 0.16016 -0.055298 -0.059753 0.014534 -0.055664 0.047668 0.0085754 -0.04776 -0.081848 -0.00062513 0.013481 -0.072144 0.049683 0.05014 0.078125 -0.0061913 -0.019196 -0.026764 -0.0089493 0.040741 0.0016603 -0.0099869 0.06073 -0.084412 0.10101 -0.043518 -0.041748 -0.03096 -0.021835 -0.11353 -0.010666 -0.021332 0.028717 0.0046234 0.0079346 0.10669 0.05014 0.0011492 0.048218 0.12347 0.11456 0.016083 -0.056946 -0.0354 -0.006958 -0.054565 0.018158 -0.065186 -0.027328 0.029282 0.024979 -0.013123 0.0075798 -0.048706 -0.06366 -0.038391 -0.13989 0.047424 0.022705 -0.095459 -0.024612 0.014069 -0.10468 -0.088928 0.032043 -0.0060921 0.048828 0.031952 0.048279 0.03064 0.0012016 -0.091492 0.0030174 0.020462 0.052765 -0.029022 0.0020123 -0.061981 -0.024124 -0.029205 -0.028564 0.049011 0.03064 -0.0053024 0.10413 -0.0030251 -0.024429 -0.011002 -0.028824 -0.078247 -0.048157 0.019272 0.033905 -0.020752 -0.042694 0.10474 -0.072571 -0.074524 -0.038635 -0.015442 0.049835 -0.0093231 0.058411 -0.090271 0.10492 0.076538 -0.036102 -0.074402 -0.075623 0.028915 -0.014519 0.14185 0.0079727 -0.02124 -0.12115 0.040222 0.019058 -0.027283 -0.035309 -0.04248 -0.01017 0.016495 -0.042511 -0.054108 0.079407 0.052948 0.0029221 -0.094543 -0.046295 -0.051331 0.059235 0.019852 0.011299 -0.12573 -0.026764 0.043091 0.0069275 0.10925 -0.10724 -0.021225 -0.063354 -0.0045776 0.022324 0.080688 -0.017609 0.030991 -0.094666 0.089233 -0.097351 -0.076172 0.0082779 -0.081238 -0.12378 -0.033173 0.094543 -0.053436 -0.0055275 -0.059692 -0.00040674 -0.0036526 -0.016266 0.048248 -0.12683 0.093872 0.022278 -0.0625 0.11456 -0.1073 0.0031033 0.018188 -0.038605 0.047119 -0.057892 0.07666 -0.10242 0.050476 -0.10693 0.034515 -0.0087433 -0.058136 -0.055908 0.061157 0.057312 -0.018112 0.0080261 0.099121 -0.017609 0.036285 -0.024338 -0.084412 0.015434 0.0044975 0.10065 -0.077393 -0.097717 -0.00774 -0.083801 -0.10028 0.059479 0.031952 -0.046661 -0.045258 -0.012726 -0.011932 -0.038116 -0.14136 0.02243 -0.032104 0.010063 -0.072266 -0.037598 -0.070557 0.07196 -0.032166 0.041199 0.0013103 -0.027084 -0.09491 0.03125 0.09906 0.072266 0.046753 0.0025864 0.074036 0.060089 0.02475 -0.055939 -0.050018 -0.074036 -0.0085297 -0.067505 0.02124 0.015808 0.10553 -0.011314 0.0802 0.086182 0.11487 -0.01709 -0.037109 -0.0051575 -0.02742 0.042297 -0.02153 0.041077 -0.041138 -0.06366 -0.009201 0.01403 0.053131 0.095093 0.035309 -0.11456 -0.010681 0.018661 -0.0035858 0.017365 0.03653 -0.017242 0.054443 -0.10345 -0.030182 0.056488 -0.042847 -0.012466 0.038666 -0.045471 -0.08783 0.064941 0.017365 0.036438 0.038544 -0.024261 0.023834 -0.0065384 -0.051514 0.11169 0.0049324 0.019226 -0.0058632 0.12445 0.0011063 -0.0047836 -0.0042801 -0.0091629 0.034729 0.063171 0.0056801 0.04306 -0.078918 0.02626 0.010017 -0.096069 -0.027466 0.0090485 0.013512 0.0383
Gandhi -0.00059605 0.023712 0.060486 0.17273 -0.039276 -0.0039864 0.0019569 -0.01226 0.0015926 0.010262 -0.02832 -0.079163 -0.0053596 0.033051 -0.022781 0.04071 0.026093 0.052277 -0.028183 -0.04364 0.020691 0.007 0.092102 -0.01918 -0.068115 0.053253 -0.13391 0.051147 0.02713 -0.08197 -0.072266 -0.055847 -0.13074 0.033142 -0.099854 0.016022 -0.0097427 0.041901 0.055145 -0.037506 0.074585 0.0083237 0.10992 0.11365 0.0088882 -0.0896 -0.052032 -0.033081 -0.021332 -0.0401 -0.017654 0.018311 0.011368 0.039551 -0.016754 -0.05835 -0.052673 -0.040497 -0.042419 -0.13159 0.029297 0.048615 -0.024124 -0.0071068 0.0065346 -0.035919 -0.055634 0.02652 0.02597 0.03067 -0.0030746 0.12708 -0.0028706 0.039642 -0.092957 -0.13062 0.0092545 -0.00048518 0.038696 -0.014847 -0.043915 0.072876 -0.010719 -0.086731 0.05069 0.024063 -0.057556 0.05896 0.059235 0.0071068 -0.07074 -0.0080948 -0.058746 -0.042633 -0.023422 0.02652 0.034576 -0.034332 0.15137 -0.010353 -0.020981 0.038635 0.052826 -0.011292 0.03833 0.010147 -0.054504 0.051971 0.065857 -0.054504 -0.07666 -0.030075 0.023514 -0.052856 0.066833 0.02713 -0.0048828 -0.14771 0.1004 0.057892 -0.0055695 0.032715 -0.073914 -0.002388 -0.062164 -0.014023 -0.065186 0.042816 -0.012321 -0.024567 -0.072327 0.022751 -0.07959 0.027863 0.043823 -0.0027771 -0.088989 0.015427 0.0070801 0.017838 0.092468 -0.066467 0.028397 -0.05191 -0.075867 -0.035065 0.090149 0.041199 0.074646 -0.035309 0.086548 -0.049683 -0.017654 -0.043854 -0.040314 -0.14832 -0.054382 0.00052929 0.049561 -0.016739 -0.073975 -0.015617 -0.040222 0.014809 -0.028091 -0.1134 0.067627 0.039124 -0.091309 0.10382 -0.097229 0.030548 0.015335 -0.038605 0.0013762 -0.043579 0.10883 -0.16858 0.028183 -0.11078 -0.012375 0.024521 -0.07666 -0.052032 0.066284 0.068237 -0.011055 0.032959 0.089783 0.03894 -0.046753 0.054077 -0.10229 -0.0036774 0.097046 0.068787 -0.0067024 -0.008316 -0.00054407 -0.039276 -0.036926 0.0080414 -0.011444 -0.079529 0.043915 -0.048828 -0.025192 -0.052673 -0.060883 0.02182 -0.072876 0.085205 -0.028259 -0.084595 -0.089111 0.058136 0.013596 0.065674 -0.045074 -0.061493 -0.034546 0.015335 0.087097 0.06842 -0.056213 -0.030624 0.049591 0.010132 0.012764 0.0044823 -0.010757 -0.032898 -0.015991 -0.0020714 0.039612 -0.025269 0.071838 -0.03125 0.076111 0.060944 0.11664 -0.011536 0.02359 -0.0093079 -0.048676 0.044891 -0.038361 0.079041 -0.060883 -0.041809 0.069275 0.033783 0.035706 0.10767 0.10388 -0.050262 -0.01326 -0.063354 0.0057793 -0.06488 -0.02713 0.071716 0.061707 -0.13098 -0.042694 0.041718 -0.025528 -0.058472 0.0466 -0.064026 -0.066895 0.0045471 -0.022934 0.062866 0.12524 -0.039917 0.0080414 -0.051941 -0.09613 0.069153 -0.0085983 -0.034668 -0.067932 0.026199 -0.003397 -0.017349 -0.049988 0.074829 -0.019028 0.070679 -0.020294 0.086853 -0.067749 0.014748 -0.035431 -0.049286 -0.014648 -0.052765 0.0070801 0.022461
Michael_Jordan 0.014603 0.038635 -0.060669 0.12006 0.013374 -0.070007 -0.015213 -0.048401 0.03421 0.0083466 -0.097656 -0.10803 -0.043365 0.025055 0.040314 0.044525 0.05899 0.057495 0.024063 -0.072266 -0.038666 -0.028305 0.11011 -0.0039062 -0.098083 -0.0040703 -0.10925 0.13623 0.02597 -0.059021 -0.022644 0.078491 -0.040527 -0.044617 -0.021149 -0.005188 0.05249 0.071777 0.030487 0.016754 0.030655 -0.069519 0.083435 0.015305 0.037659 -0.043182 -0.0038166 -0.042938 0.025467 0.077026 -0.072327 0.048676 -0.013206 0.044495 0.038208 -0.0024452 -0.046021 -0.040436 -0.063599 -0.035431 -0.0055733 0.062134 -0.062683 -0.026489 0.0021744 -0.084778 -0.071594 -0.0012674 -0.050079 0.059723 0.084717 0.030151 -0.020233 0.0067177 -0.12164 -0.014069 0.059204 -0.065674 -0.014252 -0.039215 -0.029892 0.0020676 -0.073608 -0.046844 0.080994 0.02388 0.0049591 0.096008 0.032715 -0.0093689 -0.077759 0.0058098 -0.11145 -0.063721 0.048431 0.044006 -0.0066414 -0.05484 0.032928 -0.079773 -0.051453 -0.056213 0.054779 0.0056877 -0.0084229 0.052734 -0.013992 -0.00094986 0.070679 -0.023956 -0.023666 0.00026131 -0.022888 0.0010805 0.12646 0.0070763 -0.036865 -0.066345 0.0028305 -0.012581 -0.060577 0.00051832 -0.059143 -0.033569 0.053497 -0.038788 -0.079529 0.036072 0.0093002 0.017395 -0.1073 0.032227 -0.0099716 0.13257 0.014572 0.0033016 -0.11499 -0.051849 0.065796 0.071838 0.13733 -0.10022 -0.018677 -0.0049286 0.016083 0.069763 0.018967 -0.039581 0.013702 -0.018799 0.097656 -0.064148 -0.1015 0.016266 -0.034119 -0.07489 -0.030075 0.064636 -0.084045 -0.0060539 -0.040558 0.064758 0.084778 -0.01387 0.063354 -0.079224 0.081848 0.020248 -0.093933 0.12115 -0.089539 -0.03833 0.054657 -0.044861 -0.0080414 -0.015198 0.14856 -0.090332 0.022842 -0.0513 -0.02803 -0.011429 0.044769 -0.019485 -0.011551 0.0069618 -0.046356 0.0083618 0.082397 0.059601 0.02916 0.036316 -0.056091 0.045776 -0.007061 0.091858 -0.096069 -0.12079 -0.0095825 -0.037262 -0.097839 0.013412 -0.025833 -0.02774 0.017441 -0.033386 0.057129 -0.087708 -0.05777 0.058685 -0.031204 0.034851 -0.10455 -0.031342 -0.079529 0.064087 0.051849 -0.0088959 -0.023285 -0.043182 -0.11475 0.029251 0.03949 0.0069427 0.042023 0.036438 0.02002 0.13831 -0.013107 -0.067383 0.016357 -0.020691 -0.019943 -0.010513 -0.062988 0.038757 0.076294 -0.086365 0.055328 0.025055 0.091553 0.026688 0.05011 -0.092346 -0.086426 0.045502 -0.0027065 0.098816 -0.011711 -0.060699 0.077209 0.012207 0.025101 0.092712 0.028107 -0.029434 0.071411 -0.042664 -0.029938 -0.038696 0.050385 0.017899 0.11334 -0.071411 0.023987 0.080994 -0.096375 -0.021393 -0.0076218 -0.052032 -0.11829 0.067383 -0.06427 0.10223 0.092468 -0.011421 -0.0025101 -0.022141 -0.10645 0.054138 -0.051971 -0.0012655 0.052429 0.0058098 -0.028519 -0.038635 -0.039673 0.01619 0.035034 0.013306 0.01709 0.064514 -0.043213 -0.018997 -0.0009985 -0.084045 -0.049469 -0.075378 0.026154 0.03035
Neil_Armstrong -0.080872 0.032135 -0.02887 0.10608 -0.047791 -0.075317 0.039001 -0.088562 0.03418 -0.0054741 -0.0029144 -0.08252 -0.0059471 0.050262 -0.019913 0.10388 0.020874 0.088379 0.02774 0.015602 -0.072388 0.013504 0.036621 -0.050995 -0.015556 0.083496 -0.12378 0.060181 0.073975 -0.015083 -0.039856 -0.078979 0.0069275 0.027374 -0.011803 -0.083923 0.027206 0.06131 0.032623 -0.038757 -0.0037842 -0.022446 0.16711 0.14697 -0.01741 -0.052307 0.012177 -0.040619 0.017059 0.009201 -0.11292 -0.031311 0.026108 0.0044098 0.0019007 -0.049072 -0.026382 -0.044403 0.039795 -0.078674 0.039978 -0.052673 -0.091675 -0.054291 -0.03653 -0.094971 -0.034088 0.0092163 0.0027599 0.071167 0.07019 0.030777 -0.0049019 0.015884 -0.11383 -0.027115 0.059265 -0.014618 -0.034668 -0.028763 -0.019058 -0.04538 0.029617 -0.11749 0.015839 -0.049988 -0.0072365 0.15344 0.070068 0.11072 -0.077759 -0.10065 -0.062042 -0.05069 0.031769 0.02948 0.051056 0.014404 0.089783 -0.035278 -0.034851 -0.074585 0.0055275 -0.0048904 -0.016907 0.077881 -0.026688 0.0089493 -0.016663 -0.027924 -0.042236 0.012962 0.046997 0.03418 0.024384 0.019135 -0.031433 0.0011673 0.02417 -0.023499 -0.10541 -0.053894 -0.032928 -0.030273 0.088379 -0.083496 -0.095703 0.074585 0.064636 0.018036 -0.046997 0.007267 -0.073181 0.052887 -0.0097427 0.088623 -0.095459 -0.033661 0.042267 0.065552 0.08197 -0.072998 -0.074951 0.001029 -0.074707 0.0075226 0.058594 0.031464 0.041626 -0.080505 0.061371 -0.076721 -0.07019 -0.035858 -0.093994 -0.090515 6.5267e-05 0.045166 -0.021729 -0.06958 -0.058533 0.067444 0.00774 0.041473 0.036713 -0.12744 0.13733 0.04422 -0.095642 0.047668 -0.027191 0.025955 0.09729 -0.0033932 0.024521 -0.025299 0.039154 -0.15063 0.0084152 -0.09198 -0.057373 0.0093384 -0.033722 -0.03772 0.068115 -0.011383 -0.01886 0.020767 -0.0011368 0.0063667 -0.029877 -0.0038548 0.0067101 -0.020035 -0.046844 0.10608 0.057068 -0.036133 -0.025421 -0.057404 -0.017288 0.025925 -0.095459 -0.051453 -0.0043602 -0.034393 0.0080872 -0.07666 -0.11646 0.032257 -0.034821 0.042084 -0.065247 0.011055 0.010933 0.029434 0.049835 0.00053167 0.04422 -0.083313 -0.059021 -0.024414 0.09082 0.053894 0.0072403 0.061432 0.039551 -0.0012789 0.059692 -0.019089 0.023422 -0.079529 -0.038208 -0.015976 0.027802 0.0049019 -0.034546 -0.076416 0.044373 -0.013046 0.08374 -0.049988 -0.0055275 -0.042999 -0.069397 -0.052887 -0.051849 0.10199 -0.068359 -0.021652 0.031494 -0.0042572 0.070312 0.077759 0.049835 -0.034851 0.086914 0.0092316 -0.018997 -0.10535 0.03653 -0.030716 0.029816 -0.088379 0.087341 0.071716 -0.093994 -0.031891 0.054016 0.040466 -0.074585 0.010231 0.034637 0.055603 0.046997 -0.00050545 -0.049591 -0.078064 -0.079041 0.077881 -0.051086 0.036835 0.020416 0.010468 0.0053596 -0.056427 0.020828 0.02243 -0.0031147 0.00086117 -0.036133 0.080627 -0.16443 0.062225 0.0059471 -0.060028 -0.10559 -0.041718 0.013435 -0.032043
Dr._Seuss 0.011223 -0.0044403 -0.046082 0.14343 -0.10382 -0.046356 -0.03035 0.0089264 0.041779 -0.015526 0.021133 -0.071655 -0.021072 -0.014503 -0.015327 0.02832 0.00090408 0.073242 0.00024581 -0.088074 -0.060699 0.075806 0.044159 -0.045898 -0.10468 0.025345 -0.022888 0.066406 -0.091248 -0.041077 -0.0085373 -0.066711 -0.070618 -0.0017366 0.075073 -0.007225 -0.0061188 0.083557 0.053802 0.10992 0.029053 -0.030228 0.065247 0.088196 -0.0092545 0.068115 -0.035034 -0.033051 0.0035667 0.0093307 -0.1214 0.016342 0.033783 -0.057434 -0.036377 0.056702 -0.023041 -0.074829 -0.018723 -0.15747 -0.012894 0.0087128 -0.039215 -0.040527 -0.017792 -0.13721 -0.065613 0.066223 -0.025909 0.056335 0.049164 0.050995 -0.048676 0.040497 -0.063538 -0.019135 -0.015572 0.050507 0.0354 0.0055847 -0.043365 0.0036621 0.014473 -0.019196 0.020584 -0.0019741 -0.072754 0.12433 -0.019104 -0.031799 -0.015266 -0.054474 -0.146 -0.015144 0.043243 0.0092621 0.057373 -0.059021 -0.0071564 -0.057495 -0.047363 -0.013504 -0.032745 0.017303 0.069336 -0.017761 -0.085999 0.022339 0.0019426 -0.047058 -0.075134 0.011703 0.024261 0.0024471 0.055084 -0.029373 -0.040161 -0.064819 0.15967 0.066406 -0.11426 -0.039154 0.059448 0.01445 0.083679 0.0062828 -0.073975 0.071167 -0.088745 0.016998 -0.031677 -0.047668 -0.15332 0.025421 -0.055786 0.00038981 -0.12061 -0.020111 0.035858 0.0073013 0.065369 -0.035095 -0.043823 -0.067444 0.068848 0.029617 0.10114 0.048401 0.009407 -0.053894 0.10248 -0.12756 -0.011383 0.083313 -0.025955 -0.13293 -0.035858 0.027328 -0.049835 -0.014412 -0.048035 0.077698 0.076233 0.0089874 0.031082 -0.078003 0.12384 -0.052673 -0.010948 0.086853 -0.026627 0.057007 -0.010475 -0.054138 -0.022873 -0.00049448 0.091248 -0.1272 -0.013885 -0.068237 -0.056396 -0.089233 -0.043182 -0.12805 0.052429 0.020935 -0.0047188 -0.048157 0.072754 0.048523 0.013565 -0.020615 0.047699 -0.015198 -0.045258 0.091248 -0.019501 -0.087219 -0.035614 -0.074097 -0.097412 -0.025284 0.061279 0.0069008 -0.015404 -0.017044 -0.060333 -0.0092468 -0.12061 -0.0068893 -0.015793 -0.041107 -0.02832 0.057922 -0.068176 0.10803 0.033752 0.015465 0.0057144 -0.071411 -0.0081711 0.0095901 0.06189 -0.036591 -0.0034637 -0.0057945 0.035797 0.066956 -0.05542 -0.036743 0.0080032 -0.0401 -0.061035 -0.028961 -0.007164 0.02037 0.038483 0.028198 0.072632 -0.0045853 0.054047 -0.10461 -0.032623 -0.010002 -0.084229 0.010078 0.0063133 0.076538 -0.061646 -0.056213 0.018127 -0.032043 -0.014938 0.048523 0.081604 -0.09021 -0.040894 -0.02803 -0.057526 -0.027893 0.034058 0.029083 0.039948 -0.095703 0.042358 0.058716 -0.01619 -0.10437 0.032074 -0.062622 -0.0031071 0.046631 -0.040924 0.025299 0.10706 0.09906 -0.068542 0.02713 -0.058746 0.038086 0.010498 -0.0033684 -0.040375 0.078308 0.011353 0.031952 0.0052338 0.067993 0.0018358 0.056702 -0.012238 0.044189 -0.10681 0.052948 0.039215 -0.054382 -0.080017 0.0021191 -0.0036716 0.071167
Marilyn_Monroe -0.054352 0.032898 -0.055634 0.14929 -0.036865 -0.11292 -0.019409 -0.054535 0.056213 0.028046 -0.051666 -0.11584 -0.069763 0.02211 -0.0068245 0.042389 0.08197 0.11511 0.057587 -0.00088692 -0.011688 -0.049103 0.11224 -0.026108 0.011322 0.036438 -0.098999 0.10455 -0.0012522 -0.0077782 -0.008728 -0.004303 -0.072021 -0.022186 -0.00054741 -0.039612 0.019821 0.085754 0.042633 0.050079 0.038513 -0.061676 0.11804 0.022247 0.031433 -0.027817 -0.0061722 -0.041901 0.0019484 0.098511 -0.15112 0.024857 0.016251 0.019669 -0.022171 0.025116 -0.034821 -0.10101 -0.020889 -0.087402 0.020111 0.070312 -0.04837 -0.018066 0.06427 -0.081848 -0.098389 0.0027237 -0.062561 0.10199 0.12335 0.082092 -0.0039062 0.063538 -0.1333 0.0049095 0.055267 -0.01825 0.061127 0.035645 -0.026932 -0.051819 -0.017181 -0.10461 -0.0075417 0.081726 -0.014191 0.13965 0.020615 -0.032562 -0.048615 -0.015404 -0.051941 -0.0036068 -0.054169 0.061401 0.061127 -0.017273 0.0087051 -0.11993 -0.097961 0.0074921 0.021362 -0.010277 0.027466 0.03093 -0.034912 0.062561 -0.041718 -0.0112 -0.010521 0.012672 0.023285 0.034058 0.079468 0.0085449 -0.026413 -0.13147 0.065918 -0.0082932 -0.048157 -0.030624 0.015137 -0.016159 0.083984 -0.079773 -0.091064 0.092163 -0.016891 0.0068893 -0.031128 -0.018799 -0.058807 0.089355 -0.048126 0.03186 -0.098389 -0.041351 0.081177 -0.013702 0.10724 -0.038818 -0.034882 -0.072876 0.069458 0.055481 -0.014984 0.025543 0.0068512 -0.14478 0.059174 -0.092041 -0.062988 0.052185 -0.036072 -0.08429 -0.023132 0.072998 -0.041748 -0.070679 -0.031708 0.065002 0.018066 0.0030785 0.052917 -0.097168 0.085388 -0.0088882 -0.036285 0.16125 -0.072266 0.0036774 0.040222 -0.068542 -0.04361 0.038696 0.096497 -0.056763 0.039001 -0.064026 -0.048004 -0.061188 -0.042969 -0.020813 0.026535 0.047302 0.0054588 -0.019592 0.032959 0.071289 0.049591 0.052429 -0.024597 0.053406 0.040009 0.049103 -0.047485 -0.045532 0.035858 -0.012672 -0.015236 0.024765 -0.03656 -0.035156 0.030258 -0.060181 -0.026703 -0.00092506 -0.10248 0.058655 -0.064026 -0.0021229 -0.066956 0.0085373 -0.11664 0.027756 0.051117 0.032837 -0.0084686 -0.026627 -0.020874 -0.0015373 0.079529 -0.0021515 0.030151 0.0053291 0.099731 0.041138 -0.01458 -0.079285 -0.001893 -0.040924 -0.033051 -0.037018 0.0040741 0.084045 0.097961 -0.0030212 0.085388 0.074402 0.12549 -0.076538 -0.00010389 -0.022736 -0.020065 0.040955 0.042694 0.11426 -0.0043488 -0.020279 0.023163 0.043579 0.024307 0.067566 0.01857 -0.057495 -0.033539 0.0049667 -0.049347 -0.0023956 0.010712 0.015495 0.0067558 -0.064148 0.053406 0.011116 -0.12756 0.0076485 0.0062828 0.014069 -0.012703 0.033478 0.030533 0.078308 0.11053 -0.016663 0.0051193 0.024796 -0.081726 0.087402 0.011787 0.025009 -0.0030308 0.045074 -0.0448 0.011505 -0.052704 0.038147 -0.0015373 0.053772 0.0079117 0.048767 -0.10608 0.032318 -0.0067101 -0.058319 -0.053528 -0.050934 -0.012444 0.099548
Mother_Teresa 0.056396 0.021622 0.085938 0.18359 0.006176 -0.020309 -0.025543 -0.019348 0.032349 0.0072784 0.015442 -0.065002 0.0065308 0.039551 -0.0062218 0.077759 0.0064278 0.078308 0.026184 -0.069153 0.064697 -0.0039864 0.059479 -0.041962 0.03006 0.0061569 -0.099121 0.036774 0.031891 -0.083313 0.062286 -0.060547 -0.13123 0.073181 -0.01619 -0.021362 -0.011169 0.029861 0.061249 0.0041199 0.069641 0.021622 0.097168 0.14014 -0.0050697 -0.064575 -0.041199 -0.019348 -0.093567 -0.0018587 -0.01226 0.042969 -0.021591 0.00040126 0.028229 0.0056076 -0.10175 -0.046814 -0.035767 -0.11487 0.068604 0.025375 -0.010132 -0.071838 0.048767 -0.037201 -0.076843 0.013832 0.057068 0.013405 0.047485 0.037933 -0.029037 0.067688 -0.068909 -0.062439 -0.010643 0.0022945 0.063293 0.01432 -0.044617 0.0058899 -0.025055 -0.033569 -0.053986 -0.02623 -0.023392 0.041016 0.076416 0.0006485 -0.035675 -0.041473 -0.043213 -0.035126 -0.028046 0.05545 -0.006237 -0.030792 0.098755 -0.1203 -0.094055 0.083923 0.061462 -0.042175 0.051178 -0.019424 -0.091919 0.11511 0.055786 -0.045013 -0.019241 -0.043793 -0.031052 -0.028687 0.027054 -0.012558 -0.0027142 -0.095642 0.12817 0.095886 0.016937 -0.033905 -0.074402 -0.072205 -0.10284 0.016098 -0.045624 -0.0078506 -0.064941 0.03302 -0.086243 -0.028381 -0.0069695 -0.010963 0.028458 0.028214 -0.055328 0.012474 0.11285 0.041504 0.063477 -0.030838 0.023758 -0.039246 -0.011009 0.031708 0.070496 0.019455 0.001297 -0.11542 0.12103 -0.13379 -0.054138 0.075989 0.050537 -0.1236 -0.045898 0.067627 0.024872 -0.086426 -0.02446 -0.0046272 -0.014389 0.002367 0.017532 -0.047974 0.10437 0.010704 -0.10754 0.10901 -0.078857 0.003252 -0.00018287 -0.12817 0.019394 -0.014801 0.051392 -0.11365 0.055573 -0.10602 -0.083679 -0.047333 -0.054138 -0.028687 0.027618 0.0089264 -0.010147 -0.050201 0.013443 0.083618 0.01915 0.070984 -0.02684 0.021866 -0.0025024 0.037994 -0.0091171 -0.0091934 0.010696 0.039795 0.0015554 0.044098 -0.015038 -0.085815 0.058075 0.015526 0.023193 -0.045349 -0.010132 -0.010132 -0.086914 -0.019424 0.0023708 -0.1073 -0.071838 0.041382 -0.0071945 0.059631 0.03421 -0.090149 0.010994 0.022415 0.11554 0.061188 0.040436 -0.0048027 0.051025 0.012154 0.043121 -0.01889 0.037933 -0.069458 -0.035767 0.011703 0.072266 0.011345 0.10364 0.042725 0.00096226 0.0030022 0.10364 -0.048584 0.045105 -0.019791 -0.084778 0.077209 -0.063232 0.023178 -0.06665 -0.035095 0.095825 -0.043335 0.073425 0.08606 0.074829 -0.088074 -0.0018549 -0.00057268 0.047974 -0.013672 0.020065 0.05719 0.059052 -0.12292 -0.012527 0.053314 0.0015821 -0.019821 0.038422 -0.064697 -0.059967 0.027557 0.007618 0.067322 0.11279 -0.054749 0.023392 -0.070557 -0.039093 0.13293 -0.01947 -0.0085831 -0.0079269 0.031647 0.0083084 0.0077515 -0.059357 0.058044 -0.034424 0.076477 0.048492 -0.037598 -0.1311 0.03064 -0.0061378 0.017441 -0.0038548 -0.018509 0.02063 0.096558
Thomas_Jefferson -0.023117 0.051239 -0.017273 0.18286 -0.0031929 -0.044281 -0.055115 -0.024948 0.024414 -0.00060701 -0.054474 -0.13806 -0.092041 -0.010033 -0.021149 0.11133 0.023148 0.1272 0.057068 -0.040497 -0.043121 -0.0056992 0.10114 -0.018127 -0.062744 0.053528 -0.10962 0.073181 -0.049591 0.021423 0.058624 0.016205 -0.059418 -0.050232 -0.053009 0.014984 -0.030045 0.0755 0.050751 -0.018143 0.050049 -0.035522 0.097534 0.051178 0.043274 -0.046692 -0.002615 -0.068604 -0.047394 0.015961 -0.085938 -0.03952 0.0091248 -0.00047541 -0.023804 0.0067024 -0.044312 -0.045105 -0.03476 -0.13086 -0.022003 0.036346 -0.066956 -0.049408 -0.039398 -0.12341 -0.075256 0.0085526 -0.065491 0.031235 0.054169 0.062317 0.017624 0.019775 -0.10858 -0.017593 0.034424 0.072998 0.0012732 -0.0010366 -0.078491 0.01709 -0.012611 -0.040924 0.05365 0.063171 -0.028549 0.10126 0.023529 -0.0053024 -0.014282 0.011017 -0.026688 -0.026703 -0.011528 0.085632 0.010345 -0.074036 0.067932 -0.085266 -0.078552 -0.036133 0.070679 0.045532 0.022064 0.058563 -0.080627 -0.01226 -0.015617 -0.03717 -0.08728 -0.025665 0.0038986 0.0067177 0.11707 -0.047607 0.019379 -0.10736 0.024536 0.011795 -0.028854 -0.0099792 0.013611 -0.0077133 0.13501 -0.058746 -0.097412 0.043457 0.021179 0.03363 -0.07489 -0.062378 -0.024109 0.010437 -0.096497 0.041779 -0.10638 -0.039673 0.070007 0.0040016 0.088928 -0.081116 0.018921 -0.013344 -0.037689 0.028458 0.007473 -9.8884e-05 0.05481 -0.072449 0.11914 -0.1377 -0.053833 0.0040398 -0.067383 -0.12659 0.021103 0.043701 -0.066956 -0.017746 -0.064026 0.058197 0.0032234 -0.039093 0.046539 -0.079346 0.070801 0.020691 -0.074402 0.10181 -0.11914 0.013466 -0.0069923 -0.050232 -5.7638e-05 -0.013748 0.092285 -0.16479 0.042511 -0.043579 0.0040665 -0.033325 -0.025269 0.0089645 -0.01075 0.052399 0.021072 -0.010933 0.03772 0.034424 0.097534 0.0013514 -0.044556 -0.0015526 0.015465 0.057373 -0.046753 -0.034485 0.003006 -0.050629 -0.076477 0.044739 0.033691 -0.080139 -0.028397 -0.014114 0.048706 -0.04364 -0.053223 0.078979 0.028564 0.014595 -0.086975 -0.025284 -0.054688 0.032562 0.040802 -0.044434 0.0058556 -0.046295 -0.039886 0.024353 0.08844 0.044983 -0.01416 -0.019684 0.092163 0.077942 -0.0042839 -0.046387 0.014778 -0.04245 0.0066528 0.014275 -0.020782 0.052399 0.072998 -0.032562 0.064819 0.049469 0.10596 0.0006671 0.030701 -0.0086288 -0.11249 0.030136 -0.049469 0.13062 -0.051819 -0.021103 0.07251 0.050171 0.042847 0.066467 0.066772 -0.12415 -0.045074 -0.00029874 0.0027142 -0.033112 0.02977 0.049744 0.045502 -0.042175 -0.019897 0.031158 -0.061646 -0.079956 0.0073662 -0.074768 -0.050537 -0.010811 0.028397 0.067322 0.0075264 -0.041107 -0.026657 -0.08429 -0.1076 0.11353 -0.028275 -0.037933 0.063171 0.088135 -0.069641 -0.019699 -0.029282 0.00051403 -0.035431 0.017075 -0.0068512 0.038513 -0.019363 0.038666 -0.064941 -0.11493 -0.050903 -0.0354 0.049805 0.072937
Steve_Jobs -0.0103 0.003149 -0.049591 0.1366 -0.034637 -0.02655 -0.0080643 -0.03595 0.096375 0.0242 -0.091248 -0.055664 0.0053558 -0.051117 0.018646 0.040253 0.056122 0.064026 0.0081558 -0.037903 -0.0087051 0.046539 0.034973 -0.034576 -0.063538 0.046448 -0.036835 0.13513 -0.018875 -0.083984 -0.033051 0.017044 -0.09314 0.02977 -0.0070801 -0.017273 -0.039795 0.039551 0.038391 0.029816 0.034546 0.012924 0.10126 0.069763 0.016602 -0.028564 -0.026321 -0.01947 -0.03476 0.0090103 -0.067932 -0.032471 0.0019989 0.029358 0.0019932 -0.037476 -0.0051804 -0.065491 -0.059357 -0.053375 -0.0022259 0.083496 -0.10968 0.0069809 -0.0031204 -0.088379 -0.10803 0.020325 -0.051483 0.079651 0.024841 0.052673 -0.03363 0.028366 -0.11761 -0.025009 0.0050507 0.0077744 -0.017517 -0.038208 -0.065613 0.046082 -0.052155 -0.060822 0.04425 -0.0032291 0.057068 0.097656 -0.037018 -0.025604 -0.047028 0.0055275 -0.043243 -0.019196 -0.0072365 -0.010284 0.013809 -0.0075951 0.077698 -0.064026 -0.032379 -0.051239 -0.006855 -0.0023861 0.025604 0.028625 -0.046814 0.074768 0.11145 -0.10693 -0.089539 -0.044556 0.096558 0.020386 0.12201 -0.0043945 -0.027756 -0.17102 0.06604 0.0031872 -0.064636 -0.067139 -0.046753 -0.0066757 0.080627 -0.065796 -0.11926 0.095032 -0.0047188 0.045654 -0.06012 -0.039764 -0.036133 0.085144 -0.0042038 0.057953 -0.054596 -0.00091934 0.0030823 0.011124 0.091492 -0.093628 -0.026611 -0.063049 -0.001544 -1.1265e-05 0.12817 -0.0064964 -0.043213 -0.060852 0.071289 -0.084778 -0.064941 0.039337 -0.065979 -0.093323 -0.041595 0.06366 -0.082397 0.026093 -0.075928 0.016037 -0.028488 0.013168 -0.002739 -0.11127 0.076172 -0.0067368 -0.087646 0.04776 -0.052979 0.0065079 -0.024063 -0.03363 -0.046204 -0.029114 0.10468 -0.15356 0.042572 -0.067993 0.012398 -0.024307 -0.01944 -0.081726 0.048309 0.081848 -0.05661 0.023087 0.035156 -0.0043907 -0.005188 0.030548 -0.10547 0.013466 0.01796 0.090515 -0.094421 -0.069824 -0.016815 -0.082031 -0.08429 0.059998 -0.016312 0.0063286 0.073059 -0.036835 -0.03479 -0.053925 -0.12634 0.016891 -0.026321 0.078003 -0.061798 -0.028549 -0.069641 0.0063286 -0.00811 -0.002737 -0.03653 -0.095337 -0.10236 0.028549 0.073425 0.077576 -0.0035801 0.048065 0.021027 0.044342 0.012077 -0.058594 -0.054382 -0.063293 -0.0037098 -0.07666 -0.0085983 0.071411 0.044739 0.0037498 0.12769 0.068481 0.10468 -0.033081 -0.0090332 -0.046448 -0.068787 -0.0098953 -0.048615 0.080688 -0.047058 -0.016922 -0.016403 0.033447 0.0672 0.082947 0.06488 0.0024414 -0.0039635 0.00049639 -0.025131 -0.028809 0.015106 0.017731 0.035126 -0.062927 -0.014763 0.037842 -0.08728 -0.075562 -0.01442 -0.076782 -0.039154 0.022873 0.017654 0.032166 0.066589 -0.0093765 0.049194 -0.057281 -0.071716 0.10718 -0.01403 0.021576 -0.021637 0.12183 0.057739 0.051514 -0.015518 -0.027084 0.035431 0.10846 -0.056458 0.072693 -0.08905 -0.0016794 0.089478 -0.083801 -0.082214 -0.038361 -0.04184 0.066467
Harry_Potter 0.043335 -0.028595 -0.10266 0.052643 -0.018463 0.03476 -0.026382 0.008316 -0.0093002 0.025375 0.039734 -0.11371 -0.017487 0.012177 -0.028564 0.013588 0.034973 0.024643 0.054169 -0.063293 -0.0043221 -0.015259 0.066406 0.034515 -0.048828 -0.017441 -0.032776 0.05426 -0.017609 -0.052704 -0.044128 -0.078857 -0.10718 -0.091553 -0.031189 0.017639 0.0036221 -0.027756 0.0092316 0.054291 0.047791 -0.055267 0.12012 0.031921 0.014511 -0.078613 -0.013153 -0.057953 -0.05896 0.017029 -0.078735 0.028519 0.034424 -0.016281 0.0091476 -0.033783 -0.01535 -0.067017 -0.085266 -0.045837 -0.00016284 0.066162 -0.038147 -0.0014191 -0.033081 -0.065735 -0.10767 0.017639 -0.039001 0.02243 0.001565 0.031708 0.01738 0.036835 -0.073181 -0.037384 0.022247 0.014084 0.080933 -0.084534 0.0013514 0.0027847 -0.068481 -0.09552 -0.018723 0.022369 0.043213 0.098816 0.011253 0.051117 0.01973 0.016754 -0.057678 -0.0089722 -0.018097 -0.007782 0.050842 -0.055389 -0.0067329 -0.02742 0.0016518 0.002985 0.051605 -0.012733 0.052887 0.0081177 -0.001791 0.058411 0.05484 -0.095764 0.019775 0.0067291 0.048737 0.023193 0.078125 -0.011658 -0.063782 -0.028778 0.14136 0.0037804 0.0047455 -0.060059 0.09436 -0.044189 -0.014282 -0.020767 -0.086853 0.03717 -0.037323 0.02504 -0.077209 0.00073099 -0.10596 0.06427 -0.012627 0.094055 -0.040588 -0.05069 0.078979 -0.063843 0.15442 -0.033722 -0.050293 -0.050629 0.013985 0.034515 0.070312 0.076904 -0.038666 -0.11194 0.073059 -0.070801 -0.018143 0.027283 0.0020885 -0.085449 -0.061188 -0.016693 -0.12708 0.041199 -0.035706 0.069458 0.069702 0.0052948 -0.013062 -0.068115 0.064148 0.007122 -0.079224 0.11151 0.051331 -0.012108 -0.027771 -0.061554 -0.083008 -0.049103 0.03891 -0.1427 0.00060797 -0.1438 -0.016281 0.028976 0.01207 -0.092957 0.0052414 -0.049164 -0.073608 0.0036831 0.069275 0.043091 0.042603 -0.0056152 -0.070557 0.040863 0.047089 0.043335 0.0065727 -0.10504 -0.069275 -0.088074 0.015045 -0.033783 0.0090942 -0.02002 0.051605 -0.095825 -0.036499 -0.054108 -0.15039 0.017303 -0.07428 0.043488 -0.035339 -0.11548 -0.11011 0.037689 -0.028305 -0.039856 0.014023 -0.015083 -0.035461 0.0053177 0.10876 -0.0005188 -0.028778 0.035828 -0.015762 -0.029282 0.014603 -0.011124 -0.0021973 0.0012112 0.034424 0.062744 0.072754 0.090515 0.025681 -0.029114 0.11603 0.05719 0.077698 -0.093933 0.046051 -0.097656 -0.043488 -0.041077 -0.036011 0.059204 -0.039124 0.0038795 -0.052734 0.000947 0.083374 0.1145 0.037201 -0.084534 -0.057678 -0.084229 -0.09845 0.0018215 -0.017334 0.0059013 0.0039406 -0.05899 -0.03241 -0.0046387 -0.037109 0.040833 0.045685 -0.096191 -0.007679 0.10767 -0.0013962 0.0065727 0.11969 -0.041077 0.10925 -0.084961 -0.05249 0.019455 -0.035278 -0.033691 -0.028229 0.079407 0.16492 0.041626 -0.066711 -0.039429 0.011116 0.075745 -0.03476 0.089661 -0.11804 -0.053986 0.037079 -0.033997 0.0014496 0.066162 0.033142 0.068542
Christopher_Columbus -0.070862 0.016586 -0.022827 0.14111 0.023254 -0.092773 -0.077942 -0.081604 0.058868 0.039337 -0.00049019 -0.10834 -0.017685 0.0168 0.052338 0.10425 -0.023666 0.10797 0.043823 0.023514 0.0049477 -0.068848 0.093323 -0.035797 -0.0056267 0.052948 -0.084656 0.071777 0.0024109 0.0010242 0.053497 0.019531 -0.049377 -0.013351 -0.031616 -0.023331 -0.046997 0.051453 0.067078 -0.016968 -0.015884 0.0051384 0.15222 0.1004 0.059479 -0.02803 0.0067711 -0.050812 -0.018555 0.042236 -0.033356 0.028397 0.070557 -0.023239 -0.07074 0.0039482 -0.051666 -0.038666 -0.026306 -0.097839 0.0071144 0.048859 -0.10699 -0.055664 0.051514 -0.12524 -0.10278 0.00077391 0.0052681 0.039948 0.081604 0.061737 -0.045776 0.045593 -0.12646 0.00074291 0.035156 -0.022308 -0.011574 -0.028595 -0.040009 0.01651 -0.035004 -0.13562 -0.0076027 0.013336 -0.048676 0.05365 0.058197 0.035858 0.016602 -0.034424 -0.037811 -0.012276 -0.016327 0.078308 0.0032043 -0.0036163 0.10303 -0.035675 -0.036011 0.0067329 0.012848 -0.039703 0.017166 0.021133 -0.054779 0.01503 0.034973 -0.0085754 -0.061584 -0.022476 0.089844 -0.055725 0.0093918 0.045044 -0.042816 -0.096924 0.063354 0.042816 -0.0084991 -0.067566 -0.014389 -0.014687 0.0755 -0.053345 -0.097351 0.048798 -0.023804 0.02034 -0.11188 -0.028091 -0.015015 0.064697 -0.048126 -0.0186 -0.1792 0.014343 0.098022 0.053467 0.03952 -0.097656 -0.00018167 -0.039307 -0.018005 0.024094 0.082581 -0.013878 0.02713 -0.075562 0.1087 -0.095642 -0.097961 0.0094147 -0.020065 -0.10321 0.00097132 0.10577 -0.036835 -0.047607 0.020203 0.099609 0.02626 -0.02977 0.053864 -0.079285 0.09906 0.0019398 -0.040314 0.046997 -0.093201 0.056183 0.074402 -0.078125 -0.06311 -0.034821 0.079407 -0.14709 0.039429 -0.063354 -0.093811 -0.054565 -0.065247 -0.017303 -0.00811 0.032471 0.028763 -0.028931 0.082214 -0.024002 0.00074005 -0.0082321 -0.024216 0.022568 0.054321 0.098572 -0.001255 0.024582 -0.028275 -0.02652 0.011665 0.023102 -0.024765 -0.10864 -0.0004921 -0.02066 0.033508 -0.015839 -0.07782 0.038208 -0.046967 0.018967 -0.10828 -0.025589 -0.12695 0.057037 0.042206 -0.087708 -0.026398 -0.033813 -0.018692 0.0025692 0.14954 0.057465 0.0064583 -0.047241 0.068298 0.075439 0.016876 -0.028519 0.030487 -0.057892 -0.06604 -0.019882 0.014282 0.03717 0.031677 -0.014374 0.092896 0.057953 0.090393 -0.030945 0.0043793 0.00774 -0.12268 0.055542 -0.037842 0.071533 -0.027435 -0.032623 0.071838 -0.013779 0.0755 0.064026 0.082153 -0.063171 0.020065 -0.0033627 0.044281 -0.019089 0.020493 0.0032883 0.10071 -0.05777 -0.0020695 0.03363 -0.03476 -0.020981 0.0036774 -0.052124 -0.1427 0.0034351 0.0062523 0.060333 0.089478 -0.030121 -0.032837 -0.02739 -0.067993 0.094177 -0.035004 0.0097122 0.040558 0.055634 -0.039459 0.0094757 -0.0233 0.089172 -0.055359 0.044952 0.002697 0.017502 -0.01915 0.043091 -0.033112 -0.0029602 -0.071594 -0.013962 0.047638 0.051636
Napoleon 0.042419 0.023773 -0.012375 0.082275 0.014389 0.013321 -0.015266 -0.078003 0.02504 0.052673 -0.019852 -0.11493 0.019745 0.039917 -0.014198 0.1123 0.061584 0.15356 0.041199 0.026703 0.063232 -0.033875 0.059448 0.010414 0.015656 0.033813 -0.036041 0.046844 -0.044037 -0.035309 -0.0003767 -0.045074 -0.086609 0.035522 -0.049438 -0.086975 0.033325 0.078247 -0.022293 -0.020569 0.024063 -0.045441 0.10242 0.066284 0.040253 -0.023483 -0.083435 0.011154 -0.081055 0.06665 -0.089539 0.0011034 -0.022964 -0.085999 -0.13428 -0.0048141 -0.10999 -0.090698 -0.050446 -0.085083 0.045197 0.08136 -0.055847 -0.04071 -0.012733 -0.047577 -0.085999 -0.032776 -0.0068169 0.062134 0.12769 0.077148 -0.0090561 0.015327 -0.062622 -0.019302 0.039642 -0.039093 0.056458 -0.004982 0.046387 -0.030823 -0.02121 -0.054688 0.034088 0.074402 -0.06192 0.10675 0.04834 0.085022 -0.0023613 -0.12476 -0.11377 0.025009 -0.0080795 0.0010576 0.011177 -0.16431 0.024536 -0.10602 -0.10938 -0.085754 -0.057098 -0.044891 0.032593 -0.029099 -0.042786 0.030304 0.026413 0.031708 0.0023746 -0.055481 0.10638 -0.051422 0.044617 -0.028809 -0.01915 -0.044373 0.094543 0.037109 -0.0336 -0.081604 -0.026459 -0.0072861 0.10211 -0.049988 -0.12622 -0.015991 -0.070251 0.061523 -0.043091 0.020676 -0.11078 0.049805 -0.042633 0.052307 -0.089233 0.017593 0.054565 0.065369 0.077576 -0.026932 0.024994 -0.029724 0.028503 0.051422 0.0011501 -0.017746 -0.040344 -0.024948 0.031082 0.0011272 -0.063416 0.052246 -0.038361 -0.057587 -0.0045891 0.12537 -0.01326 0.0053482 -0.065918 0.085815 -0.013824 -0.068604 0.069458 -0.055115 0.050079 0.073669 0.019363 0.10675 -0.14551 0.011337 -0.0042648 -0.070129 -0.084961 -0.027039 0.01741 -0.081238 0.0401 -0.028503 -0.094116 -0.065918 -0.092102 -0.031342 0.058685 0.0078659 0.047638 -0.0336 0.041321 0.051422 0.03952 0.019684 0.0072021 0.070129 0.054596 0.058533 0.06131 0.0060463 -0.015869 -0.063049 0.014221 0.041504 0.010712 -0.036987 -0.0019045 -0.057251 0.076355 -0.045898 -0.061523 0.027283 0.01944 -0.013313 -0.081848 0.016678 -0.076416 0.028397 0.066895 -0.022354 0.02446 -0.028549 -0.017639 -0.036255 0.062927 -0.039337 -0.058746 0.018387 0.068176 0.056061 0.063416 0.015518 -0.019272 -0.045807 -0.088867 0.077209 0.021317 -0.031281 0.097717 0.015244 0.05188 -0.015518 0.092224 -0.034973 0.063477 0.005764 -0.0043182 0.024841 -0.05072 0.045288 -0.066528 -0.052307 0.023941 0.085815 0.060547 0.10474 0.082581 -0.039459 -0.050385 -0.013588 0.058289 -0.016159 0.037659 0.089539 -0.060974 -0.012619 -0.0010557 0.093384 -0.017075 -0.029617 -0.0032787 0.053741 0.0022411 -0.015472 -0.024002 0.093384 0.072327 -0.015617 0.015411 -0.0062943 -0.05658 0.11304 -0.07019 -0.008316 0.090576 0.039093 -0.0067558 0.05838 -0.092102 0.075317 -0.01828 0.012123 -0.050385 0.017242 -0.11664 0.018158 -0.015594 -0.057678 -0.044312 -0.010742 0.061646 0.038452
Thomas_Edison -0.040619 -0.0011196 0.0168 0.08728 -0.05368 -0.058075 -0.025742 -0.071411 0.0224 -0.01165 -0.023163 -0.090881 -0.088928 0.019119 -0.0028954 0.046234 0.017181 0.053406 0.031982 0.014519 -0.031708 -0.0072594 0.0011139 0.028763 -0.03656 0.10364 -0.098083 0.081299 -0.030457 0.0063782 0.039459 -0.066162 -0.11707 -0.011177 0.0071869 -0.038605 -0.0026493 0.072327 0.042511 0.033203 -0.013855 0.018845 0.092468 0.017212 0.033722 -0.017929 -0.031891 -0.029968 -0.07666 0.0023708 -0.11011 0.025742 0.028305 -0.061768 0.0085449 -0.014938 -0.0092316 -0.10797 -0.049133 -0.11774 -0.045105 -0.031616 -0.10529 -0.033417 -0.014114 -0.13513 -0.086121 0.083313 -0.023102 0.046783 0.046265 -0.0051231 -0.0068588 -0.025558 -0.083923 -0.046326 0.014282 0.015717 0.037262 -0.049408 -0.0087585 0.02005 0.033752 -0.023361 0.016266 0.030594 -0.036102 0.092468 -0.020767 0.020752 -0.032959 -0.031616 -0.096802 -0.010025 -0.012383 0.086914 0.036438 -0.046204 0.084412 -0.03772 -0.050385 -0.04953 -0.011856 -0.011292 0.037781 0.010345 -0.087646 0.083252 0.038666 -0.054504 -0.04953 -0.048401 0.0021248 -0.0029602 0.10413 0.027023 0.024445 -0.083496 0.048248 0.010895 -0.010986 -0.045868 -0.034424 -0.025345 0.09552 -0.084595 -0.14392 0.084351 0.01165 0.11005 -0.057312 -0.021591 -0.082886 0.0084915 0.0058556 0.081482 -0.1449 -0.057373 0.049042 0.038208 0.053406 -0.03476 -0.056732 -0.015808 0.01825 0.04541 -0.0016851 0.011086 -0.034149 -0.0354 0.12445 -0.14185 -0.052826 0.03772 -0.02475 -0.12769 0.0044365 0.069885 -0.069275 -0.055573 -0.022705 0.15088 0.027725 -0.021271 0.091125 -0.062988 0.10114 0.0062447 -0.019577 0.010773 -0.12329 -0.026505 -0.031464 -0.060669 -0.11572 -0.0081787 0.11755 -0.12219 0.016083 -0.043762 -0.050079 -0.0012465 -0.0177 -0.022537 0.038971 0.034729 -0.056702 -0.032074 0.072205 0.070618 0.033844 0.049622 -0.05658 0.062408 -0.013611 0.11273 -0.052979 -0.086731 -0.0066643 -0.018829 -0.085266 0.027634 0.033508 -0.025162 -0.023239 -0.037994 -0.0049553 -0.011795 -0.077332 0.029114 -0.068359 -0.0095062 -0.081055 -0.049805 -0.031616 0.10657 0.004509 0.057648 -0.0087891 0.0186 -0.052429 0.012833 0.058624 -0.0063896 -0.092224 0.038422 0.041565 0.11871 0.010918 -0.062805 -0.02771 -0.048248 -0.023102 -0.052155 -0.01973 -0.028824 0.04364 -0.029556 0.12238 0.096619 0.10455 -0.019547 0.0019875 -0.064941 -0.029678 0.045532 -0.031586 0.05719 -0.030045 -0.075378 0.033508 0.024628 0.059448 0.050659 0.05484 -0.084839 0.028946 0.025253 -0.018982 -0.027603 0.026199 -0.00075674 -0.021667 -0.091248 0.015701 0.086426 0.0070686 -0.07135 0.0026817 -0.045197 -0.084412 -0.073792 0.043213 0.02002 0.050323 -0.054688 -0.069763 -0.073242 -0.041382 0.12952 -0.020309 0.050629 0.085022 0.097839 0.0045052 -0.011414 0.046387 0.014717 -0.031036 0.040894 -0.032928 -0.0053444 -0.1189 0.069946 -0.065552 -0.086487 -0.072693 0.0055885 0.029144 0.06427
Cleopatra 0.11316 0.052246 -0.017197 0.082947 0.083313 0.032837 0.051758 -0.0083084 0.085754 0.013008 -0.013184 -0.10901 -0.12225 0.06665 -0.055298 0.026962 0.012856 0.048035 0.046112 0.026993 0.012756 -0.088684 0.020447 -0.057861 -0.044525 0.0059967 -0.10455 -0.0044861 -0.0079651 -0.035461 -0.041229 -0.073608 -0.059235 0.0084076 -0.017776 -0.074463 -0.006134 0.066162 0.035492 -0.017624 -0.016373 -0.014732 0.10901 0.040527 0.00087547 -0.078552 -0.067017 -0.043579 -0.058075 -0.039825 -0.076843 0.046356 -0.095825 -0.029099 -0.058258 0.048889 -0.034088 -0.033478 -0.01564 -0.016785 -0.0032005 0.058777 -0.079651 0.066162 -0.038757 -0.084412 -0.10663 -0.015717 0.036896 -0.011116 0.018814 -0.036163 -0.078064 0.02153 -0.1394 -0.058014 -0.0031948 -0.047577 0.059845 -0.0168 -0.0044556 0.036926 -0.032532 -0.10382 -0.009758 0.059662 -0.005497 0.10718 -0.037598 0.089478 0.042419 -0.12463 -0.046448 0.0054092 0.042725 -0.015335 0.012947 -0.0086288 0.016708 -0.033722 -0.039246 -0.020782 0.01915 -0.11279 -0.031311 -0.11554 -0.022949 0.020859 -0.018326 0.0060158 -0.0066605 0.032135 0.0063095 0.010612 0.12292 0.034119 -0.056061 -0.060425 0.086792 0.023697 0.01976 -0.0070496 0.032654 -0.046356 0.037872 -0.049652 -0.066101 0.016464 -0.012474 0.097595 -0.034851 0.045685 -0.10162 0.06543 -0.0090561 0.020035 -0.076233 0.043732 0.048492 0.074219 0.053619 0.02655 -0.02655 -0.0076561 0.066101 -0.012428 0.098389 0.044861 -0.034393 0.0036068 0.029602 -0.12842 0.011917 0.084656 0.020554 -0.064087 -0.044281 0.10931 0.020264 -0.0010376 0.0072594 0.024231 0.095703 -0.029633 -0.061523 -0.040649 0.065674 -0.018768 -0.07312 0.045349 -0.062561 -0.049286 0.098267 -0.066833 -0.051544 -0.039856 0.053955 -0.11652 -0.024673 -0.081665 -0.081238 0.020142 -0.0112 -0.089111 -0.087097 0.03244 0.079346 0.039673 0.009201 0.061005 -0.028458 0.04303 -0.056061 0.055298 -0.013573 0.07428 0.0018082 -0.031281 0.050507 -0.11438 0.026962 0.0031357 -0.11127 -0.020752 0.051025 -0.13428 0.033508 0.059052 -0.10175 0.035431 -0.02124 0.083618 -0.015083 -0.080261 -0.087769 0.066711 0.004406 -0.039032 0.029785 -0.026657 -0.027069 0.027084 0.036072 0.0043335 0.029984 -0.082642 -0.032898 0.10748 0.054504 0.00056362 0.04541 -0.034088 -0.020554 0.027634 0.0088272 0.013351 0.04715 0.034851 0.091064 -0.0066223 0.097595 -0.0802 0.084473 -0.061523 -0.027939 0.0020065 -0.041962 0.080383 -0.037933 -0.0062485 0.05191 0.039581 0.030655 0.030838 0.054718 -0.020828 -0.065735 -0.11823 -0.019913 -0.073975 -0.022583 0.023666 -0.046875 -0.00067759 -0.04248 0.093201 -0.044128 -0.093994 0.055145 -0.026184 -0.048584 0.082764 -0.017136 0.068359 0.1554 0.0093536 0.017609 -0.083618 -0.0055237 0.039825 -0.037537 0.071167 0.01593 0.012421 0.057343 0.038086 -0.068542 0.0093155 -0.0019102 0.072144 -0.072632 0.056396 -0.13574 0.023209 0.10858 -0.063416 -0.065552 -0.019928 0.035675 0.099243
Tom_Cruise 0.047546 0.023895 -0.057861 0.11224 -0.014702 -0.01799 -0.026123 -0.051758 0.053253 0.042145 0.035797 -0.099426 -0.046753 0.055634 -0.056244 0.097717 0.045288 0.076904 -0.036346 -0.027054 0.023438 0.0099716 0.085449 0.010902 0.017059 -0.0056343 -0.041779 0.039978 0.059479 -0.085571 -0.04071 -0.036743 -0.097595 0.001914 0.0050507 -0.019714 0.052704 0.092468 -0.0070305 0.015915 0.056976 -0.087708 0.068665 0.051086 0.047485 -0.010506 -0.034973 0.025314 0.029495 0.069763 -0.063354 -0.016296 -0.030472 0.029343 -0.017105 -0.0012569 -0.041016 -0.077332 -0.080444 -0.091125 0.042633 0.10126 -0.10352 0.057343 0.0017328 -0.034607 -0.099548 -0.0038185 0.035217 0.042816 0.024643 0.063416 -0.037476 0.10718 -0.13086 0.013222 0.08252 -0.064697 0.0065842 0.0040779 -0.073364 -0.044098 -0.042389 -0.1355 0.00042176 0.020996 0.0578 0.14941 0.00071526 0.0018559 -0.02832 0.017303 -0.072876 -0.0075531 -0.0021801 0.030777 0.038025 -0.021805 0.057617 -0.01519 -0.040375 0.0047874 0.077087 -0.074341 0.096069 0.02121 -0.064331 0.013641 0.069519 -0.056488 -0.027298 -0.022964 0.10089 -0.06311 0.1153 -0.025055 -0.075745 -0.12115 0.043304 0.014366 -0.032166 -0.042725 0.016174 -0.031342 0.032104 -0.0448 -0.098572 0.10577 -0.016617 0.049164 -0.067505 -0.017334 -0.00086117 0.060242 -0.018906 0.014809 -0.034576 -0.046021 0.053589 -6.0201e-06 0.11768 -0.072083 0.013412 -0.056061 0.057678 0.043518 0.039795 0.094055 -0.039612 -0.034363 0.065674 -0.092041 -0.065613 -0.011642 0.007576 -0.079224 -0.018936 -0.033203 -0.0044632 -0.076416 -0.04071 0.10059 0.066772 0.078979 -0.076965 -0.10577 0.036926 -0.008934 -0.071289 0.12671 -0.02684 -0.01239 0.024033 -0.048065 -0.027786 -0.0044708 0.15051 -0.10718 0.010872 -0.027863 -0.014771 -0.074341 0.029633 -0.016785 0.025955 0.044769 -0.014687 -0.023544 0.003334 0.0032997 0.056732 0.11829 -0.034149 0.051239 0.080444 0.10541 -0.069519 0.0066643 0.0021019 -0.026352 -0.023087 0.013084 -0.083008 -0.012459 0.082703 0.006752 -0.018311 0.026001 -0.074524 -0.031555 -0.082764 0.028992 -0.039642 -0.060699 -0.072754 0.011482 -0.0039635 -0.0038624 -0.0070076 -0.070496 -0.0085526 0.0092316 0.088196 0.042267 0.02916 -0.0078354 0.091187 -0.0018435 -0.0034332 -0.091248 0.024078 -0.07605 -0.071533 -0.04126 0.046173 0.097351 0.076904 -0.017136 0.076416 0.059418 0.094971 -0.019012 0.07196 -0.013466 -0.063354 0.017944 -0.033966 0.074524 -0.0045471 -0.12396 0.0039101 -0.030838 0.038361 0.10608 0.020157 0.044952 0.034119 -0.0074234 -0.064026 -0.10046 -0.058167 0.027115 -0.001339 -0.0035934 0.079468 0.023987 -0.10803 -0.046417 0.032349 -0.085999 -0.037415 0.058197 0.018112 0.038055 0.080811 -0.024506 0.029022 -0.057709 -0.01976 0.10602 -0.086304 0.046021 -0.021576 0.072266 0.05127 0.059723 -0.008049 -0.044403 0.035217 0.065369 -0.0050125 0.032867 -0.08728 -0.0056 0.0088882 -0.11371 -0.047333 -0.01133 -0.014771 0.11603
John_F._Kennedy -0.014816 0.10272 0.044861 0.20361 -0.025589 -0.093628 -0.028641 0.00097322 0.077759 0.010834 -0.025894 -0.11652 -0.094055 0.026291 -0.0049057 0.034973 0.021698 0.11249 0.061035 -0.065247 -0.019821 -0.0066299 0.125 -0.026932 -0.029541 0.064819 -0.099792 0.045258 0.061981 -0.039917 0.0052872 -0.013275 -0.05835 -0.0058098 -0.022675 0.0052147 -0.0080414 0.090332 0.052063 0.024094 0.023529 -0.00033021 0.096985 0.046936 0.063721 0.036652 0.029007 -0.11194 -0.069946 0.0027504 -0.09137 0.020126 -0.021988 -0.016861 0.025192 0.033142 -0.033447 -0.045258 -0.00042748 -0.12103 0.0055962 0.03772 -0.084778 -0.03241 0.049042 -0.13586 -0.032776 0.014175 0.01918 0.050385 0.10699 0.063293 0.023865 0.0087814 -0.080505 -0.043274 0.040436 0.010582 0.042755 -0.018845 -0.056061 0.011826 -0.0083008 -0.074707 0.036804 0.066711 -0.046936 0.059662 0.0019436 0.019531 -0.080139 -0.037323 -0.066711 -0.03421 0.029327 0.068481 0.039642 -0.018188 0.056824 -0.12659 -0.030746 -0.014702 0.0086365 -0.037506 -0.042999 0.047607 -0.041779 0.059631 -0.049225 -0.039429 -0.046631 -0.060303 -0.036377 0.054199 0.10107 0.0045242 0.025894 -0.10358 0.058105 0.054138 -0.0086823 0.011375 -0.058594 -0.032959 0.057953 -0.042236 -0.073486 0.072449 0.012817 0.022247 -0.041931 -0.029663 -0.033173 0.027023 -0.02655 0.046204 -0.098083 -0.0070801 0.075378 0.040619 0.059906 -0.065308 -0.047638 -0.020004 -0.038422 0.009903 -0.005722 -0.0089493 -0.045349 -0.025024 0.15271 -0.14062 -0.08606 0.0068283 -0.036896 -0.097961 -0.0215 0.037415 -0.049652 -0.0065117 -0.042145 0.036072 -0.035187 -0.0096283 -0.00034785 -0.081909 0.10632 0.021118 -0.042908 0.065491 -0.11731 0.041962 0.039398 -0.086182 -0.038361 -0.075867 0.048126 -0.14819 0.050049 -0.043915 -0.085632 -0.056641 -0.072998 -0.034424 0.021301 0.055725 0.047546 -0.057831 0.09021 0.040497 0.074829 0.02771 -0.03656 0.059113 0.011375 0.097046 -0.060516 -0.041595 0.00097609 0.0020638 -0.1217 0.084473 0.015617 -0.065552 0.033356 -0.051086 0.059631 -0.037476 -0.10266 0.058472 -0.0021706 0.030182 -0.081421 -0.053558 -0.076599 0.0083237 -0.0039062 0.019913 -0.0071297 -0.023071 -0.053436 0.023453 0.12769 -0.011108 0.02803 -0.022919 0.074524 0.072083 0.008934 -0.082031 0.012756 -0.071045 -0.058594 -0.054474 -0.0011587 -0.0011997 0.11212 0.0063553 0.041901 0.023529 0.10944 0.0023823 -0.035217 -0.044037 -0.10077 0.037079 -0.066467 0.12024 -0.056396 -0.071655 0.015388 -0.010582 0.040192 0.077087 0.066467 -0.042572 0.0026932 -0.03656 0.01355 -0.038422 0.045837 -0.0095749 -0.0032043 -0.023605 -0.015129 0.011543 -0.043457 -0.087219 0.011612 -0.03595 -0.080933 0.0089798 0.03894 0.048828 0.052704 -0.052429 0.014816 -0.044708 -0.052094 0.089478 -0.024246 -0.023956 0.039368 0.047638 -0.072571 -0.01403 -0.057953 -0.012207 -0.031281 -0.011971 -0.03595 -0.0011559 -0.096008 0.052612 -0.079834 -0.091614 -0.076355 -0.047729 0.011467 0.10309
Vincent_Van_Gogh 0.091309 0.052429 -0.0072517 0.10663 0.028717 0.030396 0.081421 -0.10559 0.065369 0.0042763 0.076965 -0.078735 -0.023193 -0.0062485 -0.090881 -0.055725 -0.0271 0.077393 0.011467 -0.02356 -0.048462 0.028015 0.10132 -0.038116 -0.018036 0.012253 -0.037567 0.038269 -0.0289 -0.050873 -0.011597 0.033722 -0.062103 0.020279 -0.021515 -0.030167 -0.0096283 0.047455 0.018417 -0.0027237 0.085144 0.030563 0.030319 0.095825 0.039276 -0.046509 -0.050171 -0.038208 0.01178 0.013 -0.092163 -0.013481 -0.077942 -0.12439 -0.070984 0.075134 -0.029907 -0.039825 -0.11432 -0.10065 0.03064 0.042633 -0.041565 -0.125 -0.015778 -0.07135 -0.054993 -0.05603 0.012115 0.075928 0.010155 0.09845 -0.025818 0.01149 -0.072021 0.025162 0.034943 0.030075 0.050659 0.011749 -0.029846 -0.0074272 0.017151 -0.022491 -0.0013142 0.07959 -0.055237 0.078735 0.048035 0.0079727 -0.049225 -0.065491 -0.062622 0.041016 -0.069092 -0.02916 0.016281 -0.059814 0.090454 -0.10339 -0.040802 -0.033295 -0.043091 -0.028015 0.037933 -0.017685 0.026169 0.022049 -0.081665 -0.080994 -0.040222 0.028503 0.044525 0.016373 0.085388 -0.039581 -0.015396 -0.077332 0.061096 0.024872 0.035217 0.014488 0.032288 -0.060181 0.015114 -0.029129 -0.12299 0.025375 -0.04068 0.059662 -0.05249 0.029007 -0.082642 0.034912 -0.051697 -0.0186 -0.067017 0.036804 0.042175 0.03772 0.089478 0.0012054 -0.077332 -0.03653 0.021515 0.093628 0.042938 0.05014 -0.14807 -0.08667 0.037079 0.01284 -0.081787 0.12225 0.034241 -0.077026 -0.039795 0.012375 -0.029831 -0.026138 -0.04483 0.10217 0.043091 0.021011 0.077515 -0.00029039 0.064514 -0.029297 -0.10486 0.083618 -0.10339 0.082458 -0.080139 -0.043701 -0.006691 -0.057922 0.055573 -0.041473 0.06015 -0.052673 -0.073853 0.028488 -0.085449 0.0013494 -0.0057945 0.043701 0.018402 -0.042358 0.0043678 0.10596 -0.02179 0.042572 0.007618 0.016693 -0.020264 -0.019211 0.038818 0.013382 -0.05542 0.02356 -0.0040016 -0.010056 -0.091064 -0.052429 0.0017271 0.030945 0.039032 -0.029556 -0.096436 0.019669 -0.12 -0.07196 -0.053131 0.025681 -0.098694 -0.044739 -0.088318 0.055298 0.035065 -0.030441 0.018723 0.053406 -0.0168 0.070068 0.047546 -0.0093079 0.0010386 0.062561 -0.0023575 -0.053101 -0.024521 -0.0354 -0.097839 0.083008 0.018616 -0.053406 0.13477 -0.0016022 0.061279 -0.012444 0.12659 -0.12378 -0.017059 0.032593 -0.026703 0.070007 -0.060181 0.054657 -0.040741 -0.03093 -0.032471 0.023132 0.030777 0.14001 0.06073 -0.04068 -0.11249 -0.023422 0.012566 0.045959 0.049011 0.024078 -0.097412 -0.027405 -0.0097809 0.13989 -0.025513 -0.060791 -0.029266 0.0049782 -0.052002 0.032288 -0.0672 0.042572 0.10675 0.020676 -0.076538 0.058411 -0.066467 0.14087 0.00088835 0.060577 0.068665 -0.010262 -0.01947 -0.01358 0.0094757 0.06192 -0.027542 0.10443 -0.09491 0.015373 -0.0271 -0.0037861 -0.054138 0.041473 -0.00047827 -0.0028267 0.078308 -0.06958
Ludwig_van_Beethoven 0.11584 0.028503 0.0072174 0.0042496 0.0035019 -0.027344 0.043091 -0.058746 0.054047 0.071167 0.0027504 -0.085144 0.021149 0.034912 -0.056244 0.014549 0.083923 0.10803 -0.0081406 -0.047302 0.01384 0.03714 0.028458 0.0044746 -0.052429 -0.023865 -0.065491 -0.022614 -0.1897 0.05304 -0.043335 -0.015091 -0.023621 -0.03244 0.062042 -0.11493 0.0068512 0.060486 0.076233 0.0098953 -0.024551 0.043732 -0.022644 0.015167 0.037415 -0.010178 0.084778 -0.088379 0.026154 0.083496 -0.064087 0.030304 -0.071777 0.0010309 0.013672 0.02739 -0.033417 -0.11884 -0.13013 -0.10919 0.034271 0.01329 -0.0093231 -0.023788 0.089294 -0.10944 0.019913 -0.010529 -0.013832 0.068176 0.071777 -0.01429 -0.0027905 -0.0023708 -0.044861 -0.0016098 0.05661 -0.031189 0.043671 -0.083008 -0.022949 0.016754 0.019119 -0.048309 -0.091431 0.080017 -0.030167 0.086548 -0.013771 0.083374 -0.1004 -0.074646 -0.068726 0.074158 -0.076782 0.013672 0.021057 -0.0466 -0.064941 -0.17285 -0.06665 -0.04538 -0.0019388 0.05481 -0.0057983 0.025421 0.081726 0.025406 -0.051727 0.044708 0.0022297 -0.029938 0.063904 -0.01265 0.041138 0.010544 0.0040283 -0.053192 0.057678 0.054932 -0.0034885 -0.061493 -0.018738 -0.018707 0.017761 -0.020554 -0.057922 -0.054779 -0.051514 0.029831 -0.010193 0.034424 0.016403 0.003233 -0.051788 0.0025101 -0.027466 0.010292 0.036072 0.13806 0.12939 0.0024891 -0.12 0.10132 0.023819 0.16467 0.14758 0.092529 -0.12378 -0.0018024 0.13806 -0.031311 -0.05069 0.17395 0.026108 -0.052795 0.029678 0.080933 -0.062805 -0.072327 0.034546 0.094849 0.12274 0.0012941 0.081543 0.063354 0.12433 0.008873 -0.088684 0.043335 -0.081543 -0.092773 -0.049957 -0.073853 0.0020885 -0.030777 -0.012863 -0.0036621 -0.025604 -0.023682 -0.0064087 0.036102 -0.031738 0.021744 -0.0016947 0.045715 0.021057 -0.037231 -0.022324 0.06781 -0.035034 0.059204 0.02504 0.012032 -0.023514 0.0015097 0.018356 -0.025131 0.013924 0.0098724 0.011215 -0.014549 -0.061554 0.013168 0.020706 -0.038239 0.047302 0.058929 -0.076904 0.056702 0.059479 -0.071655 -0.020309 0.042175 -0.11829 -0.11316 0.0089188 0.013283 0.034363 -0.072083 0.044312 0.048157 0.055237 0.0027637 -0.013832 0.024033 -0.045105 -0.024353 -0.033142 -0.020142 -0.05542 -0.058319 -0.097107 0.034393 0.050568 0.0053482 -0.014771 -0.019958 0.042755 -0.039398 0.024017 -0.016861 -0.076233 -0.031189 0.039612 -0.040619 -0.029297 0.02005 -0.04071 -0.014305 -0.0242 0.021393 0.024353 0.080994 -0.01561 -0.0024815 -0.042053 -0.061218 0.048157 0.01371 0.041809 0.039246 -0.028732 0.0042763 -0.083618 0.097961 -0.048035 -0.038635 -0.09021 0.018921 0.027847 -0.078796 -0.074646 0.10144 0.078186 -0.028122 -0.054199 0.052216 -0.03952 0.055328 -0.014832 -0.014481 -0.0057144 0.017517 0.022156 0.059418 0.10498 0.010414 0.010544 0.085449 -0.030334 -0.046539 -0.12524 0.0058823 0.021194 0.024338 -0.035065 0.020859 0.060364 0.020187
Isaac_Newton 0.07019 -0.004673 0.034027 0.10004 -0.072266 0.053223 0.096924 -0.091736 0.047943 0.021912 -0.0082855 -0.071472 0.020401 0.036713 -0.035339 0.080994 0.03653 0.065369 0.07666 -0.11615 -0.019333 -0.018112 0.03006 -0.060181 -0.034424 -0.056183 -0.082825 0.063416 -0.021805 -0.069763 -0.061493 -0.064758 -0.037354 0.007225 0.031799 0.00033283 0.033386 0.047333 0.066406 0.0084381 0.043274 0.0013008 0.10144 0.11145 0.056213 -0.012253 -0.04361 -0.058411 -0.0044212 -0.027969 -0.17444 0.017441 -0.094482 -0.092529 0.0076141 0.067566 0.014153 -0.086548 -0.054962 -0.11066 -0.014015 0.049469 0.024155 -0.068848 -0.0035915 -0.075867 -0.044647 0.056915 -0.022873 0.034454 0.052246 -0.063049 0.10596 -0.049744 -0.12842 -0.025146 0.058105 0.029144 0.0025463 -0.061676 0.055878 0.060059 0.039093 -0.06131 0.086914 0.0057411 0.017441 0.15796 0.0015316 0.0044022 -0.034241 -0.05484 -0.11157 0.027451 -0.025772 -0.0048332 0.10809 -0.050568 0.073486 -0.067566 -0.042419 -0.070923 -0.005722 -0.059875 0.047333 0.0052795 -0.029404 0.10651 0.024811 -0.062744 -0.020477 -0.0020771 0.043457 0.049194 0.10175 0.017349 -0.070801 -0.045166 0.067871 -0.0026321 0.0022964 0.018173 0.03244 -0.042664 -0.026169 -0.022202 -0.11249 0.026855 -0.014648 0.11731 -0.0094223 -0.12927 -0.11914 0.0056915 0.081604 0.06189 -0.025574 -0.0052834 0.057831 0.11346 0.11499 -0.011841 -0.092529 -0.0072632 -0.018066 0.03183 -0.049835 -0.019638 -0.05426 -0.0060654 0.073303 -0.13074 -0.1239 0.047974 0.03241 -0.092407 -0.034515 0.035156 -0.027374 0.0098724 -0.075378 -0.00051022 0.079529 -0.0089874 0.098633 0.022003 0.10748 -0.023743 -0.052185 0.054626 -0.0066223 -0.0032272 -0.0097733 -0.0040092 0.010933 0.00032663 0.00064278 -0.081299 -0.025116 -0.078735 -0.072571 0.019653 0.023026 -0.015099 0.022659 0.049469 0.072632 -0.0033665 0.013695 0.041626 0.048676 0.065125 -0.025986 0.039276 -0.064026 0.11462 -0.045868 -0.067932 -0.0077324 -0.020172 0.017212 0.033417 -0.053223 0.0040131 -0.010925 -0.042725 0.020172 -0.050323 -0.10016 0.012146 -0.061188 -0.023605 0.035126 0.02037 -0.12537 0.043091 0.02562 0.045044 -0.0038509 -0.023193 0.024216 0.016144 0.097473 -0.026901 -0.06131 0.0098648 0.064819 0.0033569 0.00025439 0.024658 0.044556 -0.015442 0.010284 -0.021469 0.039612 0.00075674 0.011627 -0.062988 0.055176 -0.024078 0.060059 -0.013069 -0.031021 -0.07373 -0.036652 -0.0086136 -0.01059 0.090759 -0.067444 -0.066101 -0.0012331 -0.038025 0.021561 0.12012 0.032623 -0.10187 -0.024811 -0.048218 0.034973 -0.006279 0.048218 -0.041229 -0.098999 -0.022446 -0.01741 0.072144 0.11023 -0.10944 -0.022156 -0.041473 -0.034973 -0.025528 -0.097717 0.058594 0.014633 -0.015327 -0.048828 -0.047729 -0.059021 0.12091 -0.052795 0.054108 0.046692 0.0042496 0.028366 -0.0090714 -0.040314 0.068665 0.038391 0.11377 -0.031952 0.068298 -0.099976 0.035767 -0.028748 -0.035126 -0.023621 -0.016479 0.030594 0.046478
Michelangelo 0.076965 0.092896 0.014748 0.087524 0.050842 0.014816 0.019897 -0.075317 0.075623 0.060577 -0.0090408 -0.066956 -0.040222 -0.011711 -0.042389 0.043304 0.015358 -0.00011855 0.048004 0.04541 0.028122 -0.028641 0.12201 -0.032501 0.011734 -0.0094757 -0.028809 0.026703 -0.093018 -0.084839 0.018845 -0.027039 0.038849 0.041901 -0.0065498 -0.17358 0.0020542 0.084351 -0.02005 0.0091324 0.001955 0.03476 0.11761 0.097107 0.03949 -0.076416 -0.032166 0.046265 -0.022446 0.006897 -0.017593 0.11389 -0.032562 -0.069763 -0.087891 0.086121 -0.036255 -0.04071 -0.05603 -0.042206 0.0093155 0.086548 -0.057037 -0.054321 -0.0077057 -0.074646 -0.066711 -0.071411 0.069397 0.06134 0.029572 0.038086 -0.077209 0.031433 -0.083557 0.050079 0.03093 0.01796 0.0085678 -0.015717 -0.0089035 -0.017151 -0.010269 -0.15918 0.0017471 0.031799 -0.012711 0.067261 0.080811 -0.0051575 0.017014 -0.10583 -0.11188 0.033142 -0.0077667 0.0058136 -0.002737 -0.083374 0.058014 -0.090271 -0.11151 0.030624 -0.03421 -0.056549 0.052216 -0.016876 0.0077057 0.030014 0.0023193 0.036926 0.0053673 0.058014 0.072144 -0.037781 0.085571 0.0067711 -0.028275 -0.15283 0.072144 0.058807 0.033417 -0.014061 0.011589 -0.057587 -0.015701 -0.13611 -0.049286 -0.021576 -0.01104 0.12805 -0.10468 -0.044556 -0.061493 -0.013542 0.0050735 -0.010025 -0.074402 0.056488 0.11584 0.060333 0.044464 -0.036713 -0.070374 0.026199 0.036194 0.060425 0.047699 -0.020081 -0.077576 -0.04483 0.066895 -0.034271 -0.057404 0.19275 0.046173 0.031952 -0.0025673 0.095154 0.0046463 -0.044373 -0.025482 0.039246 0.014633 -0.040283 -0.033051 0.0086136 0.091187 0.022552 -0.071533 0.060944 -0.14087 0.018112 0.032745 -0.0034466 0.0073547 0.016739 0.038086 -0.056702 0.086548 -0.02919 -0.076843 -0.031586 -0.008667 -0.052856 0.00065756 0.0032101 0.054108 -0.052338 -0.0046234 0.010155 0.040771 0.014946 0.0055389 0.034424 -0.042328 -0.0030708 0.025192 -0.018585 0.037994 -0.033447 0.048523 0.041229 -0.1427 -0.062073 0.07373 -0.039093 0.060699 -0.013176 -0.058044 -0.050842 -0.089661 -0.033112 -0.026611 -0.085876 -0.015778 0.017105 -0.074768 -0.00074387 0.03598 0.027023 0.02092 -0.040466 0.017807 0.028519 0.038666 -0.013229 -0.03093 0.11176 0.014099 0.012421 -0.026505 -0.064087 -0.16321 0.05191 -0.0063972 -0.034973 0.084961 0.072632 0.027481 -0.024734 0.075989 -0.10571 0.054047 -0.0018501 -0.037933 -0.032684 -0.069763 0.054077 -0.044983 -0.01104 0.054718 0.034088 0.10217 0.059265 0.020721 -0.037811 -0.038788 -0.053162 -0.0051041 -0.036285 0.031403 0.039215 -0.017761 0.018112 -0.010155 0.11438 -0.02095 -0.0029278 0.013161 -0.048004 -0.036926 0.011101 -0.043304 0.088989 0.14624 0.02626 -0.065918 -0.065308 -0.014435 0.082214 -0.027802 0.12238 0.078979 0.047852 0.011757 -0.011566 -0.032776 0.026733 -0.057281 0.042206 -0.074951 -0.051849 -0.10773 0.039551 0.017487 0.011978 -0.024307 -0.078125 0.0067596 -0.0054817
Paul_McCartney 0.020432 0.051636 -0.0096741 0.16309 -0.02803 -0.072266 -0.025085 -0.081177 0.069275 -0.0018435 -0.024734 -0.089478 -0.038971 0.0016136 -0.042847 0.033051 0.0098724 0.069031 0.047791 -0.070862 -0.07843 0.0062408 0.039032 -0.0017443 -0.034332 0.061798 -0.12622 0.061035 0.00086021 -0.021088 0.041443 0.048889 -0.072937 -0.025818 -0.064331 -0.025055 0.0061989 0.070496 0.087402 -0.0063248 -0.020142 -0.040466 0.10724 0.080383 0.046661 -0.066101 -0.010445 -0.038361 -0.020279 0.018967 -0.047668 0.015404 0.052155 0.039093 0.0028648 0.013031 -0.05545 -0.10986 -0.0057526 -0.11456 -0.030701 0.035004 -0.065247 -0.060181 -0.011047 -0.13806 -0.10242 0.013885 -0.030594 0.053986 0.065125 0.022858 0.0036392 0.094116 -0.13562 -0.0038204 0.054016 0.016937 0.013954 -0.062408 -0.037506 -0.037262 0.005043 -0.084778 0.033356 0.078308 -0.033142 0.14697 0.0067787 -0.012764 -0.022217 -0.020142 -0.070618 -0.0298 -0.024734 0.035553 0.036133 -0.027725 0.042877 -0.062164 -0.051453 -0.019073 0.027939 0.041199 -0.0075073 0.009079 -0.011818 0.0088654 0.030457 -0.039612 -0.040375 -0.032135 -0.0074272 -0.032257 0.057495 0.023682 -0.06665 -0.14197 0.055511 0.05011 -0.032867 -0.081604 -0.066589 -0.043762 0.080566 -0.082397 -0.11505 0.055634 0.058594 0.015732 -0.088379 -0.024734 -0.020798 0.060822 -0.018433 0.032928 -0.14844 -0.029892 0.049194 0.055542 0.089172 -0.047882 -0.071899 0.0010157 0.033356 0.049469 0.030228 0.028564 -0.033142 -0.047424 0.099365 -0.10211 -0.036865 0.057281 -0.06781 -0.12286 0.00018239 0.08252 -0.053589 -0.054352 -0.072327 0.088928 -0.0039711 -0.0023327 0.049194 -0.097229 0.034912 0.016647 -0.067566 0.12109 -0.095825 -0.048615 0.039307 -0.033569 -0.078003 0.0022678 0.095947 -0.12903 0.031616 -0.080444 -0.0033054 -0.047394 0.03656 -0.046783 -0.018463 0.059723 -0.017502 0.028824 0.060822 0.017227 0.041687 0.007206 -0.042114 0.03479 0.072937 0.063293 -0.035553 -0.0059509 -0.040771 -0.015343 -0.029602 0.0096588 -0.077087 -0.022964 0.091125 -0.04303 -0.017227 0.016159 -0.091309 0.097656 -0.03096 0.03363 -0.055786 -0.0002768 -0.10968 0.01973 0.072998 -0.012039 -0.019745 -0.077454 -0.044189 0.019958 0.10229 -0.0079498 0.013725 0.013641 0.047424 0.035309 0.0082321 -0.056366 0.015495 -0.05661 -0.049225 -0.013046 -0.032135 0.056793 0.037872 0.0072441 0.11621 0.065918 0.15869 -0.0336 0.0013895 -0.047882 -0.036224 0.011856 -0.0038586 0.072266 -0.062042 -0.025604 0.040192 0.048523 0.033875 0.084595 0.045654 -0.076172 -0.01078 0.007534 0.029846 -0.030563 0.046326 0.038239 0.10748 -0.081543 0.028732 0.030167 -0.10382 -0.045074 -0.0060806 -0.089722 -0.042023 0.013496 0.066223 0.080627 0.11499 -0.047028 -0.0057068 0.004467 -0.069946 0.10229 -0.04425 0.017029 0.048035 0.046295 0.016754 -0.0042953 -0.045715 -0.0056 0.027634 0.068298 0.02919 0.078674 -0.06366 0.01915 0.0026951 -0.075562 -0.09375 -0.026154 -0.010117 0.088379
Pablo_Piccaso -0.018967 -0.015076 0.048584 0.13513 0.023331 -0.015656 0.057739 -0.11084 0.072693 -0.035339 -0.040588 -0.056641 -0.004673 -0.071716 -0.090881 -0.031708 0.071777 0.097961 0.045044 0.032043 -0.044922 -0.013222 0.11639 0.04837 -0.0015898 0.0091476 -0.056183 0.08252 -0.016403 -0.033051 -0.017624 0.033264 -0.010895 -0.023148 -0.046448 -0.063049 -0.044159 0.09552 -0.027023 -0.016968 0.00021303 0.057526 0.079834 0.10107 0.02359 0.01461 -0.035126 -0.060425 0.0043182 0.056763 -0.092163 0.092468 -0.032379 -0.11218 -0.10101 0.09906 0.013985 -0.051239 -0.061157 -0.068359 0.027832 0.077271 -0.03537 -0.13574 -0.010689 -0.086365 -0.088379 -0.048798 -0.031128 0.10132 0.01181 0.063049 0.04068 -0.0054703 -0.057922 0.0401 0.03476 0.032288 -0.0024815 0.0053711 -0.027084 0.00065231 -0.014259 -0.078796 0.055542 0.061768 -0.0012989 0.1604 0.0097656 0.031799 -0.074707 -0.086365 -0.071167 0.00085211 -0.049988 0.023239 0.069458 -0.072998 0.054352 -0.07666 -0.095947 0.016144 -0.035187 -0.035797 0.059448 0.022079 0.013855 0.024445 -0.047668 0.0097809 -0.039917 0.0065041 0.11847 0.0092087 0.028992 0.010902 -0.059021 -0.092529 0.078613 0.028 0.032379 -0.035675 -0.0087128 -0.049683 0.080078 -0.028824 -0.092957 0.045166 -0.013542 0.099915 -0.050507 -0.0149 -0.094666 0.050171 -0.038361 -0.021683 -0.080444 0.010979 0.08905 0.072693 0.064758 -0.042999 -0.10077 -0.021393 -0.005661 0.034027 0.070557 0.02446 -0.097595 -0.06604 0.062805 -0.089478 -0.081177 0.13721 0.045807 -0.073242 -0.036987 0.07959 -0.02565 -0.057617 -0.020233 0.11224 -0.0056686 -0.0019684 0.07428 -0.019455 0.063477 0.033356 -0.0091629 0.045746 -0.14001 -0.0041389 -0.024261 -0.057495 -0.034424 0.025177 0.063293 -0.072876 0.06781 -0.04071 -0.014519 -0.011559 -0.09613 -0.063782 0.021088 0.056091 0.043915 -0.034119 0.0077438 -0.0079269 0.020706 0.019073 0.0028019 0.058258 0.0031815 0.0013599 0.0099564 -0.027939 -0.016739 0.036743 0.011261 0.092163 -0.0074921 -0.03186 0.026901 0.029404 0.053772 0.064697 -0.10657 0.032471 -0.066772 -0.087158 -0.039886 0.073486 -0.15552 -0.036407 -0.074402 0.029343 -0.012039 -0.027176 0.013252 0.045624 0.071838 0.049194 0.018082 0.012932 0.016525 0.084839 0.046234 -0.027023 -0.016953 -0.02565 -0.091187 -0.022537 -0.0093842 -0.017761 0.072998 0.027573 0.041748 0.0098648 0.093628 -0.059174 0.024872 0.02002 -0.030899 0.11365 -0.068237 0.080261 -0.048248 -0.067566 -0.012222 0.032288 0.054596 0.10364 0.042419 -0.038483 -0.034424 -0.015327 -0.019272 0.052673 0.072754 0.12225 -0.021393 -0.034393 -0.01857 0.066956 -0.015152 -0.049652 -0.046021 -0.032379 -0.070496 0.046661 -0.088867 0.045502 0.08905 0.058899 -0.080933 0.088135 -0.063232 0.13342 -0.0099716 0.049713 0.071045 0.0049515 -0.0030727 0.031403 0.010025 0.071045 -0.017715 0.034943 -0.09729 0.028259 -0.034088 0.025345 -0.034027 -0.027771 -0.014412 -0.0041809 0.026352 0.014839
Mohammad_Ali -0.076172 0.013962 0.041321 0.13293 -0.0096207 -0.017349 -0.013611 -0.035522 0.067993 0.0016251 -0.066406 -0.08606 -0.11768 0.017822 -0.0085373 0.067566 0.022385 0.04425 0.01059 -0.0045967 -0.037659 0.01973 0.12781 -0.035645 -0.097839 -0.0031357 -0.094055 0.075073 -0.0053062 -0.036835 0.013817 0.00077534 -0.021576 -0.01413 -0.010048 0.0021496 -0.077637 0.08844 0.016235 0.036102 0.0064354 -0.040253 0.15784 0.11572 0.064148 -0.014786 0.024429 -0.099243 -0.061859 0.016296 -0.082947 0.0086212 -0.00068235 0.031021 0.050293 -0.0047798 -0.043457 -0.01709 -0.015839 -0.11133 -0.0009408 -0.037994 -0.037415 0.027542 -0.016403 -0.061279 -0.092529 -0.016037 0.0028534 0.099121 0.047028 0.081665 0.0019817 0.088257 -0.12805 -0.072449 0.032227 -0.016129 0.030441 -0.01532 -0.11432 0.007019 -0.0074348 -0.11383 0.079773 -0.049347 -0.020111 0.03952 0.0060654 -0.018219 -0.067139 -0.032013 -0.088745 -0.051483 -0.000211 0.071777 -0.02829 -0.010582 0.086487 -0.024628 -0.079773 -0.0060539 0.076355 -0.022125 0.011848 0.058624 -0.078308 0.014435 0.035889 -0.067566 -0.048828 -0.025269 -0.0028381 -0.036957 0.059723 -0.021835 -0.069397 -0.10321 0.075378 0.038208 0.00057936 0.0036716 -0.10742 -0.067871 0.084717 -0.033905 -0.085449 0.090149 0.0015612 -0.058807 -0.076599 -0.039459 0.0021725 0.052338 -0.037903 -0.015793 -0.10303 0.0074463 0.010956 0.022018 0.07666 -0.038605 -0.01738 -0.044006 -0.051178 0.019592 0.028275 -0.026855 0.03186 -0.085449 0.089722 -0.082458 -0.05191 -0.0271 -0.092346 -0.10858 0.016006 0.019302 -0.051086 -0.094482 -0.032501 0.063232 -0.0034313 0.040009 -0.03714 -0.15564 0.026703 -0.020538 -0.048004 0.11774 -0.071289 0.054565 0.022034 0.0038662 -0.12683 0.0063324 0.11603 -0.097473 0.098694 -0.063049 0.012589 -0.032501 -0.034912 -0.059906 0.017838 0.067383 -0.018921 0.015503 0.039093 0.04834 0.040771 0.027878 -0.024872 -0.017471 0.11218 0.072327 -0.036621 -0.012505 0.0024624 -0.062103 -0.11212 0.055542 -0.017136 -0.050171 0.037048 -0.04068 -0.0079803 0.0072746 -0.097351 0.057373 0.0021019 0.045929 -0.084473 -0.025406 -0.060852 0.021255 0.019745 -0.02504 -0.031586 -0.055084 -0.086243 0.023682 0.03096 0.019775 0.052643 8.7857e-05 0.017136 0.038055 -0.0066643 -0.068726 0.038483 -0.046265 -0.049469 -0.034058 0.05896 0.023102 0.07428 -0.043854 0.086243 0.079224 0.074951 0.0079346 -0.022125 -0.085205 -0.097229 0.0149 -0.007637 0.13391 -0.076843 -0.093079 0.080933 0.025543 0.0058823 0.020401 0.11835 -0.060883 0.003685 0.045013 -0.0059624 -0.075928 0.018692 0.0065918 0.055847 -0.084167 0.032257 0.043854 -0.0091553 0.0055237 -0.010056 -0.031616 -0.073608 0.050171 0.0046005 0.065125 0.051208 0.0023937 -0.05072 -0.075989 -0.067627 0.12244 -0.022598 0.016541 0.027878 0.075989 -0.044189 0.013657 -0.020508 0.065186 0.077759 0.027786 0.038544 0.0513 -0.10925 0.021378 -0.030579 -0.068237 -0.084045 -0.036804 -0.020767 0.022659
