100 300
Brunch -0.070618 -0.010872 0.0051537 0.14539 0.0046234 0.0033951 0.073853 -0.076172 -0.0063591 0.080505 -0.018906 -0.046814 0.011223 0.036407 -0.054291 0.055084 -0.047241 0.018784 -0.024017 -0.049347 0.040894 0.033905 0.06311 0.013893 -0.022339 -0.021362 -0.042633 0.079041 -0.071655 -0.010612 -0.026825 -0.011772 -0.011604 -0.029861 -0.05191 -0.021683 0.11572 -0.032806 0.055908 0.094788 0.01825 -0.099731 0.018906 0.032196 -0.017273 -0.12585 -0.075317 0.045563 0.045898 0.05658 -0.051636 0.028564 -0.054779 0.041718 -0.038086 0.001215 0.0050278 -0.02594 -0.08728 -0.090088 -0.072144 0.07074 -0.042084 -0.0012817 0.021103 -0.10706 -0.11835 -0.125 0.069885 0.04892 0.1076 0.017822 -0.00494 -0.02066 -0.019379 -0.046417 -0.11426 -0.06427 -0.00099373 -0.060028 -0.02063 -0.064392 -0.013496 -0.011246 0.0054207 -0.048157 -0.024017 0.16626 -0.0099945 -0.051483 -0.13403 -0.078796 -0.025909 -0.022964 -0.034851 -0.040283 -1.359e-05 -0.03952 0.075012 -0.10406 -0.036102 0.0019197 0.038116 0.045929 -0.039856 -0.049438 0.073425 0.009491 0.0023212 -0.022537 -0.096008 -0.058533 -0.0065384 0.0029583 -0.0049057 -0.029465 0.024353 -0.065125 -0.02005 -0.028961 0.0039024 -0.046112 -0.012665 0.022949 0.022949 -0.014664 -0.058258 0.066406 0.026886 0.052155 -0.10681 0.031342 0.01133 0.098572 -0.017334 0.13379 0.019958 -0.01593 0.069153 0.053284 -0.0052223 -0.059967 -0.047546 -0.10425 0.039856 0.026932 0.0016527 -0.018768 -0.10712 -0.016403 0.018204 -0.047455 -0.026031 0.10553 0.039093 -0.093445 -0.03038 -0.036163 -0.2146 0.018234 -0.079529 0.0077362 0.073547 0.052948 -0.013863 -0.051361 -0.027725 0.00023484 -0.00059128 0.052368 -0.088501 0.051605 -0.0021477 0.01458 -0.12048 -0.019592 0.059662 0.021393 -0.026962 0.04425 -0.034454 -0.064819 -0.028244 -0.027603 0.056183 -0.05127 -0.050751 -0.0079498 -0.010269 0.058533 -0.03183 0.068848 -0.02594 -0.010429 0.026901 0.19666 -0.063293 0.030685 -0.033417 0.0010881 -0.035919 0.0082626 -0.031647 -0.025101 -0.023438 -0.051208 -0.027313 -0.041199 -0.0059547 -0.024246 -0.14929 0.036682 -0.060852 0.09491 -0.0028172 0.023026 -0.061432 0.0030956 0.026993 0.018921 -0.01973 0.026535 0.033691 0.01857 0.041626 -0.012978 0.055542 0.067566 -0.045959 0.011192 0.0088959 -0.054443 -0.0052795 0.098511 0.029465 -0.12488 0.016296 -0.012558 -0.014732 0.040161 0.090881 0.033691 0.015671 0.003828 -0.072327 -0.058319 0.026413 0.083252 -0.020279 -0.0091858 -0.029449 0.033417 0.14087 0.011833 0.1051 -0.10565 -0.031677 -0.083252 -0.027939 -0.04541 0.03299 0.11676 -0.0979 -0.035583 0.018021 -0.022324 -0.037323 0.0031834 -0.082581 -0.05188 -0.0088577 0.054749 0.024673 -0.027634 0.070251 -0.054321 0.0018864 -0.0080643 -0.036621 0.00082636 -0.011604 0.049408 0.010124 0.038696 -0.050934 -0.076843 -0.028763 0.10034 -0.057404 0.15393 0.039398 -0.050842 -0.071167 0.065918 0.10577 -0.039886 0.028503 -0.038605 0.052368 0.047241
Basketball -0.033173 0.025528 0.03183 0.18213 0.025299 -0.12122 -0.010109 -0.13489 -0.0026722 -0.0076294 -0.1095 -0.05838 0.01918 0.0070114 0.003273 0.061523 0.12585 0.025726 0.02388 -0.036682 0.0030441 0.017273 0.089783 -0.046783 -0.072449 0.013565 -0.027832 0.075012 0.019836 -0.033356 -0.015686 -0.00054073 -0.0037937 -0.013405 -0.0076408 -0.045685 -0.028564 0.077087 0.016495 -0.0062752 0.0064926 -0.048828 0.10748 0.059357 -0.058319 -0.077454 -0.018982 0.011452 0.040771 0.061981 -0.082642 0.044098 -0.049622 0.053406 0.023788 -0.017929 -0.059326 -0.019287 0.054291 -0.065125 -0.0056648 -0.0082703 -0.057495 -0.016434 0.0024529 -0.049225 -0.035736 -0.0021191 0.018234 0.043091 0.049011 0.035919 -0.025589 0.036743 -0.09491 -0.041534 0.021301 -0.086853 0.053589 0.034424 -0.036102 -0.01075 -0.07605 -0.075134 0.10199 -0.0087204 0.0060234 0.16211 0.081665 -0.0056229 -0.10284 -0.047638 -0.10077 -0.022858 0.014748 0.049652 0.016708 -0.077209 0.050201 -0.050262 -0.065735 -0.04834 0.059784 0.057404 0.0046616 -0.0084686 -0.10376 -0.044037 0.070984 -0.048615 0.01075 -0.06488 -0.044739 -0.0037613 0.14124 0.05188 0.0068283 -0.043976 -0.0092773 -0.074219 -0.11322 -0.047302 -0.10126 -0.035614 0.11456 -0.033447 -0.085449 0.00085449 -0.051575 0.0066757 -0.068604 -0.011093 0.0025406 0.03717 0.019592 -0.029892 -0.016663 0.044037 0.020493 -0.0079498 0.07135 -0.010361 0.0010443 0.033234 -0.016708 0.0053864 0.027786 -0.023514 -0.068054 -0.04599 0.073181 -0.030746 -0.11713 -0.050537 0.0028553 -0.078369 0.036377 -0.022446 -0.072815 -0.013786 -0.028839 0.030991 0.031677 0.058868 0.035828 -0.11523 0.065735 -0.0064507 -0.075867 0.10034 -0.015015 -0.045593 0.017563 -0.03299 -0.060852 0.014503 0.11481 -0.094971 0.11072 -0.072021 0.01461 -0.019165 0.026932 -0.046661 -0.084595 0.018646 -0.056458 -0.0068207 0.058441 0.017014 0.052673 0.0017767 -0.08197 0.031433 -0.017517 0.058014 -0.05307 -0.091736 -0.0038147 -0.1203 -0.012283 0.027969 -0.07666 -0.03421 0.031281 -0.13379 0.05072 -0.1004 -0.03421 0.015259 0.02919 0.019547 -0.07373 -0.023361 -0.11511 0.061981 0.010887 -0.013535 -0.034943 -0.099854 -0.11493 0.044617 0.0028591 0.017532 0.0036602 0.020279 -0.015671 0.08783 -0.037354 -0.10571 -0.0055084 0.027573 0.051575 -0.022797 -0.016068 -0.025635 0.06427 -0.10321 0.00089312 0.050049 0.091125 -0.01088 0.013931 -0.097778 -0.088745 0.075867 -0.044373 0.096069 -0.07074 -0.047577 0.088379 0.025162 0.024063 0.017426 0.13062 -0.044495 0.067444 -0.020828 -5.3406e-05 -0.06488 0.12146 0.024002 0.10144 -0.05127 0.017792 0.046692 -0.07074 0.00179 -0.088928 -0.052032 -0.050354 0.077148 -0.015144 0.064697 0.11963 -0.0081787 -0.020218 -0.055847 -0.044189 0.089478 -0.092041 0.034271 -0.017807 -0.010384 -0.042542 -0.053223 -0.013161 0.0017796 0.033325 0.019806 0.016388 0.013924 -0.037903 -0.038849 0.023651 -0.038971 -0.068848 -0.042175 -6.6042e-05 0.035278
Entrepreneurs 0.0074615 0.012238 -0.0070953 0.095764 -0.082092 -0.0018282 -0.0027752 -0.065186 0.057068 -0.017044 -0.042023 -0.072815 0.0096893 0.0059776 -0.044556 0.066406 0.051025 0.1449 -0.0025043 -0.044861 -0.031891 0.052612 0.016815 -0.040283 -0.057434 0.049713 -0.11835 0.10364 -0.075378 0.035736 0.061676 -0.055542 -0.06311 -0.022263 -0.0062141 0.0036259 -0.036407 0.096558 -0.00086594 -0.012001 -0.007988 0.070862 0.06366 0.14478 0.0061188 -0.033569 0.043396 -0.019501 -0.065552 0.090576 -0.069336 0.055481 -0.023895 0.0043335 0.062378 0.020035 -0.049835 -0.098145 -0.020645 -0.16736 -0.017761 0.050385 -0.10577 -0.045441 -0.016693 -0.17224 -0.067627 0.042419 0.018646 0.045013 0.057831 0.015808 -0.020386 0.015808 -0.049042 -0.052917 0.021835 0.065979 -0.028259 0.046509 -0.053558 -0.0062981 -0.0032597 -0.068054 0.060455 0.033722 -0.02684 0.17126 0.030273 -0.015427 -0.015457 -0.024719 -0.093506 0.024368 0.044128 0.030396 0.042145 -0.028458 0.052612 -0.080688 -0.072266 -0.026855 -0.032227 0.023972 0.023651 0.05542 -0.08429 0.017349 0.00096846 -0.065186 -0.061066 -0.015305 -0.039734 -0.013618 0.10938 -0.0071678 -0.0177 -0.071777 0.14783 0.074402 -0.033997 -0.025269 -0.040161 -0.0055351 0.14417 -0.091248 -0.090576 0.028931 0.041962 0.053345 -0.078552 -0.060547 -0.03421 -0.040619 -0.077332 0.051666 -0.089111 -0.061432 0.11719 0.056854 0.099182 -0.077332 -0.014389 -0.082825 0.015137 0.0067635 0.0036469 0.077881 0.031281 -0.035309 0.13843 -0.10229 -0.085022 0.0052299 0.016144 -0.11249 -0.027695 0.06427 -0.02417 -0.0016413 -0.022049 0.075623 0.051086 -0.055939 0.084961 -0.033051 0.078857 0.013329 -0.054474 0.1026 -0.078308 0.0040588 0.014015 -0.043457 -0.018326 0.081726 0.12024 -0.098816 0.01429 -0.050537 0.0046806 -0.058685 -0.014862 -0.031433 0.016357 0.022873 -0.0073929 0.0080414 0.069458 0.0672 0.038513 -0.064453 -0.088806 0.0050201 -0.009964 0.063721 -0.073975 -0.10071 0.070801 -0.066833 -0.10132 0.10663 0.0038567 -0.037598 -0.061127 0.025269 -0.0215 0.030472 -0.042877 0.10925 -0.048767 -0.042755 -0.086975 0.015717 -0.044495 0.065491 -0.0013962 0.010201 0.0082626 -0.021271 -0.021042 0.03006 0.076843 -0.0020161 -0.013885 0.018341 0.069885 0.08313 0.043671 -0.063599 -0.036072 -0.0033245 -0.0078735 -0.022797 -0.020325 0.01796 0.0755 0.017059 0.079041 0.020111 -0.0042381 -0.017715 0.029129 -0.012123 0.011292 0.048401 -0.031433 0.12964 0.0011692 -0.086609 0.019012 -0.044952 -0.016861 0.004776 0.031204 -0.071228 -0.035309 0.01442 0.05014 -0.012123 0.045593 0.04718 0.017334 -0.057129 0.01107 0.054108 -0.018707 -0.055145 -0.021347 -0.080933 -0.037201 0.052216 0.03598 0.03125 0.028458 -0.0066299 -0.10297 0.043671 -0.047058 0.047546 -0.045044 0.032471 -0.04007 0.020462 -0.038971 0.010155 -0.0040779 0.030762 -0.04837 0.049469 0.009697 0.002718 -0.12427 0.082886 0.033539 -0.062561 0.034027 0.0063858 0.012665 0.057281
Yoga 0.021561 -0.018234 0.054626 0.1593 -0.018829 0.030762 0.030838 -0.033936 -0.064087 0.01178 -0.0083084 -0.041534 -0.03653 0.063904 -0.03241 0.043213 -0.0048294 0.080383 0.01445 -0.073181 0.095642 0.0017843 0.052063 0.02327 -0.10461 -0.016785 -0.16199 0.012161 -0.0080719 -0.086121 0.023422 0.022324 -0.10889 0.018021 -0.076904 -0.062195 -0.038177 -0.010101 0.0448 -0.041931 0.019226 -0.027939 0.033447 0.10565 0.0052109 -0.10071 -0.064575 -0.02565 -0.021896 0.025696 -0.057953 -0.0038319 -0.0074577 -0.0067635 0.098816 0.047852 -0.045929 -0.037994 -0.003088 -0.11273 -0.0085907 0.041931 -0.036835 -0.034332 0.03418 -0.10333 -0.06842 0.07489 0.011185 0.023575 0.017426 0.037476 -0.010956 0.033417 -0.049744 -0.081482 -0.023911 0.0010738 0.0030346 -0.019485 -0.061707 0.023773 -0.014397 -0.032379 0.037903 0.011292 -0.011246 0.15662 0.079285 -0.054291 -0.042847 -0.014091 -0.061707 -0.068237 -0.097961 -0.016357 0.071533 -0.067261 0.12756 0.0017366 -0.055359 0.025208 0.045929 0.023727 0.024155 0.034607 -0.071777 0.068542 0.087219 -0.0466 -0.067993 0.0081406 0.030396 -0.04715 0.050415 0.0010862 -0.049347 -0.086609 0.038055 0.055969 -0.03479 -0.0093155 0.0018024 -0.017258 0.016144 0.037994 -0.070923 0.030991 0.046844 0.056427 -0.10242 -0.065491 -0.091187 -0.023087 0.012184 0.031555 -0.05246 -0.017166 0.011757 0.12402 0.091736 -0.09967 -0.061188 -0.069763 -0.060974 0.0098267 0.092041 0.034912 0.052307 -0.04541 0.14636 -0.13501 -0.040924 0.041931 -0.024246 -0.14343 0.027054 -0.022552 -0.0041237 -0.019485 -0.030838 0.055725 0.0007019 0.015671 0.00083303 -0.099854 0.028671 0.068542 -0.072083 0.037781 -0.14758 -0.018799 0.015198 0.017914 0.022385 -0.055756 0.11707 -0.10138 0.01371 -0.10205 -0.022369 -0.01178 -0.01181 -0.026337 0.037598 0.034271 0.024536 0.0058098 0.10242 -0.040131 -0.012405 -0.028473 -0.079407 -0.025574 0.048218 0.069519 -0.0045929 -0.029221 0.011581 -0.081299 -0.020447 -0.01619 -0.020874 -0.026657 -0.01825 0.0020523 -0.01487 -0.015259 -0.00284 0.027283 -0.11719 0.012405 -0.082031 -0.076416 -0.049408 0.05484 0.038116 0.051453 -0.015854 -0.12659 0.00010109 0.023819 0.042358 0.0086441 -0.035583 -0.028625 -0.0025654 -0.088989 -0.035614 0.05365 0.015312 -0.0578 -0.033936 -0.01915 0.053314 0.078796 0.05545 -0.0089035 0.041412 0.019638 0.12939 -0.0037479 0.031677 -0.089966 -0.02417 0.015854 -0.051605 0.11218 -0.13904 -0.10834 0.036285 0.027908 0.061859 0.07251 0.066833 -0.075806 -0.055725 -0.054352 0.014778 -0.034882 0.0091553 0.027817 0.065125 -0.13062 -0.032654 0.046173 0.028366 -0.047058 -0.00024891 -0.10907 -0.089539 0.042877 -0.010635 0.027313 0.093323 -0.044495 -0.069885 -0.090881 -0.08313 0.061493 0.036438 0.032898 -0.016373 -0.003952 0.011169 -0.081116 0.0043259 0.043152 0.00026488 0.11298 -0.037109 0.072449 -0.018661 0.0099945 -0.014488 0.0048065 -0.038513 -0.00088358 -0.0021305 0.075745
Beer_Gardens -0.06073 0.025787 -0.043762 0.19287 -0.065063 0.012276 -0.03891 -0.066162 0.030396 0.055908 -0.059326 -0.089111 0.03183 -0.0030499 0.053955 0.076599 -0.00052738 0.11169 0.05368 -0.028702 -0.02684 0.013336 -0.0023518 -0.028519 -0.054626 0.15466 -0.081177 0.096252 -0.052979 -0.00046015 0.021393 -0.087097 -0.027435 0.040283 0.0060081 0.026733 0.037323 -0.033234 0.059692 0.082031 -0.012054 -0.049072 0.14197 0.024216 -0.037476 0.04248 -0.02533 -0.045166 0.028885 0.042908 -0.083374 0.02832 0.049011 -0.026596 -0.066101 0.031647 -0.08429 -0.072327 -0.087708 -0.13257 -0.00015521 -0.0094604 -0.059326 -0.021484 0.035187 -0.10968 -0.069946 0.043274 -0.026138 0.071594 0.042267 0.067566 0.026489 0.058685 -0.016449 0.0037289 0.015129 0.032837 0.037018 -0.038422 -0.074097 -0.089966 -0.019012 -0.11224 -0.025177 0.022034 -0.020035 0.09137 0.049042 0.028717 0.0090408 0.0010195 -0.055573 -0.093933 -0.0017757 0.066406 -0.0045853 -0.041779 -0.014725 0.010979 -0.030823 -0.020065 0.048126 -0.00072813 -0.0016928 -0.055786 -0.039154 -0.061157 -0.014732 -0.05777 -0.014038 0.011749 -0.010109 -0.040894 0.079712 0.01738 0.027603 -0.093201 0.089905 0.042694 -0.16589 -0.11218 -0.039124 -0.032776 0.22595 -0.07843 -0.011574 0.081177 -0.0289 0.003334 -0.0084915 0.026642 -0.011314 0.052216 -0.078064 0.0094452 -0.087952 -0.021683 0.040649 0.018875 0.032349 -0.067932 -0.039673 -0.085571 0.064026 0.016418 0.11786 0.024292 -0.019531 0.0085068 0.09967 -0.021637 -0.052032 -0.029907 -0.01017 -0.081848 -0.015404 -0.02446 -0.090027 -0.035889 -0.034729 0.0048103 0.049683 0.012985 0.028595 -0.040649 0.072144 -0.015038 -0.019318 0.057312 -0.15234 -0.04892 0.04364 0.0040054 -0.02272 -0.057495 0.062866 -0.11841 -0.04361 -0.049103 -0.010315 -0.072815 -0.058319 -0.078064 0.061096 -0.009346 0.021194 -0.016403 0.090454 0.041504 0.034363 0.055969 -0.0042343 0.035889 -0.035095 0.11328 -0.049805 -0.082886 0.0076294 -0.085205 -0.047516 0.086853 0.031799 -0.021973 -0.03952 -0.026184 0.0028133 0.025894 -0.10461 0.060242 -0.15979 0.00243 -0.0802 0.0032368 -0.069458 0.026123 -0.037201 0.064331 0.03595 0.0036373 0.0061874 -0.076355 0.043396 -0.024597 -0.01416 0.069336 0.020065 0.096069 0.018265 -0.026901 -0.059784 -0.040192 -0.056976 0.030304 0.023956 -0.0048332 -0.0014849 0.018219 0.057343 0.01107 0.11023 -0.02034 -0.046143 -0.027603 -0.084351 0.056 -0.022369 0.09314 -0.040741 -0.066956 0.036987 -0.025833 0.071167 -0.021393 0.04007 -0.046722 0.0037518 -0.0073471 -0.0099716 -0.024521 0.016541 0.070679 0.067444 -0.014801 0.042175 0.050201 -0.047821 -0.095581 -0.017059 0.025009 -0.08905 0.050598 0.029907 0.065979 0.10986 0.0071259 -0.079346 0.063965 -0.064148 0.055939 0.0071945 -0.018677 0.016617 0.061676 -0.012932 -0.019623 -0.011826 0.01429 0.022888 0.038025 0.050507 -0.035431 -0.091492 0.10126 0.049561 -0.043945 -0.0071259 -0.041443 0.039703 0.01944
Big_Data 0.029053 -0.052582 -0.047638 0.083618 -0.069946 -0.017868 0.00024605 -0.0079041 0.056335 0.027084 -0.021606 -0.059814 0.028442 0.0035305 -0.020554 0.067566 0.034363 0.077454 0.0090027 -0.11359 -0.05661 0.0077972 0.036835 -0.0045357 -0.097595 -0.0015011 -0.057587 0.11218 -0.04007 -0.12494 -0.062469 0.011513 -0.09967 -0.03714 -0.037018 0.00015378 -0.027206 0.004303 0.070068 0.022995 0.02034 0.023804 0.10211 0.10834 -0.013733 -0.067383 -0.059875 -0.11566 -0.041168 0.03093 -0.064026 -0.022675 -0.080872 -0.031372 -0.038055 0.067017 -0.0012741 -0.066833 -0.034393 -0.09314 0.032928 -0.062012 -0.079529 -0.013474 -0.098633 -0.073181 -0.088623 -0.00031328 -0.041687 0.0065842 0.0014219 0.036896 -0.0023289 -0.059296 -0.078735 -0.059143 0.037964 -0.013359 0.033356 -0.0043373 -0.013641 0.082703 -0.0054016 -0.04953 0.11401 0.017578 0.051056 0.11353 -0.03656 0.026627 0.0023766 -0.10266 -0.057312 -0.020416 -0.032593 -0.018143 0.024887 -0.044403 0.098328 -0.047913 -0.045471 -0.065491 -0.0040665 -0.0027561 0.0012493 0.09375 -0.087585 0.1062 0.02565 -0.042206 -0.018005 -0.032959 0.0010109 -0.0076332 0.11737 0.041901 -0.00083399 -0.10748 0.11548 0.010506 -0.063965 -0.010513 -0.045166 -0.023819 0.09137 -0.039398 -0.048004 0.093628 -0.0038433 -0.037018 -0.10364 -0.021729 -0.028336 0.047394 -0.013992 -0.011353 -0.063965 -0.039093 0.023117 -0.0030613 0.11566 -0.098877 -0.041351 -0.045105 -0.038544 -0.021622 0.071838 0.040619 -0.020187 -0.096069 0.11017 -0.086182 -0.085388 0.022781 0.013756 -0.078735 -0.041168 0.093933 -0.10266 0.00029993 -0.048004 0.064636 -0.020462 0.013008 0.008255 -0.10834 0.03363 0.049896 -0.10846 0.075928 -0.074524 -0.002264 -0.029205 0.011063 -0.025177 0.0069237 0.10248 -0.13281 0.027908 -0.10785 0.022354 -0.050751 -0.035004 -0.01236 0.053223 0.05304 -0.067871 0.085449 0.018402 -0.029068 -0.00053835 0.021942 -0.059235 -0.030838 0.04541 0.073914 -0.096558 -0.11462 -0.032959 -0.032166 -0.085449 0.074219 0.017365 0.021301 -0.028748 -0.0031776 -0.024475 -0.052277 -0.080505 0.081299 -0.036835 0.028793 -0.084351 -0.0070419 -0.056793 0.036652 0.035522 0.05957 -0.067078 -0.073792 -0.043732 0.04538 0.048004 -0.0025902 0.0099716 -0.039154 -0.0094147 0.045197 0.054047 -0.018234 -0.017014 -0.058136 0.0081482 -0.11121 0.0058441 -0.018753 0.03186 0.01461 0.066528 0.041504 0.068726 0.020294 -0.010284 -0.061493 -0.058258 -0.046875 0.00081062 0.16931 -0.02829 -0.06488 -0.041534 0.054291 0.024323 0.081726 0.048004 -0.10217 -0.030273 -0.025757 -0.02739 -0.082031 0.075317 -0.0089874 0.046448 -0.0054321 -0.092102 0.020294 -0.03891 -0.065735 -0.041962 -0.095459 -0.057068 0.059631 -0.016052 0.040833 0.067444 -0.0072861 0.014252 -0.068726 0.04425 0.10748 -0.048279 0.049896 -0.016739 0.07666 0.014999 -0.033173 -0.018936 0.065063 0.061554 0.085449 0.041626 0.049011 -0.080505 0.056427 0.019684 -0.044098 0.064209 -0.03064 -0.036011 0.05603
Computer_Engineering 0.026093 -0.11804 -0.0032768 0.090271 0.044678 -0.03772 0.021942 -0.11157 0.0016232 -0.068542 0.038422 -0.00024724 -0.02095 -0.014862 -0.064148 0.042328 0.027771 0.097595 0.065857 -0.12573 -0.014374 0.00040698 -0.038147 -0.0028687 -0.10999 0.041229 -0.084778 0.085327 -0.1001 -0.0023899 0.0011702 -0.11292 0.0045433 -0.073059 -0.049194 -0.094055 0.068298 0.016571 0.0069237 0.00011337 -0.0089951 0.061462 0.047333 0.079468 -0.10205 -0.0077286 -0.086731 0.032776 -0.056641 0.080994 -0.10168 -0.085876 0.0085678 -0.016434 0.032104 -0.030838 0.011902 -0.077881 -0.032562 -0.049103 -0.053741 0.044159 0.0045395 -0.01548 -0.024109 0.094299 -0.082642 0.031921 -0.07074 -0.044739 -0.11194 -0.030914 0.067688 -0.00033998 -0.06958 -0.0058289 0.011955 0.01825 0.025146 0.028946 -0.015106 0.013535 -0.0089493 0.032288 0.0062256 0.032501 -0.092651 0.12964 -0.021133 -0.030838 0.023239 -0.117 -0.10986 -0.00024724 0.059387 0.032806 0.11157 -0.035767 0.066101 -0.090332 -0.03717 -0.033844 -0.11523 0.0041237 -0.0063248 -0.10516 -0.054657 0.036865 0.067688 -0.078613 0.026901 -0.043549 0.014305 0.087097 0.05246 0.13135 -0.0016098 -0.039215 0.11176 0.015518 -0.1698 0.053741 -0.08197 -0.019943 0.057281 0.031281 -0.039276 -0.011833 -0.060242 0.11157 0.029694 -0.067505 -0.071411 -0.060425 -0.0067749 -0.069885 -0.10315 -0.0159 -0.0098495 0.014366 -0.059967 0.002718 -0.061859 0.033905 -0.062683 -0.0028839 -0.0077705 0.10858 -0.047699 0.015556 0.11896 -0.029724 -0.05365 0.041168 -0.031647 -0.041901 -0.040039 0.03775 0.0112 -0.094727 0.023102 0.044861 -0.033478 -0.017883 -0.043121 -0.0063934 0.011894 -0.037506 -0.029037 0.0097656 -0.032166 -0.046387 -0.095215 0.011192 0.10931 -0.024597 0.042999 -0.093506 -0.046478 -0.088318 -0.11749 -0.093628 0.0067978 -0.028305 0.0023594 0.036743 -0.03772 0.042999 0.042908 0.08905 0.020538 0.064819 -0.03656 0.01474 0.0028133 0.030991 0.053802 -0.18152 -0.062805 -0.088989 -0.11084 0.076538 0.086121 -0.0082016 -0.13147 -0.081787 -0.014465 -0.037933 0.0040359 0.014099 0.019653 -0.070618 -0.015839 0.021744 0.023422 0.0066109 -0.029999 0.052185 0.0049782 -0.042908 -0.053162 -0.032501 0.061066 -0.078308 0.056732 -0.060333 0.06134 -0.020203 0.0056992 -0.02774 0.053802 -0.026382 0.014282 -0.052765 -0.05307 0.011414 0.0053787 -0.040649 0.0015411 -0.048462 0.019455 0.0046539 0.041504 -0.044861 -0.02121 -0.033417 -0.028809 0.040833 -0.088196 -0.073425 -0.054932 -0.010406 -0.063049 -0.072815 -0.010307 -0.075806 -0.050446 -0.047241 0.0076027 0.089966 0.041077 -0.075623 0.019104 -0.014374 0.064514 -0.0054398 -0.028976 -0.05365 -0.031052 0.013252 -0.00457 0.015541 0.045837 0.009407 0.077148 -0.001935 -0.00097942 -0.033417 -0.050659 0.098206 -0.080566 0.0046768 0.039734 0.052887 -0.042297 -0.066406 0.034912 0.010704 0.071411 0.061615 -0.02121 0.012032 -0.077759 0.033722 0.018219 -0.0354 0.0080414 -0.078125 0.083618 0.042755
Data_Mining 0.052795 -0.063171 0.030991 0.10724 -0.044098 0.026367 0.0068893 -0.02655 -0.013283 0.018661 -0.0018883 -0.064697 0.01017 0.022522 -0.019501 0.031647 0.036926 0.10999 0.0069504 -0.14465 -0.085632 -0.015068 -0.036835 0.076355 -0.041595 -0.029312 -0.089966 0.071106 -0.06366 -0.10309 -0.028336 -0.023315 -0.047729 -0.030457 -0.076721 -0.025391 -0.032013 0.011139 0.12634 -0.018784 0.057556 0.057343 0.10504 0.12964 0.00811 -0.10437 -0.11737 -0.070801 -0.014755 0.039642 -0.092285 0.0057831 -0.12219 -0.0495 -0.029587 0.071716 -0.016708 -0.14807 0.044922 -0.047333 0.01355 -0.019714 -0.0036602 0.013985 -0.057465 0.0020142 -0.059753 0.06311 -0.035187 -0.052094 0.0034103 -0.03833 0.081055 -0.097229 -0.029541 -0.072144 0.085632 -0.029388 0.012955 0.0095825 -0.041107 0.062347 0.012199 -0.026108 0.11255 -0.017105 0.00016141 0.13184 -0.045776 0.037811 0.034729 -0.096619 -0.10046 0.021072 0.028625 0.0092697 0.03125 -0.094421 0.077576 -0.031647 0.039856 -0.068665 -0.023636 -0.02565 0.0029278 0.093506 -0.16943 0.029022 0.035553 -0.027359 -0.044281 -0.039795 0.012329 -0.010605 0.13623 0.09198 -0.042084 -0.084839 0.10272 -0.024796 -0.03717 -0.017532 -0.061218 -0.016144 0.026001 0.023605 -0.077515 0.16724 0.010109 -0.0055466 -0.029099 -0.070923 -0.063538 0.03595 -0.0098114 -0.0057678 0.027512 0.012054 -0.0053749 0.080688 0.035065 -0.10614 -0.081848 0.054993 -0.0401 -0.0078278 0.067078 0.045624 -0.010902 -0.08429 0.026154 -0.078735 -0.117 0.039551 -0.0021973 -0.091919 0.0056038 0.068176 -0.044098 -0.040436 -0.056 0.040558 -0.058014 -0.018509 -0.0071335 0.0050011 0.059204 0.012756 -0.16138 0.051849 0.0021954 -0.013023 -0.04184 -0.010246 0.049408 -0.0022659 0.067139 -0.12524 0.021576 -0.053833 -0.010727 -0.041229 0.049652 -0.070557 0.012634 0.061005 -0.027512 0.083557 0.036926 -0.032928 -0.058197 -0.0024567 -0.041595 -0.019073 -0.015053 0.060516 0.013306 -0.12329 -0.041901 -0.08075 -0.066833 0.069153 -0.029724 0.025803 -0.054718 -0.0050926 0.047821 -0.072693 -0.0066376 -0.021164 -0.079712 -0.037445 -0.0625 0.035034 -0.051636 -0.030502 0.094543 0.036652 -0.077515 -0.0035896 -0.089966 0.016983 0.091797 -0.083252 -0.01622 -0.0021572 0.045288 0.022644 0.019409 0.028549 0.013145 -0.02565 -0.0033455 -0.061707 -0.045746 -0.0045662 -0.014816 -0.051636 0.06488 0.011337 0.081055 -0.021652 -0.056244 -0.022308 -0.0625 0.00030589 0.00054169 0.15442 -0.068726 -0.10657 -0.0049667 -0.011063 0.036285 0.036591 0.0019951 -0.13452 -0.032196 -0.032959 -0.0088654 0.013199 0.038757 -0.033386 -0.0018034 -0.0097656 -0.021881 0.002306 0.015228 -0.059113 -0.059021 -0.035431 -0.046326 0.060516 -0.04541 0.015076 0.029831 -0.01078 -0.052795 -0.0013409 0.062225 0.09729 -0.080078 0.073608 0.045532 0.023514 0.016968 -0.051727 0.025055 -0.0061417 0.02774 0.075073 -0.020935 0.075134 -0.046967 0.052124 0.001873 -0.0083466 0.01545 -0.032227 -0.0019894 0.046326
Data_Scientists 0.0043297 -0.050598 -0.017975 0.076843 -0.085754 -0.046722 0.03302 -0.0081024 0.051544 -0.054932 -0.023239 -0.071045 -0.0085754 0.019791 -0.029953 0.063599 0.062225 0.041199 -0.016281 -0.13074 -0.0043182 0.038696 0.030197 0.027985 -0.11499 -0.0028286 -0.078735 0.13989 -0.0024757 -0.11652 -0.043457 -0.062378 -0.076782 -0.036011 -0.046997 -0.059113 -0.05661 0.024002 0.064697 0.078552 0.044434 0.033783 0.065979 0.12512 0.0057297 -0.070557 -0.022446 -0.089844 -0.016907 0.011833 -0.07373 -0.018463 -0.018494 0.053345 -0.0095596 0.11444 -0.076416 -0.078735 0.011353 -0.069641 0.039612 -0.04187 -0.071655 0.025681 -0.064941 -0.058868 -0.058136 0.040436 -0.041992 0.036987 -0.042725 0.024475 0.043549 -0.085632 -0.059204 -0.072388 0.0034866 -0.034546 0.045868 -0.032684 -0.055328 0.072571 0.041809 0.010628 0.097046 -0.021805 0.037018 0.10059 -0.033722 0.07959 0.022888 -0.079407 -0.070862 -0.040649 0.017792 0.0034828 0.047729 -0.03717 0.1156 -0.0082626 -0.011963 -0.12622 0.0029182 0.0014544 -0.019791 0.065918 -0.14819 0.081238 0.02034 -0.015762 -0.045593 -0.062439 -0.013 -0.0090179 0.11786 0.093567 0.018799 -0.11194 0.13757 -0.0059433 0.011574 -0.0028439 -0.11469 -0.012184 0.073669 -0.028946 -0.080688 0.13867 0.0035515 -0.014877 -0.088867 -0.011917 -0.023087 0.037781 -0.043152 -0.036438 -0.040405 0.025406 -0.0027981 0.049072 0.046448 -0.057648 -0.028824 -0.077698 -0.0022507 0.0014172 0.032135 0.016586 -0.019913 -0.1073 0.055939 -0.1109 -0.1095 0.048889 -0.0096283 -0.11115 -0.013466 -0.049103 -0.034851 -0.0076141 -0.041656 0.037323 -0.012955 -0.0015945 0.059357 -0.046417 0.040283 0.040527 -0.080872 0.074524 -0.030136 -0.030045 0.0027122 -0.01049 -0.02565 -0.0016985 0.087158 -0.12372 0.026184 -0.045441 0.022202 0.009697 -0.018921 -0.028839 0.10223 -0.0055122 -0.02594 0.059448 0.062042 -0.025406 -0.043579 0.0030537 -0.17236 0.017624 -0.00018144 0.06012 -0.049957 -0.06073 0.017883 -0.090515 -0.033752 0.083374 0.020859 0.0080338 -0.075195 0.0016565 0.019653 -0.0802 -0.064941 -0.00036287 -0.072083 0.0099945 -0.076172 0.0042038 -0.056885 0.034637 -0.037781 0.046326 -0.0099945 -0.016129 -0.095703 0.058502 0.055786 -0.026016 -0.024689 -0.019684 -0.014427 0.023651 0.0049553 -0.02211 -0.027466 -0.0096359 -0.0080795 -0.085327 0.0039673 -0.022446 0.055786 -0.016724 0.10669 0.020309 0.083801 -0.038239 -0.027756 -0.043671 -0.042236 -0.013779 -0.030823 0.13806 -0.083435 -0.10791 -0.043457 0.071899 0.013901 0.10327 0.091309 -0.099548 0.014641 -0.01651 -0.08197 -0.03302 0.033081 0.0099411 0.03186 -0.041107 -0.054749 0.036957 -0.040283 -0.049072 -0.015488 -0.061401 -0.053101 0.058929 -0.0070801 0.020065 0.065125 -0.069275 -0.018661 -0.049988 0.059967 0.10168 -0.019226 -1.2338e-05 -0.045441 0.088196 -0.0019779 -0.0097351 -0.011322 0.025589 0.084839 0.10779 0.030212 0.03476 -0.061951 0.026489 0.022324 -0.082336 -0.003994 -0.048431 -0.016678 0.089233
Parks -0.015518 0.014694 -0.019669 0.07251 -0.084534 -0.054657 0.011116 -0.025635 -0.029739 0.086121 -0.02919 -0.13782 -0.096191 -0.035156 -0.079895 -0.045135 -0.090027 0.049194 0.037201 -0.014832 -0.010353 0.0087891 -0.00030756 0.076538 0.013901 0.060608 -0.13684 0.15002 0.003376 -0.00034285 -0.014725 -0.021057 -0.048462 -0.012138 -0.035004 -0.071594 0.012627 0.0029297 0.043976 -0.021774 -0.011284 -0.020081 0.15234 0.049622 0.054657 -0.010056 -0.010361 0.026337 -0.0010424 -0.042236 -0.024582 -0.0016088 -0.0082092 -0.029312 -0.021973 0.002018 -0.13257 -0.058594 -0.046814 -0.085083 0.00010562 0.032318 -0.083435 -0.046906 -0.021515 -0.10553 -0.091858 0.066284 -0.065491 0.042358 0.04422 -0.06192 0.049866 -0.022705 -0.048004 -0.10614 0.070679 -0.03421 0.020767 0.014397 -0.044006 -0.062256 0.0021477 -0.10822 0.072693 0.010132 -0.049133 -0.013031 0.047607 0.0070457 0.020004 0.036652 -0.098145 -0.020386 -0.09845 0.011429 -0.01519 -0.069153 0.11121 -0.047974 -0.049988 -0.011726 0.01001 0.018295 -0.050232 0.0011902 -0.092224 0.032471 0.0024185 -0.067749 -0.073364 0.032043 0.039154 -0.0215 0.10107 -0.065125 0.028397 -0.046783 0.08905 0.019684 -0.08075 -0.089844 0.043488 -0.016144 -0.029068 -0.078796 -0.10065 0.047577 0.047302 0.040283 -0.034363 0.015991 -0.070862 0.026962 -0.027328 -0.018875 -0.11505 -0.056519 -0.0022621 0.077637 0.090637 -0.070129 0.030243 -0.014618 0.091248 0.040314 0.013885 0.032288 -0.01445 -0.023529 0.1438 -0.12122 -0.047455 0.084412 -0.013771 -0.064087 0.092163 0.0076599 -0.035217 0.038361 -0.026306 0.035614 0.098694 0.018036 0.089111 -0.073486 0.0051956 0.040131 -0.099121 0.11298 -0.11121 -0.044464 0.013367 0.0069504 0.015671 -0.045685 0.082825 -0.071289 0.0059776 -0.03653 -0.038971 -0.050537 0.035767 -0.080078 0.080811 0.086548 0.047821 0.005127 0.10791 0.036865 -0.02507 0.02243 -0.033417 0.021988 -0.02713 0.088501 -0.02066 -0.099426 -0.031281 -0.059479 0.05304 -0.022339 -0.026382 0.0028496 -0.016434 0.018417 0.034668 -0.0023975 -0.050232 0.092224 -0.019211 -0.013191 -0.089539 -0.058777 -0.070312 0.0023956 0.0085068 -0.041992 0.038574 0.025375 -0.035126 -0.052856 0.13611 0.003582 0.00097418 0.031433 0.0026646 0.060455 0.031616 -0.043945 0.02066 0.0010672 0.012772 -0.042786 -0.003149 0.053619 0.062225 -0.027634 0.045807 0.020599 0.070923 -0.012581 0.061066 -0.038239 -0.088196 0.058624 0.014404 0.0053024 -0.0233 -0.0024281 0.020065 0.047485 0.02652 0.082703 0.015305 -0.078735 -0.005352 -0.02417 -0.05188 -0.071289 0.0049782 0.011925 0.025436 0.03653 0.020065 0.09967 -0.074707 0.0093842 0.0063324 -0.014496 -0.091064 0.080017 -0.072632 0.041229 0.061127 -0.019043 -0.048157 -0.06604 -0.059998 0.030334 -0.010895 0.042145 0.15686 0.13794 0.051605 -0.13013 0.014648 -0.010529 0.03418 0.03894 -0.0097504 0.055298 -0.14624 0.02211 0.046753 -0.037506 -0.030319 -0.045624 0.11591 0.056854
Skiing -0.035583 -0.075989 0.029266 0.014015 -0.021576 -0.045471 0.062286 -0.02562 -0.0058708 -0.0016747 0.0011921 -0.04715 0.00028658 0.019501 0.0027924 0.050842 -0.0058289 0.057587 0.0060806 -0.11194 -0.017746 0.070801 -0.033142 -0.034302 0.045898 -0.023178 -0.086548 0.10315 0.042175 -0.087341 -0.0088043 0.035431 0.015198 0.066895 0.033722 -0.093628 0.052582 -0.083496 0.025131 0.028046 0.057831 -0.035858 0.13708 0.017822 -0.020798 -0.067017 0.072144 -0.028351 0.11719 0.13208 0.014877 -0.053711 -0.014488 0.0008812 0.017944 0.031021 0.0074997 -0.068359 0.0019102 -0.092041 -0.031494 -0.050781 0.024689 0.0076408 0.035889 -0.12549 0.075928 0.019623 0.029129 0.060181 -0.032623 -0.056427 -0.0067139 0.043701 0.075684 -0.081238 0.077637 -0.064941 -0.082275 -0.064697 0.0035248 -0.032196 0.012337 -0.0074577 -0.011841 -0.071045 -0.012299 0.094788 0.042389 0.10339 -0.042755 0.0030365 -0.054901 0.06604 0.033783 -0.10217 0.044342 -0.13611 0.052551 -0.059967 -0.058716 -0.071716 -0.005661 0.078125 0.10223 0.072205 -0.050659 -0.075134 0.021118 0.033813 -0.0036373 -0.03537 0.042908 -1.4126e-05 0.030914 -0.020325 0.0071564 -0.0021687 -0.0016279 0.017975 -0.18042 0.0084076 0.036133 0.032196 0.14404 -0.067078 0.017426 0.060242 -0.060974 0.15234 -0.040375 0.036163 0.0099106 0.011276 0.032867 -0.030289 -0.029755 -0.024429 0.029266 0.10315 0.045288 -0.069946 0.043671 -0.0095215 0.079712 0.061707 0.021194 -0.024643 -0.041656 0.022385 0.045624 0.014793 -0.00109 0.065369 -0.058411 -0.016785 0.040619 0.071594 -0.11383 0.029831 -0.069946 0.01976 0.1131 -0.016876 0.0068207 -0.019272 0.026276 -0.029404 -0.049927 0.052917 -0.089661 -0.022461 -0.019821 -0.034637 -0.1037 -0.035126 0.11273 -0.042023 -0.019257 0.0051041 0.033997 -0.00058556 -0.00083876 -0.093323 0.0027122 0.045868 -0.07666 -0.078186 0.07312 0.10864 0.053284 -0.0081177 -0.015511 0.064209 -0.0055122 -0.004715 0.036591 -0.0019464 0.02327 0.04834 -0.047272 0.11047 -0.016129 -0.07959 -0.045929 -0.063599 0.041382 -0.092834 -0.15161 -0.017471 -0.034424 -0.085327 0.023529 0.076172 -0.065796 -0.011894 -0.059052 0.019791 -0.052399 -0.028534 -0.028381 -0.015854 0.092834 -0.021088 -0.029663 0.019958 0.021606 -0.0080261 -0.11041 0.028061 -0.014175 0.11755 0.00013804 0.03949 -0.019241 0.08844 0.030792 -0.037292 0.11206 0.012642 0.048126 -0.12317 -0.00284 -0.058075 0.017532 -0.033447 -0.057465 -0.054016 -0.10425 -0.05719 -0.012253 0.0032825 0.072021 0.11823 0.030182 0.049072 0.070007 -0.079285 -0.090271 0.021027 0.018265 0.010231 0.056091 0.03595 0.061188 0.034698 -0.043549 -0.013306 -0.054749 0.020569 -0.04129 0.13782 -0.030457 0.031555 0.13391 -0.012787 0.026321 -0.035767 -0.011391 0.039246 -0.0060806 0.0093918 0.041077 0.016907 -0.016693 -0.04068 -0.021561 0.035156 -0.07843 0.068359 0.046082 -0.12781 -0.077759 0.019119 0.044128 -0.0042648 0.017883 0.054932 0.029633 -0.039886
Coffee -0.044891 0.0037231 -0.035919 0.20862 -0.025543 0.038452 0.024612 -0.10632 -0.017319 0.12793 -0.017288 -0.16541 -0.0079041 0.024231 0.00079966 0.097351 -0.050201 0.11786 0.0049706 -0.078735 -0.042908 0.057617 0.043671 -0.11438 -0.046539 -0.0059738 -0.1059 0.11975 -0.040619 -0.049438 0.025497 -0.032776 -0.00074768 -0.041931 -0.076416 -0.053955 -0.016968 -0.091431 0.025909 0.048126 0.029877 -0.043884 0.012329 0.0041618 -0.0041313 -0.09729 -0.079651 -0.037201 0.025574 0.016556 -0.080383 0.12347 0.04007 -0.018616 -0.035736 0.040222 0.015045 0.014458 -0.05838 -0.14612 -0.029541 -0.014923 -0.085999 0.0010481 0.013657 -0.13464 -0.097046 -0.041595 0.0096283 0.059509 0.11261 0.046875 0.04126 -0.016617 -0.12964 -0.048492 -0.017197 -0.046814 -0.034637 0.01236 -0.057129 -0.017731 -0.027557 -0.04126 0.017075 0.0092545 0.042206 0.16382 0.019226 0.055328 -0.038452 -0.030441 -0.044769 0.00021791 0.011436 -0.0047264 -0.029861 -0.051147 0.085144 -0.077087 -0.033478 -0.020981 0.056488 0.048981 0.016418 -0.042664 0.038055 0.053406 -0.015167 -0.049866 -0.03537 -0.044098 -0.03009 -0.055237 -0.011154 -0.0625 -0.019318 -0.060059 -0.011513 -0.032104 0.0012054 0.027649 0.015068 -0.0092163 0.078247 0.037415 -0.088379 0.042114 0.048401 0.045837 -0.053009 0.028076 0.074646 0.0007906 -0.075928 0.079773 -0.020859 -0.017685 0.029663 -0.010025 0.022095 -0.064819 -0.049316 -0.055542 0.023697 0.034424 0.043365 0.0052643 -0.095703 -0.032166 0.079224 -0.010284 -0.023666 -0.010056 0.054993 -0.064331 -0.050476 -5.2035e-05 -0.15649 0.0061073 -0.0041008 -0.021271 0.023438 0.0056572 0.046661 -0.059937 0.10913 0.011154 -0.0099411 -0.03479 -0.11285 0.048706 0.019989 -0.081238 -0.11591 0.014091 0.034088 -0.11713 -0.041473 -0.012215 -0.029083 -0.098083 -0.048065 -0.01741 0.040527 -0.00054121 -0.041687 0.043457 0.029587 0.012245 0.019714 0.0013437 -0.046722 0.01683 0.067322 0.14221 -0.035034 -0.015762 -0.026093 -0.037384 -0.010651 0.063171 0.060974 -0.03241 0.012131 -0.017822 0.048859 -0.015587 -0.032501 -0.0032501 -0.10809 0.057281 -0.10352 0.047516 -0.019943 0.038208 -0.050995 -0.021637 -0.013496 0.011536 0.038727 0.0025787 -0.0041695 0.03009 0.081909 0.018784 -0.058197 0.063965 -0.032074 -0.011459 -0.0013514 -0.011414 -0.039368 0.1073 0.040863 -0.036438 0.093323 0.011711 0.052185 0.037659 0.095886 0.00027704 0.019547 -0.012047 -0.01339 -0.0082779 -0.096375 0.097656 -0.010796 -0.052673 -0.042542 0.076477 0.14929 0.040344 0.041687 -0.14185 -0.012901 -0.05777 0.019547 -0.030487 0.0090561 0.090942 -0.049042 0.059357 -0.010574 -0.017975 -0.035889 -0.0090408 -0.080566 -0.087036 -0.028717 0.021088 -0.021088 0.065674 0.080994 0.010117 -0.11377 -0.055145 -0.037109 0.072266 -0.041779 -0.029343 0.09375 0.051819 -0.042938 -0.023575 -0.022781 0.047638 -0.032562 0.098938 0.015854 -0.048309 -0.067322 -0.0067406 -0.031174 -0.037048 0.015869 -0.037445 0.099609 0.074097
Street_Art 0.059601 0.072083 -0.017136 0.14197 -0.025772 -0.0034256 -0.055298 -0.066772 0.02597 0.049408 -0.026611 -0.051788 0.017563 -0.0082321 -0.025192 -0.0053673 0.027573 0.098938 0.034943 0.026428 0.001359 0.024094 0.031616 -0.0045509 -0.042511 0.0061684 -0.033417 0.04245 -0.058044 -0.097534 -0.00074244 0.0059891 -0.079712 0.01886 -0.029709 -0.063171 0.024872 0.087769 0.062805 -0.050323 0.0076485 0.012299 0.10828 0.047852 0.017929 0.010506 -0.039795 -0.06311 0.016693 0.095825 -0.063904 0.032776 0.043274 -0.072876 -0.078247 0.078796 -0.025833 -0.11084 -0.039124 -0.10394 0.019745 0.048706 -0.11542 -0.046997 -0.013252 -0.13684 -0.14319 0.0008316 0.0018511 0.073792 -0.0033817 0.080627 0.0060844 0.035736 -0.081604 0.023834 0.077026 0.01033 0.017792 0.012825 -0.0672 -0.010559 -0.019943 -0.11591 0.032623 0.02742 0.052979 0.08667 0.025162 -0.029221 -0.045044 -0.071716 -0.075989 -0.0029793 -0.05426 0.060699 0.010399 -0.050873 0.037537 -0.03894 -0.053864 0.031113 -0.037842 -0.012894 0.0093689 -0.046356 0.0075836 0.020126 -0.036682 -0.048187 -0.091248 0.0071983 0.05896 -0.01857 0.10828 -0.014717 -0.027664 -0.0896 0.058594 1.1206e-05 -0.0065117 -0.076355 -0.00046206 -0.012047 0.14941 -0.10248 -0.1026 0.06131 0.038727 0.042694 -0.057404 -0.014557 -0.03244 0.032928 -0.073547 0.026535 -0.1394 -0.016846 0.041534 0.051392 0.056885 -0.04184 -0.060699 -0.016342 0.12695 0.079407 -0.0159 0.061981 -0.080811 -0.039001 0.077942 -0.081482 -0.059113 0.11359 0.014938 -0.047852 -0.077026 0.13696 -0.089294 -0.0042114 -0.031036 0.073425 -0.0046349 -0.033356 0.052368 -0.069763 0.097351 -0.034119 -0.10315 0.080811 -0.082031 -0.012665 0.031128 0.0032883 -0.021866 0.00082827 0.046051 -0.11902 0.087952 -0.024979 -0.075806 -0.052948 -0.028107 -0.058868 -0.0048828 -0.015259 0.019531 -0.018448 0.042694 0.033722 0.059784 0.044464 -0.035248 0.022964 -0.026794 0.00036979 -0.025101 -0.06842 -0.009697 0.037659 -0.0047569 0.117 -0.10284 -0.10669 0.00042701 0.012009 -0.030029 0.0077477 -0.11243 0.036621 -0.079285 0.0089188 -0.096252 0.019775 -0.071899 -0.027023 -0.054932 0.013283 -0.0091019 0.0015039 -0.05246 0.018799 0.020554 0.054657 0.034729 0.062988 0.031342 0.12207 0.010918 -0.037994 -0.018219 -0.027512 -0.069946 0.021973 0.0050163 -0.013374 0.09845 0.032593 0.13464 0.041473 0.13708 -0.099182 -0.02565 -0.013023 -0.061066 0.00011545 -0.090088 0.079773 -0.06012 -0.033936 -0.014099 0.0033207 0.012863 0.052032 0.11591 -0.046997 0.011604 0.005085 0.042847 0.0035152 0.02977 0.046875 0.012016 -0.051361 0.030472 0.091248 -0.058105 -0.078125 -0.055298 -0.037354 -0.07959 0.043945 -0.020737 0.048248 0.064819 -0.040344 -0.064453 0.024063 -0.028061 0.10431 -0.0046425 0.066345 0.076965 0.02179 0.034485 0.027252 -0.067871 0.011047 -0.035522 -0.0068665 -0.057922 0.029221 -0.064941 0.074707 -0.04245 0.0014591 0.023178 -0.072449 0.028107 -0.015854
Augmented_Reality 0.05188 -0.052124 -0.061127 0.11475 -0.10242 0.019379 -0.009201 -0.05426 0.030609 0.020721 -0.037506 -0.094971 -0.041229 0.018738 -0.0086136 0.036407 0.060944 0.078186 -0.034851 -0.08728 -0.02356 0.030792 0.013191 0.025101 -0.10547 -0.037476 -0.055237 0.12878 0.0078278 -0.11768 -0.05246 0.029617 -0.079163 -0.0027924 -0.043945 -0.11926 -0.014076 0.045685 0.061279 -0.030685 0.059631 0.046112 0.077698 0.11426 0.06604 -0.15259 -0.0050545 -0.092041 0.034119 -0.0058899 -0.070129 -0.0065575 -0.030518 -0.027283 -0.025925 0.021423 -0.040649 -0.067932 0.043732 -0.059326 -0.068542 -0.035889 -0.041382 -0.023529 -0.084473 0.027283 -0.12122 0.084229 -0.018112 0.013535 -0.055939 0.058594 -0.0032558 0.068848 -0.030792 -0.055115 0.098083 0.0031166 -0.024658 -0.032745 -0.021378 0.012184 0.0084839 -0.023529 0.088501 0.0040016 0.023453 0.10223 -0.049683 0.067383 -0.02948 -0.072449 -0.094421 -0.050964 0.021271 0.066467 0.0055389 -0.032074 0.15259 0.0042114 -0.0024815 -0.041229 -0.056641 0.026733 0.0070534 0.10419 -0.012642 0.033905 0.047485 -0.025818 -0.096497 0.024551 0.028336 -0.02269 0.091797 -0.021072 -0.065308 -0.11981 0.061493 0.018661 0.0016451 -0.073608 -0.11865 -0.0062904 0.1048 0.0057526 -0.11469 0.03038 0.035706 0.025986 -0.065247 0.01088 -0.049866 0.015106 -0.045929 0.020157 0.010773 -0.013748 -0.014214 -0.024872 0.10858 -0.069702 -0.08313 0.031677 0.046265 -0.026505 0.03241 -0.020447 -0.061615 -0.048065 0.026413 -0.033234 -0.031433 -0.052155 -0.020767 -0.09314 -0.03476 0.045929 -0.047943 0.0096741 -0.057709 0.035492 -0.043182 0.020645 0.0168 -0.031586 0.037567 0.04892 -0.1521 0.080139 -0.035431 -0.044189 0.0089111 0.00284 -0.038849 0.033752 0.064758 -0.17847 0.060913 -0.059326 -0.021149 -0.021912 -0.022537 -0.02977 -0.0064354 0.055298 -0.038116 0.031647 -0.035583 -0.041565 -0.029007 0.031158 -0.047943 -0.039825 0.034363 0.10223 -0.034454 -0.051483 -0.011482 -0.043304 0.019699 0.10785 -0.099365 -0.016525 0.010201 -0.019287 0.0001123 -0.10742 -0.076477 0.067871 -0.017166 0.024963 -0.059296 -0.014236 -0.041077 -0.052734 0.050476 -0.066956 -0.085938 -0.04187 -0.04129 0.057953 0.016769 0.030289 -0.030716 0.063049 -0.070007 0.0186 0.018097 -0.046021 0.00014925 -0.024719 0.0029907 -0.0068436 0.01889 -0.0021038 0.043976 -0.0040512 0.081299 0.10266 0.098083 -0.030151 -0.010986 -0.050568 -0.025162 -0.020325 -0.050232 0.10547 -0.08667 -0.091797 -0.0099106 0.0036583 0.028473 0.04538 0.038544 -0.088745 0.018356 -0.015022 0.049805 -0.05014 0.00093222 0.0091248 0.088501 -0.062866 0.036041 0.050873 -0.035706 -0.093506 -0.042664 -0.035889 -0.010269 0.072083 -0.02858 0.022186 0.087708 -0.11249 -0.042572 -0.028687 0.0027065 0.1936 -0.048401 0.05899 0.02681 0.063293 0.01593 0.0081253 -0.05014 -0.0031071 0.10712 0.035492 -0.004673 0.099487 -0.068665 0.00090551 -0.0047569 -0.093018 0.039276 -0.085632 -0.02858 -0.029129
Camping 0.0065575 0.030014 -0.067505 0.10028 -0.075928 0.041656 0.0036793 -0.082031 0.016556 -0.0186 0.11426 -0.13513 -0.030792 0.038788 0.051178 -0.0802 -0.036957 0.020081 -0.0025139 0.0045509 0.053131 0.015396 -0.018204 0.031311 -0.045013 0.035706 -0.11792 0.074585 0.026337 -0.098022 -0.059479 0.051941 -0.0055008 0.022247 -0.072083 -0.13013 0.017822 -0.085754 0.00035119 0.0068779 -0.080017 -0.033722 0.11212 0.011955 -0.026382 -0.15625 -0.026413 0.0062599 0.032013 0.0075493 -0.0033169 -0.093933 0.029495 0.052795 -0.0057831 -0.10883 0.026978 -0.0031738 -0.023254 -0.046936 -0.050781 0.020157 -0.034943 -0.07312 -0.01487 -0.089661 -0.098389 -0.019272 -0.038727 0.0090256 0.078003 0.0047264 0.03891 -0.0025673 -0.10162 0.0033455 -0.031677 -0.098938 0.016876 -0.043945 0.024734 -0.017517 -0.025436 0.023972 0.026443 0.01297 -0.027893 0.050018 0.043335 0.053558 -0.037354 0.024887 -0.057922 -0.036774 0.071167 -0.06604 0.03302 -0.11469 0.055969 -0.097534 -0.035126 0.018585 0.12524 0.062622 0.043854 -0.034637 0.053009 0.019928 -0.041473 -0.0070343 -0.094055 -0.070374 0.064575 -0.0083542 0.06427 -0.047089 0.094421 0.033936 -0.091492 -0.030838 -0.088318 0.061218 -0.042725 0.0024548 0.10461 -0.031097 -0.063049 0.077271 -0.043427 0.088501 -0.081177 -0.084717 -0.010628 0.027222 -0.051544 0.053223 -0.025391 -0.047028 0.043884 0.12439 0.020462 -0.014099 0.07959 -0.019257 0.048157 -0.011955 0.0018396 0.021332 -0.017212 -0.057953 0.1521 -0.0099487 -0.0043221 0.0014858 -0.045227 -0.10944 -0.014366 -0.022614 -0.11127 0.046143 0.027054 0.018051 0.02533 0.049286 0.034668 0.018509 -0.012794 -0.0084534 -0.040161 -0.052521 -0.04361 0.06192 0.010674 -0.0091705 -0.097351 0.00774 0.090637 -0.06842 -0.10162 0.019608 -0.13489 -0.10297 0.049835 0.0073128 0.00914 -0.11414 -0.056091 -0.017593 0.091431 0.10071 -0.056976 -0.02356 -0.020538 0.080811 -0.05307 0.13525 -0.018097 -0.03833 -0.10016 -0.057281 0.053558 0.046082 -0.048065 -0.025848 -0.044373 0.029129 0.06665 -0.062256 -0.041718 0.10559 -0.02948 -0.02005 -0.085266 0.092407 -0.0060463 0.079529 0.00059652 0.056305 -0.038971 -0.025742 -0.013313 -0.044495 0.062683 0.095947 0.0052261 0.023529 0.066467 0.048737 0.00036049 0.0078735 -0.049622 -0.0032425 -0.050873 -0.043732 0.0041924 0.0073433 0.065308 -0.0089417 0.026184 0.025391 0.076416 -0.035034 0.028885 -0.047241 -0.057281 0.0023594 0.033813 -0.0042763 -0.060791 -0.044739 -0.022659 0.039795 0.036011 0.076416 0.070068 0.0017395 0.062744 -0.025787 -0.013016 -0.04187 -0.0035839 -0.081482 0.0050583 -0.01136 0.0055771 0.099243 -0.048981 -0.062134 0.033356 0.009552 0.015549 0.031097 0.00086975 0.11011 0.079895 -0.0027657 -0.003109 -0.058502 0.0063362 -0.014519 0.037659 -0.00027895 0.17053 -0.0066109 -0.0061836 -0.035645 -0.014297 0.11786 0.009346 0.070068 -0.06781 -0.04483 -0.077942 0.039795 0.026779 -0.061523 -0.0033131 -0.009201 0.11383 0.076111
Designers -0.014458 -0.004467 -0.078247 0.13196 0.031647 -0.088684 -0.036224 -0.14465 -0.017624 0.032501 -0.042969 -0.086792 0.025909 0.036133 -0.1134 0.013908 0.086914 0.020157 -0.0085297 -1.7047e-05 -0.026184 -0.022995 0.046936 -0.017715 0.035431 0.02356 -0.021561 0.066833 0.088928 -0.060944 -0.031311 0.059113 -0.02887 0.051117 -0.051453 -0.03717 0.030228 0.049469 -0.052979 -0.040558 -0.037598 0.043884 -0.0059204 0.0401 -0.016251 -0.0625 -0.018188 -0.0069466 0.023605 0.063721 0.042389 0.013832 -0.0018587 0.040253 -0.010941 -0.075073 0.020264 0.0095444 -0.033997 -0.070923 0.012436 -0.029007 -0.077576 -0.048157 0.021072 -0.019119 -0.066345 0.035217 0.023087 0.096069 0.069641 0.060303 -0.0033989 0.027786 -0.058563 0.074219 0.095764 -0.030807 -0.054596 0.056 -0.046295 -0.057953 -0.049835 -0.13696 -0.021896 0.0014172 0.090698 0.14258 -0.023376 0.0037804 -0.073547 0.0075035 -0.10699 -0.021332 -0.024582 -0.064453 -0.0067291 -0.068176 0.056671 -0.045959 -0.1438 -0.01651 0.0012999 0.016693 0.023941 -0.0081482 0.084106 0.045959 -0.0023422 0.075623 -0.041962 0.03093 0.022919 0.019943 0.051422 -0.052979 -0.075928 -0.072937 0.024384 0.025497 0.0033436 0.025375 -0.0042534 0.0038242 0.18408 -0.030106 -0.099304 0.12622 0.026596 0.098267 -0.039917 -0.0066833 -0.055725 0.088989 -0.030304 0.0066872 -0.085815 0.0383 0.06842 -0.058289 0.045197 -0.021744 -0.047394 -0.014259 0.038879 0.0070343 0.059937 0.038391 -0.104 -0.11755 0.067383 -0.055054 -0.0022049 0.075378 0.030197 0.0043068 -0.030731 0.11627 -0.01062 -0.0091019 -0.021103 0.052673 0.1062 0.043518 0.002821 -0.044464 0.035614 0.048065 -0.074219 0.085571 -0.085815 0.050537 -0.023666 -0.05661 -0.024643 0.08728 0.1792 -0.075012 0.0064316 -0.019806 0.033844 -0.010834 -0.065063 -0.025833 0.031952 0.035919 -0.0029793 -0.0017462 0.031311 0.0065842 0.022598 0.011665 0.012482 0.077576 -0.013725 0.091736 0.053223 0.02121 0.06131 -0.023849 -0.032349 -0.000741 -0.013756 -0.089783 -0.048523 -0.0448 -0.025543 0.045471 -0.068237 0.031128 -0.092041 -0.052399 0.017715 -0.016327 -0.079102 -0.0383 -0.064026 -0.059662 -0.0069199 0.026535 -0.02771 0.055023 0.0042801 0.065735 0.032257 0.0058594 0.066223 0.033447 0.01123 0.073425 -0.044586 0.057373 -0.069214 -0.021912 0.11511 0.039398 0.013237 0.015411 0.078247 0.0074425 0.14734 -0.063721 0.010139 -0.026672 -0.00084782 0.0052452 -0.019577 0.026123 -0.0054436 -0.046387 -0.055908 0.0578 0.065125 0.071716 0.092346 -0.006916 0.069702 0.010696 -0.053131 -0.018417 0.083008 0.034058 0.0035439 -0.060852 -0.0023174 0.056885 -0.070618 -0.012817 0.03656 -0.014954 -0.10089 0.085266 -0.047089 0.12695 0.14038 -0.029388 -0.0018291 0.049835 0.049133 0.14722 -0.12573 0.068481 0.08252 -0.0020447 0.035675 0.075317 -0.031067 0.098022 0.064026 0.024719 -0.024811 0.023941 -0.025375 0.085388 0.013794 -0.077271 0.016846 0.032898 0.017151 0.043793
Engineers -0.058472 -0.041809 0.034332 0.10651 -0.068481 -0.026382 0.039551 -0.10638 0.029953 -0.036926 -0.0070381 -0.080994 -0.046173 -0.043518 -0.059998 0.072144 0.0060349 0.10046 0.085022 -0.061035 -0.031647 -0.012589 0.0074158 0.045563 -0.093384 0.063171 -0.088745 0.043823 -0.055511 -0.0080185 -0.0091553 -0.082153 -0.052429 -0.050842 -0.00914 -0.0068321 0.010452 0.035919 0.062439 -0.0036297 -0.0085831 0.019196 0.07489 0.15991 -0.015656 -0.028091 -0.014381 0.017334 -0.046539 0.050842 -0.10876 -0.001585 0.0215 -0.041779 -0.019379 0.044006 0.0025043 -0.13293 -0.0035343 -0.099792 -0.043335 -0.014923 -0.017609 -0.12695 -0.057983 -0.011436 -0.099915 0.082703 -0.05188 -0.0096588 -0.063354 -0.039368 0.004982 0.012032 -0.085815 -0.010559 -0.00037885 0.040375 -0.043365 -0.010239 -0.088013 0.045868 0.0025539 -0.018768 0.062927 -0.0037098 -0.067627 0.14124 -0.040314 0.024063 -0.00016308 -0.067322 -0.12781 -0.017273 0.02182 0.058868 0.078857 -0.062622 0.074524 -0.083801 -0.013512 -0.00023246 -0.042084 0.022461 0.032715 0.0033512 -0.074707 0.085693 0.099609 -0.00914 -0.023087 -0.0076408 0.001606 0.029236 0.059052 0.015793 -0.03598 -0.028275 0.13538 0.0061836 -0.069153 -0.038086 -0.039673 -0.028305 0.08905 -0.015793 -0.085144 -0.017731 -0.030823 0.064819 0.023056 -0.07312 -0.08374 -0.083801 -0.0022831 0.03418 -0.061432 -0.041626 0.00034785 0.010574 0.033203 -0.074036 -0.042145 0.041626 -0.024857 -0.00043941 0.015457 0.072571 -0.025879 -0.081665 0.10522 -0.088257 -0.060852 0.035736 -0.074768 -0.063782 -0.020782 0.026794 0.039856 -0.1048 -0.0033417 0.062927 -0.0094223 -0.0039558 0.043365 -0.038361 0.062286 -0.090942 -0.044647 0.017288 -0.071228 0.02562 -0.039734 -0.021927 0.072021 -0.016968 0.055756 -0.13977 -0.030746 -0.097778 -0.023529 -0.09021 -0.031342 -0.09845 0.060211 0.056305 0.011635 0.010033 0.077759 0.080444 0.031738 0.042908 -0.0092392 0.021255 -0.016037 0.076843 0.0011215 -0.12939 -0.079102 -0.095642 -0.099365 0.086792 0.018631 -0.026016 -0.15881 -0.067505 0.072083 -0.091431 -0.037689 0.053833 -0.0031624 -0.075378 -0.030945 0.014908 -0.031403 0.060547 0.034576 -0.0047836 0.035492 -0.032684 -0.011749 -0.082825 0.08075 -0.056091 -0.0095901 -0.04895 0.047058 -0.020142 -0.015137 -0.018387 0.040283 -0.033936 -0.03595 -0.021255 -0.031036 0.028 0.031586 0.0019684 0.078552 0.015343 0.11743 -0.032623 -0.034912 -0.0096359 -0.05423 0.0084305 0.011086 0.032349 -0.10944 -0.11188 0.025848 -0.022232 0.028992 0.043793 0.045105 -0.11639 -0.037964 0.0043983 -0.038544 0.044922 0.059296 -0.039429 0.022339 0.0020657 0.039825 0.073608 0.01133 -0.056549 -0.078735 -0.072449 -0.079956 -0.056976 0.034485 -0.021988 0.074219 -0.028748 -0.037506 -0.049896 -0.074402 0.12805 -0.055115 0.064819 0.021667 0.10278 -0.071289 -0.015656 -0.0027523 0.030548 -0.014282 0.077881 -0.11078 0.026566 -0.089661 0.062988 0.010193 -0.033508 0.0056877 -0.032898 0.042297 0.0076103
Hiking -0.019073 0.01368 -0.018982 0.086487 -0.023102 0.016693 0.044769 -0.016098 0.012955 0.021301 0.052368 -0.080383 -0.072937 0.022705 0.054291 0.012886 -0.019287 0.053864 0.028137 -0.021469 -0.054382 0.05719 -0.072388 0.0047569 -0.043823 -0.039185 -0.14941 0.064453 0.045166 -0.070129 -0.0033512 0.045776 -0.0004096 -0.012306 -0.091614 -0.15686 0.046326 -0.036316 0.043579 -0.028946 -0.042297 -0.03537 0.096985 0.0095673 -0.038574 -0.10486 -0.0159 -0.038086 -0.017487 0.026199 -0.060669 -0.062744 0.0046539 0.092957 0.01918 0.010696 -0.014191 -0.10303 -0.022369 -0.067017 -0.092102 0.0055466 -0.016144 -0.032806 0.028732 -0.079773 -0.09137 0.0084381 -0.055206 0.026733 -0.03418 -0.030304 -0.046692 -0.026566 -0.10016 -0.034241 0.019745 -0.049255 0.051697 -0.019028 0.0064659 0.038696 -0.018723 -0.012428 0.023697 0.10278 -0.026642 0.026184 0.093323 0.030197 -0.072632 0.0017376 -0.09137 -0.013283 0.0059776 -0.046844 0.015854 -0.070435 0.10693 -0.089172 -0.095703 -0.046783 -0.00092936 0.021973 0.13342 0.046844 -0.032288 0.016678 0.041565 -0.024292 -0.088989 -0.072021 0.041077 -0.038177 0.12219 0.011581 0.082031 -0.04422 -0.022079 0.034058 -0.052612 0.0078201 -0.035553 0.077759 0.089172 -0.038116 -0.11572 0.062012 -0.0017042 0.11517 -0.15039 0.046356 -0.0081253 -0.034607 -0.029938 -0.023819 -0.054321 -0.0075951 -0.032806 0.21118 0.047394 -0.05661 -0.031036 0.013458 0.014946 0.037109 -0.023849 0.044739 -0.067078 -0.10516 0.15125 -0.086731 -0.035675 0.050415 -0.044312 -0.10229 0.048096 -0.040863 -0.049408 0.028519 -0.022675 0.046082 0.053528 0.032867 0.024139 0.0051613 0.088623 0.016556 -0.10168 0.026703 -0.091248 0.043976 -0.019211 0.050354 -0.039551 0.0090714 0.042603 -0.060486 -0.026886 -0.084717 -0.15662 -0.10187 -0.001606 -0.047546 0.02449 0.047546 0.0023746 -0.063782 0.070618 0.046234 -0.009079 -0.040222 -0.019165 0.031342 -0.021454 0.12189 -0.01709 -0.0038414 -0.02417 -0.014648 0.04892 0.047089 -0.061768 -0.01506 0.013206 0.064087 0.010979 -0.096008 -0.10303 0.081848 -0.051147 -0.038788 -0.076294 0.020523 -0.093384 -0.017807 0.076538 0.053162 -0.049377 -0.044464 0.012985 -0.0080566 0.024826 0.037689 -0.042755 -0.0087738 0.044769 0.056854 0.0047035 0.063965 -0.017181 -0.015091 -0.0044441 -0.027191 0.01709 0.079102 0.027069 -0.010544 0.088745 0.023605 -0.011131 -0.076843 0.017792 -0.045776 -0.0083389 -0.042084 -0.028061 0.038116 -0.1261 -0.0088501 0.025558 -0.025421 0.0029736 0.13452 0.10272 -0.02298 0.041351 -0.063904 0.0015697 -0.029541 -0.045105 -0.049438 0.058624 -0.017029 0.056641 0.068054 -0.0044937 -0.075806 -0.020447 -0.0099258 -0.014656 0.021042 -0.0028286 0.063477 0.042877 -0.011642 0.01519 -0.090515 -0.044495 0.042297 0.066711 -0.015045 0.0849 0.033936 0.0058746 -0.072327 -0.070068 0.089294 0.03476 0.10913 0.001976 0.019455 -0.087036 0.059601 -0.022247 -0.040466 -0.024796 -0.028137 0.11658 0.089844
Open_Source 0.030655 -0.080872 -0.038727 0.090271 -0.088135 -0.0081787 0.046997 0.042267 0.019241 0.069885 -0.064331 -0.062866 0.03476 -0.012711 -0.072083 0.021698 0.074219 0.056396 -0.019516 -0.050842 -0.056244 0.074707 0.080933 0.015472 0.0060883 -0.008461 -0.043121 0.054199 -0.0077858 -0.061584 0.01252 -0.0045776 -0.012093 -0.078125 -0.011055 -0.057312 -0.0092087 0.0046997 0.085693 0.038574 0.054657 0.063477 0.081482 0.11243 -0.047058 -0.035767 -0.051422 -0.10095 -0.025635 0.031464 0.0056267 -0.02832 -0.062317 0.012604 -0.018127 0.051758 0.03241 -0.058777 -0.054108 -0.11981 0.027603 -0.023193 -0.032104 0.043274 -0.065552 -0.090027 -0.059998 0.0024166 -0.034698 0.0076408 0.0052948 0.058563 -0.037415 -0.077332 -0.036743 -0.071533 0.050385 -0.042206 0.03952 0.030426 -0.019608 0.0060844 -0.048889 -0.015839 0.033905 -0.029892 0.1109 0.068176 0.0094147 0.037262 -0.022339 -0.034698 -0.080261 -0.081177 0.019714 -0.0013552 0.024124 -0.060577 0.087891 -0.059875 -0.036469 -0.048706 -0.013626 0.039215 0.0075607 0.094421 -0.097778 0.096741 0.027435 -0.034882 -0.071655 -0.052704 -0.026825 -0.033295 0.050751 0.042114 -0.014832 -0.13123 0.11444 0.0083618 -0.066345 -0.01796 -0.080872 -0.054413 0.08252 -0.051086 -0.094177 0.12347 -0.010612 -0.096863 -0.039734 0.028687 -0.042572 0.0016909 0.0039978 -0.0013819 -0.081421 -0.082947 0.0054588 0.015717 0.033081 -0.071899 -0.019867 -0.022858 -0.029282 -0.019806 0.077759 0.020767 -0.052368 -0.1189 0.049683 -0.12073 -0.10272 0.013229 -0.028183 -0.060944 -0.0067711 0.036041 -0.069458 -0.0050468 -0.038452 0.066223 -0.081177 0.018555 0.028229 -0.094421 0.02037 0.083435 -0.10645 0.045013 -0.036285 -0.0086441 0.062012 -0.045654 0.040222 -0.0071526 0.16833 -0.14441 0.079163 -0.048248 -0.019073 -0.026016 -0.0020275 -0.046509 0.033112 0.042694 -0.016998 0.057312 0.053589 -0.062347 -0.0064163 0.017548 -0.073608 0.00068235 -0.0094376 0.09967 -0.094238 -0.039948 -0.071289 -0.047821 -0.063904 0.019196 0.046509 0.01741 -0.070923 0.028702 0.018448 -0.030228 -0.075439 0.057892 -0.04129 0.01799 -0.050507 0.063721 -0.10193 0.0020714 -0.0049782 0.028885 -0.072876 -0.12036 -0.087952 -0.0013723 0.11871 0.0085983 -0.013733 -0.035889 0.016418 0.045227 0.13086 -0.010056 -0.053406 -0.075256 -0.056763 -0.13049 -0.027893 -0.022675 0.16089 -0.0495 0.040863 0.033234 0.029526 0.0042534 -0.016037 -0.039124 -0.023926 -0.083191 -0.017639 0.035461 -0.00048113 -0.0043106 -0.084229 0.088989 0.0086517 0.040863 0.055359 -0.11206 -0.055298 0.042114 -0.06781 -0.021072 0.02063 0.047516 0.06131 -0.0015936 -0.017639 -0.008873 -0.11133 -0.053406 -0.092529 -0.11871 0.017731 0.00053072 -0.043365 0.054382 0.070251 0.020905 -0.03479 -0.052887 -0.046997 0.10986 -0.037842 0.087158 -0.026886 0.065918 0.047363 -0.032928 0.05719 0.018845 0.018127 0.065979 0.049622 0.0098648 -0.022751 0.057495 0.045624 -0.046051 0.018417 0.020294 -0.021545 0.070251
Art_Galleries -0.033081 0.0079651 -0.028015 0.1593 -0.0028839 0.0064926 0.0070877 -0.084229 -0.0014 0.048004 -0.060455 -0.11682 -0.050507 -0.04776 0.040588 0.042572 0.061798 0.089111 0.044098 0.022125 -8.0287e-05 -0.05188 0.092163 0.0055122 -0.041504 0.062744 -0.07843 0.066467 -0.015495 -0.059906 0.0060463 0.052124 -0.059448 -0.058716 -0.042816 -0.05896 -0.053284 0.059448 0.067505 -0.018021 -0.019806 0.0060043 0.10748 0.071838 0.03299 -0.0063667 -0.046234 -0.022568 -0.027435 0.047333 -0.036041 0.028366 -0.0019493 0.029373 -0.078003 0.014771 -0.031403 -0.0074768 -0.017395 -0.12756 0.024445 0.01944 -0.088867 -0.050568 -0.037292 -0.112 -0.11011 0.022476 -0.00088692 0.08551 0.026871 0.12939 -0.0012579 0.0092545 -0.09552 0.04007 0.019348 0.036285 0.010284 -0.025757 -0.092285 -0.034149 -0.036163 -0.090271 0.023926 0.065857 -0.032257 0.10577 -0.029968 0.025452 -0.031616 -0.069275 -0.10724 -0.04599 0.00017834 0.028091 -0.0093994 -0.06543 0.036011 -0.060608 -0.060944 0.0070496 -0.01152 -0.020523 0.024139 0.015762 -0.067444 0.073059 0.058624 -0.070129 -0.077454 -0.0048943 -0.0076218 -0.018616 0.12256 -0.016159 -0.03418 -0.14514 0.045959 0.0079651 -0.01226 -0.045227 -0.04718 0.020065 0.1499 -0.035828 -0.14514 0.060638 0.063599 0.041199 -0.069275 -0.025665 -0.037354 -0.0040054 -0.075684 0.0099869 -0.14392 0.0025787 0.067932 -0.023361 0.073181 -0.085327 -0.065186 -0.035736 0.045319 0.070862 0.0016441 0.055023 -0.025024 -0.077209 0.089783 -0.054199 -0.064209 0.027267 -0.018814 -0.080139 -0.0063133 0.065369 -0.087097 -0.026978 -0.029877 0.08429 -0.017822 -0.017807 0.059937 -0.077271 0.059113 -0.0095291 -0.062561 0.070801 -0.12769 0.057831 0.014435 -0.031158 -0.039337 0.0096512 0.14368 -0.14221 0.073364 -0.060486 0.03537 -0.041443 -0.025085 -0.083008 0.02887 0.061707 0.019501 -0.0037899 0.048615 0.025284 0.037628 0.0044632 -0.022537 0.076782 -0.01503 0.003685 0.02829 -0.018738 -0.023682 -0.021072 -0.057587 0.078003 -0.010414 -0.057922 -0.002718 -0.0087204 0.0030231 -0.028168 -0.080566 0.068665 -0.010727 -0.031525 -0.082764 -0.020569 -0.10236 0.027695 -0.050751 -0.0019159 -0.034149 -0.027298 -0.02356 0.0040512 0.057953 0.064758 0.027084 -0.0051384 0.031647 0.074829 0.0084076 -0.051971 -0.039124 -0.034088 -0.093018 0.014091 0.012909 0.018692 0.13318 0.03891 0.027176 0.072083 0.17676 -0.011353 0.018387 0.0057793 -0.068298 0.035828 -0.057739 0.087402 -0.07959 -0.030731 0.026657 0.029831 0.091187 0.05127 0.089417 -0.077271 -0.041962 0.0071564 0.065369 0.0058098 0.020981 -0.029572 0.04599 -0.050903 0.032593 0.046631 -0.048981 -0.047668 -0.007576 -0.069336 -0.056702 0.05307 -0.0023289 0.099792 0.11578 0.035034 -0.041351 -0.0034294 -0.019318 0.1405 -0.024429 0.010063 0.063049 0.08606 0.0061226 0.048645 -0.035492 0.032104 0.026642 0.038422 -0.014099 0.074036 -0.041962 0.077881 0.0084152 -0.054352 -0.022476 -0.036713 0.0077477 0.035309
Barbeque_Food -0.061584 0.016052 0.011116 0.14355 0.013329 0.065918 0.02449 -0.082581 0.021255 0.098145 -0.035278 -0.080811 -0.036804 0.022049 -0.073669 0.068115 -0.01339 0.044403 -0.036987 -0.10376 0.077026 0.016342 0.077942 -0.044464 -0.055847 -0.011948 -0.061829 0.084229 -0.078247 -0.014351 -0.010292 0.028732 -0.030334 -0.038055 0.024307 -0.043854 0.11755 0.02861 0.05423 0.06366 -0.026871 -0.10779 0.061066 0.068298 0.026703 -0.13098 -0.12268 -6.9439e-05 0.045807 0.001132 -0.08667 0.064453 -0.020874 0.024429 0.0048676 0.015396 0.020142 0.034882 -0.045105 -0.068665 -0.096985 0.055634 -0.094421 -0.00313 0.0097351 -0.13098 -0.0672 -0.12219 0.067017 0.03418 0.090393 0.032898 0.05545 0.017303 -0.027359 -0.095398 -0.035614 -0.045807 0.0049973 -0.072693 0.0099716 -0.049805 0.030945 -0.031921 0.046265 -0.011391 -0.042786 0.18188 -0.0037327 -0.02536 -0.1355 -0.070007 -0.022598 -0.0047264 -0.014198 0.030151 0.024292 -0.050812 0.052368 -0.020096 -0.032684 0.040527 0.074097 -0.0084915 0.0093002 -0.047638 0.053711 0.02327 0.044159 -0.011383 -0.062042 -0.081177 0.018402 -0.005043 0.0013037 -0.030914 -0.022202 -0.033478 -0.047821 -0.044403 0.0072021 -0.05835 -0.062683 0.0031185 0.034698 0.0014353 -0.085571 0.048004 0.035706 -0.024445 -0.09613 -0.0016994 -0.029022 0.063171 -0.082336 0.087708 -0.01796 -0.065613 0.13098 0.052673 0.025406 -0.042664 -0.049744 -0.077148 -0.01091 0.021469 -0.029083 0.00042915 -0.067139 -0.086121 0.030869 -0.032196 -0.035248 0.054718 -0.041107 -0.085693 -0.050873 -0.082886 -0.17114 -0.033691 -0.039246 0.053009 0.025879 0.01619 0.018356 -0.073608 0.036316 -0.0041733 -0.01712 0.045563 -0.11237 0.082458 0.01458 -0.045471 -0.11328 -0.016312 0.085938 -0.001255 -0.019974 -0.036041 -0.0094528 -0.091248 -0.0029774 -0.059875 0.025742 -0.054657 -0.046234 0.014175 0.038788 0.075684 0.022903 0.068298 -0.055084 0.0084534 0.018753 0.16589 -0.032074 0.024216 -0.023132 -0.057129 -0.015839 0.012016 -0.052338 0.034485 0.013397 -0.022278 -0.014023 -0.082825 0.0013456 -0.041901 -0.041626 0.021042 -0.10986 0.057159 0.025574 0.025726 -0.021133 -0.0070305 0.018219 -0.026123 -0.091309 0.019821 0.023514 0.013565 0.040955 -0.0089722 0.042572 0.033264 -0.053101 0.011803 0.010918 -0.045044 0.020798 0.081177 0.083069 -0.10284 0.10809 0.0075417 0.0054016 0.037292 0.077148 0.023087 -0.011826 -0.029846 -0.060455 -0.067017 0.042175 0.1416 0.0047493 -0.033752 -0.0059776 0.06076 0.062134 0.051575 0.15845 -0.062927 -0.027054 0.00040078 -0.01078 -0.071045 0.06781 0.058533 0.011292 -0.10565 0.022202 -0.04422 -0.041412 -0.042786 -0.012367 -0.026672 0.0045013 0.033234 -0.0032921 0.0083389 0.066833 -0.11243 -0.050842 0.029633 -0.085205 0.027847 0.029083 0.016235 0.0085449 0.019913 -0.025223 -0.008812 -0.0058594 0.12549 -0.08606 0.091858 -0.0021133 -0.020889 -0.078613 0.073242 0.029312 -0.12286 0.01358 -0.038818 0.018951 0.069763
Bourbon -0.048981 0.019104 0.0031624 0.13818 -0.016449 0.029373 0.013115 -0.14441 0.056641 0.11353 -0.062988 -0.16431 0.022125 -0.019501 -0.056763 0.067444 0.010315 0.12451 0.015175 -0.11273 0.035339 0.024673 0.028717 -0.04834 -0.021194 0.082458 -0.047363 0.13525 -0.01796 0.0023651 -0.0030861 0.01236 -0.057312 0.060028 -0.038513 0.024002 -0.018433 -0.089661 0.0092926 0.029083 -0.018372 -0.011948 0.10925 0.042969 0.051971 -0.078247 -0.074463 -0.025146 -0.0089722 0.019043 -0.13635 0.033905 0.013512 -0.0054398 -0.034088 0.029266 -0.021805 -0.064453 -0.094055 -0.094727 -0.020737 0.00011903 -0.06192 -0.025894 0.0079651 -0.037994 -0.051636 -0.10333 0.027405 0.011818 0.024948 0.01593 0.046875 -0.0075951 -0.094421 -0.043365 0.008606 0.043762 0.022308 -0.013939 -0.095093 -0.12189 -0.058014 -0.058014 0.029968 0.034698 -0.052643 0.13574 0.011192 0.054871 -0.083252 0.050995 -0.016098 -0.018372 -0.0030327 0.068176 0.029083 -0.033112 0.069702 -0.041473 -0.052399 0.050812 0.067078 -0.0087128 0.005619 -0.065308 0.027588 -0.014053 0.019424 -0.066345 -0.023209 0.02774 -0.061493 -0.013885 -0.020386 0.020035 -0.024902 -0.061707 0.031555 -0.046326 -0.067627 -0.025467 0.030533 0.00016677 0.12341 -0.011093 -0.055267 -0.0020905 0.020447 -0.013481 -0.062988 0.066345 -0.019348 0.070374 -0.013474 0.11176 -0.013939 -0.069214 0.063538 0.0069084 0.059479 -0.12793 -0.078674 -0.049805 0.034485 0.026398 0.065063 0.047791 -0.044159 -0.074341 0.092834 -0.039551 -0.019699 -0.04007 -0.048553 -0.086243 -0.025253 0.014122 -0.16882 -0.024368 -0.028625 -0.016205 0.0037937 0.04071 0.033722 -0.10803 0.049591 0.021851 -0.034973 0.021439 -0.1532 0.018707 0.040131 0.018646 -0.066223 -0.045441 0.090942 -0.10345 -0.044342 -0.043152 -0.023117 -0.0083313 -0.05011 -0.026535 -0.020111 0.05365 0.039917 0.034332 0.04361 0.029465 0.018982 0.026779 -0.029373 -0.029694 0.022186 0.13611 -0.033813 -0.0096664 -0.0021133 -0.022385 -0.017044 -0.0072594 -0.00084066 0.045135 0.032928 0.0010281 0.026718 -0.05957 -0.010094 0.013222 -0.14551 0.0029583 -0.089966 0.037567 -0.033722 -0.017059 -0.064209 -0.02359 0.004631 0.033386 -0.085144 -0.00020492 0.030472 0.031372 0.089966 0.066833 0.058533 0.061646 0.0032597 0.052032 -0.030579 -0.081177 -0.052246 0.090881 0.048187 -0.055573 -0.019928 -0.018219 0.067444 -0.0085449 0.11517 0.03537 0.000844 0.020599 0.039825 0.032166 -0.016449 0.1311 -0.040375 -0.031586 0.013847 0.021362 0.12878 0.024765 0.088013 -0.062347 -0.057251 -0.027878 0.0031395 -0.073853 0.035706 0.033569 0.015518 -0.015427 -0.030396 -0.069946 -0.058197 -0.041199 -0.033234 -0.023941 -0.013268 0.050201 -0.036682 0.047089 0.13989 -0.05127 -0.059082 -0.037109 -0.097717 0.10077 -0.028595 -0.049622 0.096436 -0.01075 0.024872 -0.038666 -0.059692 0.090515 -0.0071106 0.10406 0.05658 -0.038513 -0.05481 0.066772 -0.0215 -0.097412 0.033051 -0.092407 0.049133 0.052856
Food_Trucks -0.11237 0.010376 0.012726 0.19238 -0.09259 0.0036526 0.0016499 -0.046265 -0.062439 0.046143 -0.019791 -0.08429 0.013962 -0.030487 -0.032166 0.066772 -0.023331 0.099426 0.04245 0.024582 -0.0084229 -0.032654 0.047424 -0.010811 -0.071838 0.025711 -0.10388 0.086609 -0.026108 -0.02771 -0.0020638 0.0042915 0.0068665 0.016327 -0.055664 -0.0013647 0.055267 -0.0078201 0.038086 -0.02832 -0.03096 -0.01976 0.077209 0.096375 0.016891 -0.096741 -0.081543 -0.011589 0.011009 0.085266 -0.042877 0.045471 0.063904 -0.0039711 -0.047638 0.028702 0.030228 -0.026505 -0.007637 -0.12054 -0.079468 0.045807 -0.052582 -0.056122 -0.0027351 -0.17322 -0.13062 -0.086609 -0.041351 0.032959 0.093323 0.097351 -0.046753 -0.0027428 -0.10028 -0.035187 -0.073608 -0.026093 -0.029846 -0.090515 -0.038513 -0.03421 -0.045959 -0.10181 0.0058861 -0.037445 -0.09021 0.12573 0.012184 -0.053009 -0.060944 -0.050354 -0.093384 -0.03772 -0.045563 0.049988 -0.010551 -0.072571 0.1051 -0.055878 -0.053467 0.040192 0.019104 0.050629 0.023453 -0.019745 -0.011772 0.0066795 -0.031586 0.0034428 -0.068909 -0.029053 0.023956 -0.038757 0.073242 -0.030258 -0.028702 -0.07074 -0.0082092 -0.066223 -0.034271 -0.048096 -0.036072 -0.02095 0.11841 -0.029129 -0.11676 0.026794 0.018448 -0.0074615 -0.10291 0.0025196 -0.01712 0.046967 -0.071716 0.10248 -0.073792 -0.093872 0.11707 0.023743 0.024567 -0.10046 0.017746 -0.070374 -0.0060425 -0.01416 0.028641 0.019104 -0.01796 -0.014786 0.070068 -0.071838 -0.075073 0.019363 -0.014755 -0.042267 -0.03772 0.062042 -0.11267 -0.029449 -0.030975 -0.0026684 0.031769 -0.030853 0.024506 -0.10468 0.075989 0.00096941 -0.054108 0.050049 -0.146 -0.015045 0.061157 -0.033142 -0.08313 -0.015823 0.089417 -0.10468 0.065308 -0.012978 -0.045044 -0.10345 -0.022858 -0.066528 0.036011 -0.032196 0.011833 0.0086212 0.016266 0.044434 0.010994 0.078003 -0.0095062 0.0068207 0.0061493 0.068115 -0.057007 -0.022522 -0.062927 -0.019989 -0.070068 0.011665 -0.027054 -0.077148 -0.0083008 -0.0056839 0.018982 -0.036041 -0.029694 0.073242 -0.050659 0.051208 -0.10443 0.036896 -0.049835 0.030579 -0.0019779 -0.058105 -0.083435 -0.010094 -0.0401 0.0040512 0.091614 0.044525 -0.00094032 0.0055809 0.0040169 0.068787 0.011215 -0.019882 -0.043488 -0.092896 -0.026733 0.071716 0.056061 -0.032715 0.065247 0.026016 0.017151 0.058838 0.12573 0.0057983 0.021439 -0.013336 -0.077148 -0.015167 -0.023315 0.072632 -0.029358 -0.048737 0.060791 0.066345 0.13416 0.035034 0.066833 -0.13062 -0.024826 -0.046783 0.0087891 -0.052063 0.019226 0.10468 8.9109e-05 -0.046173 0.05542 -0.022766 -0.033508 -0.033661 -0.018997 -0.023849 -0.075012 0.022552 0.025558 0.019562 0.087891 2.2292e-05 -0.072815 -0.052795 -0.069824 0.0354 0.010277 0.02092 -0.0014982 0.067444 -0.024124 -0.037537 -0.065613 0.11548 -0.054321 0.10168 0.025452 0.019852 -0.041321 0.063538 0.065125 -0.054504 -0.057251 -0.047577 -0.057037 0.0081406
EDM -0.021545 -0.012695 -0.012558 0.10132 -0.058685 -0.035339 -0.074524 -0.085083 -0.059662 0.041962 -0.055145 -0.091492 0.084045 -0.010071 0.031311 0.0073776 0.05658 0.083862 0.022949 -0.050262 -0.012161 0.081055 0.036346 0.018539 0.013451 0.066223 -0.060547 0.11041 0.012955 -0.071167 -0.025131 -0.017334 -0.072815 0.064331 -0.047668 -0.078918 -0.034302 0.056427 0.063171 -0.032867 -0.012543 -0.040497 0.090149 0.077881 0.00284 -0.12952 -0.0017061 -0.11169 -0.037109 0.10577 -0.021591 0.080444 -0.0021896 0.021957 0.078918 0.011154 0.01561 0.015388 -0.0053177 -0.1167 -0.0015774 0.03302 -0.1189 -0.061768 -0.031677 -0.16309 -0.057343 0.047241 -0.020615 0.050568 0.063721 0.013855 0.012733 0.019806 -0.10516 0.031342 0.028381 -0.019821 -0.012451 -0.083252 -0.10425 -0.088501 -0.017365 -0.03244 -0.040405 0.011116 -0.0058212 0.072021 -0.019272 -0.0064049 -0.060699 -0.061035 -0.038391 -0.045898 -0.078186 0.079712 0.053253 -0.029053 0.10809 -0.06897 0.029968 0.027145 0.0094223 0.03653 0.040436 0.039459 -0.027039 -0.046844 0.043121 -0.1012 -0.038727 0.038696 -0.0067024 -0.001811 0.067322 0.045776 -0.028549 0.0024185 0.10388 -0.0298 -0.03299 -0.050568 -0.046631 0.010384 0.14771 -0.067383 -0.11969 -0.020859 0.075134 -0.066406 -0.011879 0.008873 0.066406 0.078369 -0.028885 0.054565 -0.03186 0.048279 -0.0077477 0.11237 0.095947 -0.039551 -0.10132 0.089844 0.046936 0.043488 0.09668 0.12903 -0.091614 -0.0092392 0.11182 -0.083923 -0.025558 0.055389 -0.029785 -0.098022 -0.030106 0.050415 -0.056366 -0.1048 -0.028091 0.036346 -0.03714 0.04306 -0.002615 -0.064087 -0.0014038 -0.048126 -0.05011 0.031525 -0.041962 0.0033112 0.11456 0.026489 -0.08783 -0.10382 0.065369 -0.17102 0.017151 -0.058105 0.07135 0.01561 -0.0020237 -0.046143 0.026138 0.042816 -0.016602 -0.0401 0.078918 0.026245 -0.014839 -0.0159 -0.0096359 -0.0056229 0.066467 0.054779 0.0058289 -0.022369 0.017715 -0.044678 -0.0037766 0.11261 -0.023972 -0.048126 -0.034119 -0.093567 0.073914 -0.0076599 -0.07605 0.0383 -0.01947 -0.019104 -0.10425 -0.058685 -0.053284 -0.07019 0.01564 -0.00091457 -0.045105 0.024475 -0.06076 0.022919 -0.0052261 0.023392 0.02623 0.01593 0.027893 0.020004 0.0041122 -0.010056 -0.005928 -0.053314 -0.077881 0.042542 0.0045624 0.001173 0.024918 0.020676 0.067444 -0.0017567 0.11969 -0.055908 -0.046967 0.01564 -0.0513 -0.022751 -0.0070534 0.094482 0.064575 -0.036224 -0.0056 0.05957 0.054626 0.08429 0.080811 -0.047668 -0.0037861 0.031311 0.010704 -0.051636 0.052216 -0.00098038 0.023483 -0.064575 -0.021835 0.035339 -0.14368 -0.031616 -0.040955 -0.024536 -0.036407 -0.039032 0.073914 0.080933 0.066223 -0.024612 -0.06781 0.037506 -0.028564 0.090027 -0.057281 0.051575 0.023865 -0.025208 0.025528 -0.024612 0.029388 -0.0031643 0.012901 0.11902 -0.048279 0.0077744 -0.092834 0.079895 -0.021011 -0.05249 -0.0078659 0.0083313 0.034485 0.052277
Lean_Startups 0.043945 0.013039 -0.065735 0.10016 -0.05304 -0.0061226 0.014053 -0.032837 0.093994 0.015503 -0.031006 -0.030212 0.073975 -0.048279 0.0076866 0.06665 0.011749 0.062012 -0.0071678 -0.035706 -0.021027 0.01004 0.0025425 -0.031281 -0.064819 0.058533 -0.097412 0.086182 -0.064026 -0.075806 -0.013977 -0.0063438 -0.080872 -0.041168 0.040314 -0.046722 -0.026123 0.04425 0.068298 0.011238 0.042786 0.069214 0.075928 0.027481 -0.01429 0.033752 -0.059052 -0.039215 0.062012 0.06366 -0.061676 0.015472 -0.080444 -0.038544 -0.0060768 0.092651 -0.01651 -0.027588 -0.035339 -0.11731 0.013519 -0.010017 -0.11328 -0.070618 -0.014954 -0.146 -0.059052 0.028412 -0.019684 0.048096 0.019012 0.038635 0.0059891 -0.05365 -0.1311 -0.015121 -0.028473 0.066467 0.045441 0.016739 0.00035954 0.060944 0.0066109 -0.07843 0.0046883 -0.012169 0.064331 0.14551 0.017075 -0.019119 0.033783 -0.10913 -0.14783 -0.013298 -0.03418 -0.046234 0.053375 -0.012871 -0.03009 -0.081909 -0.034485 -0.078918 -0.0050507 -0.0084915 0.050995 -0.039124 -0.076477 0.047668 0.016266 -0.011322 -0.01326 -0.052887 0.017517 0.018814 0.14441 0.012817 -0.012123 -0.08728 0.12128 0.032562 -0.09082 -0.0019665 -0.011848 0.031952 0.057312 -0.062622 -0.022614 0.086487 -0.018677 0.080139 -0.089111 -0.096375 -0.023209 0.056061 -0.025879 0.052063 -0.031158 -0.029602 0.048126 0.026627 0.12378 0.0040932 -0.04776 -0.016159 0.059784 0.034729 0.036011 0.0056992 -0.077637 -0.039368 0.14783 -0.076965 -0.068909 0.054779 -0.0088348 -0.061493 -0.09198 0.013741 -0.080505 -0.032013 0.0012426 0.0026226 0.10388 -0.0052452 -0.023254 -0.094543 0.11749 -0.048798 -0.02182 0.053955 -0.054352 -0.084045 -0.044861 -0.074158 -0.0049629 0.024246 0.12585 -0.15747 -0.043488 -0.060791 -0.0026627 -0.080322 -0.0054626 -0.017471 0.07373 0.019806 -0.0020351 0.01403 0.01004 0.041565 0.038361 -0.0092163 0.0020008 -0.064209 -0.066772 0.078857 -0.074158 -0.11407 0.0057487 -0.10559 -0.019485 0.038025 -0.0064964 0.025101 -0.0074272 -0.079346 -0.073486 -0.026581 -0.10834 0.029007 -0.070068 0.047668 -0.087463 -0.0065308 -0.12463 0.091064 0.025772 0.022125 0.048096 -0.01223 -0.032013 0.049957 0.030807 -0.054932 0.033691 0.025696 0.037445 0.012672 0.052185 -0.035675 -0.049164 0.0059471 0.043945 -0.096436 -0.017899 0.014313 -0.039124 0.047699 0.022476 0.020004 0.066956 -0.025848 -0.052094 -0.061584 0.011497 0.0053558 -0.038605 0.077148 -0.0060844 -0.01651 0.0050201 -0.030106 0.017319 0.082642 0.064758 -0.10992 0.019348 -0.044037 -0.053955 -0.048615 0.071411 0.044037 0.0016203 -0.0094528 -0.041168 0.10632 -0.061127 -0.10864 -0.017838 -0.064941 -0.049957 0.09021 0.03186 0.013336 0.023438 0.078979 -0.097595 0.016022 0.01223 0.082642 -0.048676 0.0066948 0.024582 -0.0039864 0.026932 -0.007637 -0.051056 0.040283 0.005661 0.037964 -0.022705 0.015251 -0.13708 -0.014053 0.04303 -0.088989 0.058136 -0.035309 0.0034351 0.12146
Mac_&_Cheese -0.080139 -0.005909 0.013512 0.15259 -0.033905 0.027908 0.035431 -0.091003 -0.0017195 0.035675 -0.06366 -0.085327 0.035339 0.0029621 -0.040924 0.03302 -0.012444 0.047272 -0.023804 -0.084351 0.017426 0.068726 0.10199 -0.0095749 -0.051056 0.0052757 -0.039734 0.076111 -0.082825 -0.049347 0.016342 -0.047791 -0.02298 -0.0056877 -0.041656 -0.052979 0.10016 0.027359 0.045502 0.095337 0.018295 -0.026611 0.089172 0.065491 -0.00058126 -0.052002 -0.062103 0.046204 -0.028778 0.03067 -0.11475 0.063477 -0.0090179 0.0061989 -0.046783 -0.0016804 -0.05072 -0.042877 -0.10492 -0.10486 -0.059814 0.074341 -0.065125 -0.029266 0.00914 -0.10052 -0.10297 -0.046783 -0.0013533 0.082336 0.099182 0.052216 -0.012627 0.046143 -0.079651 -0.04483 -0.067566 -0.037628 0.028534 -0.0036278 -0.030624 -0.081665 0.0024757 -0.034546 0.066467 -0.02742 -0.077209 0.14001 0.012215 0.013344 -0.094666 -0.062866 -0.075317 -0.031143 0.039612 -0.023331 0.034241 -0.07019 0.11267 -0.012184 -0.051727 0.062164 0.05484 0.027008 -0.041595 -0.036163 0.019073 0.049622 -0.013695 -0.032623 -0.079407 -0.03006 -0.0022926 0.026459 0.080139 0.0019779 -0.035431 -0.052551 0.10071 -0.033356 -0.029953 -0.085266 -0.029572 0.040619 0.049835 -0.028473 -0.089233 0.038422 0.016647 0.015198 -0.086914 0.083313 -0.032043 0.13513 -0.017517 0.092102 -0.051819 -0.078308 0.092712 0.033234 0.081421 -0.098633 -0.0092545 -0.055847 0.030472 0.028168 0.032806 0.026642 -0.063599 -0.08905 0.027084 -0.026535 -0.054535 0.042908 -0.003376 -0.12396 -0.094299 0.026978 -0.14417 0.054352 -0.074707 0.068298 0.033051 0.00021839 0.0045738 -0.065491 0.025482 0.0031605 -0.012024 0.094727 -0.097656 0.010841 -0.022385 -0.0093918 -0.10803 0.0063362 0.11261 -0.055939 -0.067993 0.00027609 -0.0083847 -0.082336 -0.039093 -0.074829 0.079651 -0.031464 0.010994 -0.050201 0.00066328 0.065308 -0.0093765 0.0053368 -0.00082159 -0.017456 0.020538 0.19495 -0.021439 0.0011044 -0.012711 -0.064941 -0.079041 0.032318 -0.048889 0.015282 -0.0048561 -0.029816 -0.048096 -0.060944 -0.032623 0.0051384 -0.037994 -0.0053291 -0.069763 0.093567 -0.0028648 0.036835 0.0022449 0.053528 0.023331 -0.010597 -0.060303 0.032074 0.080444 0.024872 -0.010422 -0.0031414 0.10413 -0.024933 -0.041077 -0.028915 0.01516 -0.052551 0.024796 0.044708 -0.00016987 -0.040741 0.042145 0.010818 0.032013 0.0051575 0.10248 0.0020943 0.065491 -0.049561 -0.066528 0.020523 -0.025787 0.10138 -0.026215 -0.002615 0.019073 0.028229 0.12238 0.042053 0.077209 -0.11975 -0.10016 -0.029144 0.028824 -0.05658 0.085571 0.049408 -0.054901 -0.075684 0.029266 0.011551 -0.068604 -0.04364 -0.022949 -0.032349 -0.018524 0.074646 0.014351 -0.07074 0.076111 -0.019394 0.0048218 -0.007534 -0.091614 0.020264 -0.043976 0.032227 0.031921 0.062012 -0.03302 -0.023056 0.0047112 0.060028 -0.055511 0.11359 -0.076233 -0.019974 -0.085022 0.073792 0.099731 -0.060486 0.021652 -0.033905 0.05542 0.020126
Scuba_Diving -0.027115 -0.022842 -0.062286 0.022751 -0.065063 -0.020477 -0.065125 -0.042603 0.056366 0.0015831 0.011574 -0.094971 -0.017471 -0.013962 -0.013283 0.098145 0.0088425 0.094604 0.033813 -0.046692 0.040619 0.058655 -0.072144 0.050873 -0.064209 -0.062988 -0.039978 0.092957 0.060577 -0.058228 -0.09613 0.040131 0.014038 -0.032806 -0.043365 -0.085205 -0.064148 -0.0041008 0.04776 -0.070862 0.024521 -0.037018 0.08844 0.074097 -0.029129 -0.12805 -0.031982 -0.050293 0.046356 0.11505 0.0067673 -0.057434 0.088745 -0.014847 0.11072 0.036469 0.038818 -0.027756 0.070557 -0.052856 -0.021957 0.019531 -0.03125 -0.038055 0.051331 -0.051208 -0.16418 0.017059 0.0092468 -0.012207 -0.064148 -0.060211 0.05484 -0.0051994 -0.046539 -0.10919 0.024536 -0.086914 -0.024445 -0.029388 0.075867 0.026428 -0.0044327 -0.048157 -0.01152 0.016418 -0.043274 0.065918 -0.01857 0.0098419 0.046722 -0.011841 -0.055328 0.13635 0.014221 0.031128 0.072754 -0.02652 0.041901 -0.045349 -0.013802 -0.0010757 0.042389 -0.051331 -0.047333 0.0069962 0.12537 0.011528 0.053009 -0.010857 -0.063782 0.043762 -0.0051613 0.064575 -0.0080185 0.0057602 -0.057434 0.017654 -0.0023441 0.020767 -0.086426 -0.022202 0.095093 0.027603 0.062103 -0.078979 -0.03656 0.04007 0.030212 0.19958 -0.016083 0.036255 -0.085938 -0.0040436 -0.036011 -0.036255 0.0074158 -0.10736 -0.027985 0.1377 0.010857 -0.10107 -0.078003 -0.040283 0.029572 0.013191 -0.058868 0.11682 -0.0086136 -0.049286 0.095886 -0.1283 -0.086731 0.10754 0.0045357 -0.027756 0.013535 -0.0036812 -0.038879 0.031219 0.063049 0.037262 -0.0093613 -0.00039268 0.069153 -0.094727 0.012711 0.013725 -0.022354 -0.014214 -0.012299 0.037231 -0.034821 0.030273 -0.042542 -0.0071678 0.062561 -0.092712 -0.06842 -0.062744 -0.038635 -0.01738 -0.023819 -0.027435 0.041595 -0.071472 0.062103 -0.016891 0.10553 0.013824 -0.037476 -0.019867 -0.042328 0.13574 0.018204 0.055969 0.023346 -0.041534 -0.0336 -0.073608 -0.0068359 0.012993 -0.11206 0.0048752 -0.036041 -0.086426 -0.032532 -0.06604 -0.12042 -0.043304 -0.0401 -0.0027828 -0.011978 0.077209 -0.060059 0.0069923 0.058838 -0.037598 0.016754 -0.077087 0.012985 -0.031143 0.044739 -0.044373 -0.014496 0.024506 0.079773 -0.023331 -0.023193 0.031204 0.035065 -0.091064 -0.054108 -0.14404 0.026596 0.039307 0.050354 0.023819 0.085754 0.039337 0.14685 -0.030884 -0.03418 -0.036255 -0.029449 -0.041626 -0.031219 -0.031204 -0.0066414 -0.089111 -2.9564e-05 -0.031738 0.045349 0.13562 0.054291 -0.033905 0.091858 -0.058289 0.0033035 0.0057869 0.069824 -0.00042486 -0.012299 -0.02861 -0.032196 0.1084 0.010941 -0.081299 -0.022522 -0.072021 -0.063965 0.047516 -0.0072212 0.11365 0.03241 -0.080261 -0.10858 -0.031281 -0.045929 0.0030155 0.0021839 0.010269 0.11932 -0.043549 0.059631 -0.055084 -0.0059166 0.025742 0.015411 0.11066 -0.031799 -0.06604 -0.045013 -0.026596 -0.00032544 0.007412 -0.0051308 -0.0022793 0.045532 0.022217
Speakeasies 0.029938 0.063599 -0.060669 0.13757 -0.01223 -0.0042915 -0.083679 -0.11151 0.072021 0.068237 -0.016785 -0.093994 0.047638 -0.014633 0.053741 0.041565 -0.02063 0.10535 0.050903 -0.067566 0.065369 -0.024933 0.013077 -0.052429 -0.058868 0.10669 -0.1394 0.13611 0.0020485 -0.042267 0.017166 -0.025742 -0.0041618 0.075195 -0.0080643 -0.031464 0.0040855 -0.052582 -0.0059319 0.080444 0.011429 -0.0097351 0.086609 0.08075 0.0271 0.014297 -0.079407 -0.015053 0.097229 -0.0020161 -0.089111 0.081421 0.034637 -0.044891 0.0027161 0.047607 -0.012001 -0.028595 -0.038513 -0.074463 -0.015099 0.027954 -0.13684 -0.045197 -0.033783 -0.10516 -0.0042419 0.040131 -0.024216 0.065979 0.067322 0.025497 0.04126 0.060516 -0.14172 0.017136 -0.073975 0.036377 0.065308 -0.026703 -0.023758 -0.096497 -0.10321 -0.053467 -0.062988 0.035217 -0.060394 0.052002 0.016739 -0.0066261 -0.004818 -0.025238 -0.05188 -0.020508 -0.059784 0.019638 9.3579e-06 -0.051758 -0.00060177 -0.016968 0.0020981 -0.0065041 0.081726 0.0099335 0.10767 -0.073792 0.051239 0.010994 -0.017395 -0.016678 -0.014 -0.069336 -0.05127 -0.022766 0.056549 0.031799 0.042999 -0.06543 0.10059 -0.019699 -0.11145 -0.0578 -0.045929 -0.0042534 0.1554 -0.067078 0.024124 0.10889 -0.021179 -0.025833 -0.025345 -0.070618 -0.028595 -0.0052299 -0.024399 -0.046844 -0.14453 0.01004 0.050079 0.061493 0.035034 -0.098328 -0.040588 -0.031067 0.052582 0.042175 -0.055267 0.03949 -0.014107 -0.00049782 0.19299 -0.01239 -0.070557 -0.038177 -0.039917 -0.073792 -0.057861 0.013229 -0.038757 -0.063477 -0.0037308 0.038605 0.026535 0.014679 0.010635 -0.09082 0.05658 -0.025894 -0.028717 -0.029526 -0.17297 0.011803 0.047729 -0.11279 -0.037811 -0.065491 0.065247 -0.11353 -0.052521 0.0028477 -0.064148 -0.12512 0.013779 -0.040771 0.0053558 -0.036194 0.012947 0.024063 0.077087 -0.0010576 0.076294 0.023834 -0.043823 0.054596 -0.026352 0.044464 -0.0013046 -0.056244 0.018005 -0.013123 -0.014145 0.031708 0.044647 0.019043 -0.024323 0.088318 0.030197 -0.047211 -0.085693 0.076965 -0.059479 0.024933 -0.099121 0.054077 -0.075745 0.070435 -0.010315 0.078491 0.012703 -0.043182 -0.0087509 -0.022781 0.080933 0.01133 0.05304 0.065002 0.041931 0.027069 -0.061707 -0.037689 0.012619 -0.072021 -0.027893 0.026352 0.033325 0.0072784 -0.01368 0.065247 0.029694 0.0042343 0.13733 -0.11926 -0.056641 0.007309 -0.06842 0.010071 -0.018738 0.024124 0.058014 -0.051514 0.02858 0.03125 0.046356 0.04248 0.032166 -0.046021 -0.01712 -0.026733 -0.027878 -0.02739 0.069824 0.026077 0.045685 0.0021057 -0.018707 0.047516 -0.085693 -0.050598 -0.051666 -0.033813 -0.05423 0.066467 -0.024582 0.084106 0.096497 -0.04184 -0.047211 -0.018616 -0.086792 0.065857 0.011322 -0.040039 0.038788 0.00088549 -0.062805 0.0048065 -0.08252 -0.0086746 0.0082855 0.036346 0.054565 0.037231 -0.11151 0.067261 0.010162 -0.049927 -0.0052681 -0.04538 0.049652 0.053558
Techno_Music -0.0047531 -0.061035 -0.01445 0.10016 -0.065063 0.048065 -0.029694 -0.05127 0.062683 0.0044899 -0.08313 -0.040253 0.0082245 -0.0090027 -0.020248 0.0054893 0.11346 0.075439 -0.023468 -0.051941 0.0010557 0.041962 0.09552 -0.0048599 -0.010887 0.028595 -0.1012 0.057007 0.0354 -0.080933 -0.054626 0.052979 -0.065491 0.019211 -0.037689 -0.075928 0.0005455 0.043427 0.057434 -0.011108 0.033752 -0.010376 0.061005 0.096802 0.026581 -0.045135 -0.045441 -0.10645 -0.03006 0.0016718 -0.11768 0.037506 -0.022476 -0.025055 0.020782 0.070435 0.01088 0.0082779 -0.026794 -0.091064 0.002861 0.0061989 -0.090881 0.0035896 0.003067 -0.10938 -0.10291 0.041931 -0.049744 0.095581 0.020477 0.024048 -0.061371 -0.00014079 -0.099915 -0.013496 0.083374 -0.018204 0.0075684 -0.040222 -0.030502 0.016769 -0.020737 -0.10455 0.036377 0.019135 0.043121 0.11072 -0.0066452 0.036346 -0.042145 -0.034393 -0.048981 -0.0076714 -0.048218 0.021301 0.066895 -0.016052 0.10345 -0.099121 0.025391 0.038696 -0.037567 0.0021534 -0.01976 0.031494 -0.04422 0.008812 0.018463 -0.082031 -0.020111 0.019409 0.0056114 0.02951 0.029221 0.042389 -0.080566 -0.044525 0.079712 -0.029968 -0.0021191 -0.02623 -0.078857 -0.00043893 0.1311 -0.095398 -0.16809 0.049774 0.015945 -0.076843 -0.055817 0.0018215 0.04187 0.034027 0.0096054 0.087463 -0.030411 -0.0354 0.044861 0.11115 0.091187 -0.046844 -0.089294 0.034454 -0.0081024 0.0041046 0.11938 0.092896 -0.053986 -0.047363 0.096619 -0.11072 -0.052277 0.009201 -0.03949 -0.1438 -0.018875 0.056732 -0.079468 -0.10889 -0.061951 0.035553 -0.053436 0.028229 0.010521 -0.10651 0.046112 -0.01149 -0.064636 0.044037 -0.078125 0.013947 0.062134 -0.0089035 -0.043701 -0.045593 0.10425 -0.18994 -0.00019944 -0.083374 0.054504 -0.028412 -0.0032921 -0.054657 0.0401 0.058197 -0.030777 -0.004158 0.063049 0.014534 -0.0069389 0.03299 -0.055023 0.0052795 0.058472 0.12073 -0.032501 -0.012978 -0.022507 -0.013908 -0.034149 0.037292 -0.038757 -0.019562 0.029633 -0.04541 0.065552 -0.048889 -0.098511 0.0051308 -0.051636 0.056152 -0.10095 0.031235 -0.10199 -0.076294 -0.00025225 -0.039185 -0.045746 -0.090088 -0.090881 0.010857 0.052094 -0.020599 0.021927 0.0024529 0.0014963 0.053955 0.0037117 -0.043121 -0.03833 -0.031281 -0.052917 -0.021866 0.00013793 0.031311 0.016006 0.0064774 0.10468 0.027756 0.12988 -0.0065193 -0.032227 -0.022232 -0.0016127 -0.031677 -0.02034 0.13977 -0.018341 -0.08783 0.074402 0.066223 0.025803 0.10217 0.099854 -0.086609 0.0038414 -0.0047913 0.031342 -0.013695 0.017197 0.0011683 0.06015 -0.039764 -0.052734 0.058319 -0.12512 -0.078308 -0.063904 -0.015274 -0.014038 -0.024033 -0.013168 0.071106 0.055023 0.0062866 -0.024536 -0.019592 -0.047791 0.096436 -0.072021 0.0023766 -0.0289 0.039795 0.0094757 -0.045959 0.044464 0.0097885 0.01445 0.098755 -0.074585 0.069885 -0.091492 0.048981 0.0048332 -0.030823 -0.021057 -0.059082 -0.02269 0.060699
Travel 0.019501 0.036591 -0.013062 0.11688 0.026459 -0.034698 0.029816 -0.04422 0.040283 0.014175 0.062683 -0.14673 -0.040131 0.015869 0.042725 -0.0002687 -0.0073624 0.097473 0.056335 0.01194 -0.0030785 -0.005024 0.043915 -0.0080414 -0.027557 0.018692 -0.070129 0.075378 0.0010748 -0.053558 -0.015228 -0.025024 -0.078064 0.050537 -0.038879 -0.092896 0.043304 -0.047516 0.080566 0.0082855 -0.039703 -0.018433 0.099487 0.034698 0.031052 -0.028 0.020889 0.030594 0.0056305 0.036865 -0.076111 -0.0088959 0.08197 0.050537 -0.074219 -0.061035 -0.083252 -0.13306 -0.0073853 -0.15601 0.03009 0.024963 -0.0802 -0.07312 0.0067558 -0.085449 -0.074402 0.020096 0.022644 0.003624 0.094666 0.064209 0.045776 -0.017303 -0.12396 0.024307 0.0064316 0.0017662 0.027573 0.02562 -0.043213 -0.040619 -0.015617 -0.056946 0.0082169 0.030701 -0.064758 0.066589 0.030899 0.031189 0.0060768 -0.063171 -0.10046 0.018356 0.019516 0.065857 -0.001689 -0.0091782 0.058929 -0.079468 -0.064392 -0.013939 0.049561 -0.030045 0.074341 -0.0020466 -0.033051 0.0013599 -0.054199 -0.021332 -0.059143 0.027298 0.040253 0.035217 0.15491 -0.02713 0.047638 -0.066895 0.037109 -0.00064754 -0.058319 -0.024231 -0.032288 0.070374 0.11542 -0.0047188 -0.080566 0.10284 0.014374 0.084778 -0.045013 -0.02327 -0.019379 -0.00076008 -0.071411 -0.042297 -0.1604 -0.014259 0.0060844 0.034973 0.019485 -0.083313 -0.0087662 0.010445 0.023865 0.035187 0.02681 0.05426 -0.024078 -0.072388 0.13843 -0.062469 -0.0044861 0.037811 -0.056488 -0.10144 0.00076008 -0.021667 -0.09845 -0.041962 -0.053619 0.046783 0.030319 0.014778 0.031342 -0.09906 0.076416 -0.034454 -0.037781 0.057037 -0.089539 0.050629 0.030121 -0.03421 -0.094543 -0.051514 0.0077667 -0.012878 -0.020447 -0.02832 -0.093872 -0.065552 0.0051727 -0.083679 0.020309 -0.033173 0.048035 0.032471 0.049438 0.020828 0.016708 0.01976 0.014984 0.014236 -0.0022068 0.075562 0.010323 -0.038574 -0.0168 -0.043182 -0.085876 0.043701 -0.032166 -0.031555 -0.052521 -0.047729 0.06958 -0.084106 -0.088074 0.03537 -0.093933 0.086243 -0.056915 0.031097 -0.0017538 0.14966 0.01149 0.021759 0.010658 -0.039581 -0.0074425 0.039276 0.057098 0.064758 -0.014908 -0.0024567 0.042999 0.11621 0.027328 0.0097275 0.028549 -0.11646 -0.09137 0.099426 0.046356 0.010948 0.071106 0.0013723 0.093689 0.069519 0.09314 -0.13745 -0.047729 -0.086304 -0.13818 -0.0025024 -0.058716 0.036987 -0.027222 -0.082153 -0.025467 0.035095 0.077759 0.031921 0.08606 -0.045837 0.031891 -0.063599 -0.013458 -0.046661 0.016388 0.026672 -0.015686 -0.050812 -0.0028076 0.13464 -0.043488 -0.045166 -0.038208 -0.028595 -0.025864 0.064941 0.012115 0.0075493 0.083252 -0.044342 -0.00387 -0.075195 -0.04834 0.086731 -0.019455 -0.068726 0.092468 0.034119 -0.035004 -0.040588 -0.053497 0.05014 -0.013359 0.099426 -0.0050278 -0.01088 -0.065552 0.021667 0.07074 -0.05603 -0.070923 -0.068604 0.12341 0.038727
App_Developers -0.016159 -0.064819 -0.072937 0.050842 -0.075745 0.030182 -0.022079 -0.027725 0.010361 0.019669 -0.072205 0.057281 0.012268 -0.084656 0.07428 0.0084076 0.081543 0.087524 -0.077332 -0.0073891 -0.0090637 -0.030762 0.045929 -0.011703 -0.073059 0.070129 -0.086426 0.066162 -0.096741 -0.10114 -0.045593 -0.052704 -0.077698 -0.013657 0.014343 -0.031921 -0.049835 -0.0578 0.088989 0.011551 0.033142 0.0059128 0.040924 0.10254 -0.039185 -0.073914 -0.054901 -0.034027 5.0128e-05 0.027527 -0.053528 0.022064 0.061371 0.058044 -0.02832 0.081116 -0.049896 -0.02562 -0.034729 -0.11456 -0.026047 0.011795 -0.057526 0.013863 -0.060913 -0.049713 -0.027084 0.071716 0.030945 0.070557 -0.071594 0.037994 -0.049713 0.0027065 -0.079285 -0.10474 0.022644 0.023865 0.0076942 -0.022903 -0.041107 0.086243 -0.013092 -0.088318 0.041077 -0.047333 0.020386 0.032501 -0.015854 0.030518 -0.0027752 -0.039429 -0.10205 -0.058746 0.027573 -0.013535 0.054749 -0.025757 0.12305 0.042969 0.0036469 -0.098389 -0.016846 0.039978 0.044556 -0.026901 -0.041046 0.037079 0.023758 -0.040924 -0.064331 -0.032684 -0.02446 -0.03653 0.07489 0.038849 -0.02948 -0.13708 0.21655 0.057159 -0.11127 -0.081787 -0.13147 0.046082 0.17859 -0.0085526 -0.091736 0.10016 -0.029068 0.032745 -0.080566 0.011932 -0.049835 -0.010063 -0.05188 -0.015259 -0.081726 -0.0011692 0.018646 -0.0041809 0.032837 -0.058746 -0.029892 -0.096741 0.011803 0.062195 0.046204 0.020691 -0.0050545 -0.08728 0.11407 -0.052399 -0.032013 0.029236 -0.0095139 -0.10706 -0.064209 -0.0056152 -0.083984 -0.020935 -0.075134 -0.0064507 -0.014412 0.025131 0.0038738 -0.07666 0.062561 -0.035309 -0.025986 0.094116 -0.046448 -0.016693 0.038544 -0.018692 -0.036804 -0.016846 0.14001 -0.16833 -0.051086 -0.064514 -0.060059 -0.018417 -0.049774 -0.093628 0.090271 -0.013458 -0.014 0.092346 0.066406 -0.0015373 -0.062195 0.0016394 -0.10406 -0.0061455 -0.048309 0.098816 -0.020966 -0.038239 0.018936 -0.12402 -0.024246 0.044006 0.035492 -0.0094376 -0.0131 -0.020203 -0.049408 -0.066895 -0.0054436 -0.013443 -0.073914 0.011032 -0.047668 -0.032196 -0.04538 0.06366 -0.036438 0.011757 0.018097 -0.03717 -0.0098343 0.0098801 -0.057343 -0.016129 -0.0099792 0.030273 -0.059662 0.035858 -0.016937 -0.055237 -0.081726 0.0087051 -0.021118 -0.04303 0.02475 -0.0046043 0.00317 -0.013245 0.055237 0.047729 0.078308 -0.008812 -0.073181 -0.056549 -0.03067 -0.011604 -0.049713 0.079895 -0.03093 -0.12372 0.025772 0.021194 0.030823 0.030014 0.098328 -0.026764 -0.051361 -0.034119 -0.047302 -0.10406 0.081482 0.0041962 0.11707 -0.028595 -0.0090714 0.068909 -0.072876 -0.12964 -0.03418 -0.035339 -0.020447 0.080322 -0.0064659 -0.029892 0.03537 0.025146 -0.022064 0.084717 -0.016815 0.038605 -0.028458 0.029251 -0.072083 0.035492 -0.032318 0.051666 -0.054749 0.0088654 0.060364 0.083557 0.083862 0.034943 -0.056763 0.016846 0.041534 -0.04837 -0.016846 -0.014381 -0.029831 0.011398
Backpacking -3.7909e-05 -0.054626 -0.084473 0.11023 -0.033936 0.0067902 0.0010109 -0.035675 -0.003315 0.0089951 0.12781 -0.064697 -0.0052567 0.071228 0.033722 -0.030228 -0.042755 0.033081 -0.020172 -0.0060997 0.041901 0.052216 -0.11041 0.013702 -0.0066299 -0.059906 -0.11426 0.08783 0.087341 -0.11035 0.028183 0.075256 0.0018959 0.067383 -0.066772 -0.14868 0.00061989 -0.061737 0.022003 -0.034729 -0.072937 0.010582 0.072876 0.0094757 -0.0098038 -0.096252 -0.032074 0.015976 0.082031 0.033844 -0.019531 -0.066284 0.042175 0.054932 0.047058 -0.083496 0.061737 -0.015594 -0.013802 -0.036255 -0.041748 -0.010376 0.01075 -0.051849 0.015015 -0.065491 -0.087708 -0.023712 0.010689 0.0080338 0.016296 -0.010185 -0.040863 0.030685 -0.10388 -0.0087814 -0.031464 -0.06842 -0.024689 -0.058624 0.048218 -0.039734 -0.062317 0.041687 -0.04895 -0.0043983 -0.034729 0.02211 0.039185 0.057312 -0.030258 0.0089722 -0.038269 -0.035126 0.045746 -0.086243 0.040955 -0.085571 0.068237 -0.079529 -0.058167 -0.045837 0.039124 0.080383 0.10956 0.065002 0.05954 -0.06131 0.040192 -0.017456 -0.084473 -0.062988 0.037262 0.0084534 0.041962 0.0053101 0.046387 0.01619 -0.071716 0.052368 -0.11847 0.022873 -0.05545 0.026245 0.14551 -0.024063 -0.062012 0.024673 -0.025833 0.096008 -0.10583 -0.050415 -0.057098 0.020187 -0.081787 0.06665 -0.0018797 -0.025986 -0.017593 0.13721 0.035614 -0.056274 0.061249 0.0085297 0.053436 0.01001 -0.0039978 -0.029343 0.0034752 -0.041901 0.12988 -0.055573 -0.040436 0.035187 -0.059692 -0.055267 -0.1156 0.0010891 -0.12732 0.071106 0.039276 -0.028229 0.052063 0.013672 0.015839 0.002327 0.0045586 0.0099869 -0.063904 -0.073669 -0.0059738 0.010086 -0.024323 0.035004 -0.035065 0.051147 0.06897 -0.076721 -0.035004 0.0085144 -0.10529 -0.095886 -0.033661 -0.029556 0.033539 -0.073181 -0.034943 -0.063904 0.11816 0.098755 -0.018692 -0.023193 -0.038391 0.1076 -0.062683 0.11481 0.004673 0.00914 -0.088135 -0.043335 0.0045547 0.015388 -0.029007 -0.016388 -0.043915 0.013237 -0.0090637 -0.11523 -0.070923 -0.0096359 0.0011253 -0.037018 -0.02916 0.029709 -0.045349 -0.033966 0.029541 0.10602 -0.038727 -0.069519 0.00099182 -0.041138 0.060455 0.058533 0.00075722 0.032257 0.079102 -0.027954 -0.014954 0.023636 -0.049164 0.037598 -0.024109 -0.029053 0.035492 0.057922 0.025986 0.049408 0.04068 -0.012619 0.041931 -0.062805 -0.036865 -0.03183 0.0054741 -0.06311 -0.041443 -0.028824 -0.046967 -0.014412 -0.045685 0.016159 0.039215 0.17896 0.0578 -0.0033665 0.13086 -0.063416 -0.022293 -0.046631 -0.015076 -0.038635 -0.0077477 -0.030533 -0.086243 0.06427 -0.024353 -0.037018 0.019196 -0.010223 0.043457 0.086914 0.0085678 0.14929 0.10254 0.0028782 0.0031872 -0.062134 -0.013519 -0.017975 0.035675 -0.0090408 0.1225 -0.019012 0.06488 0.0053482 -0.074097 0.1405 -0.018173 0.11127 -0.029922 -0.062134 -0.044891 0.03717 -0.0087509 -0.067932 0.046112 0.0096207 0.085388 0.11713
Chocolates -0.055115 0.026962 0.0031624 0.13025 -0.0076294 0.023056 0.061859 -0.12854 -0.062622 0.059998 -0.041443 -0.1554 -0.021606 0.038269 -0.066772 0.06311 0.0042648 0.11969 -0.031082 -0.07019 0.049316 0.01738 0.04126 -0.046814 -0.051788 -0.01944 -0.060394 0.053131 -0.042267 -0.032654 -0.030502 -0.033752 -0.026306 0.022537 -0.07312 -0.0017023 0.0030212 -0.033386 0.027603 0.031433 0.04425 -0.039276 0.066162 0.0074043 0.0032558 -0.13806 -0.036499 0.06665 -0.076172 0.040985 -0.058441 0.025131 0.0067291 -0.03775 -0.062134 -0.0020561 -0.016479 -0.080627 -0.064453 -0.14014 -0.058075 0.047333 -0.05127 -0.010727 -0.062134 -0.069336 -0.1192 -0.090393 0.064941 0.067139 0.077515 0.017242 0.0050163 -0.025269 -0.061981 -0.034149 -0.0034237 0.025406 0.032959 -0.039825 -0.10455 -0.074951 -0.0065308 -0.037231 0.038422 -0.027481 0.010696 0.12988 -0.0010509 0.072632 -0.050598 -0.0072632 -0.10223 0.0049171 -0.011055 -0.0074005 0.01152 -0.060333 0.14795 0.0046539 -0.0038509 -0.025253 0.086975 0.02829 -0.053802 -0.021393 0.026993 0.031799 -0.015335 -0.075562 -0.0849 -0.056305 -0.016113 0.0024605 0.03775 0.018738 -0.038879 -0.035187 0.05722 0.015472 -0.027466 0.013435 -0.0043755 0.01593 0.08905 -0.01368 -0.069824 0.066711 0.070923 0.032104 -0.096375 0.061493 -0.0083694 0.045349 -0.038177 0.095337 -0.080627 -0.032227 0.072449 0.032013 0.053436 -0.1416 -0.060059 -0.077087 -0.00011533 0.052734 0.08783 0.021881 -0.080261 -0.11145 0.087524 -0.047302 -0.08252 0.051086 0.022858 -0.096252 -0.059906 0.032959 -0.18176 0.062805 -0.057892 -0.032532 0.073425 0.055481 0.040894 -0.069519 0.070435 0.023407 -0.11066 0.050842 -0.12439 -0.011681 -0.033478 0.031281 -0.12976 0.028793 0.076843 -0.10321 0.039612 -0.028427 -0.059814 -0.039703 -0.049622 0.017609 0.048004 -0.0073013 -0.016144 0.036224 -0.0047951 0.10449 -0.024231 0.02626 -0.024353 -0.024292 0.050171 0.15125 0.0099487 -0.043976 -0.017899 -0.02623 -0.01358 0.027649 -0.068054 0.00053024 -0.021194 0.016235 0.020706 -0.043121 -0.0401 -0.0037937 -0.10242 -0.0082855 -0.072693 0.086182 -0.017181 0.067139 0.020233 -0.019302 0.053101 0.065186 0.00086784 0.020996 -0.013969 -0.0048523 0.026459 0.022598 -0.0025597 -0.021393 0.0056114 0.0064087 -0.016098 -0.059967 -0.010895 0.091064 0.021103 -0.045563 -0.015076 -0.041473 0.060852 0.013435 0.14526 -0.0044365 0.0075188 -0.052948 -0.0051804 -0.0072136 -0.070557 0.11652 -0.055206 -0.043793 -0.027908 0.023102 0.1344 0.037659 -0.033386 -0.097168 -0.042419 -0.054962 0.037964 -0.028229 0.045532 0.023529 -0.10681 -0.012749 0.0079803 -0.045288 -0.042938 -0.022537 -0.069397 -0.038513 -0.033081 0.075317 -0.024597 0.039124 0.060852 -0.023605 -0.021439 -0.060913 -0.099792 0.081482 -0.036804 -0.010986 0.05545 0.075745 -0.014381 -0.050171 -0.021683 0.052521 0.0068321 0.10657 -0.028503 -0.039856 -0.046112 0.049683 0.026321 -0.039948 -0.019211 0.033905 0.04303 0.031464
Cocktail_Bars -0.067627 -0.053986 -0.016296 0.13257 -0.04184 0.04129 0.025375 -0.098816 0.029922 0.078735 0.011467 -0.1095 0.0089722 -0.008667 0.0012932 0.073608 0.030685 0.090393 0.03363 -0.076782 0.051056 0.0059204 0.049835 -0.039795 0.034943 0.064453 -0.096008 0.15088 -0.037048 0.032928 -0.0076447 -0.021347 0.0018339 0.032257 -0.068359 -0.00247 0.062439 -0.047913 0.064697 0.003273 -0.0010443 -0.080994 0.10126 0.074951 0.024948 -0.095764 -0.12439 -0.075134 0.013885 0.0076523 -0.077759 0.04245 0.019043 -0.054047 -0.0054588 0.0084534 0.0020103 0.03891 -0.15039 -0.11987 -0.0040512 0.021484 -0.10803 0.029419 0.033203 -0.06427 -0.047638 -0.13086 0.034607 0.011925 0.065491 0.045197 0.051697 0.027557 -0.082458 0.070129 -0.026047 0.023666 -0.0017176 -0.061127 -0.099609 -0.14026 -0.074097 -0.095947 0.011734 0.03125 -0.00069237 0.17749 0.025024 0.00068617 -0.10065 0.01622 0.00059843 -0.044983 -0.050079 0.055511 0.032043 -0.054321 0.040375 -0.062439 -0.056152 0.054016 0.06131 0.029007 -0.0038795 -0.057068 0.025772 0.032806 -0.00036383 -0.030685 -0.05777 -0.010193 -0.06488 -0.044922 -0.046326 -0.017731 0.034576 -0.091248 0.016815 -0.048462 -0.053772 -0.028122 -0.010406 0.01741 0.15833 0.0336 -0.054749 -0.022598 0.066589 0.036926 -0.070007 0.011253 -0.041199 0.053619 -0.036224 0.11487 0.0097427 -0.023621 0.04361 0.030182 0.036438 -0.072021 -0.12573 -0.049805 0.053894 0.033936 -0.0015993 0.0061798 -0.067017 -0.051544 0.075623 -0.002388 -0.020996 -0.052795 -0.012451 -0.064331 -0.026382 0.041199 -0.12927 -0.027649 -0.034058 -0.014404 -0.017441 0.05777 0.016815 -0.040894 0.03125 0.054138 -0.017456 0.047119 -0.09198 0.050629 0.045532 -0.016129 -0.10321 -0.051331 0.049896 -0.085938 -0.0513 -0.002636 0.038757 -0.017532 -0.070923 0.0081787 0.049835 0.0064545 0.067993 0.07959 0.089172 -0.063843 -0.045288 0.021332 -0.02742 0.028931 0.027527 0.11304 -0.0027981 0.014175 -0.0091553 -0.030884 -0.017151 0.036102 0.022934 0.035828 0.0064087 -0.026825 0.011864 0.0068016 -0.059967 -0.01709 -0.14404 -0.011772 -0.068787 0.046631 -0.036377 0.033173 -0.071045 -0.028198 0.052673 0.034454 -0.054779 0.018112 0.033691 -0.01516 0.079285 0.081787 0.033356 0.055481 -0.031464 0.028473 -0.045746 -0.077209 -0.059509 0.066284 0.026871 -0.15356 0.031067 -0.052368 0.066284 0.015778 0.12781 -0.014648 0.012695 0.016037 -0.01075 0.011162 -0.027924 0.10651 -0.050201 -0.016556 -0.016052 0.025375 0.14185 0.030838 0.042603 -0.077637 -0.040466 -0.00044298 -0.054871 -0.050751 -0.032867 0.039459 -0.012184 0.017715 -0.041382 -0.046234 -0.055573 -0.064209 -0.073547 -0.07135 -0.03244 0.057617 -0.045685 0.071045 0.10651 -0.034393 -0.054291 -0.033173 -0.048615 0.071167 -0.010384 -0.025772 0.10425 -0.0064163 -0.0059357 -0.020981 -0.052124 0.057861 -0.028183 0.10254 0.040924 -0.040833 -0.05722 0.053101 0.0057945 -0.054291 0.062378 -0.043213 0.041687 0.04776
