75 300
Larry_Page 0.0058327 -0.02858 -0.0022678 0.096802 -0.085022 -0.02681 0.017029 -0.050629 0.025925 0.013893 -0.07312 -0.11633 -0.068848 0.013 -0.08844 0.11523 0.022812 0.041473 -0.037811 -0.041443 0.0020771 0.060669 0.077515 0.017212 -0.066467 -0.013077 -0.041718 0.11444 -0.015518 -0.12482 -0.091003 -0.0063934 -0.081665 -0.03006 0.034363 -0.0054359 -0.040527 0.06781 0.090515 0.0078201 0.011078 0.026062 0.11432 0.14368 0.033569 -0.090332 -0.028458 -0.10382 0.011848 -0.041595 -0.12756 -0.010246 0.011032 -0.025879 0.0079803 0.017319 -0.048096 -0.019836 -0.021057 -0.10822 0.062561 -0.046509 -0.043304 0.03241 -0.039154 -0.055176 -0.036011 0.0077248 0.01001 0.059631 0.018372 0.045288 -0.022934 -0.01506 -0.11951 -0.064026 0.069214 -0.053772 0.019241 -0.027451 0.0017147 0.041473 -0.019669 -0.032776 0.10651 0.031189 0.050415 0.1178 0.0020466 0.032257 -0.042175 -0.076538 -0.10297 -0.025345 0.023239 0.0022945 0.0063972 -0.047699 0.093933 0.0095901 -0.015335 -0.086914 -0.0071831 0.012253 0.019409 0.085144 -0.11987 0.072693 0.059418 -0.011353 -0.047729 -0.059753 0.037842 -0.01564 0.087341 -0.022812 -0.035858 -0.12085 0.064819 0.0055847 -0.039154 -0.012787 -0.1311 -0.027832 0.048767 0.0014782 -0.10425 0.12903 0.00047684 0.014534 -0.10443 -0.023758 -0.047455 0.038361 -0.047729 0.0024014 -0.040192 -0.0097427 0.015427 0.038605 0.087708 -0.097717 -0.02951 -0.025879 0.020691 0.020401 0.079956 -2.3842e-06 -0.055725 -0.086731 0.096313 -0.075684 -0.098572 0.0053101 -0.040771 -0.069153 -0.055603 0.0078354 -0.029999 -0.039215 -0.020401 0.034729 -0.028168 0.0085678 0.066833 -0.11401 0.046173 0.028061 -0.092957 0.053253 -0.031708 0.033691 0.0086746 -0.010468 -0.0034542 -0.031525 0.072571 -0.12061 0.021317 -0.099854 0.057556 -0.024521 -0.015991 -0.051392 0.098755 0.075562 -0.026718 0.015839 0.0513 -0.055328 0.0012512 0.017395 -0.068237 -0.010399 -0.0054245 0.10828 -0.1073 -0.045135 -0.037079 -0.056274 -0.069092 0.10089 0.033386 -0.0053062 -0.033325 0.010887 -0.00097513 -0.013725 -0.11053 0.060425 -0.040985 0.053253 -0.078369 0.030151 0.016693 0.024475 0.032593 0.012047 -0.017181 -0.033569 -0.05069 0.022949 0.055206 0.027145 0.00056458 -0.039001 -0.039978 0.052307 -0.0063286 -0.011398 0.021606 -0.086182 -0.044678 -0.048859 0.076538 0.017715 0.046997 -0.021255 0.12201 0.064819 0.077515 0.015762 -0.076294 -0.0073242 -0.024918 0.027786 0.026917 0.14673 -0.023605 -0.10327 0.023636 -0.020569 0.044739 0.08313 0.076843 -0.089111 0.019958 0.0010195 -0.041565 -0.063477 0.092163 0.016953 0.066956 -0.067871 -0.019135 0.064148 -0.019333 -0.063171 -0.021912 -0.049072 -0.029282 0.10083 0.010437 0.071838 0.021088 -0.057281 -0.05954 -0.031952 -0.01767 0.086426 -0.027313 0.031738 -0.050201 0.057983 0.029083 0.016647 -0.00038338 0.022812 0.052124 0.1037 0.052002 0.048096 -0.073853 0.024246 0.021011 -0.12372 -0.07312 -0.0083542 -0.010399 0.045593
Elon_Musk 0.0076561 -0.016953 -0.059479 0.096802 -0.03476 -0.061371 0.0032578 -0.0091095 0.030762 -0.011856 -0.051514 -0.016037 0.00061655 0.020569 -0.0064278 0.057739 0.011406 0.045074 -0.0089417 -0.051208 -0.0059853 -0.0097961 0.043884 0.00064754 -0.12878 0.059937 -0.084656 0.13025 -0.023743 -0.06781 -0.056396 -0.010277 -0.076477 -0.033539 0.015083 -0.013794 -0.0096817 -0.0096664 0.089966 0.043549 -0.010788 0.013268 0.098511 0.17029 -0.004467 -0.030334 -0.0020142 -0.065613 0.0010223 0.017349 -0.093323 -0.00056839 -0.012421 0.039795 0.030563 -0.00058508 -0.040009 0.0047684 0.010536 -0.13806 0.020874 -0.037384 -0.12213 0.018936 -0.027054 -0.067505 -0.056549 0.01149 -0.008049 0.069763 -0.014412 0.024551 -0.018311 -0.0025272 -0.10425 -0.048737 -0.0050507 0.027649 -0.048126 0.0080872 -0.056396 -0.010193 -0.034424 -0.049377 0.057648 -0.025085 0.042725 0.12274 -0.035645 -0.00045609 -0.04538 -0.065002 -0.056396 -0.017838 0.015343 0.034637 0.0097504 -0.045349 0.07135 -0.00044179 -0.03096 -0.11139 -0.057831 0.013649 0.025803 0.049042 -0.11786 0.037201 0.050049 -0.044708 -0.060791 -0.01828 0.054321 0.00014472 0.10687 -0.018631 -0.041901 -0.12549 0.085327 0.049683 -0.057587 -0.037781 -0.084473 -0.031311 0.10553 -0.046204 -0.0495 0.11279 0.016785 0.032837 -0.076172 -0.036102 0.0020199 0.055542 -0.0070648 0.01712 -0.097046 -0.034088 0.048065 -0.024033 0.06897 -0.11597 -0.0055618 -0.029007 -0.0033684 0.00069761 0.057312 0.0085983 0.024887 -0.12164 0.093506 -0.078003 -0.065796 -0.021561 -0.069275 -0.080017 0.0082932 0.063538 -0.11053 -0.01973 -0.05426 0.069885 0.010315 0.044373 0.019241 -0.14185 0.10687 -0.0021973 -0.095825 0.16016 -0.013329 -0.019043 0.071228 -0.019028 -0.0064697 0.011246 0.062988 -0.14514 0.065613 -0.080017 0.017029 -0.042847 -0.044006 -0.078979 0.055328 0.030319 -0.068787 0.046814 0.067749 -0.021118 0.0089569 0.051056 -0.059967 -0.020508 -0.035797 0.067261 -0.054749 -0.066528 0.0053902 -0.10889 -0.060364 0.093262 0.053711 0.022415 0.0059395 -0.012306 -0.043549 -0.0072327 -0.1217 0.069763 -0.041534 0.0224 -0.072693 0.067993 -0.079529 0.059113 -0.011559 0.029343 -0.020386 -0.073059 -0.048523 0.01622 0.051727 0.042511 0.062988 0.018906 0.035919 0.075745 0.0063438 -0.078552 -0.04953 -0.025299 -0.013649 -0.052765 0.042969 0.0177 0.0075455 0.0080719 0.0043106 0.039429 0.1145 -0.0039406 -0.05011 -0.035828 -0.051514 -0.030685 -0.060852 0.11218 -0.05191 -0.038086 -0.01619 0.007019 0.050446 0.051788 0.0849 -0.056885 0.030838 0.02977 -0.026215 -0.083191 0.031036 0.019333 0.051727 -0.01889 0.023117 0.05658 -0.075256 -0.12878 0.011024 -0.10291 -0.015518 0.10199 0.051208 0.0050583 0.058929 -0.036469 -0.0070648 0.026947 -0.0034733 0.092468 -0.040039 0.030045 -0.031464 0.10059 0.021469 -0.010147 -0.036407 0.04538 0.065491 0.045105 0.091614 0.061676 -0.1488 0.087769 0.013512 -0.078796 0.01049 -0.02919 -0.020279 0.024719
Sebastian_Thrun 0.011917 -0.019684 -0.030487 0.10956 -0.058655 -0.0069351 0.0062599 -0.038361 0.040375 0.010292 -0.03183 -0.078247 -0.019897 -0.04364 -0.010406 0.07019 0.063232 0.10498 -0.036682 -0.1084 0.0010338 0.012306 0.065491 -0.017029 -0.098572 0.032715 -0.072998 0.10779 -0.041565 -0.1037 -0.030228 0.0030155 -0.088745 -0.050751 -0.0018539 -0.017929 -0.05835 0.031494 0.070618 0.046417 0.0069809 0.015701 0.059448 0.10889 0.0015469 -0.079956 -0.0087204 -0.068848 -0.014435 -0.0017061 -0.13086 0.009285 -0.011818 0.024139 -0.016281 0.072815 -0.031433 -0.016602 -0.0057449 -0.12445 0.016937 0.036072 -0.12482 -0.00284 -0.048737 -0.069885 -0.096375 -0.0041504 -0.013382 0.072083 0.07605 0.06366 0.01123 -0.034515 -0.11603 -0.038269 -0.019592 0.048737 0.016998 0.01432 0.0035095 0.039734 -0.020508 -0.015289 0.060272 0.023895 0.011604 0.12573 -0.0053139 0.0096207 -0.012634 -0.10883 -0.06781 -0.025864 0.0076065 0.043213 -0.015419 -0.014626 0.11298 -0.038177 -0.056396 -0.051117 -0.050568 0.024231 0.031921 0.056946 -0.17419 0.065857 0.062988 0.0081863 -0.05954 -0.044373 0.029587 -0.017883 0.10144 -0.0033627 -0.055756 -0.12756 0.058533 -0.0015974 -0.029861 -0.0084763 -0.070923 -0.0069351 0.071411 -0.027359 -0.099182 0.077515 0.036133 0.020462 -0.10815 -0.063843 -0.037323 0.050598 -0.062622 0.030426 -0.10883 -0.042908 0.086853 0.020004 0.082397 -0.098206 -0.015625 -0.065491 0.026382 0.032166 0.051117 0.032104 0.027084 -0.10565 0.075256 -0.091125 -0.078003 0.058472 -0.048065 -0.098999 -0.044586 0.065613 -0.08313 -0.036865 -0.038025 0.048096 -0.0029373 0.035156 0.0033665 -0.13879 0.094604 0.0038948 -0.092468 0.099182 -0.0040588 -0.015129 0.067505 -0.035004 -0.0026493 0.011894 0.10083 -0.15649 0.044312 -0.074524 -0.016464 -0.079834 -0.01828 -0.0289 0.067505 0.036316 -0.04306 0.01918 0.0024757 0.02771 0.019867 -0.013451 -0.06012 -0.00013542 0.053467 0.089294 -0.038757 -0.081848 -0.0026417 -0.075745 -0.099792 0.1059 0.024658 0.014717 -0.062317 -0.020081 -0.026947 -0.024857 -0.10114 0.067383 -0.0017567 0.018295 -0.099854 0.059357 -0.040192 0.078796 0.011353 -0.037262 -0.0091019 -0.030487 -0.04306 0.020782 0.046417 0.040558 0.0083618 -0.010399 0.0068626 0.017654 -0.013374 -0.083374 -0.03183 -0.040314 -0.075073 -0.026306 0.040619 -0.0007515 0.039886 0.030411 0.068298 0.029434 0.10443 -0.0089417 -0.022522 -0.014412 -0.052765 0.01593 -0.049438 0.14734 -0.046387 -0.061768 -0.025482 0.041718 0.040314 0.040649 0.041473 -0.082947 -0.018616 -0.0021629 -0.026352 -0.079224 0.022659 0.0010614 0.075195 -0.061127 -0.035339 0.058899 -0.053375 -0.062225 0.0034847 -0.067932 -0.035217 0.065491 0.044769 0.078064 0.066406 0.0031948 -0.039368 0.0047607 -0.0053749 0.058197 -0.031647 0.0054512 -0.027924 0.049072 0.0495 0.056213 -0.02507 0.042816 0.065796 0.059021 0.04184 0.077148 -0.11169 0.075195 0.019516 -0.10071 0.030807 -0.052612 0.0055733 0.019531
Andrew_Ng 0.01149 0.00073051 0.035156 0.052338 -0.057739 0.034363 0.048126 -0.042603 0.0099564 0.018906 -0.083923 -0.12231 -0.041718 -0.023499 -0.024292 0.071045 0.046997 0.1012 0.0070305 -0.023132 -0.066345 -0.017136 0.036865 0.015152 -0.1012 -0.061371 -0.088562 0.090576 -0.032593 -0.046997 -0.038849 0.013397 -0.061005 -0.085632 -0.082764 -0.039734 -0.052643 0.11249 0.11896 -0.060913 -0.036987 -0.0016193 0.092407 0.10352 0.025253 -0.033905 -0.052338 -0.038605 -0.058777 0.022552 -0.089233 0.041077 -0.028381 0.030823 -0.098389 0.063171 -0.096863 -0.09082 0.0091019 -0.080383 -0.027527 0.033142 -0.049835 -0.02446 -0.09845 -0.061188 -0.088989 -0.026794 -0.017014 0.071411 -0.028839 0.1015 0.018814 0.032013 -0.030838 -0.017593 0.0495 0.020142 -0.022598 -0.040375 -0.054688 0.025772 0.023178 -0.026306 0.050598 0.031708 -0.02507 0.10767 -0.052429 0.03363 -0.0063629 -0.037415 -0.086731 -0.035339 0.065186 -0.018509 0.027283 -0.048248 0.11359 -0.0028229 -0.035736 -0.0029869 -0.052673 0.014435 -0.031158 0.060669 -0.11011 0.027069 0.024292 0.04245 -0.11328 -0.062744 0.057465 -0.048523 0.084229 0.025452 -0.040009 -0.12415 0.023941 -0.022903 0.0079422 -0.036316 -0.082153 -0.046173 0.10852 -0.066589 -0.11804 0.031708 0.034393 0.057648 -0.054108 -0.00090742 -0.019699 0.017624 -0.062286 -0.015114 -0.047638 -0.022354 0.058563 0.03064 0.13391 -0.071533 -0.042725 0.0055466 0.026169 0.014458 0.032501 0.050751 -0.032867 -0.068176 0.017975 -0.10779 -0.053467 -0.00028205 -0.032349 -0.11353 0.051544 0.13342 -0.035339 -0.043213 -0.078186 0.060242 -0.031097 -0.0038071 0.053009 -0.06543 0.068298 0.04364 -0.11578 0.10522 -0.059631 -0.031097 -0.0057678 -0.046326 -0.039917 0.080261 0.096985 -0.13782 0.10095 -0.10901 0.031372 0.0032024 -0.029724 -0.027435 0.051849 0.068115 -0.0042572 0.031921 0.01619 -0.024582 0.027847 0.049377 -0.081726 -0.0019703 -0.001483 0.065125 -0.057251 -0.081848 -0.002285 -0.011269 -0.031128 0.081055 -0.02562 -0.06073 0.031586 -0.0083542 -0.01387 -0.031403 -0.10754 0.09021 -0.022018 -0.012756 -0.10083 0.06189 -0.081482 0.024582 0.020432 -0.075806 -0.0053825 -0.016388 -0.037292 0.028015 0.049896 0.027191 -0.013916 -0.082947 0.025711 0.024429 0.046631 -0.030518 -0.0036411 -0.081726 -0.025711 -0.035522 0.007122 -0.021698 0.05365 -0.0097733 0.038086 0.015297 0.10114 0.01767 0.019791 0.0026398 -0.046143 0.011909 -0.046326 0.13293 -0.10822 -0.075073 -0.037323 0.020248 0.055511 0.075623 0.026611 -0.10114 -0.013603 -0.037384 -0.036194 -0.0069809 0.035858 0.072937 0.13 -0.040894 -0.063477 0.018799 -0.032593 -0.069702 -0.013359 -0.0336 -0.053162 0.054504 -0.045532 0.022461 0.071045 -0.051819 -0.070496 -0.028671 -0.01387 0.11285 -0.076904 0.085938 0.044861 0.052063 0.018417 0.047424 -0.025787 0.026886 -0.012703 0.059601 0.0060501 0.085938 -0.081482 0.066284 0.010216 -0.051819 0.0023403 -0.039215 -0.021927 0.063416
Yoshua_Bengio 0.016876 -0.0016661 0.029312 0.064392 -0.013397 0.027298 0.036407 -0.053772 0.048035 0.030762 -0.063721 -0.10681 -0.005806 -0.029541 -0.028519 0.058319 0.082336 0.12854 0.024261 -0.011543 -0.046478 -0.015778 0.035004 0.055603 -0.033447 -0.019241 -0.089417 0.091248 -0.015961 -0.068909 -0.03833 0.014954 -0.049042 -0.0242 -0.074951 -0.056488 -0.043732 0.10193 0.074768 -0.058746 -0.01651 -0.0062599 0.085388 0.12524 0.011932 -0.058289 -0.060791 -0.097229 -0.038483 0.076538 -0.064758 0.022507 0.0031929 0.005394 -0.08313 0.026871 -0.061188 -0.12598 0.0081711 -0.074585 -0.014877 0.066711 0.0043602 -0.023117 -0.090637 -0.059021 -0.12732 -0.018982 -0.039398 0.069519 -0.026413 0.10107 0.052917 -0.026154 -0.0043907 0.0064735 0.067871 0.0054054 -0.045563 -0.024963 -0.07074 0.035828 0.01976 -0.049805 0.054443 0.003561 -0.019028 0.10284 -0.060333 0.04361 -0.028503 -0.062134 -0.074707 -0.021652 0.06012 -0.025543 0.035828 -0.091797 0.0755 -0.029999 -0.016388 -0.0051994 -0.061829 -0.039795 -0.01619 0.013268 -0.085205 0.076111 0.046051 0.0070229 -0.067993 -0.035004 0.054474 0.0057449 0.12976 0.0066261 -0.05484 -0.097534 0.089905 -0.032593 -0.0040283 -0.055786 -0.10236 -0.076294 0.13062 -0.025879 -0.092224 0.077637 0.037659 0.10492 -0.084412 -0.0012932 -0.031738 -0.0069733 -0.056152 0.015518 -0.008606 0.0085831 0.042969 0.10388 0.091553 -0.052094 -0.062866 -0.023117 0.037659 0.088562 0.043182 0.060516 -0.0075073 -0.07019 0.0027771 -0.082825 -0.092896 0.010689 0.0013218 -0.12805 0.0022526 0.14368 -0.054993 -0.088562 -0.026047 0.05661 -0.065735 -0.033112 0.036926 -0.068909 0.077515 -0.0066643 -0.12769 0.06665 -0.025574 0.0090103 -0.036713 -0.035187 -0.025238 0.063843 0.088684 -0.11505 0.093567 -0.10736 0.021667 0.0093002 -0.028152 -0.045319 0.00046492 0.06781 0.0020695 -0.015823 0.027496 -0.024887 0.028824 0.039398 -0.078491 -0.012108 0.036194 0.038757 -0.038422 -0.089294 -0.001441 -0.0078506 -0.028091 0.13367 0.03476 -0.077209 0.038818 0.055969 -0.0026531 -0.0040932 -0.073242 0.090759 -0.018646 -0.0466 -0.091797 0.067322 -0.10315 0.0068474 0.03537 -0.039154 0.014778 -0.021164 -0.04541 0.0024338 0.0014343 -0.0067673 -0.012054 -0.040314 0.041229 0.0043983 0.060059 0.04187 -0.0056038 -0.07666 0.0065918 -0.052979 0.053345 -0.024857 0.029419 -0.034119 0.051605 0.021072 0.094238 0.0025597 -0.021561 -0.034088 -0.0021152 0.037201 -0.046051 0.12634 -0.063477 -0.078735 0.0028248 0.022629 0.018173 0.055023 0.079102 -0.10236 -0.036469 -0.033325 -0.037231 -0.015358 0.055603 0.07959 0.059875 -0.03894 -0.037537 0.037292 0.021439 -0.058289 -0.081848 -0.043854 -0.080505 0.067871 0.011391 -0.00096798 0.079773 -0.056641 -0.055573 -0.0077705 -0.03656 0.15894 -0.064087 0.025146 0.052734 0.053528 0.03717 0.044037 -0.049408 0.035187 0.041199 0.059021 0.0079727 0.047607 -0.076843 0.062744 -0.013329 -0.031738 0.032227 -0.035583 -0.035858 0.078491
Yann_LeCun 0.059235 -0.033325 0.0091248 0.058014 -0.04776 0.0011711 0.014336 -0.079956 0.030121 0.023438 -0.042206 -0.070068 0.00011438 -0.0064354 -0.044586 0.0019064 0.043427 0.10956 0.019394 -0.071594 0.0088043 0.06665 0.031616 0.064392 -0.062286 -0.065247 -0.085999 0.079895 -0.049042 -0.052002 -0.016724 -0.010101 -0.035309 -0.071533 -0.073059 -0.10455 -0.027847 0.062988 0.096313 0.0099487 0.025909 0.02652 0.09082 0.10321 0.052643 -0.073364 -0.040558 -0.05127 -0.013344 0.0099182 -0.080872 -0.016129 -0.047455 -0.0041962 0.0063133 0.010796 0.0071983 -0.072632 0.0271 -0.082397 -0.018463 0.0051689 -0.02739 -0.014137 -0.10577 -0.04483 -0.063171 0.026993 -0.030975 0.031067 -0.033508 0.02037 0.041046 -0.077271 -0.030411 -0.02803 0.080872 -0.050385 0.01355 -0.0215 -0.043549 0.071167 0.057983 0.012268 0.080444 -0.031616 0.010498 0.14856 -0.047272 0.020462 0.0091934 -0.11493 -0.14868 -0.016449 0.00061989 0.015305 0.033508 -0.095703 -0.014626 -0.018478 0.058319 -0.099243 -0.055359 -0.042755 0.025543 0.049744 -0.066589 -0.017029 0.042725 0.007782 -0.088501 -0.08313 0.062195 -0.03717 0.12366 0.021591 -0.022476 -0.0849 0.081482 -0.031403 -0.029495 -0.015488 -0.072083 -0.045288 0.03653 -0.012001 -0.10272 0.12878 0.0084534 0.054443 -0.079773 -0.059387 -0.079712 0.040344 -0.03833 -0.00030518 0.021362 0.065918 -0.03035 0.076965 0.088989 -0.078674 -0.073853 0.0027447 0.02739 0.079529 0.017776 0.077942 -0.024582 -0.080261 0.071533 -0.068542 -0.09668 0.0090714 -0.025009 -0.076782 -0.009964 0.015488 -0.0058861 -0.048462 -0.049469 0.065369 -0.041168 0.021591 -0.00036383 -0.052338 0.086548 0.0098724 -0.096313 0.056152 0.0038795 0.04422 -0.072571 0.0021935 -0.0016747 0.027283 0.034515 -0.12201 0.037628 -0.009201 0.016373 0.025269 0.034821 -0.032257 0.049622 0.049438 0.0031853 -0.01207 -0.0038795 -0.058899 0.013725 0.0090866 -0.05838 -0.060242 -0.037109 0.074036 -0.034058 -0.18774 -0.03833 -0.078064 -0.015404 0.087097 -0.0037327 0.069214 0.048706 -0.037476 0.0022564 -0.022614 -0.098206 0.048828 -0.076111 -0.0087738 -0.065002 0.0065002 -0.051605 0.016602 0.032318 0.028625 -0.086243 -0.11584 -0.070862 0.04184 0.037079 -0.025345 -0.017578 -0.04303 -0.010323 0.030991 0.010849 0.0054779 0.020538 -0.022827 0.0019464 -0.084229 0.0032921 -0.038544 0.087036 -0.067566 0.070068 0.07019 0.09729 -0.03421 -0.0802 -0.089233 -0.051178 0.0098038 -0.018997 0.16992 -0.046356 -0.1283 0.00033522 -0.0058212 0.041016 0.095459 0.11194 -0.14343 0.028793 0.0035992 -0.058655 -0.012436 0.049957 0.013885 0.016571 -0.014664 -0.027252 0.031433 -0.024933 -0.11151 -0.060516 -0.058167 -0.0040817 0.082031 -0.0064659 0.037872 0.070862 -0.074951 -0.015335 -0.055481 0.03653 0.10944 0.015129 0.039062 0.025665 0.059235 0.034393 -0.035583 -0.028671 0.016571 0.10138 0.071045 -0.02739 0.040802 -0.098145 0.042328 -0.011047 -0.099548 0.013939 -0.032745 -0.065186 0.024689
Geoffrey_Hinton 0.022751 -0.0030594 0.0055199 0.1059 -0.039001 -0.00076628 -0.014435 -0.05835 0.019211 0.034454 -0.032379 -0.12927 -0.020493 0.023712 -0.078003 0.053894 0.034119 0.15796 0.0039711 -0.12054 -0.037262 0.0020065 0.04892 0.023697 -0.068054 -0.083679 -0.084778 0.12769 -0.045624 -0.045685 -0.002367 -0.018082 -0.049713 -0.052887 -0.069641 -0.015289 -0.041138 0.11029 0.066101 0.022842 0.017731 0.0088959 0.072144 0.084717 0.019028 -0.11438 0.018967 -0.10944 -0.031174 0.00054646 -0.1311 0.0233 -0.0057182 -0.041718 0.0042534 0.018967 -0.036621 -0.11658 0.01619 -0.10657 0.045746 -0.015961 -0.03537 -0.017456 -0.06427 -0.083557 -0.052612 0.012314 -0.031204 0.01442 0.00072241 -0.018997 0.069885 -0.039001 -0.036346 -0.076843 0.064758 -0.033997 -0.0030212 0.0038109 -0.066406 0.076782 0.07959 -0.0026665 0.072693 -0.00096416 -0.027557 0.15186 -0.037048 0.035248 0.030716 -0.049316 -0.10913 -0.0095749 0.051544 0.065308 0.040588 -0.080811 0.054169 -0.017593 0.049866 -0.055115 -0.042267 -0.038849 0.032318 0.072327 -0.078735 0.0035114 0.012032 0.013763 -0.12012 -0.042328 0.0064392 0.0016146 0.10632 0.0029659 -0.10724 -0.12451 0.082581 -0.049866 -0.037567 0.0047188 -0.046631 -0.05835 0.04483 0.052612 -0.13245 0.1012 0.046448 0.065308 -0.034454 -0.068604 -0.050964 0.012108 -0.066833 0.017044 0.043884 0.043701 0.024033 0.12585 0.10846 -0.063904 -0.062866 0.01059 -0.016632 0.088745 0.022491 0.046295 0.005352 -0.084656 0.094299 -0.11652 -0.08252 0.019318 0.0069847 -0.11749 -0.046509 0.1059 -0.018784 -0.031342 -0.010338 0.056305 0.011574 -0.00063372 0.035278 -0.011261 0.071594 0.0061913 -0.11761 0.096558 -0.0055275 0.0014734 -0.073975 -0.022675 -0.029343 0.027802 0.074463 -0.1272 0.050446 0.0063515 -0.016876 -0.043854 0.026505 -0.0090485 -0.014839 0.032501 -0.011742 0.024826 0.031113 0.020294 0.011833 -0.026184 -0.02803 0.02507 -0.012344 0.089722 -0.041412 -0.11346 -0.052521 -0.050201 -0.018692 0.059784 -0.014595 0.004467 -0.0034122 -0.009552 -0.017288 -0.019028 -0.055603 0.016083 -0.049744 -0.090088 -0.10699 0.0755 -0.070557 -0.001379 0.028259 -0.036133 -0.013809 -0.046844 -0.057617 0.0038052 0.050995 -0.031204 -0.023621 -0.046997 0.015839 0.040314 -0.0028973 0.018494 0.01918 0.012314 0.028091 0.014267 -0.015976 -0.03183 0.081421 -0.065857 0.071472 0.039093 0.10034 0.010063 -0.049255 -0.036285 0.018173 0.058899 -0.080627 0.17639 -0.052612 -0.040863 0.010338 -0.0025616 0.0096741 0.071472 0.045197 -0.11957 -0.035095 0.0045052 0.00077295 -0.040802 0.035919 0.0010996 0.019775 -0.0802 -0.014931 0.0083008 -0.0064201 -0.053009 -0.0053902 -0.040985 -0.030975 0.060669 -0.0011368 0.075562 0.039642 -0.080139 -0.062225 -0.039917 0.022675 0.13171 0.0043755 0.083008 0.013649 0.01712 0.05481 -0.046295 -0.0032482 -0.027573 0.043121 0.041016 -0.030228 0.058289 -0.084473 0.088989 -0.02417 -0.07782 0.011093 -0.085754 0.0055695 0.056519
Jürgen_Schmidhuber 0.024277 -0.0091934 0.020966 0.083984 -0.075439 -0.018234 -0.0026512 -0.051025 0.024551 0.050629 -0.023132 -0.032318 -0.004467 0.038635 -0.070374 0.063293 -0.0049858 0.10803 -0.003994 -0.13708 -0.024002 0.008667 -0.018387 0.053833 -0.026642 -0.13708 -0.066833 0.08075 -0.062988 -0.066956 -0.046661 -0.045715 -0.025223 0.0039635 -0.061737 -0.051025 0.003027 0.062378 0.086487 0.0067673 0.059204 0.038605 0.043243 0.11365 0.021072 -0.09668 -0.039124 -0.098145 -0.02005 -0.013451 -0.079773 0.00053787 -0.074097 -0.053772 -0.0037327 0.057129 -0.01651 -0.13464 0.048981 -0.051239 -0.023529 -0.020538 -0.0044403 -0.048523 -0.10193 -0.042816 -0.040375 0.028824 0.0097961 -0.050964 0.027664 -0.080383 0.059082 -0.058197 -0.044159 -0.072815 0.1283 -0.044952 -0.010284 -0.008461 0.028656 0.048279 0.060211 0.016449 0.066772 0.006916 0.0048065 0.16589 -0.034576 0.0097961 0.034515 -0.077332 -0.078003 0.054626 -0.0004766 -0.027832 0.074951 -0.10248 0.053406 -0.026428 0.096069 -0.098511 -0.052277 -0.062927 0.063416 0.010719 -0.10071 -0.01387 -0.01123 0.0014668 -0.037903 -0.069702 -0.020813 -0.024719 0.12463 0.044434 -0.072021 -0.10663 0.064148 -0.044952 -0.022827 0.023315 -0.056793 -0.03833 0.030472 0.043121 -0.092346 0.14404 0.0043144 0.060699 0.0066414 -0.11566 -0.10455 -0.011063 -0.036774 -0.023346 0.070923 0.06781 0.018112 0.13269 0.093018 -0.086792 -0.082153 0.046875 -0.050629 -0.013496 -0.0054703 0.041016 -0.023422 -0.088806 0.028778 -0.066162 -0.093018 0.021652 0.015533 -0.094971 -0.052948 0.075623 -0.016953 -0.022125 0.0079956 0.053741 -0.025223 -0.03656 0.010185 0.0015955 0.078674 0.016205 -0.095154 0.056091 -0.010834 -0.0058594 -0.10632 0.013145 0.05899 0.051758 0.033722 -0.074951 0.01918 -0.010628 -0.0077667 -0.0495 0.05835 0.020828 0.050171 0.055328 -0.017548 0.017578 0.044617 -0.037201 -0.046143 -0.021225 -0.037323 -0.044281 0.00634 0.026886 0.014709 -0.16016 -0.036224 -0.07135 -0.031219 0.048889 -0.015137 -0.011475 -0.078064 -0.051361 -0.051636 -0.018112 0.0064583 -0.036194 -0.02002 -0.043365 -0.08429 0.030731 -0.10156 0.0018435 0.084534 0.01548 -0.084473 -0.0052032 -0.083496 0.025146 0.020386 -0.083862 -0.052734 -0.021225 0.029678 0.037384 -0.025055 0.070068 0.010521 0.0079117 0.031708 -0.034698 -0.029419 -0.023651 0.013145 -0.041656 0.058899 -0.0030155 0.079102 -0.067505 -0.057404 -0.075317 0.0076981 0.0034847 -0.059723 0.1554 -0.026718 -0.11121 0.056702 -0.014198 -0.012398 0.032135 0.012474 -0.14307 -0.00072527 0.016113 -0.00021911 -0.031464 0.037903 0.0097427 0.017212 -0.045776 -0.025192 0.033295 -0.0037441 -0.091492 -0.071167 -0.018906 -0.074585 0.099243 -0.035187 0.023209 0.047882 -0.017792 -0.057922 -0.0083466 0.082581 0.10797 -0.081848 0.095703 -0.027054 -0.038147 0.049286 -0.06311 0.01532 -0.0073814 0.032898 0.052582 -0.078369 0.087952 -0.053131 0.048706 -0.011803 -0.026871 -0.040588 -0.034424 -0.041046 0.068787
Bruno_Olshausen 0.018433 -0.02919 0.012749 0.075928 -0.03244 0.011757 0.020782 -0.031097 0.031174 0.061127 -0.0049438 -0.026337 -0.040131 0.0022125 -0.056396 0.02681 -0.017105 0.12042 0.0063286 -0.059387 -0.044098 -0.026917 -0.0755 0.046753 -0.046326 -0.082397 -0.093567 -0.012482 -0.10205 -0.028641 -0.0053482 -0.036255 -0.015839 -0.0035954 -0.071777 -0.10895 -0.029587 0.084473 0.062073 0.052948 0.023712 0.078918 0.011993 0.055756 0.021866 -0.081482 -0.038422 -0.058044 -0.081604 0.029053 -0.096497 -0.043915 -0.067261 -0.042328 0.032532 0.019379 0.0036469 -0.12805 0.014587 -0.087219 -0.087158 0.020966 0.0035992 0.0095749 -0.066162 -0.0755 -0.0028934 0.080688 0.016571 -0.026886 -0.0057106 -0.11072 0.088989 -0.089661 -0.029541 -0.06781 0.083679 -0.026627 -0.035248 -0.052795 -0.012939 0.052216 0.066345 -0.011154 0.037048 -0.012901 0.013725 0.18835 -0.064453 0.038727 0.0049477 -0.0849 -0.084229 0.036804 0.010826 0.030304 0.11884 -0.13147 0.023514 0.0057335 0.092834 -0.066711 -0.038422 -0.030655 0.052032 0.031525 -0.083862 0.036255 0.022476 0.014763 -0.096924 -0.039337 0.076355 -0.014191 0.15845 0.051025 -0.048828 -0.11029 0.10803 -0.025208 -0.010307 0.0053558 -0.038025 -0.031097 0.092712 0.027664 -0.088562 0.16235 -0.040741 0.098694 0.015579 -0.071106 -0.054962 -0.036133 -0.047119 -0.0066872 0.026688 0.08252 0.0030003 0.075195 0.049866 -0.059479 -0.10992 0.025055 -0.058258 0.07019 0.013596 0.057373 -0.045959 -0.026505 0.069946 -0.044861 -0.11444 0.068176 0.036438 -0.056213 -0.0070572 0.053894 -0.024033 -0.001092 0.0054665 0.017075 0.023178 -0.0067062 0.0011683 0.01619 0.095398 0.027374 -0.10278 0.0034389 -0.004055 -0.020065 -0.081055 0.058502 0.038849 0.026566 0.012512 -0.14636 0.051453 -0.0020466 -0.018234 -0.0094299 0.035248 -0.067139 0.021866 0.065674 -0.069458 -0.049927 0.0045509 0.004776 -0.0077209 -0.082764 -0.017303 -0.069641 0.015236 0.059143 0.019501 -0.14026 -0.012627 -0.026611 -0.047394 0.070679 -0.029892 1.5736e-05 -0.028961 -0.048767 -0.0022678 -0.051758 -0.026764 -0.013542 -0.10754 -0.078064 -0.071594 0.033356 -0.036346 -0.0046959 0.013374 0.052124 -0.022186 -0.019547 -0.0354 -0.0066528 -0.0014143 -0.06665 -0.057159 -0.04184 0.029968 0.052612 0.032257 0.02832 -0.021301 0.012924 0.03186 -0.046783 -0.056915 -0.049866 -0.019608 -0.041626 0.056335 -0.010941 0.063599 -0.059509 -0.06488 -0.066956 0.0159 0.02063 -0.023361 0.18567 -0.046936 -0.036346 0.033386 -0.055145 -0.03241 0.065063 0.0035 -0.16943 -0.0010233 0.0040779 -0.044037 -0.054474 0.030533 -0.051971 -0.03186 -0.049286 -0.052948 0.020065 0.012566 -0.13953 -0.032501 -0.063416 -0.036682 0.025543 0.026215 0.035889 0.073975 0.007122 -0.073364 -0.05246 0.0044327 0.074463 -0.0019932 0.059509 -0.056061 -0.012688 0.074158 -0.064453 0.079346 -0.02066 0.038574 0.048248 -0.059906 0.011017 -0.035767 0.076111 -0.004921 -0.0099182 -0.046082 -0.075989 0.0021286 0.069397
J.J._Hopfield -0.018478 0.0075264 0.066284 0.064697 -0.061127 -0.022385 0.070984 -0.096985 0.0067825 0.011436 -0.035828 -0.044861 -0.027847 -0.02861 -0.082397 0.07959 -0.0068016 0.13049 0.082092 -0.031006 -0.018372 -0.010231 0.036987 0.032227 -0.019272 -0.040771 -0.04306 0.014275 -0.049072 -0.066772 -0.012947 -0.051605 -0.031616 0.01593 -0.00914 -0.037872 -0.014816 0.11926 0.086365 0.056488 0.018768 0.054413 0.049835 0.088623 0.048096 -0.054718 0.014999 -0.094666 -0.076416 0.042694 -0.12378 0.0071182 -0.060669 -0.04657 0.027954 0.022888 -0.024628 -0.10852 0.016617 -0.10101 -0.01104 0.038208 0.00075102 0.012154 -0.031616 -0.071472 -0.043304 0.099182 -0.040192 0.034149 -0.00038838 -0.055206 0.058929 -0.091675 -0.077576 -0.017014 0.077637 0.0017385 -0.0030994 -0.13574 -0.033813 0.059998 0.041656 -0.040955 0.11932 -0.057007 -0.0087662 0.14563 -0.080566 0.012108 0.0098877 -0.046082 -0.1181 0.0085831 -0.055481 0.023148 0.12793 -0.084412 0.069641 -0.0097427 0.055115 -0.066467 -0.033051 -0.029266 0.01889 0.049988 -0.067322 0.047394 0.043427 -0.010162 -0.06015 -0.051666 0.062317 0.021988 0.15845 0.06131 -0.048431 -0.10059 0.076111 -0.08374 -0.0042343 0.0066833 -0.013802 -0.053375 0.087708 -0.023743 -0.11688 0.13818 -0.011536 0.099426 0.013412 -0.046143 -0.078003 -0.020325 -0.010109 -0.00021243 0.00094128 -0.017151 0.032745 0.092102 0.1156 -0.07312 -0.095764 0.034302 -0.029068 0.089355 0.011269 0.038116 -0.046631 -0.068787 0.071472 -0.14001 -0.13232 -0.0024948 0.015114 -0.050781 0.01828 0.0513 0.02565 -0.005703 -0.019806 0.05661 0.025787 0.016144 0.069336 -0.039246 0.087524 -0.02655 -0.059418 0.0071907 -0.0044289 -0.057312 -0.048401 0.0078583 0.0082703 0.040192 0.053497 -0.13733 0.034607 -0.08551 0.02066 0.020477 0.019501 -0.06897 0.034576 0.05069 0.01223 -0.022079 -0.0068893 0.00091457 0.04718 0.029282 -0.020981 -0.039337 -0.015358 0.066772 0.011421 -0.10504 0.0039978 -0.019318 -0.039581 0.077759 -0.043427 -0.01107 -0.030518 -0.035767 0.013748 -0.022751 -0.07959 0.026306 -0.08252 -0.093933 -0.037994 0.061951 -0.033386 0.022644 0.032166 0.061371 -0.031738 -0.030502 -0.016342 -0.018707 0.077515 -0.021332 -0.083923 0.018219 0.07959 0.0017843 0.011795 0.015503 0.0077362 0.021149 -0.017288 -0.049683 -0.051758 -0.050812 -0.048279 -0.021713 0.027191 0.01886 0.10461 -0.0066299 -0.039154 -0.047852 0.0049133 0.014145 -0.033997 0.13684 -0.00071144 -0.10425 0.016266 -0.068176 0.013321 0.10254 0.062561 -0.15552 0.0008049 -0.019958 -0.022583 0.0005908 0.018387 -0.050018 -0.068909 -0.014275 0.0079803 0.0067978 0.05426 -0.11682 -0.093262 -0.040955 -0.054596 -0.028763 -0.027618 0.00026321 0.097229 -0.052582 -0.087524 -0.080139 -0.0085831 0.093445 -0.026123 0.037689 0.015915 0.020813 0.057343 -0.058533 0.020828 -0.021866 0.046539 0.027054 -0.036224 0.082214 -0.10803 0.059814 -0.022812 -0.019501 -0.037323 -0.018341 0.003437 0.039856
Randall_O'Reilly 0.046082 -0.038727 0.022903 0.10553 -0.02742 -0.04895 0.050903 -0.039215 0.042389 0.060913 -0.0043526 -0.062622 0.014908 -0.00080919 -0.043213 0.0042458 -0.010834 0.15369 0.046204 -0.077759 -0.073059 -0.022049 -0.0096664 0.04068 0.0095825 -0.053406 -0.094971 -0.0028343 -0.048218 -0.044922 0.010002 -0.027542 0.0073013 -0.013771 -0.0802 -0.10437 -0.021744 0.11401 0.11304 0.028458 0.013084 0.09137 0.074097 0.072205 0.022202 -0.045868 -0.014511 -0.047974 -0.052979 0.047913 -0.10742 -0.030548 -0.097839 -0.026123 0.035675 0.039429 -0.0070992 -0.09906 0.0012865 -0.091919 -0.045593 0.064819 -0.033691 0.016571 -0.041168 -0.086853 -0.036835 0.078674 -0.042267 -0.023407 0.01593 -0.10492 0.037689 -0.095337 -0.065918 -0.075684 0.10449 -0.03833 0.015152 -0.060699 -0.029861 -0.006279 0.034821 -0.057861 0.058258 -0.043732 0.030136 0.15466 -0.072144 0.049896 0.0017529 -0.090149 -0.069641 -0.03418 -0.027298 0.039551 0.075317 -0.075806 0.013573 -0.037781 0.060608 -0.02269 -0.0039787 -0.051514 0.0466 0.045929 -0.067871 0.036194 0.06665 -0.0075378 -0.11047 -0.072449 0.047791 -0.011848 0.17224 0.081116 -0.027267 -0.077637 0.10657 -0.040466 -0.03299 0.0093613 -0.050537 -0.031281 0.063354 -0.011162 -0.12659 0.1803 -0.034302 0.050751 -0.015747 -0.065613 -0.078186 -0.014984 -0.047485 -0.011871 0.0010939 0.031204 0.017639 0.049103 0.075745 -0.077454 -0.12012 0.033783 -0.071777 0.050995 -0.021271 0.045959 -0.060516 -0.068726 0.069946 -0.088379 -0.13672 0.036591 -0.015625 -0.084473 0.016464 0.030106 -0.013474 -0.017868 -0.022186 0.039825 0.033203 0.0031815 0.029861 -0.0064392 0.071594 -0.009407 -0.052673 0.022522 -0.0015278 -0.037201 -0.062408 0.045837 0.018143 0.014671 0.071716 -0.11792 0.051117 -0.034332 0.014091 0.010414 0.014008 -0.081421 0.005085 0.057617 0.0078201 0.0028725 0.026947 -0.01796 -0.0032864 0.0040894 -0.049927 -0.090637 -0.0093613 0.05899 0.00054979 -0.11432 0.016739 -0.0085449 -0.064148 0.033752 -0.05722 -0.01889 -0.020996 -0.064819 0.015617 -0.017365 -0.054199 0.013283 -0.11133 -0.052582 -0.06076 -0.005085 -0.071655 -0.016479 0.061401 0.023193 0.0013685 -0.050018 -0.040802 -0.0086517 0.10986 -0.043762 -0.015457 -0.0029163 0.046356 0.054871 -0.0058365 0.060089 -0.0079575 -0.010986 0.012161 -0.038666 -0.045624 -0.0005455 0.030472 -0.038788 0.011787 0.055206 0.062073 -0.06366 -0.049042 -0.061218 -0.035156 -0.0015087 -0.004631 0.16174 -0.024475 -0.069214 -0.0062714 -0.063477 0.025162 0.13721 0.05896 -0.16711 0.0032902 0.0011644 -0.0070114 -0.056183 0.031097 -0.039551 -0.038452 0.0060692 -0.019028 0.021362 0.040802 -0.063477 -0.076538 -0.059387 -0.099548 -0.018066 0.054321 0.0578 0.080261 0.011322 -0.068054 -0.082825 -0.054535 0.099487 0.042389 0.059479 0.02298 -0.016891 0.026428 -0.093018 -0.0033684 -0.026825 0.060455 0.06488 -0.052368 0.07074 -0.016098 0.016235 -0.0061913 -0.013481 -0.039978 -0.065125 -0.0082016 0.066956
Demis_Hassabis 0.024704 -0.033783 -0.022552 0.092285 -0.035156 0.024628 -0.013947 -0.063965 0.046295 -0.015015 -0.033478 -0.074463 -0.053467 0.0336 -0.028763 0.072449 0.044891 0.095215 0.060974 -0.093567 0.0034866 -0.0060463 0.057312 0.065674 -0.030029 0.017517 -0.10846 0.12311 -0.014496 -0.042297 -0.053284 -0.0095291 -0.04184 -0.010803 -0.046265 -0.075378 -0.040466 0.077209 0.095764 -0.015823 0.0049973 0.00038004 0.079651 0.12354 -0.0017776 -0.050842 0.0015678 -0.054108 -0.024765 -0.04892 -0.093933 0.0092773 -0.049683 0.0082092 0.0069847 0.012993 -0.0672 -0.079407 -0.018005 -0.09613 -0.0081177 0.034119 -0.031403 0.057159 -0.070312 -0.055389 -0.091125 0.0010719 -0.018295 0.050201 -0.0077477 0.032654 0.0031548 -0.0066757 -0.082764 -0.031128 0.06311 0.0012283 0.017639 -0.069031 -0.055481 0.027283 0.054321 -0.08783 0.039642 -0.019806 0.024094 0.13232 -0.049896 0.020508 -0.025162 -0.074036 -0.095703 -0.0053177 -0.0027332 0.039398 0.071899 -0.089722 0.083496 -0.011734 -0.01973 -0.048645 0.048462 0.074036 0.071838 0.014915 -0.12183 0.013947 0.11176 -0.040802 -0.06842 -0.043152 0.040161 -0.029358 0.10364 -0.024063 -0.08844 -0.14917 0.077759 -0.04303 -0.058502 -0.058563 -0.05069 -0.043793 0.034271 -0.046967 -0.10089 0.12262 0.037842 0.031464 -0.075012 -0.05896 -0.076599 0.037048 -0.05368 -0.027481 -0.011353 0.022644 -0.0054588 0.037323 0.11206 -0.091003 -0.06897 -0.0026207 0.029221 -0.024323 0.019669 0.0073204 -0.117 -0.091614 0.039429 -0.078247 -0.073181 0.00027633 -0.025879 -0.1001 0.012711 0.025238 -0.037506 -0.037109 -0.061432 0.044952 -0.014198 0.015701 0.0064774 -0.092407 0.068542 -0.020828 -0.084229 0.070557 -0.001215 0.0028229 -0.048218 0.025146 -0.047852 0.0036144 0.073181 -0.15698 0.078491 -0.082275 0.043945 -0.048126 -0.0061302 -0.06781 0.076294 0.0093689 -0.055725 0.061615 -0.0019054 -0.1012 -0.016907 0.051331 -0.067078 -0.037933 -0.0033855 0.14172 -0.044952 -0.073059 -0.037659 -0.05249 -0.083435 0.044586 -0.014236 0.0055923 0.014137 -0.053314 0.022583 -0.061981 -0.062256 -0.0012598 -0.11029 0.024094 -0.052734 0.0079193 -0.060699 -0.022156 0.0271 -0.003664 -0.00099945 -0.047607 -0.067566 0.022369 0.080933 0.01947 0.022263 0.0043335 -0.007 -0.00018191 -0.075134 -0.0058365 0.04126 -0.062927 0.012131 -0.039978 -0.0066795 -0.019302 0.030411 0.0045967 0.052399 0.064331 0.12372 -0.029175 -0.055634 -0.029037 -0.043304 0.013931 0.0072823 0.13928 -0.048706 -0.09552 -0.0054665 -0.05481 0.047668 0.1059 0.057465 -0.10547 -0.026886 -0.015656 -0.020737 -0.10059 0.021988 0.012566 0.05069 -0.010139 -0.058136 0.057343 -0.035309 -0.085144 -0.044739 -0.090759 -0.036652 0.029495 0.0060005 0.056 0.095642 -0.016708 -0.049652 -0.052155 0.003664 0.12286 -0.0354 0.051819 0.0079041 0.059814 0.018845 -0.026886 -0.051605 0.023788 0.078613 0.10992 0.0097809 0.062378 -0.097473 0.028793 0.020309 -0.074341 0.017456 -0.072388 -0.0063171 0.062744
Peter_Norvig 0.050903 -0.027603 -0.01442 0.067444 -0.01329 -0.0029659 -0.01368 -0.038269 -0.010223 0.041809 -0.056976 -0.073914 -0.055237 -0.026306 -0.057129 0.04071 0.057892 0.13403 0.020782 -0.084717 -0.086243 0.018204 0.061523 0.0068398 -0.073364 -0.062866 -0.036774 0.14465 -0.028336 -0.081055 -0.025131 -0.0028515 -0.069214 -0.049408 -0.061768 -0.014885 -0.091064 0.079407 0.054901 0.0017204 0.017883 0.05246 0.086548 0.1098 0.020187 -0.056335 -0.063049 -0.095032 -0.040375 -0.01049 -0.1272 0.018951 -0.0048141 -0.016129 -0.055725 0.041199 0.0012369 -0.089722 -0.046814 -0.082397 -0.0052528 -0.011574 -0.052979 -0.01368 -0.076416 -0.096008 -0.083862 0.017044 -0.0057869 0.021362 0.05603 0.021088 0.012894 -0.048492 -0.062866 -0.062683 0.095032 0.031616 -0.021149 -0.0049362 -0.049744 0.044159 -0.00013614 -0.0064964 0.025452 0.030121 0.01857 0.095215 -0.0037766 0.024704 0.033386 -0.038818 -0.11298 -0.028595 0.047668 0.051575 0.027298 -0.040985 0.074524 -0.059753 -0.010376 -0.092041 -0.072021 -0.0097122 0.0048828 0.10504 -0.10779 0.027298 0.045227 0.027252 -0.088684 -0.066284 0.0093231 -0.0077095 0.097229 0.037476 -0.046234 -0.1698 0.10492 -0.0012083 -0.04718 -0.020981 -0.04184 -0.061737 -0.00038052 0.0093765 -0.10022 0.065247 -0.012375 0.0025139 -0.049927 0.0080566 -0.070374 -0.0049667 -0.02356 0.077026 -0.022354 0.010384 0.022247 0.093262 0.086487 -0.104 -0.086243 0.014984 0.01239 -0.0043716 0.064941 0.067322 -0.045624 -0.095093 0.033051 -0.13257 -0.11267 0.030869 0.020599 -0.13635 -0.017258 0.11292 -0.069702 -0.024994 -0.04483 0.064514 -0.028046 0.010918 -0.00017822 -0.059692 0.10059 0.066711 -0.12329 0.058167 -0.026337 -0.047028 -0.016953 -0.054901 -0.047516 0.02597 0.10059 -0.16797 0.045288 -0.087585 -0.020493 -0.054413 -0.046906 -0.050079 0.046448 0.066589 0.0075378 0.016586 0.030701 -0.028305 0.00023723 -0.014717 -0.084167 0.0050964 0.027542 0.12708 -0.02916 -0.052307 -0.010391 -0.031738 -0.072021 0.064758 -0.041321 0.049316 -0.019211 -0.0091858 0.0082016 -0.03421 -0.060211 0.060455 -0.021973 -0.012634 -0.043274 0.048035 -0.071777 0.033539 0.045349 -0.034027 -0.021576 -0.032867 -0.063477 0.026169 0.069214 0.0066414 -0.034515 -0.016678 0.010742 0.046082 0.061188 -0.027725 -0.020599 -0.050995 -0.03125 -0.073914 -0.031799 -0.010971 0.067017 0.0034313 0.0802 0.04483 0.086548 -0.042511 -0.0039597 -0.047668 -0.0081329 -0.031464 -0.029602 0.12671 -0.04837 -0.0080032 -0.021439 0.032013 0.027847 0.03125 0.012932 -0.15967 -0.068359 -0.026093 0.014145 -0.014717 0.070801 0.023926 0.09259 -0.053558 -0.018753 0.042572 -0.035675 -0.08374 -0.040863 -0.044586 0.051666 0.010353 -0.049988 0.087708 0.063965 -0.013649 -0.016754 -0.024323 -0.026642 0.15771 -0.049438 0.063416 0.016357 0.047028 0.07074 -0.036469 -0.01442 -0.014671 0.013718 0.064575 -0.038361 0.0023689 -0.070862 0.064941 0.019745 -0.070312 -0.0074158 -0.020203 -0.068604 0.078125
Jeff_Dean 0.00811 0.030228 -0.0050926 0.086182 -0.026611 0.033661 0.024155 -0.055023 0.080811 0.040466 -0.058929 -0.11279 -0.069824 0.0022373 -0.056885 0.062286 0.0084839 0.1225 0.011833 -0.01442 -0.045502 -0.027206 0.050568 0.0017767 -0.08783 -0.057831 -0.1225 0.10388 -0.023193 -0.075623 -0.0071526 0.0049973 -0.079651 -0.029541 -0.10022 -0.068359 -0.03096 0.099548 0.048523 0.0076942 0.022217 -0.020065 0.072937 0.12225 0.046295 -0.04187 -0.011078 -0.092102 -0.063538 0.034088 -0.090576 0.011444 -0.032227 -0.0066681 -0.032532 0.034485 -0.085815 -0.066162 0.002306 -0.065857 -0.01387 0.028351 -0.051331 -0.052246 -0.049408 -0.11377 -0.12189 -0.041382 -0.0035801 0.075378 0.012329 0.09314 0.031128 -0.010933 -0.046448 -0.026672 0.031403 -0.01915 -0.0336 -0.048401 -0.082764 -0.00093746 0.05423 -0.037659 0.03714 0.041809 -0.019241 0.11798 -0.055054 0.020294 -0.043213 -0.036774 -0.049347 -0.057281 0.037598 0.014091 0.024246 -0.068298 0.098816 -0.037903 0.0053139 0.038269 -0.0019255 -0.039093 0.020111 0.02803 -0.071289 0.062225 0.020599 0.010483 -0.099792 -0.047455 -0.0072327 -0.053833 0.11493 0.0087662 -0.046448 -0.064636 0.021774 0.0023804 0.019318 -0.056305 -0.055908 -0.052856 0.11292 -0.016205 -0.097595 0.080566 0.0094452 0.061554 -0.081604 -0.04892 -0.047577 0.010574 -0.063232 0.0044365 -0.041107 -0.025085 0.074402 0.045746 0.095337 -0.06897 -0.0049782 -0.032104 0.0060844 0.044067 0.031982 0.052399 -0.013313 -0.11316 0.062561 -0.11737 -0.075256 -0.014305 -0.011055 -0.117 0.026611 0.12122 -0.028931 -0.053864 -0.033997 0.072937 -0.054749 0.016678 0.059296 -0.068481 0.066162 0.040863 -0.11456 0.079041 -0.051788 -0.0016794 -0.00079536 -0.058014 -0.036652 0.053253 0.068054 -0.13599 0.11237 -0.078857 0.014297 -0.034088 -0.027847 -0.016998 -0.0015383 0.086487 -0.041656 -0.014572 0.022827 0.0013161 0.055023 0.062622 -0.052185 5.8949e-05 0.01619 0.047058 -0.010399 -0.033264 -0.0024529 -0.039429 -0.019989 0.084229 -0.0020561 -0.070984 0.056702 0.039154 -0.08136 0.0052261 -0.082642 0.11816 -0.02005 0.0045586 -0.088623 0.027283 -0.080078 0.017929 0.052185 -0.048676 0.016388 -0.071106 -0.026428 0.019745 0.051117 0.052246 0.0067177 -0.052368 0.046295 0.044373 0.027618 0.0016823 0.018784 -0.06897 -0.011826 -0.032288 0.011772 -0.031891 0.068542 -0.0014925 0.050446 0.035645 0.10553 -0.021057 0.0013313 -0.05246 -0.057312 0.091125 -0.06073 0.16235 -0.11078 -0.062256 0.045441 0.02153 0.023788 0.10291 0.10895 -0.11108 -0.020966 -0.00774 0.037476 -0.082764 0.015289 0.04483 0.10522 -0.07843 -0.035736 0.018311 -0.042328 -0.088928 0.0027943 -0.043976 -0.047455 0.04538 -0.0001092 0.0014591 0.098267 -0.040985 -0.04425 -0.071045 -0.059998 0.13037 -0.040314 0.046692 0.039581 0.014099 0.016968 0.020447 -0.043121 0.056396 0.012497 0.045776 0.033051 0.026276 -0.059448 0.073975 -0.035248 -0.091553 0.0084534 -0.035828 0.0064659 0.043365
Daphne_Koller 0.0031586 0.0008626 0.0016785 0.083801 -0.023529 -0.012421 0.020874 -0.036804 0.0011501 0.014191 -0.048279 -0.048615 -0.018051 -0.0098724 -0.064087 0.033722 0.053375 0.13013 0.013123 -0.053619 -0.035034 0.012321 0.061554 0.034912 -0.064697 -0.013908 -0.11176 0.10706 -0.028427 -0.1004 -0.028595 -0.0096588 -0.059753 -0.11157 -0.068054 -0.028229 -0.041901 0.020416 0.071472 -0.045197 0.0089188 0.034851 0.051941 0.096191 0.0082779 -0.012871 -0.052155 -0.076355 -0.012764 0.08667 -0.097168 0.033875 -0.023087 0.036163 -0.076294 0.059753 -0.035461 -0.084167 -0.047058 -0.11316 -0.0072479 0.024261 -0.074829 -0.043793 -0.06604 -0.070129 -0.082581 0.025497 -0.041199 0.082703 0.0086517 0.066406 0.066772 -0.036957 -0.030411 -0.049164 0.045959 0.035889 -0.086609 -0.010391 -0.040588 0.010246 0.016739 -0.015198 0.048279 0.033539 -0.037201 0.1051 -0.062561 -0.011848 -0.055389 -0.078247 -0.06311 -0.057159 0.057037 0.0076599 0.050659 -0.035034 0.084045 -0.056152 -0.035217 -0.03093 -0.095032 -0.020126 -0.025528 0.042358 -0.10797 0.061798 0.090881 0.019363 -0.095337 -0.059937 0.012192 -0.038025 0.1261 0.069702 0.01825 -0.11896 0.063782 -0.00021708 -0.014381 -0.021164 -0.084961 -0.031616 0.06427 -0.040588 -0.10522 0.05307 0.036682 0.082703 -0.050201 6.1393e-06 -0.017868 0.0045242 -0.011948 0.02597 -0.033997 -0.016724 0.060974 0.04953 0.058075 -0.11841 -0.0067482 -0.055969 0.054382 0.028656 0.064209 0.070801 -0.005085 -0.099487 0.063904 -0.093811 -0.085388 0.0012684 -0.030731 -0.13452 0.01207 0.094849 -0.072815 -0.024277 -0.052979 0.10919 -0.054199 -0.019821 0.0078201 -0.041962 0.066162 0.047821 -0.10309 0.092407 -0.060852 -0.018036 0.015839 -0.065308 0.010544 0.030396 0.048706 -0.15063 0.08075 -0.10297 0.013321 -0.046051 -0.05484 -0.045227 0.038116 0.072388 0.0043564 0.042267 0.056458 -0.044281 0.02005 0.021637 -0.10461 0.01062 -0.0044022 0.050537 0.0074005 -0.096191 0.019516 -0.032867 -0.062378 0.09845 0.032349 -0.022675 -0.02597 -0.0041504 -0.043274 0.016632 -0.049744 0.095276 -0.013176 -0.036407 -0.091492 0.060791 -0.11591 0.046417 0.039642 -0.018997 0.0099792 -0.041016 -0.011497 0.029266 0.058228 0.024689 0.014458 -0.026962 0.015175 0.042358 0.017685 -0.067505 -0.055054 -0.081421 -0.025772 -0.047943 0.058594 -0.037659 0.040161 -0.028625 0.037354 0.07666 0.096802 0.010284 0.0063744 -0.021255 -0.040894 0.030502 -0.07373 0.146 -0.11774 -0.056458 -0.00031185 0.081055 0.028229 0.079956 0.036285 -0.10626 -0.059113 -0.010323 -0.026886 -0.020264 0.027542 0.095886 0.1062 -0.048615 -0.025711 0.038879 -0.000211 -0.053619 -0.036743 -0.056763 -0.018494 0.043304 -0.036926 0.037292 0.092407 -0.030197 -0.0099945 -0.018341 -0.067322 0.095276 -0.0755 0.011345 0.022751 0.077698 0.024185 0.0466 -0.018738 0.029449 0.037567 0.086365 0.057953 0.058594 -0.074951 0.071045 0.024811 -0.075134 0.044281 -0.063965 0.009079 0.061646
Gunnar_Carlson 0.021301 -0.0015793 0.022202 0.10992 -0.03241 0.0019293 0.018616 -0.13464 0.052704 0.0053291 -0.0048676 -0.074829 -0.087036 0.033875 -0.044861 0.075073 0.040588 0.1438 -0.029114 -0.092102 0.002058 0.016922 0.077881 0.076721 -0.037231 -0.032806 -0.10034 0.081543 -0.044464 -0.011147 0.04895 0.026077 -0.00084352 -0.055084 -0.039062 -0.094971 -0.019485 0.10339 0.055847 -0.026566 -0.009201 -0.0099564 0.078674 0.065979 -0.037567 -0.046722 0.0074654 -0.067078 0.022598 0.068054 -0.091431 -0.035309 -0.012856 -0.012375 -0.075439 0.052368 -0.056732 -0.10309 -0.055542 -0.11487 -0.012138 0.012886 -0.020706 -0.0025177 0.024902 -0.12146 -0.031891 0.048553 -0.056671 0.022964 -0.023788 0.023727 0.07074 -0.036621 -0.10022 -0.052582 0.086426 0.021805 0.063171 -0.078796 -0.051605 0.05481 0.037354 -0.068726 0.077698 -0.033447 -0.066345 0.14502 -0.080261 0.043488 -0.007988 -0.12463 -0.0448 0.07019 -0.039062 0.037842 0.036865 -0.023529 0.049347 -0.014938 -0.0045433 -0.036072 0.020248 -0.034821 0.045166 0.039246 -0.056305 0.021973 -0.013863 -0.034271 -0.029495 -0.09613 0.12408 -0.029587 0.052216 0.063232 -0.066772 -0.090942 0.10596 0.0039635 -0.060394 -0.031891 -0.0159 0.040619 0.084473 -0.081726 -0.11261 0.052795 -0.047577 0.095337 -0.05838 -0.075439 -0.033539 0.013245 -0.0070992 0.026596 -0.057068 0.047668 0.010361 0.069397 0.095886 -0.12061 -0.076416 0.0495 -0.027985 0.070007 0.038177 0.041718 -0.04892 -0.029327 0.13525 -0.063477 -0.084167 -0.017532 0.012009 -0.11133 0.047852 0.11975 -0.013412 -0.06073 -0.0053291 0.083557 -0.0015736 0.014305 0.0019875 0.019089 0.053864 0.0045662 -0.10486 0.017365 -0.043518 -0.015121 0.011818 -0.04303 0.0 0.057617 0.13623 -0.16882 0.012779 -0.013916 -0.032013 -0.068726 0.004528 -0.013702 0.054413 0.015152 -0.013756 -0.039673 0.042328 0.042908 0.0059814 0.028336 -0.0057526 0.074036 0.01207 0.036072 0.017151 -0.054688 0.01767 0.028046 -0.053192 0.1095 0.0071259 -0.054108 -0.003521 -0.011024 0.092102 -0.027405 -0.1076 0.050873 0.0010996 -0.023743 -0.079773 0.036377 -0.099609 0.040436 0.006031 -0.030579 -0.0079575 -0.052887 -0.077942 -0.076782 0.064087 0.023956 0.031097 -0.031433 0.026611 0.032806 -0.043121 -0.065186 -0.0083542 0.013054 0.0078812 -0.076416 0.016708 0.018982 0.087952 0.049683 0.015427 0.023026 0.096985 -0.04303 -9.0301e-05 -0.0069389 -0.031097 0.033386 -0.0044136 0.14197 -0.077454 -0.10468 0.013824 0.011101 0.029816 0.075317 -0.016541 -0.026398 -0.055573 0.0084076 -0.021133 -0.029663 0.043182 -0.024689 -0.011101 -0.066162 0.039703 0.058411 0.0094528 -0.086548 -0.041809 -0.012375 -0.03833 -0.032776 0.010551 0.053253 0.094116 -0.012924 -0.046906 -0.032867 -0.076782 0.12177 0.0017023 0.017746 0.016769 0.045044 0.024277 -0.029755 0.071777 -0.0054398 0.021439 0.020447 -0.07019 0.042725 -0.094788 0.10736 0.010017 0.010399 -0.052307 -0.049591 0.039978 0.064026
Nate_Silver -0.0067291 0.027145 -0.0070381 0.18408 -0.047974 -0.057068 -0.00040793 0.028351 0.043732 -0.0014133 -0.06189 -0.078552 -0.079956 0.063232 -0.021133 0.077881 0.03125 0.082764 0.020279 -0.087891 -0.015282 -0.03125 0.10236 0.020569 -0.052002 0.059845 -0.098022 0.0672 0.018875 -0.022842 -0.0089188 0.012238 -0.080017 0.00095844 -0.041046 0.00089455 -0.0078278 0.073425 0.039093 0.091187 0.070312 -0.1026 0.12512 0.094849 0.0011644 -0.035583 0.021301 -0.053955 -0.0050774 0.055023 -0.1026 0.036835 -0.020462 -0.0089493 -0.0014458 0.064392 -0.039642 -0.069519 0.028214 -0.12976 0.04538 0.05603 -0.047089 -0.067871 0.043549 -0.076538 -0.080566 0.00017357 -0.023865 0.033661 0.055115 0.054962 0.046661 0.0063171 -0.098328 -0.076538 -0.015823 0.046356 0.038757 0.028397 -0.031143 0.018326 -0.0061455 -0.083252 0.026993 -0.028839 0.019257 0.11969 -0.018906 -0.015793 -0.032349 -0.050537 -0.088135 -0.017258 0.0036297 0.032715 0.018814 -0.011375 0.10858 -0.025131 -0.040863 -0.058044 0.061462 -0.025238 0.021835 -0.01619 -0.071594 0.068604 0.044464 -0.098755 -0.0354 -0.044708 0.0046387 0.064819 0.11688 0.010315 -0.00046277 -0.063049 0.087708 0.037048 -0.019241 -0.034149 -0.057251 -0.037018 0.085693 -0.010872 -0.071838 0.042328 0.027557 0.013847 -0.10425 -0.071716 0.018173 0.057465 -0.1062 0.035858 -0.07312 -0.038513 0.10248 -0.0089493 0.10651 -0.036285 -0.016205 -0.019012 0.020447 -0.014282 -0.004467 -0.059692 0.055481 -0.09552 0.14697 -0.11969 -0.071411 -0.042206 -0.0060539 -0.10693 -0.0084229 -0.017593 -0.079651 -0.012993 -0.059479 0.0098953 0.027115 -0.00011563 -0.0055618 -0.14246 0.12372 -0.012352 -9.0361e-05 0.11987 -0.048279 0.0025616 0.012184 -0.034363 -0.0058708 -0.00084543 0.052948 -0.098572 0.04837 -0.053833 -0.065186 -0.045624 -0.020874 -0.014969 0.025772 0.051361 -0.0063095 -0.045258 0.037109 0.049316 0.044373 0.067017 -0.042938 0.036682 0.0017738 0.075989 -0.098633 -0.02037 0.0037079 -0.053619 -0.1073 0.12091 -0.016464 -0.052673 -0.028 -0.056244 0.0066032 0.0063248 -0.054962 0.024338 -0.032227 0.06427 -0.066895 -0.042297 -0.050262 0.045776 -0.024246 -0.068054 -0.021393 -0.074768 -0.04126 -0.011665 0.050262 0.010826 0.065369 0.0021133 0.08075 0.093506 0.017151 -0.021088 0.030853 -0.02037 -0.038177 -0.026184 0.041779 0.026108 0.10077 0.023743 0.052002 0.053375 0.11237 -0.0086288 0.005909 -0.0063095 -0.079468 0.015366 0.021973 0.14575 -0.067627 -0.02272 -0.0066032 0.009407 0.013145 0.089172 0.084839 -0.0979 0.031921 0.031647 0.027512 -0.076904 0.069275 0.042725 0.045502 -0.038086 -0.019882 0.053101 -0.06134 -0.03125 0.0013762 -0.052216 -0.14429 0.10052 0.052185 -0.024857 0.03537 -0.0038185 0.030731 -0.060364 -0.030106 0.11639 -0.0032616 0.015656 -0.027176 0.062805 -0.0065575 -0.027969 -0.085632 0.03476 0.037994 0.023804 0.054352 -0.02388 -0.078918 0.022598 0.0087891 -0.095825 -0.0011883 -0.060181 0.0036526 0.083374
Alex_Pentland -0.016571 -0.001668 -0.035034 0.11627 -0.072144 -0.016953 -0.0056343 -0.051697 0.045166 0.0053291 -0.045044 -0.081909 -0.054749 -0.029831 -0.057495 0.050293 0.044159 0.088196 0.0051956 -0.10242 -0.053589 0.033264 0.044769 -0.0029125 -0.092163 -0.030685 -0.10248 0.10767 0.034332 -0.095398 -0.023895 -0.022125 -0.090454 -0.019974 -0.027771 -0.055237 0.0089417 0.042603 0.093628 0.048462 -0.0016317 -0.023453 0.071899 0.12207 0.026031 -0.095398 -0.021591 -0.098389 -0.065063 -0.0027199 -0.09259 0.023468 0.043793 0.02356 0.0024414 0.056458 -0.028473 -0.064026 -0.0034561 -0.091736 -0.010353 -0.019241 -0.074646 -0.05307 0.005619 -0.074951 -0.074707 0.049835 -0.032318 0.08252 -0.0022984 -0.013596 0.047546 -0.016144 -0.098389 -0.060211 0.0020218 -0.019379 0.014519 -0.017685 -0.034973 0.012291 0.01545 -0.060364 0.057251 0.003336 0.011497 0.1236 -0.024887 0.11292 -0.029663 -0.029144 -0.080383 -0.05954 0.037811 0.033203 0.056458 -0.056885 0.16431 -0.08783 -0.032074 0.020065 -0.0032024 0.044159 0.016296 0.0979 -0.075317 0.04068 0.010605 -0.023468 -0.059052 -0.08783 0.071716 0.026413 0.09314 -0.019196 -0.039062 -0.086731 0.041412 0.021698 0.0050507 -0.047211 -0.09314 -0.0076561 0.05838 -0.032013 -0.13782 0.058197 0.021622 0.0086288 -0.0074577 0.0026417 -0.041168 0.052704 -0.017258 0.0042305 -0.067505 -0.030899 0.045532 0.058868 0.10815 -0.0099335 0.01825 -0.038055 -0.010963 0.032959 0.02829 0.05484 0.038239 -0.1123 0.047455 -0.21484 -0.085083 0.049652 0.0044098 -0.10071 0.012199 0.038696 -0.026138 0.013176 -0.0028439 0.066895 0.026566 -0.040222 0.058197 -0.085876 0.068359 0.029648 -0.14099 0.10992 -0.062866 0.031555 -0.044647 -0.032227 -0.088745 0.0076027 0.041138 -0.13379 0.026428 -0.037872 -0.062866 -0.077026 -0.04306 -0.02977 0.055206 0.05423 -0.035187 0.0018845 0.060883 0.057007 0.035431 0.022934 -0.015854 0.033997 0.022202 0.11469 -0.052155 -0.044617 0.021561 -0.1004 -0.022308 0.071777 0.021805 -0.047913 0.012779 0.051605 0.029266 -0.025833 -0.1499 0.063293 -0.03418 -0.0069847 -0.047821 0.00060606 -0.071045 0.057251 0.045624 -0.018478 0.01326 -0.007412 -0.052277 -0.0045471 0.075806 0.025894 -0.055786 -0.0010939 0.0401 0.017288 -0.011024 0.0012617 0.014908 -0.010353 -0.0034943 -0.058136 0.029221 -0.027283 0.053925 -0.0088196 0.13232 0.0056801 0.098816 -0.015839 -0.05661 -0.080017 -0.04483 0.03244 -0.002634 0.069641 -0.068665 -0.036499 0.024094 0.016235 0.0089188 0.1499 0.082947 -0.15015 0.0079117 -0.025284 -0.029816 -0.0097656 0.034943 -0.01149 0.0064888 -0.10638 -0.0028229 0.063049 -0.044495 -0.05011 0.034119 -0.058136 -0.085876 0.032227 0.00043225 0.045105 0.07373 -0.0070572 -0.0079803 -0.042389 -0.021622 0.085388 0.014397 0.012444 0.026794 0.030411 0.071899 -0.024933 -0.0024776 -0.012886 0.074707 0.11157 0.02774 0.011307 -0.10333 0.045868 -0.0080109 -0.038696 -0.031433 -0.034363 0.039856 0.051544
Hilary_Mason 0.086792 -0.092163 -0.044312 0.00099468 -0.053558 -0.031143 -0.0036469 0.0056114 0.05014 0.0054779 -0.01355 -0.040039 0.01548 0.057526 -0.039429 0.0077972 0.060791 0.035614 -0.051819 -0.11041 0.0040512 0.031143 0.080872 0.030197 -0.018585 0.014923 -0.045929 0.16357 0.021194 -0.10046 -0.077454 -0.02594 -0.036499 -0.081543 -0.011749 -0.045349 -0.00041127 0.0065994 0.010132 0.03186 0.022171 0.013481 0.053925 0.086853 -0.037811 -0.06311 -0.057251 -0.090515 0.028305 0.016739 -0.095825 0.015106 -0.036316 0.052063 -0.032898 0.067078 -0.006321 -0.038086 0.019333 -0.13647 0.037781 -0.038849 -0.079895 0.042358 -0.09613 -0.022705 -0.04364 0.0031261 0.0021553 0.046509 0.033691 0.019699 0.038666 -0.055084 -0.072021 -0.051056 0.082947 -0.047028 0.025986 0.032623 -0.030746 0.0077744 0.02121 -0.0098038 0.066833 0.025558 -0.041473 0.1225 0.051849 0.032593 0.0059509 -0.11572 -0.07135 -0.008461 -0.016129 0.02475 0.017273 -0.042053 0.1026 -0.077515 -0.022064 -0.071106 -0.050262 -0.03714 0.025452 0.065002 -0.096924 0.076355 0.069885 -0.0046692 -0.056122 -0.043152 -0.0062523 -0.0075264 0.0979 0.06076 -0.041809 -0.16931 0.11407 0.015358 -0.054749 0.0022011 -0.088013 -0.03949 0.027191 -0.0073967 -0.087036 0.071106 0.0090485 -0.037018 -0.068359 -0.017487 -0.053833 -0.0036144 -0.028488 0.012901 -0.036102 0.04184 0.0098343 0.062469 0.097717 -0.10583 0.0047493 -0.071106 0.052399 0.055756 0.063965 0.011002 -0.042816 -0.10181 0.070496 -0.068787 -0.077698 0.054535 -0.011726 -0.069275 -0.055359 0.0073471 -0.059937 -0.0074539 -0.088013 0.095764 -0.016678 0.024948 -0.030777 -0.04953 0.05072 0.0071716 -0.11249 0.096558 -0.058929 0.016037 0.052429 -0.083374 -0.016098 -0.031067 0.10022 -0.059052 0.062012 -0.072571 -0.018036 -0.036011 0.0036507 -0.016251 0.085632 0.0080948 -0.021606 0.083618 0.032623 -0.054749 -0.075012 0.025284 -0.11414 0.0026627 0.022568 0.075623 -0.00077248 -0.12012 0.039062 -0.11456 -0.086731 0.054199 0.0016384 0.021103 -0.023956 0.0075111 -0.0087585 -0.022675 -0.050262 -0.022614 -0.051514 -0.013718 -0.083374 0.021973 -0.063782 0.04129 0.034424 0.043671 -0.040833 -0.059174 -0.045044 0.084717 0.033997 -0.0040474 -0.067749 -0.046509 -0.016907 0.06427 -0.010185 -0.045013 -0.072571 -0.059631 -0.074829 -0.05072 0.00064993 -0.072754 0.043427 -0.054199 0.050354 0.071106 0.10742 -0.051758 -0.0034199 -0.024139 -0.040436 -0.025558 0.0027046 0.13123 -0.053375 -0.10028 -0.039795 0.11414 0.0046196 0.050568 0.035797 -0.074829 -0.017929 0.0038986 -0.042938 -0.054962 0.02417 0.033234 0.051361 -0.070312 -0.04129 0.088257 -0.067139 -0.075195 -0.022156 -0.043549 -0.0012665 0.13135 -0.053589 0.044098 0.11707 -0.023499 0.066711 0.010559 0.10254 0.085205 -0.069824 0.0037899 -0.0077972 0.072937 0.0095139 0.025391 -0.0093536 0.027481 0.064941 0.12512 0.028397 0.041473 -0.092285 0.073914 0.034515 -0.079712 0.033417 -0.015068 -0.0014906 0.02713
Julia_Hirschberg -0.054901 -0.0034695 0.019119 0.11407 -0.047058 0.036041 0.018509 -0.04953 -0.032043 0.025085 -0.016296 -0.09613 -0.081482 0.067017 -0.077698 0.074036 0.082336 0.12488 -0.035034 -0.11053 -0.066711 0.074097 0.025787 -0.013573 -0.052948 -0.048706 -0.1123 0.034637 -0.055511 0.017319 0.062286 -0.0027924 -0.08136 -0.053497 -0.06427 -0.061859 -0.045471 0.093201 0.030792 0.031616 0.021088 0.018768 0.059265 0.065063 -0.020737 -0.088745 -0.061707 -0.074158 -0.099121 0.063049 -0.10046 0.024109 0.033691 0.010353 0.00082254 0.054718 -0.031403 -0.066956 -0.012955 -0.14648 -0.051392 -0.054504 -0.093323 -0.046997 -0.011497 -0.085815 -0.054871 0.052094 -0.023438 0.06427 0.023972 0.022202 0.026169 -0.01355 -0.086304 -0.043945 0.031189 0.0038986 -0.0080338 -0.060516 -0.062683 0.040527 0.0075378 -0.010277 0.069458 0.040192 0.01828 0.13037 -0.030563 0.098083 -0.019028 -0.029907 -0.078369 -0.038849 0.019928 0.029083 0.036652 -0.026154 0.087158 -0.047089 -0.07019 -0.037781 -0.031464 -0.0036354 -0.010757 0.054016 -0.067444 0.04068 0.019867 0.0050888 -0.064331 -0.08728 -0.023193 -0.034576 0.039612 0.09137 -0.049805 -0.051788 0.10266 -0.014771 0.016098 0.023651 -0.045166 0.046722 0.099426 -0.036407 -0.13623 0.012848 0.0052338 0.033783 -0.031372 -0.033081 -0.037933 -0.061829 -0.050873 -0.015015 -0.051147 0.010826 0.015327 0.048706 0.083313 -0.051727 -0.0031528 0.0040512 -0.10602 0.031647 -0.043335 0.068665 -0.011261 0.0047989 0.090637 -0.10809 -0.081787 0.033691 -0.049683 -0.11646 -0.018005 0.12695 -0.014427 -0.062347 -0.0008831 0.097778 0.022171 -0.0048218 0.056641 0.010567 0.094421 0.035065 -0.073486 0.031281 -0.030685 0.0029373 -0.032318 -0.05307 0.020447 0.051239 0.13 -0.18677 0.055969 -0.026581 0.0088882 -0.015419 0.015869 -0.014709 0.026779 0.080872 0.011589 -0.011765 0.041748 0.039703 0.067932 -0.020737 -0.096741 0.023651 0.00021291 0.12122 -0.010399 -0.078857 -0.0047112 -0.063171 -0.10883 0.078613 -0.023743 -0.026993 -0.066406 -0.061401 -0.010162 -0.044128 -0.025864 0.061829 0.048981 -0.098511 -0.080383 0.0049362 -0.046356 0.02388 0.004734 -0.050171 -0.035797 -0.03125 -0.095093 0.030945 0.071533 -0.0084991 0.026764 -0.040009 0.053894 0.035522 -0.037903 -0.049103 -0.0073929 -0.037628 -0.044922 -0.058899 -0.0089188 -0.058289 0.11414 -0.047394 0.026276 0.0672 0.052612 0.018524 -0.030396 -0.018997 0.0034981 -0.0056839 -0.060669 0.12122 -0.10266 -0.042084 0.025665 -0.026093 0.013084 0.091187 0.042358 -0.11603 0.014786 0.018616 -0.018494 0.010872 0.083191 -0.012894 0.029114 -0.080444 -0.011414 0.03891 0.026443 -0.078674 -0.070007 -0.098999 -0.052155 -0.035767 0.0060158 0.030777 0.090271 -0.025269 -0.061707 -0.057129 -0.069885 0.11737 -0.0016632 0.045319 -0.020737 0.050079 0.057373 0.011292 0.061371 -0.037872 0.022507 0.074219 0.010986 0.0073357 -0.096191 0.0051804 -0.0046616 -0.078674 -0.0495 -0.028839 -0.023193 0.080872
Liangliang_Cao -0.00090218 0.018814 0.030991 0.053864 -0.036987 -0.017532 -0.00059128 -0.040894 0.0069923 0.016266 -0.035339 0.0046349 -0.062347 -0.0033779 -0.11469 0.042175 -0.010719 0.067688 -0.018051 -0.043671 -0.08252 -0.013512 -0.014099 0.0075264 -0.056641 -0.014267 0.025391 0.042999 -0.055939 -0.0002799 -0.011536 -0.041321 -0.0041656 -0.05072 0.032104 -0.039703 0.0045013 0.028641 0.13025 0.058105 0.032867 0.051941 0.07373 0.096008 -0.080017 -0.11536 -0.040283 -0.099976 -0.055176 0.060425 -0.035156 0.022354 -0.05304 0.031555 -0.033203 0.077637 -0.044495 -0.12561 0.0672 -0.081299 -0.049438 0.036285 -0.076599 -0.0050964 -0.053131 -0.055359 -0.034882 0.06488 0.033447 0.067688 -0.065552 0.017456 0.029282 -0.037537 -0.098877 -0.10406 0.069702 -0.03299 0.0007863 -0.047913 -0.060364 -0.0071335 -0.014236 0.050812 0.083618 0.0037041 0.0495 0.091736 -0.079956 0.032654 -0.011055 -0.11035 -0.10516 0.072815 -0.0086441 0.061279 0.01403 -0.041229 0.10938 0.0091019 -0.014191 -0.074036 -0.026764 0.029388 -0.0074348 0.065613 -0.073242 0.0099106 0.037506 0.031021 -0.056091 -0.070068 0.033173 -0.026077 0.066528 0.033142 -0.06311 -0.08197 0.070129 -0.03299 -0.025177 -0.0080872 -0.076355 0.011826 0.05307 -0.056122 -0.1676 0.10626 -0.008812 0.022095 0.036865 0.062561 -0.020477 0.022797 -0.047028 0.011406 -0.064331 -0.023666 -0.024155 0.0063286 0.11438 -0.040649 -0.050659 0.031891 -0.049805 0.064087 0.042175 0.013298 0.013435 -0.10291 0.059723 -0.18298 -0.10852 -0.01358 -0.0354 -0.06543 0.056396 0.060577 -0.010178 -0.031647 -0.055298 0.031342 -0.00025153 0.0089645 0.036469 -0.032257 0.054688 0.051025 -0.13721 0.082397 -0.011978 -0.030823 -0.022446 0.010941 0.033966 0.016922 0.058014 -0.12354 0.036469 -0.094788 0.027344 0.021286 0.016602 0.0082474 0.037415 -0.02919 -0.051453 0.055542 0.072144 -0.0078888 0.010208 0.019745 -0.026962 -0.027969 -0.022934 0.12054 -0.030579 -0.21899 -0.011772 -0.10211 -0.026138 0.10107 -0.029953 0.0024834 -0.077637 -0.085999 0.063354 -0.10229 -0.094238 0.00811 -0.0028477 -0.066833 -0.039856 0.069519 -0.033905 0.018433 0.032013 0.046692 -0.018066 -0.0149 -0.082764 0.034882 0.022583 0.032715 -0.079346 -0.017929 0.027069 0.061127 0.010674 0.014389 -0.050751 -0.0054207 -0.0097504 -0.08844 -0.073853 -0.014023 -0.017883 -0.05368 0.042023 0.023392 0.051544 -0.072815 -0.071655 -0.02301 -0.0011196 -0.059723 -0.015579 0.12476 -0.078796 -0.068542 -0.010139 -0.0031929 0.042389 0.045563 0.066284 -0.10394 0.0086899 -0.021439 -0.045532 0.020737 0.060272 -0.02356 -0.0064621 -0.10461 0.061676 0.07843 0.019943 -0.096985 -0.074097 -0.023209 -0.0048981 -0.0077896 -0.044067 0.047058 0.097107 0.013306 -0.074036 -0.061859 -0.065979 0.13074 -0.019623 0.0625 0.013977 0.046936 0.0020847 -0.062683 0.037384 -0.024063 0.026154 0.094971 -0.059265 0.01767 -0.065247 0.059784 -0.010948 -0.07959 -0.020462 0.018463 0.028305 0.046143
James_Fan_(NLP) 0.07373 -0.013458 0.010506 0.068542 -0.069153 0.052948 -0.011475 -0.05188 -0.0023651 -0.0077629 -0.016541 -0.020279 -0.018127 0.083557 -0.051605 0.049652 0.12549 0.17126 0.059723 -0.065796 0.0060234 0.067383 0.047241 0.030777 -0.08075 -0.10132 -0.071899 0.042358 -0.10736 -0.05838 -0.021423 -0.026077 -0.055206 -0.036469 -0.03775 -0.094421 -0.030258 0.057007 0.097046 -0.039459 0.071899 0.0078201 0.037415 0.10101 0.010834 -0.11987 -0.089661 -0.036102 -0.055115 0.079407 -0.12146 0.036407 -0.038116 0.00047612 -0.019058 0.1012 -0.045044 -0.11926 0.020905 -0.12927 -0.031647 0.00032234 -0.0071869 -0.031647 -0.0054169 -0.043396 -0.074707 0.039948 0.061371 0.025803 0.0051613 0.028702 0.048737 0.0051918 -0.073242 -0.038544 0.065186 0.027267 0.02121 -0.029007 -0.012848 0.048645 0.01133 -0.074646 0.030685 -0.031647 -0.026596 0.11945 0.0025921 0.061005 -0.016602 -0.14307 -0.15686 -0.018356 -0.0073471 0.022629 0.053528 -0.045013 0.07019 -0.027603 0.0025921 -0.01651 -0.069946 -0.0004046 0.027908 0.039276 -0.11847 0.034668 0.087036 -0.029709 -0.07196 -0.040771 0.023056 -0.080322 0.090637 -0.022614 -0.10144 -0.065674 0.086975 -0.02832 -0.02919 0.0043716 -0.025543 0.025208 0.046997 0.017197 -0.14734 0.050201 0.023743 0.059967 -0.066406 -0.059021 -0.083862 -0.015869 -0.038422 0.023987 0.0019951 0.055939 0.0003705 0.060883 0.066589 -0.087036 -0.12537 0.0081329 -0.018311 0.024277 -0.00021267 0.093628 -0.016937 -0.072632 0.11401 -0.021637 -0.069397 0.047272 0.01709 -0.090393 -0.059631 0.056671 -0.061523 -0.061371 -0.019211 0.039673 -0.058167 -0.0021915 -0.038483 -0.0094376 0.093201 0.037262 -0.071289 0.063843 0.030243 -0.016205 -0.004921 -0.0076675 0.024033 0.0080719 0.044159 -0.14844 0.019928 -0.053528 -0.003891 -0.085449 0.01799 -0.070984 0.024521 0.055511 -0.030121 -0.054352 0.0076714 -0.009819 -0.034027 -0.031586 -0.010864 0.044037 0.016678 0.069824 0.034302 -0.055054 -0.059204 -0.054352 -0.0047073 0.11401 -0.058655 -0.015495 -0.01107 -0.09613 0.072388 -0.039429 -0.054688 0.045227 -0.067932 -0.086426 -0.056061 -0.0041504 -0.016541 0.014191 0.069824 -0.033295 -0.091064 -0.078979 -0.017334 0.028214 0.054535 -0.017014 -0.032715 -0.056366 0.05011 -0.014336 -0.019608 0.017944 -0.0019646 0.0024757 0.0051346 -0.024368 0.022308 -0.037811 0.020081 -0.0087204 0.10217 0.082886 0.035187 -0.055298 -0.037323 -0.019104 -0.021561 -0.00040126 -0.042603 0.11163 -0.048553 -0.060577 -0.0091858 -0.01194 0.035553 0.097107 0.073486 -0.1344 -0.0027924 0.053375 -0.0023956 -0.032623 0.041656 0.015495 0.072266 -0.030579 0.029236 0.084229 0.064758 -0.087036 -0.10065 -0.069092 -0.021835 0.03244 -0.020889 -0.0068474 0.045624 0.0069389 -0.088318 0.038391 0.01416 0.10883 -0.059021 0.059021 -0.015495 -0.031555 0.056213 -0.049164 -0.0046768 0.020721 0.092651 0.081848 -0.056641 0.0242 -0.058167 0.032318 -0.018173 -0.022568 -0.013924 -0.093506 0.0047302 0.054901
Chris_Wiggins 0.018005 0.035553 -0.056946 0.099854 0.02597 0.035309 0.0066147 0.0015278 0.041229 0.032227 -0.017853 -0.079956 -0.027008 0.010597 -0.065979 0.050415 0.020157 0.11096 -0.015038 -0.057495 -0.039124 -0.025803 0.045898 0.067871 -0.020859 0.052551 -0.12164 0.11346 0.019287 -0.068909 0.027832 0.022552 -0.06366 -0.025208 -0.016769 0.005127 0.016006 0.008606 0.035309 -0.044006 0.04068 -0.010727 0.1427 0.095642 0.021225 -0.031342 -0.04834 -0.064758 -0.025726 0.023254 -0.13806 0.011475 0.0026627 -0.022141 0.0019312 -0.025269 -0.070068 -0.075439 -0.023132 -0.086121 -0.023041 0.096191 -0.070007 -0.017136 -0.041687 -0.044556 -0.12103 0.033569 -0.061798 0.046967 0.059906 0.025772 -0.018829 -0.0047569 -0.074036 -0.012764 0.095459 -0.046783 0.043915 -0.025375 -0.072083 0.015503 -0.013618 -0.10327 -0.00811 -0.030136 -0.058197 0.10956 -0.007412 0.036163 -0.020493 -0.068054 -0.09198 -0.034302 0.01651 0.056885 0.072632 -0.022278 0.039734 -0.096863 -0.098572 -0.047974 0.029449 -0.0036297 0.061676 0.079956 -0.055176 0.060791 0.022995 -0.011223 -0.028015 -0.032013 0.065674 0.051239 0.080383 -9.4593e-05 -0.083679 -0.097046 0.075439 -0.0082397 -0.10773 -0.076904 -0.075317 -0.02002 0.1189 -0.042877 -0.09729 0.08551 0.023743 0.042938 -0.10522 -0.033051 -0.043854 0.010941 -0.017334 0.013092 -0.08374 -0.026657 0.038666 0.11127 0.073242 -0.089966 -0.023956 -0.010941 -0.024872 0.019989 0.04892 0.02153 -0.039337 -0.059998 0.098633 -0.11951 -0.092224 0.055573 -0.083191 -0.11499 -0.0233 0.09082 -0.066711 -0.04068 -0.018311 0.087097 0.035217 -0.00025225 0.021408 -0.089294 0.053741 0.04834 -0.034302 0.09436 -0.018524 0.01622 -0.045624 -0.053772 -0.014275 -0.041351 0.12054 -0.15088 0.033844 -0.049194 -0.051361 -0.043701 0.014915 -0.057465 0.0060883 -0.01461 0.011002 0.030701 0.076355 0.049133 0.014412 0.015472 -0.057159 0.027466 0.023102 0.087097 -0.053436 -0.096008 -0.041931 -0.023697 -0.068481 0.027359 -0.021484 0.03772 0.029877 -0.075928 0.083313 -0.066467 -0.053833 0.0085602 -0.0088577 -0.0073318 -0.066101 0.0091782 -0.10272 0.038452 0.055756 -0.057495 -0.045502 -0.072754 -0.044342 0.022812 0.083801 -0.031372 -0.0049477 -0.015366 -0.01371 0.0051727 0.017868 -0.073303 -0.0015192 -0.071106 0.008255 -0.033447 -0.01226 0.022202 0.096802 -0.068909 0.075134 0.033813 0.080505 -0.058868 -0.016708 -0.10284 -0.077637 0.056458 -0.046204 0.10468 0.012001 -0.057251 -0.036621 0.076843 0.057495 0.065063 0.01593 -0.044891 -0.06189 -0.042725 -0.067383 -0.10522 0.0079651 0.019028 0.07074 -0.075073 -0.015839 0.031738 -0.06543 -0.0042305 -0.010384 -0.074341 -0.067688 0.020767 -0.026154 0.098816 0.13818 -0.032013 -0.015869 -0.067932 -0.050415 0.04306 -0.031158 -0.0044708 0.017776 0.040375 -0.016281 -0.013634 0.0082092 -0.030807 0.031204 0.016632 -0.024307 0.13184 -0.068054 0.071838 -0.0012684 -0.08136 -0.031036 -0.046417 0.037842 -0.0086823
David_Blei 0.016953 0.0077019 0.02005 0.056213 -0.025223 0.020508 0.069214 -0.021149 -0.012962 0.036652 -0.082275 -0.096313 -0.02504 0.020203 -0.12146 0.064148 0.023636 0.12384 -0.02095 0.022644 -0.050873 0.0068016 0.052917 0.012634 -0.029587 -0.06488 -0.15283 0.063354 -0.096497 -0.096985 0.00089741 -0.0081711 -0.024506 -0.029022 -0.041077 -0.01918 0.023331 0.077271 0.045837 -0.12079 0.043549 0.050385 0.096619 0.075317 0.0092773 -0.12695 -0.10791 -0.075928 -0.023499 0.10834 -0.10944 0.039917 -0.016953 -0.031403 -0.076294 0.053986 -0.039795 -0.12695 0.016266 -0.063232 0.012039 0.01709 -0.027573 -0.048645 -0.082947 -0.070618 -0.079224 0.024445 -0.035187 0.043884 -0.015915 -0.0017052 0.086487 -0.026947 -0.082825 -0.029892 0.080688 -0.025314 -0.038452 0.0051956 -0.046967 0.068604 0.018372 -0.022659 0.027603 0.015427 -0.021408 0.10895 -0.050385 0.033142 -0.011917 -0.066101 -0.091858 0.008461 0.022018 -0.062469 0.059662 -0.060852 0.074036 -0.020737 -0.026093 -0.05426 -0.014549 -0.016678 -0.0080185 0.023132 -0.031952 0.11292 0.012123 0.0069962 -0.08728 -0.094727 0.092224 0.045258 0.10779 0.07489 -0.058441 -0.069519 0.10791 -0.0028915 -0.047089 -0.0047035 -0.081177 -0.044708 0.10657 0.040009 -0.042084 0.039825 0.048828 0.082581 -0.04303 -0.011795 -0.049011 -0.0012426 -0.041992 0.017456 0.010796 0.043671 0.050446 0.12646 0.078857 -0.020767 -0.076294 0.036346 0.0034161 0.071472 -0.031204 0.081787 -0.021454 -0.017776 0.10388 -0.098206 -0.11218 0.0049591 0.0088501 -0.13062 -0.041901 0.12463 0.0023994 -0.041748 -0.031464 0.037537 -0.0064049 0.0056992 0.047455 -0.033295 0.061798 0.032074 -0.1344 0.050049 -0.052399 -0.032074 -0.02388 -0.037781 0.013084 0.029404 0.083862 -0.14539 0.045135 -0.052887 -0.018066 0.010834 0.034576 -0.011017 -0.020004 0.044067 0.033936 0.031952 0.039825 -0.00056982 0.028915 0.021515 -0.032837 0.0039825 -0.027893 0.020416 -0.047485 -0.13147 -0.041382 -0.023087 -0.023621 0.1095 -0.022324 0.04306 -0.044037 -0.02388 0.050354 0.012634 0.0080948 0.038574 -0.0067101 -0.083496 -0.059814 0.052338 -0.11066 0.049408 0.011154 0.018478 0.041199 -0.033478 -0.04306 -0.012421 0.017532 0.016296 0.0070953 -0.027863 0.090515 -0.0020733 0.068604 -0.0030499 -0.012398 -0.0047569 0.0084991 -0.031464 0.0066032 -0.012787 0.066162 -0.073547 0.077026 0.0092621 0.060486 -0.044769 -0.032349 -0.05426 -0.016144 -0.049866 -0.064087 0.15381 -0.053497 -0.027756 -0.021225 0.0044136 0.0053101 0.027847 0.026138 -0.11407 -0.088684 -0.020386 -0.065735 0.032776 0.064514 0.097046 0.025238 -0.025238 -0.03418 0.017044 -0.038025 -0.10059 -0.031006 -0.056213 -0.050446 0.036652 -0.040161 0.054474 0.099365 -0.048553 -0.049469 -0.009697 -0.034912 0.15942 -0.059174 0.059967 0.058746 0.030319 0.063965 -0.003252 -6.8486e-05 0.021118 0.036652 0.059662 -0.060059 0.062225 -0.067017 0.083008 0.015961 -0.011864 0.015976 -0.014191 0.0083618 0.08136
Michael_I._Jordan 0.045532 -0.015236 0.03093 0.11304 -0.011505 0.036041 0.033936 -0.066284 0.031799 0.041382 -0.034119 -0.04071 -0.027084 0.014626 -0.063416 0.042755 0.00084925 0.13062 0.0080643 -0.10626 -0.063904 -0.0035896 -0.0056343 0.0093842 -0.036804 -0.10248 -0.098328 0.091309 -0.14917 -0.057861 0.022278 -0.017044 -0.016663 0.0015917 -0.035706 -0.041229 -0.015991 0.06958 0.10376 0.015594 0.051453 0.0046234 0.068481 0.06366 0.026688 -0.089844 -0.13159 -0.1123 0.020432 0.043274 -0.16028 -0.0018864 0.0068359 -0.037964 -0.015144 0.035339 -0.01738 -0.12671 0.056885 -0.067322 -0.019379 0.020355 -0.030197 -8.3506e-05 -0.037567 -0.10974 0.010971 0.046021 -0.037445 0.029221 0.013718 0.011627 0.088501 -0.079468 -0.036285 -0.061646 0.051758 0.0064392 0.023132 -0.074768 0.0016031 0.063843 0.037354 0.013176 0.049286 0.018997 -0.0011873 0.18994 -0.019119 0.0625 0.054871 -0.064148 -0.068542 0.039276 0.021774 0.050415 0.032074 -0.06311 0.068604 -0.041718 0.055298 -0.021942 -0.031464 -0.054016 -0.00077057 0.055176 -0.10773 0.067444 -0.031143 0.0070267 -0.095642 -0.087708 0.086548 0.032013 0.12317 0.071899 -0.079956 -0.072083 0.079163 -0.0024624 -0.043732 -0.024643 -0.07074 -0.040894 0.046509 0.0089035 -0.14099 0.1001 -0.0044823 0.08606 0.00058508 -0.069397 -0.032318 0.037445 -0.084534 0.035675 0.024796 0.056366 0.032074 0.063293 0.084106 -0.052856 -0.074463 0.0013628 -0.053192 0.060974 0.016541 0.069641 0.016998 -0.11334 0.070374 -0.07196 -0.092346 -0.014481 0.010704 -0.12195 -0.026352 0.13916 -0.0039558 -0.045929 0.010933 0.0083542 -0.0088577 -0.02684 0.023346 -0.03891 0.099792 -0.011436 -0.1239 0.076111 -0.01683 -0.007431 -0.071228 0.0002718 -0.0096893 0.036041 0.030991 -0.13367 0.055969 -0.037231 -0.0080261 -0.059967 0.048645 -0.010246 0.042206 0.051514 -0.024155 0.003624 0.0034237 0.018997 0.0026989 -0.040863 -0.010155 -0.0035305 0.0018044 0.051239 0.005497 -0.090759 -0.056732 -0.042725 -0.074219 0.040131 0.035767 0.0066185 0.0045433 -0.014336 -0.019897 -0.0012321 -0.056885 0.032898 -0.045532 -0.018356 -0.10303 0.085815 -0.059753 0.020844 0.043182 0.038849 -0.012329 -0.015701 -0.081909 0.00046062 0.038849 -0.020767 -0.037476 -0.012497 0.039948 0.014427 -0.0051918 0.02475 0.022202 0.0080643 -0.007412 -0.036285 -0.0049477 -0.031128 -0.0044289 -0.0080872 0.088806 0.0069809 0.08075 -0.050751 -0.072021 -0.056396 -0.055847 0.050903 -0.054352 0.20239 -0.055664 -0.058685 0.032593 -0.028259 0.0012779 0.045654 -0.0051041 -0.15222 -0.010986 0.0035 -0.030655 -0.048004 0.033325 -0.016876 0.045624 -0.040344 -0.096436 0.0055923 0.021805 -0.077393 -0.052826 -0.02887 -0.046478 0.048737 -0.0059433 0.018097 0.056152 -0.016037 -0.045105 -0.059814 0.012108 0.12476 0.016693 0.051514 0.0047798 -0.013702 0.055634 -0.012184 0.053589 0.012001 0.039856 0.041229 -0.056 0.062805 -0.055634 0.052673 -0.022293 -0.056519 -0.053162 -0.083069 -0.01313 0.097961
Rocco_Servedio 0.060455 -0.040955 0.035217 0.088989 0.023575 0.017853 0.064636 -0.1167 0.0033169 0.044891 0.015091 0.0028057 -0.035583 0.025421 -0.055267 0.10724 0.016479 0.10309 -0.035522 -0.11859 -0.096313 0.026749 0.0098953 0.057739 -0.0070953 -0.065063 -0.07251 0.055359 -0.075134 -0.087708 -0.011406 -0.047333 0.021164 0.0069389 0.029175 -0.061096 0.014015 0.089417 0.065308 -0.02446 0.032013 0.042328 0.082764 0.072937 -0.015282 -0.070496 -0.076538 -0.051239 -0.022217 0.06543 -0.12268 0.038513 -0.060913 0.0076828 0.018417 0.10822 -0.033325 -0.12146 -0.02478 -0.095886 -0.010193 -0.0062332 -0.018204 -0.06842 0.01313 -0.099182 -0.045807 0.11481 0.0022106 0.044373 0.015236 -0.052307 0.051056 -0.050964 -0.13074 -0.016647 0.053406 -0.025909 0.045502 -0.03595 0.0080338 0.0045929 -0.043274 -0.041687 0.086975 -0.033936 0.0233 0.20129 -0.0159 0.053711 0.0336 -0.073914 -0.13123 0.081543 -0.019287 -0.023865 0.076538 -0.086731 0.049744 -0.051483 0.017975 -0.050507 -0.036194 -0.022644 -0.045807 0.012978 -0.089294 0.088562 0.066162 0.012573 -0.030182 -0.071655 0.043915 0.016296 0.10223 0.013908 -0.038452 -0.1405 0.096375 -0.018448 -0.063782 0.026215 -0.040466 -0.057617 0.045074 -0.01857 -0.12573 0.11243 -0.0046654 0.075439 -0.0034428 -0.024017 -0.025909 0.031586 -0.050415 0.029221 0.026367 -0.017242 0.0021172 0.15076 0.11072 -0.02858 -0.063843 0.049225 -0.041443 0.090454 -0.024155 0.018845 -0.041107 0.025635 0.0057335 -0.088684 -0.064209 0.070618 -0.046661 -0.085693 0.027466 0.072327 -0.06427 -0.028488 -0.04657 0.054504 0.025238 0.0030975 -0.011543 -0.0079117 0.024414 0.02774 -0.11786 0.059113 0.030731 0.0103 -0.076538 0.027283 0.026306 0.0092316 0.039368 -0.10333 -0.072937 -0.068115 -0.031616 -0.017761 0.076538 0.027969 0.07489 -0.0054512 0.035095 -0.024765 0.025681 0.050262 0.0013161 -0.048248 0.02446 -0.020599 -0.050293 0.077271 -0.014305 -0.12817 -0.019272 -0.011902 -0.041382 0.098755 -0.02858 0.054504 -0.014732 -0.064453 0.048828 -0.056061 -0.078247 0.006588 -0.0087433 -0.13696 0.0048332 0.029495 -0.074402 -0.045868 0.0058212 0.051117 -0.044281 -0.032806 -0.047638 0.043549 0.044006 0.00034261 -0.027115 -0.005352 0.055084 -0.030563 -0.0021381 0.038361 -0.05658 0.0091324 -0.0088196 -0.035675 -0.036804 -0.0027504 0.011986 -0.03479 0.1106 0.014648 0.091614 -0.061951 -0.046722 -0.048798 0.012779 -0.037689 -0.0068207 0.12683 -0.052338 -0.018631 -0.016953 -0.0031586 0.013283 0.057922 0.0058937 -0.078918 -0.02774 -0.055695 -0.012093 0.028763 0.12183 0.006855 -0.033417 -0.039764 -0.025299 0.058136 0.049866 -0.091187 -0.10223 -0.10657 -0.055939 -0.045624 -0.015465 0.062195 0.086304 0.016098 -0.064087 -0.040192 0.03476 0.076111 -0.042023 0.021133 0.0087204 -0.019165 0.076416 -0.033722 0.057739 -0.001523 -0.02858 0.11017 -0.022354 0.019226 -0.06366 0.0448 0.031708 -0.016449 -0.019135 -0.045868 -0.035736 0.040314
Leslie_Valiant -0.0015078 0.00018668 0.051178 0.1062 0.0018778 0.026443 0.034393 -0.061676 0.041626 0.047607 -0.068848 -0.05957 -0.02388 0.036438 -0.036194 0.07312 0.063232 0.079163 0.024353 -0.064026 -0.10553 -0.039307 -0.0013571 -0.0064545 -0.0051308 -0.077942 -0.061279 0.015411 -0.06311 -0.086975 0.014893 -0.039001 -0.024918 -0.024506 -0.022263 -0.011131 -0.00059557 0.096436 0.10034 -0.035309 0.026764 0.056854 0.10034 0.094971 -0.016876 -0.021255 -0.082947 -0.074768 -0.052429 0.10443 -0.097412 0.055115 -0.057068 -0.0020905 -0.12061 0.093201 -0.022354 -0.1438 -0.011795 -0.045776 -0.0121 0.054443 -0.032837 -0.055817 -0.045624 -0.074829 -0.063477 0.072937 -0.047241 0.067505 -0.0051689 -0.0082932 0.075073 -0.033295 -0.031555 -0.0040703 0.052246 -0.0028133 -0.016312 -0.08075 -0.013145 0.046692 0.027145 -0.022339 0.061737 0.015503 0.029297 0.15186 -0.069214 0.054504 0.06543 -0.062561 -0.086548 0.008316 0.03064 -0.0026836 0.042725 -0.069824 0.085999 -0.056458 -0.0075264 -0.033447 -0.020584 -0.035278 -0.020081 0.03064 -0.10205 0.042603 0.063416 0.08197 -0.029572 -0.059326 0.06665 0.053711 0.12744 0.084229 -0.075256 -0.056915 0.10028 -0.026291 -0.0027504 -0.0049744 -0.025696 -0.065491 0.080505 -0.018555 -0.1322 0.078247 -0.016617 0.075745 0.0090485 -0.050018 0.002346 0.0067711 -0.04538 0.03537 0.014595 -0.0011282 0.025269 0.072937 0.083923 -0.016495 -0.060791 0.0065269 -0.074951 0.058075 0.040802 0.049103 -0.01886 -0.056854 0.037933 -0.13513 -0.095764 0.055298 0.026474 -0.1355 0.05307 0.15332 -0.020218 -0.041351 -0.029938 0.033844 -0.019363 -0.027985 0.02887 -0.03891 0.08075 0.039276 -0.12549 0.066467 0.028015 -0.028595 -0.092224 -0.054443 -0.0083618 0.056152 0.024384 -0.15015 0.010666 -0.051636 0.022858 -0.041473 -0.00024116 0.019135 0.072266 0.03186 0.036804 0.019638 -0.00013876 0.00016582 0.012787 0.045929 -0.029816 -0.025497 -0.038086 0.033783 0.013412 -0.11505 -0.030045 -0.026382 -0.065491 0.11578 0.022598 0.018356 -0.0020065 -0.0012207 -0.011734 -0.0052147 -0.14404 0.02861 -0.016403 -0.048889 -0.041687 0.07312 -0.086853 0.030136 0.034912 0.0513 -0.027161 -0.049835 -0.041138 0.0040283 0.051971 -0.040253 -0.038635 -0.021729 0.049683 0.019928 0.03241 0.01973 -0.031464 -0.040375 0.047089 -0.074402 -0.0013685 -0.048187 0.01519 -0.02388 0.053589 0.00086117 0.050659 -0.052094 -0.069641 -0.068054 -0.041473 0.011086 -0.066711 0.13098 -0.097229 -0.030838 -0.012619 -0.019547 -0.036774 0.024872 0.025177 -0.10706 -0.013794 -0.05481 0.0010691 0.042816 0.064453 0.067322 0.037109 -0.02475 -0.043854 0.009285 0.027557 -0.098999 -0.10413 -0.019211 -0.055328 0.03833 -0.040253 0.032562 0.088562 -0.011086 -0.073181 -0.045074 -0.042816 0.13196 -0.061066 0.049744 0.059448 -0.012177 0.094849 0.024704 -0.01133 0.050323 0.032196 0.054962 -0.014992 -0.0034275 -0.11432 0.076233 0.022766 -0.011101 -0.020752 -0.054504 -0.0177 0.11127
Vladimir_Vapnik 0.016205 -0.040588 0.02301 0.15015 -0.074463 0.038361 0.037933 -0.085327 0.056244 0.063782 -0.038086 -0.077942 -0.034363 0.0098267 -0.070496 0.085754 0.02623 0.11609 0.0052032 -0.086243 -0.031372 -0.009285 0.047119 -0.023636 -0.028793 -0.052734 -0.083435 0.093079 -0.088013 -0.046875 0.016205 -0.01564 -0.062164 -0.022659 -0.030807 -0.02037 -0.010139 0.074707 0.12421 -0.0044785 0.032104 0.011765 0.089661 0.11804 0.020905 -0.084534 -0.049561 -0.11487 -0.02713 0.033539 -0.12561 0.032471 -0.035706 -0.034607 -0.018494 0.085693 -0.050934 -0.11389 -0.010712 -0.12158 0.0149 0.002161 -0.02916 -0.019424 -0.04422 -0.096741 -0.090454 -0.0015745 -0.03421 0.037445 0.019165 0.048523 0.030884 -0.049377 -0.032898 -0.024124 0.025681 0.0012646 0.069946 -0.024124 -0.041016 0.078064 0.04068 -0.053467 0.072937 0.0046272 0.013702 0.22009 -0.012558 0.062561 0.0060501 -0.069519 -0.092651 0.010025 0.023071 0.022339 0.053284 -0.062042 0.11932 -0.039093 -0.030884 -0.014351 -0.0028858 -0.003664 0.020935 0.046722 -0.085327 0.077148 0.0076561 0.00011641 -0.059296 -0.082031 0.059509 0.0013161 0.087097 0.063416 -0.10046 -0.11243 0.084656 0.0088806 0.0038433 -0.0088501 -0.080139 -0.056183 0.099731 0.0015812 -0.10724 0.058441 -0.0578 0.046753 -0.072449 -0.082275 -0.040131 0.0061264 -0.06543 0.00914 0.014191 -0.014709 0.045715 0.036621 0.10516 -0.045868 -0.074768 -0.0025387 -0.067566 0.04422 0.013138 0.054993 -0.030411 -0.11383 0.053284 -0.069702 -0.11121 0.0051117 0.037018 -0.086914 -0.037964 0.077637 0.0045624 -0.038452 -0.014496 0.012428 -0.047577 -0.025482 0.045929 -0.076965 0.056213 0.044006 -0.11407 0.062012 -0.0019741 0.01461 -0.056763 -0.032318 0.0042114 0.080627 0.071838 -0.15234 0.051788 -0.10913 0.060822 -0.060944 -0.010956 -0.019424 0.076233 0.062683 0.0019684 0.0024586 0.027405 -0.0024052 0.0093079 0.012215 -0.048981 -0.011597 -0.0098495 0.043579 -0.0067787 -0.078308 -0.013367 -0.040222 -0.051239 0.11908 -0.032623 0.015091 -0.027802 -0.0059357 0.013443 -0.054596 -0.038635 0.042053 -0.036255 0.016357 -0.099731 0.066345 -0.046143 0.0072823 0.047791 0.0037746 -0.038666 -0.027466 -0.054138 0.012596 0.069153 -0.032043 0.0022793 -0.019516 0.051697 0.023148 0.028641 0.075134 0.0093002 -0.012428 -0.039154 -0.061279 0.0089722 0.023239 0.025406 -0.010635 0.083618 0.014435 0.057098 -0.010681 -0.00044727 -0.031433 -0.05249 0.029953 -0.038116 0.13489 -0.058685 -0.087097 0.022141 -0.0050659 0.056244 0.075806 0.053528 -0.12451 -0.05368 0.015244 -0.018616 -0.036407 0.053802 0.037262 0.040833 -0.072144 -0.01516 -0.0023308 -0.022614 -0.045807 -0.084778 -0.08313 -0.069153 0.061279 -0.02916 0.029175 0.073425 -0.014 -0.023819 -0.069214 0.034241 0.17285 -0.035797 0.056915 0.007679 0.039764 0.033081 -0.011086 -0.010628 0.032928 -0.0040665 0.030075 -0.029999 0.039246 -0.062317 0.045502 0.0015812 -0.010963 0.010254 -0.069641 -0.068115 0.074097
Alan_Turing 0.00086546 -0.0044518 0.027374 0.087524 -0.013161 0.052521 -0.037445 -0.051056 0.076843 0.0513 -0.037445 -0.099854 -0.0014458 0.032654 -0.074463 0.11127 0.087769 0.10791 0.028946 -0.11108 -0.045685 -0.068481 0.046265 0.018326 -0.066284 -0.026367 -0.03653 0.087524 -0.013031 -0.017349 -0.047791 -0.010689 -0.049744 -0.041779 0.013313 -0.0011292 -0.011475 0.065247 0.095398 -0.011909 0.033417 -0.011467 0.0979 0.13696 0.0010204 -0.080322 -0.040222 -0.086609 -0.055969 -0.032135 -0.12793 0.024994 -0.0064278 -0.062103 -0.024216 -0.017578 -0.03653 -0.14648 -0.042725 -0.10602 0.030579 -0.00095129 -0.044281 0.017929 -0.03096 -0.077454 -0.090332 0.021988 0.010506 0.05249 0.040588 -0.015297 0.053192 -0.023239 -0.1178 -0.052521 0.071045 0.030792 -0.0050507 -0.0052605 -0.0076218 0.032288 0.0062943 -0.03537 0.036377 0.04187 0.036652 0.13879 0.019958 0.073669 0.058746 -0.1012 -0.10254 0.0024452 0.0087891 0.035614 0.078186 -0.042694 0.055145 -0.040985 -0.0048637 0.0065765 0.015465 -0.01651 0.01413 0.051178 -0.10681 0.029785 0.011108 0.018402 -0.051208 -0.021286 0.014587 0.013733 0.031433 0.029709 -0.064331 -0.14221 0.15588 0.02124 -0.009552 0.040222 -0.011909 -0.0090942 0.014763 -0.027435 -0.12634 0.043427 -0.01709 0.071228 -0.028183 -0.075806 -0.068176 0.044434 -0.031189 0.047638 -0.041931 0.0090408 -0.035034 0.1134 0.10394 -0.036987 -0.072083 -0.024124 -0.05304 0.055237 -0.0057564 0.0513 -0.057404 -0.075012 0.064453 -0.15674 -0.06189 -0.021103 0.040405 -0.12927 0.029831 0.031372 -0.045654 -0.0022125 -0.034271 0.061859 0.020462 -0.025085 0.065369 -4.8816e-05 0.075317 -0.01619 -0.1427 0.1156 0.0017977 0.00022078 -0.073059 -0.028488 -0.012947 -0.03244 0.095276 -0.16833 0.032349 -0.017059 0.011757 -0.025635 0.03418 -0.020325 0.028381 0.029572 -0.00087643 0.085693 -0.0086899 0.086548 -0.0084076 0.042206 -0.014473 0.058319 0.00032759 0.091736 -0.061981 -0.091797 -0.045746 -0.069824 -0.040131 0.087646 -0.051392 -0.024506 0.04306 -0.025589 -0.02095 -0.014801 -0.11536 -0.010071 -0.054626 0.0058327 0.0014944 -0.0039978 -0.073242 0.023911 0.095642 -0.0089645 -0.014114 -0.053192 0.0077744 0.065552 0.031891 0.027573 -0.023331 -0.016449 0.062561 -0.035156 0.0035877 0.0073013 0.02002 -0.014587 -0.0060425 -0.016632 -0.088135 -0.02092 0.028152 0.017273 0.057098 0.013634 0.058319 -0.048615 -0.0044823 -0.085449 -0.021652 -0.031982 -0.0578 0.10626 -0.078247 -0.019104 -0.013351 0.027878 0.040222 0.099487 0.06076 -0.050293 -0.066528 -0.065491 -0.034668 -0.015915 0.024521 -0.045288 0.021011 -0.05719 -0.039307 0.079956 -0.066528 -0.099731 -0.012878 -0.077637 0.0093079 0.072815 -0.061096 0.055237 0.063904 -0.014801 0.0032063 -0.093872 -0.03421 0.0755 -0.05835 0.044464 0.024216 0.030792 0.098328 -0.023972 -0.016098 0.039886 0.018417 0.11359 -0.0023212 0.046936 -0.11951 0.02121 -0.024567 -0.076233 -0.070557 -0.024323 -0.069702 0.030853
Georg_Cantor 0.066589 0.0088577 -0.015549 0.070496 -0.062439 0.045959 0.062195 -0.085449 0.046478 -0.001894 -0.037048 -0.022491 -0.026108 0.023514 -0.10852 0.047272 0.092346 0.12311 -0.0051041 -0.061554 -0.057159 -0.003027 0.031311 0.0088348 -0.021454 -0.057343 -0.055969 0.078979 -0.059113 -0.083923 -0.024948 -0.011047 -0.0045509 0.0055313 0.0083618 -0.019379 0.028214 0.053406 0.065186 0.034882 0.092529 0.064087 0.039856 0.070068 0.0013933 -0.054626 0.0085983 -0.078613 0.038544 -0.046082 -0.11853 0.042206 -0.042053 -0.10016 -0.047668 0.066467 0.010399 -0.10962 -0.087646 -0.083191 0.055115 0.0097351 -0.0088654 -0.058624 0.02063 -0.14966 -0.028885 0.044495 -0.055939 0.040894 0.03006 -0.024307 0.047577 -0.038086 -0.072754 -0.010109 0.040466 0.0094757 -0.013206 -0.028961 -0.0057373 0.0073891 -0.0065002 0.018753 0.028961 0.091003 0.042297 0.15649 0.040222 -0.00033355 0.012367 -0.067505 -0.093506 -0.007061 -0.027069 0.088257 0.075806 -0.0035095 -0.014061 -0.072571 0.0048523 -0.054169 -0.0061378 -0.063904 0.033569 0.045349 -0.081055 0.086182 -0.054291 -0.016388 -0.038849 -0.11145 0.060486 0.037659 0.11597 0.07312 -0.044128 -0.1178 0.18274 0.015625 -0.10425 -0.027145 0.0079498 -0.044098 0.02803 -0.016724 -0.06012 0.069214 -0.030136 0.067322 0.0057335 -0.088806 -0.019897 0.031647 0.010468 0.038635 -0.014221 0.012741 0.069153 0.083618 0.066223 -0.051575 -0.071411 -0.035919 -0.019318 0.10724 0.03595 0.046875 -0.082153 -0.019409 0.059235 -0.072327 -0.079773 0.044128 0.046082 -0.053772 -0.045044 0.089111 -0.031219 -0.016205 -0.084229 0.056824 0.054901 -0.060822 0.043732 0.027313 0.053833 0.054413 -0.10461 0.097839 -0.062073 -0.012566 -0.12622 -0.00055647 0.053009 0.02739 0.020264 -0.13989 0.0042419 -0.08429 -0.04834 -0.057556 -0.021027 0.0028687 0.095215 0.007122 -0.034393 0.024078 0.038269 0.053131 0.033539 0.0036602 -0.0080795 0.032715 -0.053619 0.072083 -0.035492 -0.060486 -0.0085602 -0.083618 -0.049103 0.024811 0.0011301 0.0013533 -0.015656 0.025803 -0.091125 0.033722 -0.17139 0.016083 -0.039795 -0.054565 -0.056274 0.030197 -0.1225 -0.034119 0.088013 0.047974 0.054749 -0.025818 -0.022064 0.07428 0.015244 -0.028183 -0.069763 0.032043 0.047058 0.0159 -0.019897 -0.0012999 -0.040924 -0.012657 -0.0081787 -0.05011 -0.020157 -0.020142 0.02478 0.040894 0.088928 -0.0069504 0.061066 -0.0020542 -0.080566 -0.081299 -0.031403 -0.001195 -0.028275 0.17383 -0.049103 -0.066406 -0.068115 0.0081177 0.03656 0.081787 0.0085068 -0.059723 -0.015747 -0.065979 -0.01149 -0.0060501 0.092285 -0.047791 -0.045532 -0.019745 -0.059479 0.08136 0.051514 -0.055145 -0.014778 -0.043182 0.0051994 0.048523 -0.074585 0.049286 0.056366 0.011475 -0.021332 -0.024963 -0.040802 0.11829 -0.039337 0.055115 0.018326 0.0067253 0.075195 0.024292 0.029449 0.028061 0.018936 0.095276 0.018097 0.072144 -0.099915 -0.011925 -0.0039558 0.0098953 -0.066772 -0.012558 -0.029709 0.059753
Thomas_Bayes -0.030914 -0.017761 -0.014374 0.081604 -0.063599 0.0086365 0.0084686 -0.065369 0.0084686 0.049377 -0.02066 -0.10266 -0.047241 -0.020599 -0.079712 0.048431 0.059723 0.12817 -0.018707 -0.059753 -0.034912 -0.066711 0.063049 0.0091934 0.014374 -0.018524 -0.074402 0.12469 -0.013573 -0.032349 0.048431 -0.030411 -0.0064964 -0.071899 -0.051971 0.009079 -0.026382 0.15015 0.028473 -0.029419 -0.0081406 0.015038 0.050598 0.093506 0.0064583 -0.078064 -0.01474 -0.1087 -0.088867 0.037384 -0.10419 0.004982 0.044067 -0.018387 -0.027451 0.049408 -0.062042 -0.083191 -0.018036 -0.089478 -0.047485 0.010956 -0.08905 -0.063965 -0.041931 -0.14417 -0.089722 0.038025 -0.031097 0.10083 0.022278 0.014412 0.051147 -0.0074081 -0.083862 0.033356 0.020081 0.0059013 -0.0034904 -0.020004 -0.052551 0.018539 -0.0010967 0.019211 0.11163 0.070374 -0.0034771 0.13599 -0.035461 0.038727 0.014626 -0.025284 -0.063477 -0.0037804 -0.017197 0.067017 0.025452 -0.014786 0.080017 -0.11322 -0.02887 -0.0050621 -0.01828 -0.010521 -0.0057259 0.1037 -0.058533 0.090637 0.028641 -0.010353 -0.068787 -0.084717 0.014389 -0.016953 0.067749 0.0065002 -0.044769 -0.11267 0.058685 0.013496 0.0078964 -0.027252 -0.039917 -0.013573 0.13647 -0.095825 -0.11755 0.036743 0.042877 0.047668 -0.045197 -0.017365 -0.098816 -0.0021439 -0.069458 0.019241 -0.076355 0.016602 0.10822 0.0849 0.14319 -0.036774 -0.022614 -0.033539 -0.033783 -0.0062523 -0.018295 0.072083 -0.026474 -0.028702 0.066223 -0.14307 -0.10492 -0.009346 0.015167 -0.11786 0.016983 0.15771 -0.068481 -0.0056877 -0.043121 0.094788 0.032654 -0.080688 0.054779 -0.023132 0.074829 0.046082 -0.091858 0.057129 -0.059601 -0.042206 -0.0040932 -0.048828 -0.051849 0.033295 0.048401 -0.16138 0.084167 -0.06192 0.0042191 -0.032745 0.0014982 -0.0091324 0.01915 0.033722 0.016876 0.030502 0.050323 0.040436 0.022491 -0.069885 -0.10834 -0.0037479 0.034241 0.026276 0.03363 -0.029648 0.052277 -0.054779 -0.076355 0.090454 -7.8976e-05 -0.090759 -0.0021286 -0.007534 0.029861 -0.022446 -0.043579 0.06427 0.010368 -0.040558 -0.079529 0.00090075 -0.093689 -0.02243 0.058502 -0.041595 0.059601 -0.022018 -0.037079 0.017288 0.047211 0.016464 -0.030151 -0.018372 0.096924 0.079712 0.017349 -0.048431 -0.00089407 -0.010223 -0.0035839 -0.042969 -0.037903 -0.0056648 0.080872 0.01741 0.085938 -0.00035882 0.02298 -0.025665 0.021179 -0.049164 -0.032227 0.016434 -0.053223 0.13025 -0.082214 -0.024918 0.049225 0.037262 -0.040802 0.078552 0.072815 -0.074463 -0.0096207 0.012527 0.044708 0.033752 0.0032787 0.031555 0.04425 -0.006649 -0.047485 0.019516 0.01825 -0.038513 -0.0086288 -0.097229 -0.018906 -0.026672 -0.031891 0.047516 0.10748 -0.034546 -0.028519 -0.07312 -0.035828 0.12915 -0.049683 0.0031929 0.011902 0.01796 0.03537 0.034485 0.012001 -0.0052757 0.0057106 0.025497 0.0057068 0.051941 -0.042572 0.10046 -0.095886 -0.039581 -0.033905 -0.06488 0.033447 0.078674
Ludwig_Boltzmann 0.10492 0.038818 0.0063057 0.015732 -0.041321 0.012108 0.044617 -0.13257 0.042328 0.025116 -0.00031447 -0.06076 -0.018799 -0.025696 -0.11383 0.10138 0.023911 0.16736 0.058411 -0.051331 -0.00094795 -0.0065918 -0.0010853 -0.0053635 0.0052032 -0.01033 -0.092407 0.011665 -0.085571 -0.049744 0.011612 -0.075562 -0.027374 -0.017181 -0.025131 -0.023605 0.012703 0.066162 0.1178 0.035522 0.0027122 0.044952 0.02066 0.048584 -0.019943 -0.084412 0.048431 -0.077271 0.033508 -0.0030441 -0.13745 -0.0067902 -0.055267 -0.10651 -0.0066681 -0.014107 -0.036163 -0.11487 -0.12085 -0.087219 -0.029465 -0.017517 -0.039062 -0.01973 0.014168 -0.15271 0.03952 0.013031 0.0028782 0.070679 -0.010132 -0.012489 0.073608 -0.073425 -0.13184 0.025772 0.028946 0.042206 0.054688 -0.089661 0.032837 -0.053772 0.014565 -0.020248 0.023468 0.037994 0.043823 0.1131 -0.02417 0.046844 -0.010208 -0.10217 -0.06427 0.083374 -0.095398 0.01944 0.076782 -0.059967 0.036957 -0.07312 -0.020538 -0.053864 0.038879 0.024017 0.076965 -0.040527 -0.051758 0.11963 -0.05307 0.040344 -0.00035882 -0.045746 0.12964 0.062073 0.086975 0.013634 -0.046997 -0.074402 0.10028 -0.0024109 -0.097534 -0.02951 0.020432 -0.047699 0.013596 -0.016312 -0.051727 0.0022964 -0.090942 0.073364 0.029984 -0.043457 -0.092712 0.021545 -0.030182 0.028931 -0.0024776 -0.0038471 0.0242 0.14246 0.03302 0.00049686 -0.057465 0.023499 -0.043335 0.11243 0.061859 0.035919 -0.083618 -0.035156 0.11182 -0.11847 -0.062622 0.068726 0.0849 0.015427 0.010422 0.10406 -0.066467 0.011688 0.0029507 0.039886 0.11475 -0.021805 0.0495 0.024963 0.047882 0.046295 -0.035309 0.078613 -0.0074234 -0.04892 -0.052429 -0.0030365 -0.0087051 -0.042938 0.033661 -0.09967 -0.015671 -0.045013 0.021469 -0.064697 -0.031738 -0.044128 0.096313 0.009903 0.041229 -0.022308 -0.040863 0.054688 0.011772 0.075623 0.036316 0.056061 -0.0083542 0.00045419 0.015594 -0.045624 -0.00035882 -0.071838 -0.0093536 0.04895 -0.067261 0.0099106 0.045654 -0.023788 0.0050774 -0.004528 -0.13 0.057373 -0.016205 -0.096069 0.025391 0.054535 -0.1131 -0.01136 0.067688 0.039825 0.086792 -0.020706 0.052124 -0.021912 0.049805 -0.038757 0.0061798 0.0067329 0.042419 0.0079575 -0.024826 -0.043701 -0.033051 0.032867 -0.046661 -0.065369 -0.035828 -0.025101 0.012924 0.058502 0.034485 0.0070419 0.077087 -0.055176 -0.0091095 -0.10382 0.0081024 0.048126 -0.061859 0.12195 -0.02623 -0.080688 -0.072937 -0.035522 0.0096054 0.12061 -0.0094223 -0.052887 -0.036621 -0.066345 0.035339 -0.051025 0.075195 -0.026382 -0.077942 -0.002943 0.0098648 0.12122 0.060883 -0.078735 -0.015327 0.017822 0.034546 -0.057373 -0.062225 0.10156 0.076538 -0.018936 -0.056396 0.0082321 -0.036469 0.077881 0.049652 0.033752 0.023407 0.033508 0.025864 0.019272 0.021317 0.00068665 0.016312 0.028473 -0.058258 0.044098 -0.073792 0.051727 0.020309 0.024826 -0.071533 -0.012848 0.019531 0.059967
Peter_Dirichlet 0.073914 0.0015659 -0.0079803 0.023529 -0.0003109 0.061157 0.028122 -0.10065 0.0079727 0.039429 -0.022141 -0.057678 -0.022949 -0.029633 -0.084473 0.00088596 0.076111 0.17944 -0.0073395 -0.053772 -0.079834 -0.024765 0.016998 0.042542 -0.0085907 -0.048737 -0.10663 0.0023689 -0.088135 -0.04129 0.0060997 -0.0031815 -0.020584 -0.055511 -0.042694 -0.035278 0.0024166 0.09613 0.061493 -0.035919 0.02977 0.035492 0.07489 0.075073 -0.024551 -0.054993 -0.042206 -0.10596 0.0022278 0.11981 -0.13293 0.01944 -0.025421 -0.06131 -0.056885 0.063477 -0.05777 -0.13147 -0.064636 -0.05722 -0.049255 0.05954 -0.030624 -0.025101 0.018173 -0.14661 -0.050751 0.00026202 -0.028793 0.12018 -0.0069427 0.082153 0.090149 0.022171 -0.046936 0.016708 0.040283 0.03299 -0.029144 -0.06131 0.015961 -0.0029278 -0.0096664 -0.04422 0.058044 0.07489 0.014099 0.1283 -0.051392 0.018463 -0.030441 -0.042206 -0.054504 0.060394 -0.01548 0.032349 0.089478 -0.026062 -0.0007596 -0.024948 -0.016937 -0.017975 -0.026886 -0.030045 -5.3346e-05 0.018982 -0.075989 0.11469 -0.056824 0.069458 -0.041626 -0.075745 0.14587 -0.024506 0.074219 0.039917 -0.025711 -0.061401 0.10529 0.019028 -0.083801 -0.019073 -0.018173 -0.049774 0.11157 -0.06076 -0.1405 -0.011017 -0.053619 0.12292 -0.020584 0.020676 -0.013245 -0.001173 -0.054382 0.012985 -0.016922 -0.025696 0.062469 0.10736 0.066467 -0.032227 -0.053467 -0.0041885 -0.007618 0.13562 0.077454 0.04126 -0.038147 -0.017822 0.036652 -0.10059 -0.051331 0.018692 0.024033 -0.087402 0.06665 0.16992 -0.082764 0.0052948 -0.0086517 0.087402 0.008316 -0.037689 0.076416 0.02948 0.058746 0.070984 -0.076294 0.07019 -0.077759 -0.096436 -0.041443 -0.076416 -0.029373 0.071045 0.020401 -0.10529 0.028275 -0.062134 -0.02037 -0.054474 -0.058105 0.012299 0.060638 0.020279 0.040405 2.9624e-05 -0.016342 0.062622 0.056427 0.040955 -0.013153 0.046173 -0.0053864 -0.00023687 0.028885 -0.066467 -0.0043602 0.0018978 -0.043396 0.070557 0.0076866 -0.049988 0.075928 0.033356 0.013458 0.030655 -0.10425 0.072449 0.019699 -0.055054 -0.032867 0.085999 -0.095398 -0.0074883 0.079773 -0.019089 0.071411 -0.039948 0.021896 -0.015312 -0.0077934 -0.019196 -0.023102 -0.031555 0.05838 0.036407 0.027359 -0.067017 -0.033813 -0.008522 -0.011299 -0.073364 -0.011162 0.016846 0.0082092 0.0047684 0.074646 -0.01825 0.071899 -0.043121 -0.028763 -0.04129 -0.045624 0.018738 -0.038208 0.13269 -0.10229 -0.068359 -0.032684 0.053619 -0.0064583 0.066528 -0.0074692 -0.091431 -0.084412 -0.017731 -0.015144 0.01886 0.030487 0.065796 -0.013458 -0.030746 -0.033081 0.069458 0.017151 -0.052612 0.044647 -0.0016623 0.022171 0.0073204 -0.061737 0.040436 0.10315 -0.064148 -0.063538 0.0020618 -0.11877 0.11011 -0.036743 0.026306 0.045624 0.039459 0.063171 0.074158 0.028534 0.032013 0.017517 0.01944 -0.014549 0.010933 -0.074707 0.059021 -0.047577 -0.018372 -0.04126 -0.024811 0.036835 0.065308
Carl_Gauss 0.054169 -0.017609 0.030075 0.053558 -0.05545 0.01593 0.05249 -0.099548 -0.0027885 0.0094681 0.02092 -0.049438 -0.032074 0.03299 -0.053162 0.082336 0.013062 0.12347 0.010788 -0.065552 -0.07019 -0.00091839 0.0081329 0.019974 -0.046326 -0.081909 -0.06665 0.085144 -0.093262 -0.085815 -0.031311 -0.051483 -0.0047569 -0.042969 -0.016541 -0.038605 0.013329 0.12445 0.080872 0.034027 0.048309 0.032776 0.047638 0.068359 0.016342 -0.079834 -0.0089722 -0.11389 0.015808 0.019852 -0.14648 0.036163 -0.042755 -0.072876 -0.040619 0.077209 -0.0058212 -0.1084 -0.049103 -0.10132 0.013451 -0.0082321 -0.0092697 -0.074341 0.04953 -0.093689 -0.0053024 0.016968 -0.017075 0.035706 0.058868 -0.038483 0.087769 -0.050049 -0.11755 0.018051 0.045471 0.030975 -0.034821 -0.045776 0.060913 0.039093 0.018951 -0.02092 0.057861 0.063721 0.024841 0.13538 0.042206 0.051422 0.0092545 -0.10303 -0.08374 0.046265 0.012161 0.015038 0.066223 -0.084106 0.10046 -0.10596 0.017212 -0.022522 0.0034637 -0.054749 0.014023 0.063965 -0.08905 0.12109 -0.041382 0.049133 -0.021088 -0.083313 0.049927 0.025208 0.086975 0.021408 -0.040863 -0.093689 0.096558 0.0017223 -0.059387 -0.015167 0.019547 -0.057526 0.038879 -0.019119 -0.15796 0.035614 -0.067932 0.083496 0.035919 -0.094604 -0.069763 0.014236 0.002182 0.069275 -0.028534 0.017197 0.033569 0.13757 0.10968 -0.044464 -0.067566 0.022873 -0.074707 0.13245 0.038452 0.033173 -0.074646 -0.049561 0.057068 -0.12915 -0.09314 0.059204 0.027847 -0.070862 -0.045837 0.10638 -0.013084 -0.031647 -0.024887 0.034882 0.051392 -0.026031 0.064819 0.041077 0.067322 0.033813 -0.16223 0.049438 -0.053558 -0.040375 -0.06958 -0.024521 0.0095215 0.054932 0.022568 -0.15564 0.0078278 -0.051727 -0.049438 0.00040221 -0.042053 0.02829 0.078796 0.015175 0.029587 -0.018875 0.010033 0.043579 -0.0043182 0.024323 0.011658 0.013496 0.00072575 0.086792 0.039215 -0.045319 0.01152 -0.049896 0.0076141 0.023788 -0.010017 -0.02124 -0.0076103 0.0025692 -0.050201 -0.014565 -0.10736 0.035065 -0.049438 -0.046204 -0.016342 0.059662 -0.13525 0.0048256 0.071533 0.065674 0.022873 -0.024536 0.036682 0.0036087 0.069946 -0.0074883 -0.060852 0.0045547 0.045502 0.042328 0.035248 0.0018654 0.028992 -0.029434 -0.031113 -0.037994 0.0084305 0.0042725 -0.0038052 -0.01445 0.058838 -0.059204 0.065857 -0.012215 -0.04187 -0.10089 -0.0096664 -0.026352 -0.027435 0.13379 -0.062225 -0.053986 0.0056419 -0.047638 0.027985 0.078918 0.02124 -0.093201 0.0026684 -0.046295 0.0081635 0.001174 0.049744 -0.039917 -0.047058 -0.035492 -0.025574 0.082214 0.084229 -0.062866 -0.0035038 -0.026169 -0.010841 -0.020386 -0.1012 0.01947 0.036621 -0.0058823 -0.049042 -0.025925 -0.053497 0.089355 -0.03653 0.063843 0.0042458 -0.021622 0.049225 -0.008194 0.016113 0.04068 -0.035065 0.074402 -0.021622 0.10675 -0.11621 0.016632 -0.036774 -0.015091 -0.07959 -0.0067902 -0.0067139 0.050446
